tree
version=v4
num_class=1
num_tree_per_iteration=1
label_index=0
max_feature_idx=6
objective=regression_l1
feature_names=est_demand est_renew hour dow month doy day_type
feature_infos=[41452.147654039029:93116.071508010864] [170.38:6043.3999999999996] [0:23] [0:6] [1:12] [1:366] -1:1:2:0
tree_sizes=5553 5857 5766 5859 5856 5862 5838 5828 5816 5868 5812 5895 5788 5834 5870 5821 5848 5884 5842 5858 5813 5814 5871 5853 5896 5904 5907 5905 5888 5887 5855 5861 5869 5884 5905 5937 5896 5909 5903 5929 5889 5929 5907 5923 5941 5927 5910 5875 5929 5934 5902 5918 5919 5919 5940 5907 5884 5908 5877 5920 5864 5890 5938 5922 5888 5914 5923 5949 5890 5907 5886 5911 5913 5927 5879 5914 5891 5900 5916 5902 5897 5856 5922 5907 5902 5953 5897 5955 5905 5923 5910 5922 5904 5898 5918 5869 5886 5875 5914 5904 5865 5924 5928 5893 5909 5894 5915 5886 5872 5948 5933 5916 5915 5891 5931 5895 5892 5878 5881 5861 5859 5922

Tree=0
num_leaves=63
num_cat=3
split_feature=2 6 5 2 1 2 2 5 5 5 5 1 2 2 3 5 5 5 5 6 2 5 5 4 5 3 5 1 5 5 2 1 2 1 3 3 1 5 2 2 5 5 2 5 5 5 2 1 6 5 5 2 3 3 1 4 1 4 5 2 2 5
split_gain=22434.2 15012.8 4088.86 3489.22 1825.78 874.832 700.746 634.649 591.918 1137.09 573.435 581.092 566.082 605.494 553.005 373.134 1108.42 804.719 586.523 367.875 259.708 279.091 259.071 370.931 264.101 252.964 249.038 242.519 228.18 849.973 272.439 188.021 182.739 178.465 165.881 157.07 151.057 145.294 143.3 139.179 129.761 401.792 258.346 153.501 152.925 205.755 181.985 172.081 123.937 118.635 118.407 113.303 109.503 94.0186 93.4543 92.1191 90.9896 90.7646 119.741 100.632 90.4195 84.8255
threshold=7.5000000000000009 0 93.500000000000014 16.500000000000004 3544.0300000000002 21.500000000000004 15.500000000000002 141.50000000000003 91.500000000000014 161.50000000000003 346.50000000000006 677.86500000000012 5.5000000000000009 1.0000000180025095e-35 5.5000000000000009 157.50000000000003 264.50000000000006 71.500000000000014 327.50000000000006 1 6.5000000000000009 310.50000000000006 265.50000000000006 6.5000000000000009 350.50000000000006 5.5000000000000009 264.50000000000006 466.94500000000011 323.50000000000006 262.50000000000006 8.5000000000000018 309.19000000000005 22.500000000000004 555.58500000000015 1.0000000180025095e-35 1.0000000180025095e-35 609.53500000000008 306.50000000000006 6.5000000000000009 22.500000000000004 238.50000000000003 207.50000000000003 10.500000000000002 343.50000000000006 89.500000000000014 167.50000000000003 12.500000000000002 1956.9650000000004 2 83.500000000000014 99.500000000000014 1.0000000180025095e-35 4.5000000000000009 1.5000000000000002 1367.0200000000002 9.5000000000000018 381.93000000000006 4.5000000000000009 131.50000000000003 10.500000000000002 14.500000000000002 167.50000000000003
decision_type=2 1 2 2 2 2 2 2 2 2 2 2 2 2 2 2 2 2 2 1 2 2 2 2 2 2 2 2 2 2 2 2 2 2 2 2 2 2 2 2 2 2 2 2 2 2 2 2 1 2 2 2 2 2 2 2 2 2 2 2 2 2
left_child=2 4 12 25 5 6 8 -7 -2 57 20 -12 13 34 26 17 -17 -6 55 -14 51 -22 23 54 -24 40 61 53 29 30 -11 39 -25 -33 -1 -29 49 -31 -13 -9 41 44 -43 -42 47 -46 -47 -3 -40 -37 -19 56 -23 -15 -16 -18 -4 -10 -59 -60 -52 -5
right_child=1 3 10 14 15 7 -8 31 9 28 11 38 19 27 22 16 18 50 -20 -21 21 52 24 32 -26 -27 -28 35 -30 37 -32 33 -34 -35 -36 36 -38 -39 48 -41 43 42 -44 -45 45 46 -48 -49 -50 -51 60 -53 -54 -55 -56 -57 -58 58 59 -61 -62 -63
leaf_value=0.40968367785215376 0.41662841230630876 0.41066713660955428 0.40867061287164685 0.41164962887763978 0.41336808308959005 0.41280605435371398 0.41476310580968856 0.41236237943172455 0.4111393716931343 0.41177387863397596 0.41210474431514738 0.40856711804866791 0.41306760191917419 0.40992595016956329 0.41052245110273361 0.41519996613264082 0.41162617832422255 0.41098685055971146 0.41298762381076815 0.4103475433588028 0.40876603245735166 0.41152238309383393 0.40943357795476915 0.41281602144241331 0.41150613963603971 0.40730117350816725 0.41083048939704897 0.40815462738275526 0.41629355639219284 0.41071353256702425 0.41545732945203784 0.41040662169456482 0.40999786466360094 0.41153164565563199 0.41225016385316848 0.4105672636628151 0.40910891175270081 0.41195960059761999 0.41211831539869309 0.41102514624595643 0.40796507209539412 0.40946514397859574 0.41232326030731203 0.4102464982867241 0.40758904337882995 0.40942415624856948 0.41174780130386351 0.40879314243793485 0.4088775274157524 0.40949267327785493 0.40940899014472959 0.40692778855562212 0.40864352747797966 0.41230850994586943 0.40926540702581404 0.4095807945728302 0.40964478313922881 0.40947618126869201 0.41026195317506792 0.4115289634466171 0.41091310590505598 0.41283897042274476
leaf_weight=161 4549 998 1899 2570 702 2249 17579 828 1085 850 507 1199 1481 181 1859 2034 205 760 557 725 2635 327 1039 861 201 5639 1571 711 2178 1497 3910 1160 141 828 951 2690 1231 736 105 815 2175 199 401 436 1586 346 270 748 57 218 1435 18145 116 460 270 1450 1087 358 612 357 325 1353
leaf_count=161 4549 998 1899 2570 702 2249 17579 828 1085 850 507 1199 1481 181 1859 2034 205 760 557 725 2635 327 1039 861 201 5639 1571 711 2178 1497 3910 1160 141 828 951 2690 1231 736 105 815 2175 199 401 436 1586 346 270 748 57 218 1435 18145 116 460 270 1450 1087 358 612 357 325 1353
internal_value=0.410863 0.42069 0.391223 0.400631 0.430351 0.432917 0.43478 0.42224 0.430265 0.426664 0.385253 0.401268 0.408894 0.404498 0.414038 0.416745 0.422587 0.409047 0.407889 0.422051 0.384017 0.392159 0.406075 0.410671 0.394469 0.390296 0.420374 0.40041 0.431484 0.428843 0.436007 0.414483 0.425723 0.408277 0.424685 0.398118 0.400355 0.413573 0.391056 0.421992 0.394039 0.397099 0.419972 0.388708 0.393623 0.388365 0.40308 0.400254 0.417539 0.404084 0.401134 0.382832 0.414191 0.417752 0.403587 0.398927 0.388247 0.408335 0.403073 0.40855 0.396861 0.424416
internal_weight=104608 69722 34886 22663 47059 39591 33711 5880 16132 11583 26077 1868 8809 6603 9865 7468 4246 3222 2212 2206 24209 3078 4371 3131 1240 12798 5494 5491 9171 6993 4760 3631 1002 1988 1112 4850 4139 2233 1361 1643 7159 4548 600 2611 3948 2202 616 1746 162 2908 2520 21131 443 641 2129 1655 2986 2412 1327 969 1760 3923
internal_count=104608 69722 34886 22663 47059 39591 33711 5880 16132 11583 26077 1868 8809 6603 9865 7468 4246 3222 2212 2206 24209 3078 4371 3131 1240 12798 5494 5491 9171 6993 4760 3631 1002 1988 1112 4850 4139 2233 1361 1643 7159 4548 600 2611 3948 2202 616 1746 162 2908 2520 21131 443 641 2129 1655 2986 2412 1327 969 1760 3923
cat_boundaries=0 1 2 3
cat_threshold=2 2 2
is_linear=0
shrinkage=1


Tree=1
num_leaves=63
num_cat=0
split_feature=0 0 5 0 2 4 2 2 0 3 5 4 5 0 1 5 0 5 2 5 2 5 2 3 1 2 1 1 3 5 1 1 1 5 5 5 3 1 5 5 0 2 2 4 5 0 3 2 5 4 5 5 5 1 5 1 4 4 5 5 5 2
split_gain=45386.8 4618.61 2645.94 2600.03 1456.41 1349.44 1012.67 680.409 656.605 442.463 428.745 324.848 329.225 310.435 288.916 269.346 267.967 210.633 207.891 189.075 177.642 167.535 163.47 165.452 159.049 155.616 152.541 142.092 139.09 119.327 103.334 102.212 100.062 99.8774 98.4425 182.868 96.0629 112.738 93.6432 93.4109 92.4183 87.7252 82.4726 82.299 81.8925 78.3363 74.5616 67.752 64.2511 105.185 63.1942 64.3548 62.8486 69.1613 89.4872 62.1491 147.598 76.547 94.1428 61.4603 91.1189 60.7384
threshold=65151.304472622927 59232.676205546617 177.50000000000003 68689.227019678845 7.5000000000000009 2.5000000000000004 6.5000000000000009 16.500000000000004 62239.685050390275 4.5000000000000009 95.500000000000014 5.5000000000000009 55.500000000000007 71248.219098900867 415.27500000000003 141.50000000000003 63104.043039155098 143.50000000000003 21.500000000000004 123.50000000000001 22.500000000000004 159.50000000000003 8.5000000000000018 3.5000000000000004 411.65500000000003 14.500000000000002 566.21500000000015 471.26500000000004 5.5000000000000009 251.50000000000003 336.28000000000003 462.72000000000008 1751.2850000000001 334.50000000000006 271.50000000000006 193.50000000000003 5.5000000000000009 418.26000000000005 334.50000000000006 286.50000000000006 61099.529449208349 13.500000000000002 12.500000000000002 11.500000000000002 91.500000000000014 55968.946963897753 5.5000000000000009 15.500000000000002 209.50000000000003 8.5000000000000018 83.500000000000014 61.500000000000007 306.50000000000006 677.86500000000012 347.50000000000006 696.23500000000013 10.500000000000002 6.5000000000000009 25.500000000000004 191.50000000000003 51.500000000000007 16.500000000000004
decision_type=2 2 2 2 2 2 2 2 2 2 2 2 2 2 2 2 2 2 2 2 2 2 2 2 2 2 2 2 2 2 2 2 2 2 2 2 2 2 2 2 2 2 2 2 2 2 2 2 2 2 2 2 2 2 2 2 2 2 2 2 2 2
left_child=1 7 5 4 14 61 52 10 9 17 22 12 46 18 -2 32 25 27 41 24 34 -11 23 -1 45 39 59 30 -21 42 -7 -25 -10 -31 35 -13 37 -27 -39 -8 -29 48 -18 -36 -26 -9 -6 -37 -5 -50 51 -33 -4 54 -54 56 57 58 -28 60 -16 -3
right_child=3 2 6 13 11 8 16 19 15 21 -12 20 -14 -15 26 -17 29 -19 -20 28 -22 -23 -24 31 44 36 55 40 -30 33 -32 50 -34 -35 43 47 -38 38 -40 -41 -42 -43 -44 -45 -46 -47 -48 -49 49 -51 -52 -53 53 -55 -56 -57 -58 -59 -60 -61 -62 -63
leaf_value=-0.0016461466044187551 -0.0017977346464991561 -0.0014598393648862834 -0.0039636100620031364 0.0021166389361023902 0.00096455677449703236 -0.00046330482959747285 -0.0018529703646898265 -0.00041869610846042627 0.0018744431644678111 0.0018023472994565964 -0.0035537995085120197 0.0010035654053092006 0.0028307904928922653 0.0049819773048162454 0.00021654159128665917 0.0001754923269152639 -0.0016696192592382424 -0.0013219920873641961 0.00085610954761505148 -0.00069611703157424984 -0.00024014271497726445 -6.9649520516395499e-05 -0.0032605071634054178 0.00071563585996627815 0.00016750933527946431 -0.00071323632001876855 -0.000548482382297516 -0.00068064748942852022 -0.0014864526540040973 0.00012005361914634637 0.00075814812183380156 -0.0011291695296764374 0.00083774843662977273 -0.00058455450832843809 0.0014889662593603136 -0.00023396533727645941 -0.0010360516011714931 0.00060504341125488246 -0.00093694681227207135 -0.00097431861162185663 0.00014754008352756503 0.0028652011156082144 -0.00022148760706186237 0.00038944892585277555 -0.0011655616790056228 0.0013405737251043319 -9.2317762970924304e-05 0.00069401546269655249 -0.00012409741580486243 0.0025524510473012921 -0.0012043752014636987 0.00045296490490436545 -0.0011535124272108082 -0.0027829425752162935 0.00046818618178367686 -0.0011231013357639312 0.00099910889267921512 -0.0016879928469657889 0.00027228824794292447 -0.00073785114884376444 0.0032649409800767897 -0.00033498123586177817
leaf_weight=1141 610 2998 3650 1696 730 441 1395 65 2317 876 24484 1242 3633 23430 368 1194 382 786 1075 1037 443 309 2087 290 326 622 581 1414 1080 2045 892 411 968 455 2357 796 542 596 79 1509 874 3796 360 548 488 208 345 546 269 1005 205 394 654 1178 106 416 345 145 564 108 280 598
leaf_count=1141 610 2998 3650 1696 730 441 1395 65 2317 876 24484 1242 3633 23430 368 1194 382 786 1075 1037 443 309 2087 290 326 622 581 1414 1080 2045 892 411 968 455 2357 796 542 596 79 1509 874 3796 360 548 488 208 345 546 269 1005 205 394 654 1178 106 416 345 145 564 108 280 598
internal_value=-4.52359e-05 -0.0172847 -0.00819163 0.0225675 0.011851 0.00112607 -0.0175739 -0.0249733 0.00675901 -9.65665e-05 -0.0264222 0.0173233 0.0232073 0.0273848 -0.00518876 0.0153182 -0.0107188 -0.00447243 0.0222178 -0.0118539 0.0126534 0.0161772 -0.0179417 -0.012671 -0.00168353 -0.0152625 -0.00112219 -0.00141674 -0.0170761 -0.00407156 0.00636909 -0.00535385 0.0197534 -0.000936 0.0141283 0.00986842 -0.00843393 -0.00400154 0.00448889 -0.0195868 -0.0059528 0.0241649 -0.0146361 0.0179174 -0.00832924 0.0181319 0.00862326 0.00219076 0.020303 0.0152119 -0.00986139 -0.00607453 -0.0273694 -0.0230031 -0.0159474 -0.00536811 -0.00273394 -0.00739535 -0.00479476 0.0103968 0.0138889 -0.0146496
internal_weight=104784 59456 27240 45328 14057 13667 13573 32216 10071 5592 29012 10640 4708 31271 3417 4479 7985 4407 7841 3204 5932 1185 4528 2441 1087 4743 2807 3621 2117 3242 1333 1300 3285 2500 5489 2584 1839 1297 675 2904 2288 6766 742 2905 814 273 1075 1342 2970 1274 1010 805 5588 1938 760 2051 1635 1290 1145 756 648 3596
internal_count=104784 59456 27240 45328 14057 13667 13573 32216 10071 5592 29012 10640 4708 31271 3417 4479 7985 4407 7841 3204 5932 1185 4528 2441 1087 4743 2807 3621 2117 3242 1333 1300 3285 2500 5489 2584 1839 1297 675 2904 2288 6766 742 2905 814 273 1075 1342 2970 1274 1010 805 5588 1938 760 2051 1635 1290 1145 756 648 3596
is_linear=0
shrinkage=0.03


Tree=2
num_leaves=63
num_cat=7
split_feature=0 0 0 5 4 5 5 0 5 5 5 0 3 5 5 0 0 6 6 4 4 0 1 5 5 6 4 6 1 0 5 1 5 1 5 5 5 4 0 1 5 5 1 0 1 1 6 6 5 5 0 5 5 5 1 6 0 0 1 5 0 3
split_gain=44038.4 4524.4 2674 2487.54 1303.32 727.6 722.132 584.369 532.364 1009.43 750.756 463.781 320.069 287.379 285.395 272.484 252.454 233.724 227.404 332.886 225.189 164.769 163.083 144.869 140.124 135.431 176.682 134.752 125.058 122.841 118.877 117.59 114.655 108.516 104.398 104.79 103.164 101.641 94.7046 83.8824 82.0782 81.7242 80.2587 77.5116 85.9543 76.2013 73.2159 72.4614 70.6854 73.3944 69.381 68.451 66.587 65.8223 65.2491 120.629 88.849 63.8968 61.7713 57.0078 60.7538 55.4267
threshold=65151.304472622927 59670.245314053675 69077.543916684532 177.50000000000003 2.5000000000000004 121.50000000000001 250.50000000000003 56302.308126323689 175.50000000000003 55.500000000000007 250.50000000000003 62065.388686055354 4.5000000000000009 334.50000000000006 143.50000000000003 63104.043039155098 72425.482497052202 0 1 2.5000000000000004 11.500000000000002 57230.41167547644 677.86500000000012 193.50000000000003 143.50000000000003 2 5.5000000000000009 3 479.59500000000008 66127.781881843999 189.50000000000003 2297.7500000000005 159.50000000000003 425.06500000000005 336.50000000000006 342.50000000000006 25.500000000000004 5.5000000000000009 66226.15956196333 364.84500000000008 105.50000000000001 285.50000000000006 677.86500000000012 58199.709647954071 443.18000000000006 851.43500000000006 4 5 271.50000000000006 262.50000000000006 61271.542948234215 347.50000000000006 267.50000000000006 245.50000000000003 1653.6100000000004 6 50768.120763814797 64184.882971747189 270.25500000000005 191.50000000000003 63640.449503917531 5.5000000000000009
decision_type=2 2 2 2 2 2 2 2 2 2 2 2 2 2 2 2 2 1 1 2 2 2 2 2 2 1 2 1 2 2 2 2 2 2 2 2 2 2 2 2 2 2 2 2 2 2 1 1 2 2 2 2 2 2 2 1 2 2 2 2 2 2
left_child=1 5 8 4 47 7 59 54 9 29 17 12 24 15 31 27 34 30 43 -20 38 -7 -22 -19 28 -23 -27 41 39 -2 -10 -13 -14 -21 -4 -36 -31 -11 -12 -6 -35 -8 51 -9 -45 -24 57 -3 49 -40 -30 -15 -51 -32 55 -1 -57 -16 -25 60 -5 -29
right_child=2 3 16 6 11 21 13 18 10 37 20 14 32 42 46 -17 -18 23 19 33 22 25 45 58 -26 26 -28 61 50 36 53 -33 -34 40 35 -37 -38 -39 48 -41 -42 -43 -44 44 -46 -47 -48 -49 -50 52 -52 -53 -54 -55 -56 56 -58 -59 -60 -61 -62 -63
leaf_value=-0.0029710486749261614 -0.00045239329245686519 7.2519151479006342e-05 0.0025815706294476976 -0.0022055318406522268 -0.00021232984328269864 -0.0036468391532152884 -0.0016211463975012296 -0.0014747038594186302 -8.7095542252113573e-07 0.0027600359942615035 0.00059362760102748874 0.0017247904339134689 0.0017911950767934314 -0.00038728626582026579 -0.00033851633942127198 3.218918502330775e-05 0.0051133019786775112 0.0017199080979824061 -0.0017834178186357014 0.0013982428372800353 0.0010254080134034155 -0.0029242804491966951 -0.00066365271145105316 0.00096803488647937688 -0.0011858038154840466 8.2660357654096295e-06 -0.0020999094953164459 4.1838340759276504e-05 -0.00053268787273764496 -2.6609073758125932e-05 -0.0015641751811355336 0.00069876721237599915 1.3520157426596401e-05 0.00026393362811207851 -0.00025327549758553502 0.0015132556690871711 0.00093733080849051575 0.0010199067360162732 0.0019100793111473324 0.00073540367817878812 -0.0010752393989861013 -0.00081833901768922797 -0.0019482974727451801 0.00027391694243252273 -0.0010100509937703609 0.00062987658306956184 0.0010894579899162048 -0.0013202643328607078 0.0017257745440900335 -0.00061302188752591577 0.00019623849955201111 0.00056542634242773109 0.00092025694052875031 -1.0273958086968182e-05 -0.0039324349738061419 -0.0031877706224173307 -0.0013366898686587813 0.00034656316159665634 -0.00034169654296338503 -0.0034856058290898806 -0.00040093097908794838 -0.00081374737054109637
leaf_weight=1158 746 268 8541 597 429 16950 749 1078 295 4155 933 2696 653 207 627 2156 20542 217 953 434 490 4138 725 118 621 386 2922 730 1214 973 821 948 269 777 197 701 1006 1083 244 722 147 1843 1959 243 744 235 262 3159 2064 131 591 121 162 111 1857 601 1888 315 820 3628 203 266
leaf_count=1158 746 268 8541 597 429 16950 749 1078 295 4155 933 2696 653 207 627 2156 20542 217 953 434 490 4138 725 118 621 386 2922 730 1214 973 821 948 269 777 197 701 1006 1083 244 722 147 1843 1959 243 744 235 262 3159 2064 131 591 121 162 111 1857 601 1888 315 820 3628 203 266
internal_value=-7.72761e-06 -0.0169754 0.0222772 -0.00733444 0.00196806 -0.0240728 -0.0168721 -0.0172045 0.0120849 0.017462 0.00627206 0.00777041 0.000833519 -0.0115092 0.0142079 -0.00792827 0.0274884 -0.00758186 -0.00902194 -0.00255733 0.0128933 -0.0268544 0.00293793 0.0021039 -0.00322896 -0.0231346 -0.0186094 -0.0129933 -0.000507442 0.00265321 -0.0166993 0.0183919 0.0165944 0.00698085 0.0234273 0.0136971 0.00656392 0.0251661 0.0169779 0.00721981 0.00116883 -0.0165972 -0.0205028 -0.0162567 -0.0101824 -0.00425 0.00154485 -0.0138576 0.0199193 0.0102235 -0.0054349 -0.00676829 0.000102389 -0.0219528 -0.02371 -0.0213792 -0.0176577 -0.00235669 -0.0030064 -0.0265989 -0.01935 -0.00361446
internal_weight=104819 59509 45310 25233 12774 34276 12459 9880 15329 7963 7366 9347 4499 8031 4848 5744 29981 2382 4376 2311 4984 24396 1450 1155 3577 7446 3308 3588 2956 2725 1227 3644 922 1358 9439 898 1979 5238 3534 1151 924 2592 2287 2065 987 960 1204 3427 2601 537 1805 328 293 932 5504 3647 2489 942 938 4428 800 996
internal_count=104819 59509 45310 25233 12774 34276 12459 9880 15329 7963 7366 9347 4499 8031 4848 5744 29981 2382 4376 2311 4984 24396 1450 1155 3577 7446 3308 3588 2956 2725 1227 3644 922 1358 9439 898 1979 5238 3534 1151 924 2592 2287 2065 987 960 1204 3427 2601 537 1805 328 293 932 5504 3647 2489 942 938 4428 800 996
cat_boundaries=0 1 2 3 4 5 6 7
cat_threshold=2 2 2 2 2 1 2
is_linear=0
shrinkage=0.03


Tree=3
num_leaves=63
num_cat=1
split_feature=0 0 5 0 4 2 2 2 0 5 3 5 0 5 5 2 4 5 3 5 0 5 4 5 6 2 5 5 5 5 5 0 0 5 5 0 5 0 2 2 0 5 2 2 2 3 0 2 3 2 2 5 2 3 2 2 5 5 5 4 5 5
split_gain=43045.4 5084.25 2531.72 2077.33 1329.96 1137.14 1101.74 960.964 599.495 521.582 301.462 296.909 286.461 268.04 262.859 222.878 217.988 267.444 214.285 185.559 184.778 177.395 165.575 164.15 162.306 155.954 155.138 138.935 131.397 120.323 114.49 104.684 103.851 102.004 88.8254 86.0587 85.7588 85.4002 83.8528 100.862 81.0443 157.76 78.1731 74.1562 77.5653 72.3571 71.2062 69.7385 77.3179 68.765 77.8918 68.2554 73.1701 67.606 65.9124 65.1957 72.1295 86.6254 62.3449 61.5227 57.364 97.6901
threshold=65528.402771826179 59670.245314053675 177.50000000000003 69733.260777836069 2.5000000000000004 7.5000000000000009 6.5000000000000009 16.500000000000004 62239.685050390275 99.500000000000014 4.5000000000000009 141.50000000000003 63369.47902625073 165.50000000000003 59.500000000000007 21.500000000000004 6.5000000000000009 254.50000000000003 5.5000000000000009 143.50000000000003 55480.806977466746 268.50000000000006 2.5000000000000004 33.500000000000007 0 21.500000000000004 251.50000000000003 125.50000000000001 244.50000000000003 263.50000000000006 153.50000000000003 68104.854764044663 71248.219098900867 191.50000000000003 109.50000000000001 55845.14077594909 317.50000000000006 72791.605241668643 15.500000000000002 8.5000000000000018 57917.110923027743 143.50000000000003 14.500000000000002 13.500000000000002 22.500000000000004 5.5000000000000009 66620.422766370772 5.5000000000000009 5.5000000000000009 16.500000000000004 8.5000000000000018 330.50000000000006 21.500000000000004 5.5000000000000009 22.500000000000004 15.500000000000002 191.50000000000003 252.50000000000003 75.500000000000014 11.500000000000002 336.50000000000006 342.50000000000006
decision_type=2 2 2 2 2 2 2 2 2 2 2 2 2 2 2 2 2 2 2 2 2 2 2 2 1 2 2 2 2 2 2 2 2 2 2 2 2 2 2 2 2 2 2 2 2 2 2 2 2 2 2 2 2 2 2 2 2 2 2 2 2 2
left_child=1 7 4 5 47 16 36 9 10 20 19 49 26 14 45 37 23 -18 34 38 -1 29 -22 31 -24 46 -8 35 33 54 -12 -2 -17 -14 -9 -20 -4 60 39 58 -11 -42 -28 -13 -45 -7 -23 48 -3 50 -10 52 53 -44 55 56 -15 -58 -6 -30 -5 -62
right_child=3 2 6 15 8 13 12 18 11 40 30 43 28 21 -16 32 17 -19 27 -21 22 25 24 -25 -26 -27 42 -29 59 -31 -32 -33 -34 -35 -36 -37 -38 -39 -40 -41 41 -43 51 44 -46 -47 -48 -49 -50 -51 -52 -53 -54 -55 -56 -57 57 -59 -60 -61 61 -63
leaf_value=-0.0026539256681594246 -0.00041863870278954605 -0.0016453223924526568 -0.003602626563843192 0.0028557731847712398 -0.00022092101105421812 0.0010557050990483167 -0.0017900626195630426 0.00040799386321574427 0.002025479973230659 -0.003456808152498454 0.0020073631763729456 -0.00029970812367618001 0.00020745483230754757 0.0011024599199871714 0.0027089484391021731 0.00077282906408876245 -0.0013306039410518088 0.00032779800755560471 -0.0016782752042385945 -0.0012465938802731029 -0.0022234497894439084 0.00074524780728131622 -0.0010855463641843205 0.0014244162858885532 0.00045746277891665742 3.2527611312791751e-05 -0.00096713934026107203 -0.0013179199032054844 0.00017627488603055519 -0.00077430378624245455 0.00018428008755773327 0.00059572412664681766 0.0020312994340905555 -0.0011505124214252831 -0.00046293332690902162 0.00014535544163256752 -0.0020063383944645533 0.0052474302808293693 0.0005762940982174874 -0.00062766675808042344 -0.00094159007689520653 -0.002941961544664353 0.00064702528438568044 0.0009029173843632637 -0.00024750074910342702 -7.1481002161503102e-05 0.0018644142056223755 -0.00060765778677552835 -0.00069842787938207362 0.0017077904918530572 0.00089190721300631652 -0.00094661131313055868 -0.00080284813092023114 -0.00052306666927635687 -9.6071080480814865e-05 0.0012145060721446583 -0.00020965423517033398 0.0020539366343374547 0.00054224865825891532 -0.00032770938316136643 -0.00022719179560750757 0.0018603862995752694
leaf_weight=2530 699 1680 3397 6247 394 987 916 405 674 20326 619 514 203 525 4366 721 777 783 206 677 1227 860 983 768 750 404 2086 1141 2236 210 344 351 1469 467 1382 435 1755 19024 499 1444 1008 3901 543 662 184 312 2570 1712 283 1628 1442 230 633 223 314 948 640 124 767 484 142 426
leaf_count=2530 699 1680 3397 6247 394 987 916 405 674 20326 619 514 203 525 4366 721 777 783 206 677 1227 860 983 768 750 404 2086 1141 2236 210 344 351 1469 467 1382 435 1755 19024 499 1444 1008 3901 543 662 184 312 2570 1712 283 1628 1442 230 633 223 314 948 640 124 767 484 142 426
internal_value=8.39886e-05 -0.0161958 -0.00637848 0.022822 0.00273978 0.0140619 -0.015739 -0.023838 0.008487 -0.0255496 0.000809444 0.015623 -0.00878569 0.0183083 0.0230944 0.0277095 -0.00134991 -0.00957692 -0.00910339 -0.00300714 -0.0171694 0.0141971 -0.0120811 0.00570957 -0.00611079 0.0183725 -0.0136364 -0.0164646 -0.00215929 0.00839913 0.0157944 -0.002 0.0185205 -0.0140597 -0.00176273 -0.00528861 -0.0265644 0.0284883 9.66495e-05 -0.00206142 -0.0273727 -0.0239132 -0.0109098 0.00361765 0.00907801 0.0112471 0.020449 -0.0126612 -0.0165206 0.019984 0.0164178 -0.00598527 -0.00349535 0.00274151 0.010196 0.0120027 0.00761055 0.00172775 0.00452196 0.000772059 0.0256067 0.0164789
internal_weight=104657 60990 26696 43667 13523 15638 13173 34294 9848 30725 4744 5104 8021 12260 5665 28029 3378 1560 3569 3781 5490 6595 2960 1818 1733 3834 4631 1782 3390 2761 963 1050 2190 670 1787 641 5152 25839 3104 2605 25235 4909 3715 1360 846 1299 3430 3675 1963 3744 2116 1629 1399 766 2551 2237 1289 764 1161 2720 6815 568
internal_count=104657 60990 26696 43667 13523 15638 13173 34294 9848 30725 4744 5104 8021 12260 5665 28029 3378 1560 3569 3781 5490 6595 2960 1818 1733 3834 4631 1782 3390 2761 963 1050 2190 670 1787 641 5152 25839 3104 2605 25235 4909 3715 1360 846 1299 3430 3675 1963 3744 2116 1629 1399 766 2551 2237 1289 764 1161 2720 6815 568
cat_boundaries=0 1
cat_threshold=2
is_linear=0
shrinkage=0.03


Tree=4
num_leaves=63
num_cat=2
split_feature=0 0 5 0 2 5 2 2 2 5 5 0 5 0 5 1 0 5 2 1 2 3 3 2 2 5 2 0 6 1 1 1 5 1 5 1 5 5 2 5 5 1 5 5 5 5 6 2 5 5 5 5 3 5 0 5 1 5 1 3 1 5
split_gain=42454.7 4822.3 2589.23 2211.33 1161.88 1159.94 1118.25 774.229 646.073 483.59 421.028 348.157 284.154 273.357 271.229 270.278 214.403 204.731 185.934 173.141 163.739 174.329 163.442 157.842 148.12 131.733 130.88 124.596 123.647 121.884 120.41 115.911 101.039 114.028 100.201 97.7419 115.495 97.7065 91.9911 88.5539 134.916 87.6483 83.8286 76.1512 75.4094 73.3008 73.1854 72.6432 72.4666 71.9242 70.7921 70.1158 74.328 67.2527 86.6816 67.1785 71.9817 64.9752 105.98 64.5746 90.5052 71.8142
threshold=65432.510143027765 59136.643971340083 177.50000000000003 68820.621153113534 7.5000000000000009 59.500000000000007 6.5000000000000009 16.500000000000004 15.500000000000002 115.50000000000001 95.500000000000014 72791.605241668643 151.50000000000003 63018.915859146669 59.500000000000007 381.93000000000006 62499.971423890114 141.50000000000003 21.500000000000004 466.94500000000011 8.5000000000000018 4.5000000000000009 5.5000000000000009 22.500000000000004 14.500000000000002 251.50000000000003 22.500000000000004 62239.685050390275 0 566.21500000000015 225.68000000000004 462.72000000000008 125.50000000000001 408.24500000000006 306.50000000000006 686.93000000000018 344.50000000000006 181.50000000000003 12.500000000000002 272.50000000000006 193.50000000000003 509.59500000000008 195.50000000000003 286.50000000000006 47.500000000000007 81.500000000000014 1 15.500000000000002 99.500000000000014 151.50000000000003 334.50000000000006 335.50000000000006 4.5000000000000009 129.50000000000003 57425.774297303731 191.50000000000003 582.46500000000015 25.500000000000004 696.23500000000013 5.5000000000000009 401.2050000000001 334.50000000000006
decision_type=2 2 2 2 2 2 2 2 2 2 2 2 2 2 2 2 2 2 2 2 2 2 2 2 2 2 2 2 1 2 2 2 2 2 2 2 2 2 2 2 2 2 2 2 2 2 1 2 2 2 2 2 2 2 2 2 2 2 2 2 2 2
left_child=1 7 5 4 15 46 34 10 9 16 20 18 14 24 -6 -2 19 -10 47 30 21 -1 48 -19 43 38 39 49 -21 42 -7 -23 33 -24 -4 36 -36 -20 -15 40 -14 -18 44 -8 -17 -33 -3 55 -9 -11 -27 -41 -53 54 -12 -5 -57 -31 -59 60 -26 -62
right_child=3 2 6 11 12 8 13 22 17 27 53 -13 26 25 -16 29 41 23 37 28 -22 31 32 -25 59 50 -28 -29 -30 57 -32 45 -34 -35 35 -37 -38 -39 -40 51 -42 -43 -44 -45 -46 -47 -48 -49 -50 -51 -52 52 -54 -55 -56 56 -58 58 -60 -61 61 -63
leaf_value=-0.0014663717924981033 -0.0015454132013078409 8.1881142307797529e-05 -0.0036182297890226226 0.0024420129575870764 0.00068038054005023019 -0.0011791272652533623 -0.0016947476272178689 0.00038056563644109029 0.0013948625078430356 -0.00063077492090592765 -0.002759045845303188 0.0049053957449449632 0.00097986717710373374 -0.0014671407884409603 0.0026845537677004693 0.00021186380449753406 0.002340830121286394 0.00069831429317243892 0.001906528174663935 -0.00038086955267458978 -0.0030392403965696898 0.00081388525027183578 0.00080261848266265751 -0.00057809596789085366 -0.00071114278900171574 0.00011616306101211004 -0.00016462644145027514 1.1655681714269617e-05 0.0015455475519201452 -0.00047921212520481534 0.0017610167133426907 -0.0003896478267191561 -0.0013585432696446276 -0.00062116160204895492 -0.0011988514421608608 -0.0026294982096334851 0.00046822843915347856 0.00063577011436916347 -0.00011697377673011822 0.0014406466028589887 0.00030037644615705432 0.00071873484868649029 -0.00079509275667924483 -0.00090380508922101863 0.0030281762037352852 -0.0011823982863411525 -0.0012137811829540468 0.0028524370309526074 -0.00052666548142953876 -0.0015167591160941132 -0.00041882384139190734 -0.00053208511706642812 0.00056146539450789372 -0.0033985664566562584 -0.00094063446912171964 -0.00057326519642476198 0.0017396928060548333 0.00034236641247909703 -0.0010681938875701364 -0.00088653802085307315 0.00054172799522038515 -0.00091600253453683609
leaf_weight=1279 531 308 3806 2550 1076 107 1364 260 2888 1275 4000 19820 1198 443 3296 298 723 921 649 1468 2076 267 149 311 587 2312 403 866 226 531 807 672 1035 406 672 1159 171 1072 424 2305 1338 656 107 1482 298 212 3526 4488 1262 484 542 74 436 19288 766 77 2238 947 366 531 587 76
leaf_count=1279 531 308 3806 2550 1076 107 1364 260 2888 1275 4000 19820 1198 443 3296 298 723 921 649 1468 2076 267 149 311 587 2312 403 866 226 531 807 672 1035 406 672 1159 171 1072 424 2305 1338 656 107 1482 298 212 3526 4488 1262 484 542 74 436 19288 766 77 2238 947 366 531 587 76
internal_value=6.20143e-05 -0.0162781 -0.00737623 0.0224405 0.0121645 0.0015035 -0.0165131 -0.0243508 0.00656355 0.000753176 -0.0258992 0.0268324 0.0170709 -0.00948011 0.0228362 -0.00397661 0.00733634 0.0158883 0.0225718 0.00227761 -0.0174834 -0.0121975 -0.0101414 0.00564935 -0.0143484 -0.0034265 0.0126903 -0.00924571 -0.00340024 8.24499e-05 0.0128009 -0.00372719 -0.0168679 -0.00654054 -0.0266219 -0.0211888 -0.0134164 0.0135096 -0.0136678 0.013932 0.00986593 0.0169036 0.0107112 -0.0185945 0.0151007 -0.00895928 -0.0126604 0.0242393 -0.00311432 -0.0138317 -0.000315347 0.017595 0.00752941 -0.0274757 -0.0242845 0.0216999 0.018 -0.00396963 -0.000388423 -0.00756317 -0.00384 0.00375566
internal_weight=104492 60394 28722 44098 13204 14566 14156 31672 10732 6612 28560 30894 10126 8348 4372 3078 3987 4120 11074 2608 4506 2430 3112 1232 4627 3721 5754 2625 1694 2547 914 1151 1590 555 5808 2002 843 1721 867 5351 2536 1379 703 2846 596 884 3834 9353 1522 1759 2854 2815 510 24054 4766 4865 2315 1844 1313 1781 1250 663
internal_count=104492 60394 28722 44098 13204 14566 14156 31672 10732 6612 28560 30894 10126 8348 4372 3078 3987 4120 11074 2608 4506 2430 3112 1232 4627 3721 5754 2625 1694 2547 914 1151 1590 555 5808 2002 843 1721 867 5351 2536 1379 703 2846 596 884 3834 9353 1522 1759 2854 2815 510 24054 4766 4865 2315 1844 1313 1781 1250 663
cat_boundaries=0 1 2
cat_threshold=2 1
is_linear=0
shrinkage=0.03


Tree=5
num_leaves=63
num_cat=2
split_feature=0 0 0 4 2 2 4 2 0 3 0 4 4 4 1 2 2 4 0 4 2 0 4 1 4 0 3 1 1 6 4 4 2 3 2 2 4 2 2 0 0 1 2 6 4 1 3 4 3 1 4 1 4 4 2 0 0 3 2 4 1 4
split_gain=41702.3 4132 2731.76 2475.56 1427.55 948.415 890.059 688.382 596.447 402.669 380.748 366.949 342.884 334.841 309.384 235.437 195.21 194.499 191.268 170.75 171.415 164.11 151.077 148.835 138.549 143.812 130.35 112.652 107.094 103.522 170.593 90.1485 85.9148 83.6982 80.6079 94.2117 83.1438 80.4286 79.5362 79.511 78.4509 77.8988 73.8433 73.6223 69.9089 94.0834 68.4251 65.3532 64.7344 64.6258 62.7635 59.5283 59.5159 61.7648 57.1126 56.7186 55.7311 55.1039 50.7483 46.8702 54.8738 45.8373
threshold=64950.672498855616 58946.575394054562 68820.621153113534 6.5000000000000009 7.5000000000000009 6.5000000000000009 2.5000000000000004 16.500000000000004 61709.923462247447 4.5000000000000009 71248.219098900867 5.5000000000000009 4.5000000000000009 2.5000000000000004 381.93000000000006 14.500000000000002 21.500000000000004 5.5000000000000009 54851.133264091193 4.5000000000000009 14.500000000000002 66419.83164054295 5.5000000000000009 566.21500000000015 8.5000000000000018 63104.043039155098 5.5000000000000009 2297.7500000000005 471.26500000000004 0 2.5000000000000004 9.5000000000000018 22.500000000000004 5.5000000000000009 21.500000000000004 14.500000000000002 10.500000000000002 21.500000000000004 15.500000000000002 60746.741830877974 57522.659194940497 686.93000000000018 20.500000000000004 1 4.5000000000000009 408.24500000000006 5.5000000000000009 3.5000000000000004 5.5000000000000009 304.01500000000004 11.500000000000002 613.79500000000007 6.5000000000000009 2.5000000000000004 22.500000000000004 66127.781881843999 61099.529449208349 2.5000000000000004 11.500000000000002 4.5000000000000009 1325.6200000000001 1.5000000000000002
decision_type=2 2 2 2 2 2 2 2 2 2 2 2 2 2 2 2 2 2 2 2 2 2 2 2 2 2 2 2 2 1 2 2 2 2 2 2 2 2 2 2 2 2 2 1 2 2 2 2 2 2 2 2 2 2 2 2 2 2 2 2 2 2
left_child=1 7 4 6 14 31 43 12 9 17 16 13 18 33 -2 24 38 28 -1 27 -21 54 -11 52 -7 -26 59 -10 47 30 -20 -5 -22 -6 35 36 57 39 -4 48 -31 46 -12 -3 45 -28 -33 -8 -17 -36 -41 -32 53 -16 -13 -25 -30 -23 -24 60 -9 -45
right_child=2 3 10 5 11 15 8 26 19 22 42 21 -14 -15 23 37 -18 -19 29 20 32 34 58 55 25 -27 44 -29 56 40 51 41 -34 -35 49 -37 -38 -39 -40 50 -42 -43 -44 61 -46 -47 -48 -49 -50 -51 -52 -53 -54 -55 -56 -57 -58 -59 -60 -61 -62 -63
leaf_value=-0.0029327434598004848 -0.0016211074450621671 -0.0017775408294967343 0.0017871145006984723 -0.0036315428034558875 0.00086713882820399881 -0.0019765701767836381 0.0022678647271537652 0.00038433707822603909 0.0016350588582279796 0.0015924742576426153 0.0046968709116619748 0.00042551283924528006 -0.0032863798271350634 0.0025089334424472799 0.00041268310608303299 -0.00039573497936923216 0.00072803729218528959 -0.0017213782883182137 -0.002332218235378946 -0.00029106655041732319 0.0010241695723818599 0.0009107141452868911 -0.0015663961190733558 -0.00081373282940899619 -0.0010572146567085416 -0.00012179601791047628 0.00084875747798365039 0.00047239374556828304 -0.000694893619748847 -0.0016694359759131389 0.00042464530553632305 -0.0012244108382086698 -0.00010466934275051908 -0.00013363022885970965 0.0008339135020777916 0.0014694914193382402 0.0016771248647501605 -0.0006394746386397393 0.0026798979274255041 0.00032913737989171462 -0.00084807832204515762 -0.0025506132633444805 0.0022792749678534202 -0.0004379055226931322 -0.0012959829368453578 -0.00090112276254426913 0.00090099871582926096 -5.0441679598116626e-05 -0.00085994188022748045 -0.00028006045542266545 -0.00055167237573444878 -0.0012700309133526744 -0.00061545280404554754 0.003015374853816216 -0.00027671779194456011 -8.1746227815336352e-05 4.1639876682542097e-07 8.1118324538519964e-05 0.00015594163456428666 -0.00054379004189088144 -0.00093785491855697734 -0.0011122845416388432
leaf_weight=3902 650 1286 3373 3672 848 975 274 345 2230 829 20696 2083 20319 3820 468 344 1056 522 623 801 1147 460 66 791 2304 1074 119 789 1774 1409 626 929 285 391 264 1974 462 1369 3050 1127 990 1137 2739 1126 1031 399 72 961 260 307 269 135 148 214 261 1413 561 620 337 932 125 1141
leaf_count=3902 650 1286 3373 3672 848 975 274 345 2230 829 20696 2083 20319 3820 468 344 1056 522 623 801 1147 460 66 791 2304 1074 119 789 1774 1409 626 929 285 391 264 1974 462 1369 3050 1127 990 1137 2739 1126 1031 399 72 961 260 307 269 135 148 214 261 1413 561 620 337 932 125 1141
internal_value=1.43261e-05 -0.0167739 0.0213661 -0.00834785 0.0109411 -0.0175185 0.000435275 -0.0243033 0.00479955 -0.00227648 0.0264831 0.0161514 -0.0257556 0.0221961 -0.00530945 -0.0106294 0.0205897 -0.00680352 -0.0203578 0.0119726 0.00568294 0.0113964 0.0127597 -0.00128543 -0.0152378 -0.0123623 -0.0105219 0.0166247 -0.00430252 -0.0155511 -0.00901734 -0.0266747 0.0118994 0.00864407 0.0150257 0.0167235 0.0111673 -0.00467498 0.0225549 -0.00084 -0.0193206 -0.0217774 0.028364 -0.0125556 -0.0165203 -0.00752896 -0.0156743 0.00284211 -0.00993377 0.00457093 0.00309456 0.000512484 0.00954217 0.0132845 0.00506826 -0.00536298 -0.00808137 0.00661111 -0.00230769 -0.00389444 0.00382979 -0.00930304
internal_weight=104704 58616 46088 27661 15174 13532 14129 30955 10576 5324 30914 11490 28004 5059 3684 7722 7479 4092 7685 5252 2233 6431 1232 3034 4353 3378 2951 3019 3570 3783 1384 5810 1432 1239 4087 3516 1542 3369 6423 2000 2399 2138 23435 3553 1549 518 1001 1235 604 571 1396 761 830 682 2344 2204 2335 1080 403 1402 470 2267
internal_count=104704 58616 46088 27661 15174 13532 14129 30955 10576 5324 30914 11490 28004 5059 3684 7722 7479 4092 7685 5252 2233 6431 1232 3034 4353 3378 2951 3019 3570 3783 1384 5810 1432 1239 4087 3516 1542 3369 6423 2000 2399 2138 23435 3553 1549 518 1001 1235 604 571 1396 761 830 682 2344 2204 2335 1080 403 1402 470 2267
cat_boundaries=0 1 2
cat_threshold=4 2
is_linear=0
shrinkage=0.03


Tree=6
num_leaves=63
num_cat=3
split_feature=0 0 4 0 4 2 2 2 4 0 1 0 2 6 4 2 3 0 4 4 0 6 0 4 4 4 1 0 6 4 1 1 4 1 1 1 1 2 1 4 2 4 4 2 0 1 0 1 4 1 2 2 4 2 2 0 1 3 4 4 4 4
split_gain=40649.8 4734.68 2271.74 2068.36 1079.75 1029 1003.46 999.344 562.862 531.681 342.56 329.234 321.429 246.686 223.947 215.501 200.948 187.934 179.385 174.764 172.957 162.3 147.489 130.394 119.183 118.45 126.516 117.357 123.099 144.574 107.711 106.162 105.771 95.696 95.4345 112.048 90.4439 89.6863 83.8337 73.0314 72.3686 72.2261 71.9222 75.5978 71.8404 69.202 69.1695 64.4003 62.5439 75.4727 61.432 80.7479 60.7882 67.865 59.5487 59.3616 76.3963 59.1717 59.1551 96.848 58.4556 57.8102
threshold=65528.402771826179 59758.296209144144 6.5000000000000009 70690.016258839314 2.5000000000000004 6.5000000000000009 7.5000000000000009 16.500000000000004 4.5000000000000009 62499.971423890114 388.24500000000006 58109.813001996015 21.500000000000004 0 8.5000000000000018 15.500000000000002 5.5000000000000009 63018.915859146669 5.5000000000000009 5.5000000000000009 68563.367197384825 1 74006.316524877489 5.5000000000000009 5.5000000000000009 9.5000000000000018 686.93000000000018 54207.380389536811 2 2.5000000000000004 2297.7500000000005 960.74000000000012 4.5000000000000009 568.60500000000013 466.94500000000011 364.84500000000008 566.21500000000015 11.500000000000002 408.24500000000006 11.500000000000002 15.500000000000002 11.500000000000002 6.5000000000000009 20.500000000000004 66732.407369919587 487.37000000000006 57230.41167547644 270.25500000000005 5.5000000000000009 425.06500000000005 16.500000000000004 21.500000000000004 8.5000000000000018 19.500000000000004 5.5000000000000009 63911.261836000522 368.29500000000007 5.5000000000000009 10.500000000000002 6.5000000000000009 6.5000000000000009 2.5000000000000004
decision_type=2 2 2 2 2 2 2 2 2 2 2 2 2 1 2 2 2 2 2 2 2 1 2 2 2 2 2 2 1 2 2 2 2 2 2 2 2 2 2 2 2 2 2 2 2 2 2 2 2 2 2 2 2 2 2 2 2 2 2 2 2 2
left_child=1 7 4 6 54 25 10 8 11 13 -2 27 15 19 37 31 46 50 30 34 36 52 42 -15 33 -4 39 -1 -29 -30 55 -8 38 -14 35 -6 60 -7 -18 -27 -36 -19 -5 -44 -33 -31 -9 -26 49 -48 -16 -52 -17 -54 57 56 -11 -3 59 -46 -12 -13
right_child=3 2 5 22 9 14 12 16 -10 18 20 61 24 23 17 21 32 41 -20 -21 -22 -23 -24 -25 47 26 -28 28 29 45 -32 44 -34 -35 40 -37 -38 -39 -40 -41 -42 -43 43 -45 58 -47 48 -49 -50 -51 51 -53 53 -55 -56 -57 -58 -59 -60 -61 -62 -63
leaf_value=-0.003066729558346885 -0.0012492985477911311 -0.0014879942448095867 -0.0033086907425597437 0.0028205899208167151 -0.00036002866424206026 -0.0019845898032906984 0.0029145826606624117 -0.00068043735633544931 -0.0031134426534849251 0.00051338205996378616 0.0012299337215232009 -0.0017211615926073403 0.002210622644292593 0.0017786346017763454 -0.00084119224238565771 0.0026714796677599463 0.00090210967740741662 8.2234363183111283e-05 0.00014769135376580645 -0.0015508029717008014 0.0010112775226184395 0.00088076962936366155 0.0050229755595205894 -3.5812584049477179e-05 0.0008483777438931683 -0.0011498056115440646 -0.0024026372410087208 -0.0015469173430236044 -0.0019636977643005759 0.00019880637062834826 0.00062037862198342309 0.00037649449757864826 -0.0011782735278652379 6.7083123343057984e-05 -0.00035419962246897082 0.00078491585801319875 -0.00021877911437057028 -0.00063360787061199711 -0.00053571742298187284 1.0233070867121663e-06 0.00044712508126496794 -0.00047597455315155412 0.0023517379566116714 0.0012554863805757149 0.0015446973750552811 -0.001227907152312537 0.0012967888481753437 -5.1566769287550715e-05 -0.00051101039322529239 6.6757731429394331e-05 9.3927156994265675e-05 -0.00091639537828615335 0.0022575548710711429 0.0011753142671108419 -0.00053920089833620728 0.0019191670916976857 0.001392689511715197 -0.00060769307126282363 0.002193007877182115 0.00048184184955183448 -0.00070346934153672931 -0.00018843267120532969
leaf_weight=3398 557 1682 3136 3668 535 754 867 625 22535 341 505 623 572 802 2124 3264 131 2583 889 409 824 1654 17233 447 342 444 1097 1642 779 593 1028 979 1193 242 2014 727 1697 524 457 317 288 550 3090 1070 1440 364 263 1114 566 379 633 603 1433 948 1710 1404 1031 283 675 1253 108 1262
leaf_count=3398 557 1682 3136 3668 535 754 867 625 22535 341 505 623 572 802 2124 3264 131 2583 889 409 824 1654 17233 447 342 444 1097 1642 779 593 1028 979 1193 242 2014 727 1697 524 457 317 288 550 3090 1070 1440 364 263 1114 566 379 633 603 1433 948 1710 1404 1031 283 675 1253 108 1262
internal_value=-3.61032e-05 -0.0158066 -0.006214 0.0221208 0.0023223 -0.015302 0.0145047 -0.0230692 -0.0247993 0.0074705 0.000512056 -0.0182993 0.0179984 0.000884718 -0.00847381 0.0198825 -0.00813503 -0.00621438 0.0147986 -0.00277121 0.00436503 0.02321 0.0277351 0.012514 0.00761233 -0.0259271 -0.0199247 -0.0213843 -0.0174245 -0.0118548 0.0176341 0.0152244 -0.0153116 0.0168059 -0.000639731 0.00599049 0.000155844 -0.0199531 -0.00489796 -0.0105256 -0.00427454 -0.000928822 0.0243204 0.0216202 0.0133126 -0.00404389 -0.00116203 0.00247253 0.0030298 0.00943925 -0.0111429 -0.00582524 0.0256315 0.0219866 -0.0115673 0.0207061 0.0162682 -0.0151298 0.0153919 0.0134014 0.0100326 -0.00720955
internal_weight=104700 61165 26355 43535 13590 12765 18474 34810 31196 9915 3691 8661 14783 5222 7771 12513 3614 6493 4693 3973 3134 7299 25061 1249 2270 4994 1858 6776 3378 1736 3804 5214 1781 814 3564 1262 2310 1278 588 761 2302 3133 7828 4160 4347 957 1833 1456 1208 642 3360 1236 5645 2381 3675 2776 1372 1965 3368 2693 613 1885
internal_count=104700 61165 26355 43535 13590 12765 18474 34810 31196 9915 3691 8661 14783 5222 7771 12513 3614 6493 4693 3973 3134 7299 25061 1249 2270 4994 1858 6776 3378 1736 3804 5214 1781 814 3564 1262 2310 1278 588 761 2302 3133 7828 4160 4347 957 1833 1456 1208 642 3360 1236 5645 2381 3675 2776 1372 1965 3368 2693 613 1885
cat_boundaries=0 1 2 3
cat_threshold=2 2 2
is_linear=0
shrinkage=0.03


Tree=7
num_leaves=63
num_cat=3
split_feature=0 0 0 5 2 2 2 0 5 2 5 5 5 1 5 2 5 5 2 0 6 1 0 0 1 0 1 6 1 5 2 5 5 1 5 1 5 5 5 1 3 1 5 5 0 6 3 5 5 5 5 5 1 3 5 2 1 0 1 5 2 1
split_gain=39682.8 3472.03 3418.1 2596.63 1424.75 1016.31 701.17 475.161 438.162 432.461 394.223 334.01 431.321 315.607 282.384 265.873 212.549 202.966 193.431 191.657 170.079 165.31 162.783 137.944 134.475 115.203 110.825 116.496 108.474 107.635 105.16 98.753 95.9664 111.039 93.6777 116.728 96.0005 113.192 91.0876 89.7187 89.662 102.442 100.991 89.3917 88.3293 86.2681 85.8982 85.8679 77.9833 122.517 75.6337 72.7923 72.222 67.6368 71.029 66.8336 65.2078 64.782 63.2288 62.856 62.175 59.3508
threshold=64475.630287268235 58109.813001996015 68563.367197384825 169.50000000000003 7.5000000000000009 6.5000000000000009 15.500000000000002 73374.666464620503 159.50000000000003 16.500000000000004 55.500000000000007 59.500000000000007 115.50000000000001 381.93000000000006 99.500000000000014 14.500000000000002 57.500000000000007 141.50000000000003 21.500000000000004 62410.496662697558 0 566.21500000000015 66226.15956196333 62586.131559871726 466.94500000000011 60924.503046336024 1027.3300000000002 1 2297.7500000000005 181.50000000000003 14.500000000000002 285.50000000000006 191.50000000000003 573.48500000000013 21.500000000000004 677.86500000000012 313.50000000000006 183.50000000000003 268.50000000000006 225.68000000000004 5.5000000000000009 560.93500000000006 332.50000000000006 276.50000000000006 61801.934220509116 2 5.5000000000000009 335.50000000000006 197.50000000000003 51.500000000000007 189.50000000000003 41.500000000000007 530.0150000000001 5.5000000000000009 43.500000000000007 22.500000000000004 408.24500000000006 59232.676205546617 279.20500000000004 43.500000000000007 21.500000000000004 605.24500000000012
decision_type=2 2 2 2 2 2 2 2 2 2 2 2 2 2 2 2 2 2 2 2 1 2 2 2 2 2 2 1 2 2 2 2 2 2 2 2 2 2 2 2 2 2 2 2 2 1 2 2 2 2 2 2 2 2 2 2 2 2 2 2 2 2
left_child=1 9 4 6 13 43 11 18 10 14 53 -3 19 -2 26 23 -8 56 30 20 24 48 -10 -7 39 -14 27 -1 -12 61 32 -25 -4 -34 -23 36 37 -36 50 -13 41 58 -43 -5 -42 -40 -11 -32 49 -15 -24 -29 -21 54 -6 -19 -18 -58 -17 -53 -47 -20
right_child=2 3 7 5 8 15 16 -9 22 46 28 12 25 21 -16 40 17 55 29 52 -22 34 38 31 -26 -27 -28 51 -30 -31 47 -33 33 -35 35 -37 -38 -39 45 -41 44 42 -44 -45 -46 60 -48 -49 -50 -51 -52 59 -54 -55 -56 -57 57 -59 -60 -61 -62 -63
leaf_value=-0.0019909379231771518 -0.0017189809181971253 -0.0013394224973688345 0.0023155230464957325 -0.003484533972028879 0.00096310048418693332 -0.0013866497707444977 -0.00040166645605429428 0.0046530369131001139 0.00016953929012282238 -0.00043617486359970537 0.002288515127004355 -0.0011088151370813432 -0.0010269914609904133 3.9487768896885319e-05 -0.0030515947108027855 0.00083958384545216203 0.0016586376575319721 0.00028068794014723394 0.002067727744191505 0.0018942938999374796 0.0015715590780479055 -0.00087207379172261033 0.00092500556079657455 -0.00097589565796669714 -0.00043519140707650394 -0.00026168975151654312 -0.0031192189966619925 -0.0013696093736533233 0.0010182989646505252 0.00064315555686163923 0.0026508541034749632 -9.7364049796138104e-05 -0.00051903134358481456 0.0015502888297655121 2.844696867350005e-05 -0.0010579268687591103 0.00076028451547603009 -0.0015918503573061165 -0.00043984475988526338 0.00074824428830429939 -0.0010637120843282838 0.00055511486420895147 -0.00075740325163888564 -0.001993423226069567 -0.00015492512803188418 0.0013024041731773811 -0.0011096938019593682 0.0007623334153392952 -0.00088835757252986921 0.0026975382238500975 9.2163626851453074e-05 0.00068774068418085395 0.00044034793183618358 -0.00023171994354473729 -0.0005185595014105623 -0.0006138343891723474 -1.8447362807572364e-05 0.00095479905307830736 -0.00055110901038773411 -0.00091982509219340871 -0.00022896100385157934 0.00060408865492277478
leaf_weight=807 750 2819 2688 4494 579 3072 631 18529 2710 1001 3559 125 1646 382 20798 117 697 714 548 588 542 590 669 721 1790 1192 1553 463 1047 1274 5520 836 116 2448 757 627 373 162 51 796 652 924 157 2400 458 1953 1236 293 142 387 979 72 448 404 196 256 236 1741 1251 1277 158 206
leaf_count=807 750 2819 2688 4494 579 3072 631 18529 2710 1001 3559 125 1646 382 20798 117 697 714 548 588 542 590 669 721 1790 1192 1553 463 1047 1274 5520 836 116 2448 757 627 373 162 51 796 652 924 157 2400 458 1953 1236 293 142 387 979 72 448 404 196 256 236 1741 1251 1277 158 206
internal_value=-9.46399e-06 -0.0170561 0.0200189 -0.0098908 0.008939 -0.0185625 -0.000694044 0.0257915 0.0140748 -0.0247734 0.0200847 -0.00506133 -0.00160376 -0.00621583 -0.0259055 -0.0114167 0.00946667 0.0122503 0.0214168 0.00439963 0.000820781 -0.00235088 0.00874233 -0.0161568 -0.0022464 -0.0106765 -0.0187824 -0.0150172 0.0240469 0.0128994 0.0229779 -0.00888247 0.019901 0.0157488 -0.00632523 -0.003111 0.00204334 -0.00316649 0.0127402 0.0070684 -0.00525148 -0.00204573 0.00485661 -0.0270496 -0.0123243 0.01679 -0.0121368 0.0257578 0.00859495 0.0123667 0.00742718 -0.0107947 0.0156371 0.0046056 0.00979355 0.000494845 0.0165146 0.0137329 -0.0075 -0.00727205 0.0177215 0.0218833
internal_weight=104607 56510 48097 29303 16475 15082 14221 31622 12305 27207 5785 9946 7127 4170 24970 8188 4275 3644 13093 4289 3253 3420 6520 4629 2711 2838 4172 2619 4606 2028 11065 1557 5252 2564 2509 1919 1292 919 3810 921 3559 2449 1081 6894 1110 2162 2237 5813 911 769 1648 1812 1036 1179 775 970 2674 1977 1368 1349 2111 754
internal_count=104607 56510 48097 29303 16475 15082 14221 31622 12305 27207 5785 9946 7127 4170 24970 8188 4275 3644 13093 4289 3253 3420 6520 4629 2711 2838 4172 2619 4606 2028 11065 1557 5252 2564 2509 1919 1292 919 3810 921 3559 2449 1081 6894 1110 2162 2237 5813 911 769 1648 1812 1036 1179 775 970 2674 1977 1368 1349 2111 754
cat_boundaries=0 1 2 3
cat_threshold=2 2 1
is_linear=0
shrinkage=0.03


Tree=8
num_leaves=63
num_cat=6
split_feature=0 0 0 5 2 2 2 2 0 4 5 5 4 5 5 5 5 5 5 2 0 0 6 4 5 0 2 5 2 6 5 0 2 2 5 5 3 0 5 0 5 6 5 3 6 5 0 3 2 0 6 2 2 5 0 6 5 2 5 0 0 4
split_gain=38459.5 3574 3262.43 2425.78 1440.84 848.869 691.75 521.002 498.622 447.859 442.119 324.615 321.595 464.416 213.117 212.959 347.5 344.335 207.216 210.859 186.755 160.439 162.728 145.581 172.959 123.156 114.486 108.529 107.974 161.597 105.203 103.573 100.754 99.8734 92.5611 89.6323 86.1262 84.9518 80.011 74.9837 74.6981 91.8765 82.2068 74.5811 91.543 72.337 65.4795 64.684 62.5196 62.335 61.9887 61.7659 59.7527 55.2597 77.1507 82.2325 54.6098 54.0985 52.7695 50.8315 48.1748 46.6085
threshold=64281.734874843205 68563.367197384825 58387.940879101858 177.50000000000003 7.5000000000000009 6.5000000000000009 15.500000000000002 16.500000000000004 73374.666464620503 5.5000000000000009 55.500000000000007 99.500000000000014 2.5000000000000004 115.50000000000001 251.50000000000003 183.50000000000003 51.500000000000007 253.50000000000003 183.50000000000003 21.500000000000004 66226.15956196333 62065.388686055354 0 2.5000000000000004 141.50000000000003 63018.915859146669 15.500000000000002 336.50000000000006 8.5000000000000018 1 123.50000000000001 60924.503046336024 16.500000000000004 22.500000000000004 59.500000000000007 278.50000000000006 5.5000000000000009 55226.475968395403 252.50000000000003 67347.639347556818 271.50000000000006 2 189.50000000000003 5.5000000000000009 3 23.500000000000004 70830.615618715659 5.5000000000000009 16.500000000000004 69868.719775398829 4 13.500000000000002 8.5000000000000018 139.50000000000003 54342.650507901613 5 43.500000000000007 1.5000000000000002 111.50000000000001 59758.296209144144 66517.512807821549 1.5000000000000002
decision_type=2 2 2 2 2 2 2 2 2 2 2 2 2 2 2 2 2 2 2 2 2 2 1 2 2 2 2 2 2 1 2 2 2 2 2 2 2 2 2 2 2 1 2 2 1 2 2 2 2 2 1 2 2 2 2 1 2 2 2 2 2 2
left_child=2 4 7 6 15 35 12 11 18 10 47 28 50 21 51 16 39 -17 34 26 -11 22 58 61 -25 32 38 -28 29 -1 37 -15 59 -26 46 -5 -32 -9 49 45 42 -42 -22 44 -34 -2 -3 56 60 -20 -4 -7 -23 54 -13 -56 -6 -19 -14 -16 -12 -8
right_child=1 8 3 5 9 14 23 30 -10 20 48 53 13 31 25 17 -18 57 19 -21 40 52 -24 24 33 -27 27 -29 -30 -31 36 -33 43 -35 -36 -37 -38 -39 -40 -41 41 -43 -44 -45 -46 -47 -48 -49 -50 -51 -52 -53 -54 -55 55 -57 -58 -59 -60 -61 -62 -63
leaf_value=-0.0017890066634267531 -0.00094942846130744547 0.0010692223488938306 0.00020774631084895744 -0.0034111518105759907 0.0008278229604685688 -0.0019285239479818882 0.0002038026126395409 -0.0015066183422535872 0.0045301222435618783 0.00016464084113037346 0.0013640490094183383 -0.0028720518414950833 -0.00020048840243941434 -0.0010980681886911792 -0.0015587396214707704 -0.0016155644877661589 0.0019571366968923714 -0.00083468771631321488 -2.1581007625681712e-06 0.00053789663404941014 0.00083638182959804572 0.0016684668901658616 0.0016653371854493555 0.0010409039797899355 0.00045007228786375528 -7.5795856907524554e-05 0.0022712113545469603 0.00053765985316995332 -0.0028971123106361716 -0.00052218313001044844 -0.00052546710787093999 -0.00027874182985122175 -0.00085066044685939643 -0.00060522296532740936 0.0035000039460851328 -0.0019372944014486842 -0.0012485022941570367 0.00015334515432039784 0.0022732857191381183 0.00026352463031894201 -0.00042664941708870475 0.0012404528394845836 0.00024196859525575152 -0.00092861838206870716 0.00032112001853506654 -0.00017791976411782122 0.0020595274046187224 -0.00028342726779246371 0.002199126197509105 0.00071403484581086135 -0.0014108160382366769 -0.00054754465418700769 0.00065014743784319595 -0.0031790608165185438 -0.0012484203807269711 -0.00025348424886870277 -0.00020287403517382202 0.00025019154981845257 0.0006755287889527922 -0.00078167092343418344 0.002449967493066748 -0.00085636867528087303
leaf_weight=906 537 1251 110 4011 578 1009 248 228 18541 3146 859 3160 2158 1640 630 1141 579 392 391 1251 877 527 500 2389 771 1599 2545 297 2077 1347 747 1283 426 274 3327 2188 857 648 1690 435 53 1991 1066 493 790 720 1583 414 2985 823 2557 383 606 16207 1905 281 208 658 162 1986 542 322
leaf_count=906 537 1251 110 4011 578 1009 248 228 18541 3146 859 3160 2158 1640 630 1141 579 392 391 1251 877 527 500 2389 771 1599 2545 297 2077 1347 747 1283 426 274 3327 2188 857 648 1690 435 53 1991 1066 493 790 720 1583 414 2985 823 2557 383 606 16207 1905 281 208 658 162 1986 542 322
internal_value=4.91827e-05 0.0194472 -0.0170582 -0.00960683 0.0084285 -0.0185993 -0.000635565 -0.0241678 0.0254194 0.0135742 0.0199356 -0.0254263 -0.00502672 -0.00159686 -0.0116785 -0.00623935 0.000198151 -0.0129119 0.020953 0.0174203 0.00859246 0.00510751 0.0012766 0.00983017 0.0121607 -0.00919649 0.0198503 0.0241309 -0.0179307 -0.0133822 -0.0110323 -0.0106637 -0.0118266 0.00198086 0.0249651 -0.0267672 -0.0155985 -0.00267123 0.0156612 -0.00666667 0.0129044 0.016908 0.00869274 -0.0061615 -0.00217105 -0.0103819 0.0209809 0.0038 0.0243502 0.00978583 -0.0138695 -0.0222414 0.0146425 -0.0269322 -0.0242873 -0.0199543 0.00885496 -0.000514286 -0.00206897 -0.0155275 0.0191221 -0.00421053
internal_weight=104305 48880 55425 27062 17181 13515 13547 28363 31699 12719 5586 25883 9543 6876 7316 4462 2271 2191 13158 6997 7133 3953 2820 4004 3434 5924 5746 2842 4330 2253 2480 2923 4325 1045 6161 6199 1604 876 2904 1692 3987 2044 1943 1709 1216 1257 2834 1200 4386 1214 2667 1392 1133 21553 5346 2186 786 1050 2320 2616 1401 570
internal_count=104305 48880 55425 27062 17181 13515 13547 28363 31699 12719 5586 25883 9543 6876 7316 4462 2271 2191 13158 6997 7133 3953 2820 4004 3434 5924 5746 2842 4330 2253 2480 2923 4325 1045 6161 6199 1604 876 2904 1692 3987 2044 1943 1709 1216 1257 2834 1200 4386 1214 2667 1392 1133 21553 5346 2186 786 1050 2320 2616 1401 570
cat_boundaries=0 1 2 3 4 5 6
cat_threshold=2 2 1 2 1 2
is_linear=0
shrinkage=0.03


Tree=9
num_leaves=63
num_cat=0
split_feature=0 0 5 0 2 2 4 0 2 3 5 0 2 1 5 2 5 2 0 0 5 0 5 1 3 5 5 1 5 2 1 2 3 1 1 5 5 1 5 0 1 1 1 3 1 2 0 5 0 1 2 5 5 5 3 2 2 5 2 5 5 5
split_gain=37477.2 4414.32 2680.78 2105.14 1217.08 935.337 920.433 663.66 584.992 413.554 345.979 313.174 302.964 302.951 232.645 218.876 186.11 178.233 176.665 170.882 160.069 150.276 145.535 136.212 131.159 133.779 130.442 119.824 119.68 115.156 112.722 111.972 119.406 111.192 109.601 112.059 107.24 103.994 95.4625 92.4053 88.1676 87.5083 86.7466 85.7312 89.8826 84.9561 83.8692 79.4884 128.482 88.4622 71.9715 68.5108 68.0847 92.4562 66.8483 65.3186 63.6493 63.384 72.0224 61.8937 61.5216 61.4293
threshold=65528.402771826179 58479.956483319809 177.50000000000003 70830.615618715659 6.5000000000000009 7.5000000000000009 2.5000000000000004 62065.388686055354 15.500000000000002 4.5000000000000009 99.500000000000014 62410.496662697558 21.500000000000004 381.93000000000006 141.50000000000003 15.500000000000002 143.50000000000003 16.500000000000004 74860.120295396977 55226.475968395403 145.50000000000003 68448.274146727505 297.50000000000006 462.72000000000008 4.5000000000000009 336.50000000000006 251.50000000000003 2965.0650000000005 167.50000000000003 11.500000000000002 1027.3300000000002 8.5000000000000018 4.5000000000000009 459.30500000000001 686.93000000000018 344.50000000000006 183.50000000000003 568.60500000000013 288.50000000000006 66928.348388833969 270.25500000000005 566.21500000000015 293.06500000000005 5.5000000000000009 401.2050000000001 21.500000000000004 61009.241955501544 143.50000000000003 54342.650507901613 352.40500000000003 7.5000000000000009 81.500000000000014 312.50000000000006 195.50000000000003 4.5000000000000009 10.500000000000002 1.0000000180025095e-35 175.50000000000003 19.500000000000004 137.50000000000003 261.50000000000006 258.50000000000006
decision_type=2 2 2 2 2 2 2 2 2 2 2 2 2 2 2 2 2 2 2 2 2 2 2 2 2 2 2 2 2 2 2 2 2 2 2 2 2 2 2 2 2 2 2 2 2 2 2 2 2 2 2 2 2 2 2 2 2 2 2 2 2 2
left_child=1 8 6 5 22 13 -3 9 10 16 31 17 15 -2 27 30 23 61 36 -10 -11 41 -4 42 25 57 29 -9 37 -13 -7 32 -1 -34 35 -24 -5 -14 -21 -32 -30 -15 -8 44 -19 -38 59 48 -12 -50 -18 -35 53 -41 -51 -22 -44 -17 -59 -25 -28 -6
right_child=3 2 4 18 11 12 7 14 19 20 47 26 28 21 -16 24 50 43 -20 38 55 -23 34 46 -26 -27 60 -29 40 -31 39 -33 33 51 -36 -37 45 -39 -40 52 -42 -43 56 -45 -46 -47 -48 -49 49 54 -52 -53 -54 -55 -56 -57 -58 58 -60 -61 -62 -63
leaf_value=-0.0015419852285514072 -0.0010647307189334558 -0.00098397545781321529 -0.0031731995348070067 0.0026209875577500423 -0.0018201684922797062 0.0027443247419285171 -0.00085871635778269337 0.0014555480632766414 -0.0016524781635237906 0.0013557209971892775 -0.0027650110572155244 -0.0013754535238490997 0.0019002505270327879 0.00070147546217097067 0.00012990074971450382 0.0024875088058825107 -0.0017742743607824141 -0.00064214601649958567 0.0047893926325466019 -0.00024617405620555143 -0.0016111055570458539 0.00089782893491543666 -0.0011076011816298374 -0.00071950510560093604 0.00083642768990980717 -0.00016474246471194663 0.0008674649278121088 0.00034105116585764981 0.00088632206150058234 -0.00015535414546569425 0.00033387577439549757 -0.0028672305809217709 0.00057032028601250223 -0.0003471918841269611 -0.0022450629676356946 0.00048677509843099068 0.0021284651759292464 1.3666987680580056e-05 -0.0016009748489312242 0.0012883646129675096 -8.471092862174289e-05 -0.00026177822438847086 -0.00016567461180315489 -0.00094716804000571746 0.00063007326312533032 0.0009781599506536909 6.9321210011801239e-05 -0.003141585367679116 0.00018592625407776812 -0.001209093374447459 -0.00059565822093393564 -0.0009967560029421152 0.0023694214862202694 0.00043474341440595364 -0.00025896080112409293 0.00017148630660419217 0.00084905020509739074 0.0020915010149444328 0.0011073537959599715 0.00068346562338291003 -0.00010031489865495068 -0.0010400401225179818
leaf_weight=1164 551 4239 4442 4263 775 911 363 3200 1076 1078 3480 526 639 606 1365 3359 407 494 15599 1769 76 916 929 1691 1593 90 260 758 332 581 1136 1868 285 507 1272 184 3950 268 464 1525 1160 1659 230 463 494 851 843 15548 142 1979 527 321 578 1156 234 467 815 1489 963 121 3501 2061
leaf_count=1164 551 4239 4442 4263 775 911 363 3200 1076 1078 3480 526 639 606 1365 3359 407 494 15599 1769 76 916 929 1691 1593 90 260 758 332 581 1136 1868 285 507 1272 184 3950 268 464 1525 1160 1659 230 463 494 851 843 15548 142 1979 527 321 578 1156 234 467 815 1489 963 121 3501 2061
internal_value=7.71562e-05 -0.015104 -0.00746222 0.0213194 -0.0161769 0.0137948 0.00114586 0.00540909 -0.0236269 -0.000933817 -0.0251653 -0.00902785 0.0170992 0.000337621 0.0132951 0.0189328 -0.00520512 -0.0149405 0.0270952 -0.0117588 0.0122332 0.003895 -0.0257639 -0.00242924 0.0222338 0.0242959 -0.00382087 0.0169783 0.00731555 -0.0128726 0.0142706 -0.0172328 -0.0127668 -0.00574124 -0.0197862 -0.0129111 0.0237643 0.0159096 -0.00702642 0.0122799 0.00209115 -0.000251656 0.00511364 -0.0063887 -0.00139676 0.0206894 -0.00642938 -0.026703 -0.0237172 -0.0183057 -0.0172805 -0.0113043 0.0148481 0.0128348 -0.0197786 -0.00104972 0.00950239 0.024858 0.0211909 -0.0100662 -0.00115661 -0.0193159
internal_weight=104593 60999 32162 43594 15982 18931 16180 11941 28837 6618 25528 9155 15199 3732 5323 12800 4997 4287 24663 3309 1621 3181 6827 4063 7494 5901 4868 3958 2399 1107 5306 4145 2277 1113 2385 1113 9064 907 2233 4395 1492 2265 1408 1451 988 4801 2655 21383 5835 2355 934 828 3259 2681 2213 543 1045 5811 2452 1812 3761 2836
internal_count=104593 60999 32162 43594 15982 18931 16180 11941 28837 6618 25528 9155 15199 3732 5323 12800 4997 4287 24663 3309 1621 3181 6827 4063 7494 5901 4868 3958 2399 1107 5306 4145 2277 1113 2385 1113 9064 907 2233 4395 1492 2265 1408 1451 988 4801 2655 21383 5835 2355 934 828 3259 2681 2213 543 1045 5811 2452 1812 3761 2836
is_linear=0
shrinkage=0.03


Tree=10
num_leaves=63
num_cat=6
split_feature=0 0 0 5 2 2 4 2 4 0 5 2 1 5 5 0 2 5 5 1 1 1 2 5 0 2 6 6 0 0 0 6 5 4 1 2 5 1 1 4 4 2 5 5 5 2 0 6 5 1 0 6 5 5 2 1 4 1 1 5 6 1
split_gain=36703.4 3560.71 3085.12 2306.71 1465.52 1024.59 641.604 474.198 450.042 440.68 408.014 372.674 341.761 310.348 307.427 202.926 202.063 185.963 182.215 160.306 152.981 152.265 143.758 140.783 138.43 137.927 134.962 121.158 118.6 118.057 112.962 117.356 111.677 107.873 106.607 98.2588 95.2075 94.2405 92.307 106.863 95.437 90.1286 94.4658 87.6909 87.1903 86.6944 83.7259 95.0508 81.0428 80.2103 77.2762 75.0184 95.1393 88.5761 86.047 74.0282 67.742 65.7889 64.0869 63.843 67.5549 60.4536
threshold=64281.734874843205 68952.747088226519 58109.813001996015 159.50000000000003 7.5000000000000009 7.5000000000000009 2.5000000000000004 15.500000000000002 5.5000000000000009 73590.509950252905 59.500000000000007 15.500000000000002 381.93000000000006 93.500000000000014 115.50000000000001 66419.83164054295 14.500000000000002 280.50000000000006 336.50000000000006 558.0100000000001 462.72000000000008 686.93000000000018 8.5000000000000018 342.50000000000006 55226.475968395403 21.500000000000004 0 1 60562.936060496693 62499.971423890114 61271.542948234215 2 141.50000000000003 6.5000000000000009 462.72000000000008 15.500000000000002 15.500000000000002 225.68000000000004 677.86500000000012 10.500000000000002 6.5000000000000009 21.500000000000004 276.50000000000006 139.50000000000003 57.500000000000007 22.500000000000004 55105.861685274205 3 288.50000000000006 2297.7500000000005 60924.503046336024 4 271.50000000000006 193.50000000000003 21.500000000000004 408.24500000000006 6.5000000000000009 671.23500000000013 1367.0200000000002 83.500000000000014 5 600.3850000000001
decision_type=2 2 2 2 2 2 2 2 2 2 2 2 2 2 2 2 2 2 2 2 2 2 2 2 2 2 1 1 2 2 2 1 2 2 2 2 2 2 2 2 2 2 2 2 2 2 2 1 2 2 2 1 2 2 2 2 2 2 2 2 1 2
left_child=2 4 7 6 12 17 26 13 10 18 -6 14 -2 22 20 -10 29 -5 25 33 37 28 27 57 -9 35 -4 -1 -19 -7 31 -22 55 44 -29 -3 -21 -8 39 40 -38 42 58 46 -14 -34 -15 -48 -26 -12 -16 -17 53 -53 -54 -13 61 -20 -18 -57 -61 -27
right_child=1 9 3 5 8 16 11 24 15 -11 49 32 19 43 50 51 41 21 23 36 30 -23 -24 -25 48 56 -28 34 -30 -31 -32 -33 45 -35 -36 -37 38 -39 -40 -41 -42 -43 -44 -45 -46 -47 47 -49 -50 -51 -52 52 54 -55 -56 59 -58 -59 -60 60 -62 -63
leaf_value=-0.001615917644129452 -0.0015219266468727833 0.0019493265083046767 0.00015952493571295189 -0.0030297911982386109 0.00043925855864409836 -0.0011398918948378679 -0.00085159584551357356 -0.0016394225304451481 0.00018840391163600366 0.0043356090643341359 0.0022732618182011487 0.0014856138055025997 0.00017784515920709536 -0.0026421009744133444 -0.00081277626729488455 -0.00027392923501572656 0.00081366646323994098 -0.0015071040691049492 0.0020154545148638446 -0.00096862419762049122 -0.00064457412407207756 -0.0022434106405246719 -0.0028611381732291095 0.0012607513039423551 -0.0003079579483450212 0.001818856435342489 -0.0012855499452878304 0.00070357412715219892 -0.00040418271196556609 -0.00037909210783505066 0.00054447865884635403 0.00093264491991432435 0.00033635389020250704 -0.00067759891166764509 -0.0006350630470066096 0.0024641949574493237 -2.7884735537400673e-05 0.0015682615356137405 -0.00099746277066685711 0.00073969602675869549 -0.0014476891279161651 -0.0006494348386023957 -0.00031252925997749648 -0.0030611905221409911 0.0025368537123626948 -0.0006027341746902775 0.00020331071423865919 -0.00118278631648139 -0.0016143291602000686 0.0011844114820107818 -0.00017942647686773448 0.0008627116759237516 0.0013313056143889905 0.00030426881377255467 -0.00031167241460340665 0.0013982451471265694 0.00063921339071822516 -0.00064709437964798218 -7.7277377380197688e-05 -0.0012503948634426103 0.00050928843449339178 0.00059583056131635721
leaf_weight=594 857 4893 389 5124 1433 2354 156 1030 3425 18153 3640 619 376 3731 1435 88 519 904 50 477 1317 1141 1653 963 1551 506 2983 241 684 1288 1146 299 423 187 878 4692 1222 1268 645 422 183 1486 1343 15281 321 159 159 1739 360 922 1057 988 1962 1111 171 465 800 215 416 96 1322 195
leaf_count=594 857 4893 389 5124 1433 2354 156 1030 3425 18153 3640 619 376 3731 1435 88 519 904 50 477 1317 1141 1653 963 1551 506 2983 241 684 1288 1146 299 423 187 878 4692 1222 1268 645 422 183 1486 1343 15281 321 159 159 1739 360 922 1057 988 1962 1111 171 465 800 215 416 96 1322 195
internal_value=5.65512e-05 0.0190165 -0.0166146 -0.0096964 0.0086077 -0.0176296 -0.000479671 -0.0238318 0.0135502 0.025313 0.0197214 0.00341733 -0.00587207 -0.0252101 -0.000566038 0.0087734 -0.00962463 -0.0251789 0.0209323 -0.00204279 0.00440038 -0.0188531 -0.0167558 0.00996743 -0.0124549 0.0221469 -0.0117616 -0.0106655 -0.0128463 -0.0146623 0.000282404 -0.00482673 0.0120428 0.0091629 -0.00485255 0.023471 -0.00540183 0.0123876 -0.00303398 0.000410509 -0.00356584 -0.00475027 -0.00100088 -0.026571 0.0145911 0.000206186 -0.02337 -0.0182403 -0.00767661 0.0241078 -0.00890851 0.0130972 0.0136673 0.00913292 0.0181294 0.0147962 0.0136909 -0.00939623 0.00632086 0.0118375 0.00867419 0.0204993
internal_weight=104507 48897 55610 28393 18430 15259 13134 27217 13740 30467 5995 9762 4690 24276 6678 7745 7406 7853 12314 3833 4186 2729 3366 1228 2941 11086 3372 1713 1588 3642 2762 1616 3084 884 1119 9585 2949 1424 2472 1827 1405 3764 2278 20910 697 582 5629 1898 1911 4562 2492 4320 4232 2099 2133 2502 1501 265 935 1883 1418 701
internal_count=104507 48897 55610 28393 18430 15259 13134 27217 13740 30467 5995 9762 4690 24276 6678 7745 7406 7853 12314 3833 4186 2729 3366 1228 2941 11086 3372 1713 1588 3642 2762 1616 3084 884 1119 9585 2949 1424 2472 1827 1405 3764 2278 20910 697 582 5629 1898 1911 4562 2492 4320 4232 2099 2133 2502 1501 265 935 1883 1418 701
cat_boundaries=0 1 2 3 4 5 6
cat_threshold=1 2 2 4 1 1
is_linear=0
shrinkage=0.03


Tree=11
num_leaves=63
num_cat=3
split_feature=2 6 5 2 1 2 5 2 5 5 2 5 3 2 2 5 5 2 5 5 5 5 6 5 3 3 5 5 5 5 1 2 1 2 5 2 2 5 5 5 1 1 6 1 5 1 5 5 1 2 2 2 5 5 2 5 2 5 5 2 1 1
split_gain=18150.8 11573.2 3774.98 2966.23 1552.76 1037.49 615.564 606.034 651.016 922.001 485.848 443.441 418.141 386.156 314.077 270.5 848.421 298.518 254.755 817.807 477.124 300.955 235.83 231.583 222.106 204.236 193.893 250.513 203.934 190.993 190.964 184.841 179.102 162.848 176.266 158.195 150.893 145.308 145.023 143.475 496.005 139.435 137.669 134.439 129.975 230.585 127.641 121.697 113.647 105.587 106.491 104.413 101.149 290.927 260.935 116.218 97.9357 85.1121 88.5236 85.0896 80.7395 67.9587
threshold=7.5000000000000009 0 99.500000000000014 15.500000000000002 3588.4350000000009 21.500000000000004 309.50000000000006 15.500000000000002 89.500000000000014 167.50000000000003 5.5000000000000009 141.50000000000003 5.5000000000000009 1.0000000180025095e-35 6.5000000000000009 323.50000000000006 262.50000000000006 8.5000000000000018 157.50000000000003 264.50000000000006 85.500000000000014 320.50000000000006 1 139.50000000000003 5.5000000000000009 1.0000000180025095e-35 279.50000000000006 175.50000000000003 350.50000000000006 264.50000000000006 415.27500000000003 5.5000000000000009 605.24500000000012 20.500000000000004 235.50000000000003 22.500000000000004 1.0000000180025095e-35 306.50000000000006 89.500000000000014 347.50000000000006 686.93000000000018 291.20000000000005 2 2260.5050000000006 167.50000000000003 991.21000000000015 239.50000000000003 53.500000000000007 555.58500000000015 1.0000000180025095e-35 6.5000000000000009 21.500000000000004 167.50000000000003 236.50000000000003 10.500000000000002 343.50000000000006 17.500000000000004 99.500000000000014 55.500000000000007 6.5000000000000009 281.13500000000005 2783.9800000000005
decision_type=2 1 2 2 2 2 2 2 2 2 2 2 2 2 2 2 2 2 2 2 2 2 1 2 2 2 2 2 2 2 2 2 2 2 2 2 2 2 2 2 2 2 1 2 2 2 2 2 2 2 2 2 2 2 2 2 2 2 2 2 2 2
left_child=2 4 10 24 5 7 23 8 -2 -10 13 -7 29 -1 39 16 17 -11 20 -20 47 -21 59 30 38 -15 27 56 -28 44 31 36 -27 -9 -35 46 -4 -18 43 -8 -41 -13 -16 -3 45 57 -29 -6 -43 -25 -51 -46 -40 54 -54 -55 -14 58 -5 -12 -53 -39
right_child=1 3 6 12 18 11 14 33 9 15 22 41 26 25 42 -17 37 -19 19 21 -22 -23 -24 49 -26 32 28 35 -30 -31 -32 -33 -34 34 -36 -37 -38 61 52 40 -42 48 -44 -45 51 -47 -48 -49 -50 50 -52 60 53 55 -56 -57 -58 -59 -60 -61 -62 -63
leaf_value=0.0006684546078106773 0.0043709266764506679 -8.6880130264596061e-05 0.00022306641755214684 0.00072615914704109554 0.0023296301600918162 0.0012797377194465821 -0.0020375704779041813 0.0030755071487544227 -0.00010867020050378373 0.00049365032776686193 0.00061408848256292727 0.00065615093186346507 -0.0016789942537112118 -0.0021852863196577654 0.00090126748723049757 0.0040431433834442433 -0.00026098237257672353 0.0034026912612304065 0.0029857505244597765 -0.00077002529982731827 -0.00092933702873525508 0.00074329002630688697 -0.00031873299034214012 -0.0014316144615766024 -0.0028223149638711698 -0.00016975332632836738 -0.0012672869885401428 0.0014359321143328373 0.00033507537409336983 -5.0012569423150133e-05 -0.0017773583585558954 0.00028026831922618343 -0.0014292295085087752 0.001976033801301986 0.00062328272575996489 -0.00098789083846142936 -0.0011080193436631973 0.0018016466196194203 -0.002474539126092125 0.00094937381800084761 -0.0016837441531418168 -0.00034492499767162314 -0.0014131258720492586 -0.0018054682990817947 0.0016159781134227279 -0.00052758438737827366 1.1908961776235794e-06 0.00035475564326439997 0.00054428010845183168 -0.0032126678209840553 -0.0016923112950858253 0.00096848591654924258 -0.0012920258118956618 -0.0021764423769056089 0.00053745590018169692 -0.00051160078377020886 -0.00014952473249670416 0.00028444011475225794 0.0018397534506717573 0.0024339461905469057 -0.00050868094551179046 8.626786372393224e-05
leaf_weight=1190 4528 991 162 795 324 2270 3234 14677 2794 773 809 1203 586 848 480 2188 1590 3837 1908 1403 2096 713 764 2046 5010 3685 984 768 215 1814 2233 296 1317 1886 1044 170 1134 411 1419 446 1085 1638 200 546 1155 766 446 705 824 12128 2042 219 383 1983 632 384 1763 808 596 774 172 325
leaf_count=1190 4528 991 162 795 324 2270 3234 14677 2794 773 809 1203 586 848 480 2188 1590 3837 1908 1403 2096 713 764 2046 5010 3685 984 768 215 1814 2233 296 1317 1886 1044 170 1134 411 1419 446 1085 1638 200 546 1155 766 446 705 824 12128 2042 219 383 1983 632 384 1763 808 596 774 172 325
internal_value=5.59193e-05 0.0088922 -0.0176156 -0.00875514 0.0173552 0.0196574 -0.0236059 0.0216747 0.0175337 0.0138547 -0.00135187 0.00808256 0.00215599 -0.00529261 -0.0146612 0.0184722 0.0155709 0.0230239 0.00447755 0.00946819 -0.0019488 -0.00337429 0.0104687 -0.0260361 -0.0195788 -0.00846154 -0.00439173 -0.00102063 -0.0148874 0.00726166 -0.0193961 -0.0114573 -0.00615354 0.0255427 0.0190853 0.00910405 -0.0163426 0.000799656 -0.0158473 -0.017383 -0.00981711 0.00162892 0.00441176 -0.00782694 0.0105675 0.00689039 0.0128995 0.0147813 -0.00246141 -0.0276024 -0.0285222 0.0176197 -0.0184149 -0.0155943 -0.00215764 -0.0213561 -0.00698595 0.0118281 0.0163264 0.0170752 0.00421995 0.0118207
internal_weight=104615 69742 34873 22605 47137 39988 25486 34053 16446 11918 9387 5935 11257 7040 5445 9124 6936 4610 7149 4024 3125 2116 2347 20041 11348 5850 4932 3733 1199 6325 3825 1592 5002 17607 2930 1384 1296 2326 6338 4765 1531 3665 680 1537 4511 2965 1214 1029 2462 16216 14170 1546 4801 3382 1015 2367 2349 2199 1391 1583 391 736
internal_count=104615 69742 34873 22605 47137 39988 25486 34053 16446 11918 9387 5935 11257 7040 5445 9124 6936 4610 7149 4024 3125 2116 2347 20041 11348 5850 4932 3733 1199 6325 3825 1592 5002 17607 2930 1384 1296 2326 6338 4765 1531 3665 680 1537 4511 2965 1214 1029 2462 16216 14170 1546 4801 3382 1015 2367 2349 2199 1391 1583 391 736
cat_boundaries=0 1 2 3
cat_threshold=2 2 2
is_linear=0
shrinkage=0.03


Tree=12
num_leaves=63
num_cat=9
split_feature=0 0 5 0 5 4 0 5 0 5 5 5 3 0 4 0 0 5 6 5 4 5 1 1 0 5 4 4 6 3 0 6 1 5 6 1 0 5 5 4 6 0 0 6 1 5 5 5 0 1 3 1 5 0 0 6 6 1 0 6 1 1
split_gain=34865 4203.62 2420.2 2045.21 957.193 816.829 534.794 471.683 467.581 400.14 683.354 509.589 394.641 381.834 273.694 263.602 222.951 214.354 212.992 191.42 173.482 171.068 158.25 150.153 143.829 139.476 136.6 131.752 129.94 124.199 120.021 127.263 118.217 113.711 111.898 110.098 103.833 101.247 96.133 95.7645 95.5064 110.667 91.875 91.5139 88.4075 87.3955 86.8945 125.715 76.4603 96.9864 72.0544 71.1489 65.7208 65.6953 63.917 61.9447 59.0686 56.3868 52.9204 51.8183 50.9353 55.8143
threshold=65528.402771826179 58479.956483319809 177.50000000000003 70690.016258839314 251.50000000000003 2.5000000000000004 62065.388686055354 141.50000000000003 55105.861685274205 183.50000000000003 59.500000000000007 250.50000000000003 4.5000000000000009 63104.043039155098 11.500000000000002 76073.598709669328 68104.854764044663 141.50000000000003 0 143.50000000000003 5.5000000000000009 331.50000000000006 553.25500000000011 686.93000000000018 68104.854764044663 145.50000000000003 6.5000000000000009 11.500000000000002 1 3.5000000000000004 63279.595406138898 2 2376.8700000000003 285.50000000000006 3 466.94500000000011 67775.601022921051 25.500000000000004 89.500000000000014 2.5000000000000004 4 53931.539856589763 67775.601022921051 5 1611.4550000000002 193.50000000000003 267.50000000000006 262.50000000000006 62677.821560704971 1287.7750000000003 2.5000000000000004 293.06500000000005 137.50000000000003 59758.296209144144 61009.241955501544 6 7 408.24500000000006 56531.358393383394 8 677.86500000000012 834.41000000000008
decision_type=2 2 2 2 2 2 2 2 2 2 2 2 2 2 2 2 2 2 1 2 2 2 2 2 2 2 2 2 1 2 2 1 2 2 1 2 2 2 2 2 1 2 2 1 2 2 2 2 2 2 2 2 2 2 2 1 1 2 2 1 2 2
left_child=1 7 5 9 30 43 12 8 38 10 24 16 19 21 36 26 34 32 52 35 -12 28 39 -16 37 -14 -5 -15 33 -18 -4 -32 -8 -6 -11 51 -13 -2 44 -20 41 -9 -22 -3 59 -33 47 -38 -45 -50 -30 -7 -10 -35 -37 -19 -25 -41 -42 -1 -29 -62
right_child=3 2 4 15 13 6 17 40 18 11 20 14 25 27 23 -17 29 55 22 -21 42 -23 -24 56 -26 -27 -28 60 50 -31 31 45 -34 53 -36 54 46 -39 -40 57 58 -43 -44 48 -46 -47 -48 -49 49 -51 -52 -53 -54 -55 -56 -57 -58 -59 -60 -61 61 -63
leaf_value=-0.0025799610637748881 -0.00025837740120434601 0.00012258586896178093 -0.0029094246442606239 0.0024701686677014167 -0.0013953253733908083 -0.00080236620472992767 0.0013289210756298674 -0.0026128586119313155 -0.0010950790273208299 -0.0011519870863259062 0.0024473408569161358 0.00070764646009591312 0.0012975621209656968 0.00010047458589175522 0.0010725058019425949 0.0047344173216014541 -0.00024464415080176991 -4.1906180994824015e-05 -0.0028189767595375378 -0.0010417082028954961 0.00042878389182417654 -0.0017480813491215805 -0.00085345915266055335 0.00021902000009159204 0.0008879949543544257 -1.8698656321915475e-05 0.0017370154096510188 9.0765350576906266e-05 0.00076273245511118161 0.00067388269448153684 -0.0019777369911958965 0.00041796503375948258 0.00038185468430524392 -0.0014658785406421587 -0.00024815920739339637 -0.00059811035517587981 0.0019872533752927205 0.00050091503875962084 -0.002336136230989265 0.00059671790426069375 -0.0030261561007995513 -0.0010203470772404588 0.0015538631225051867 -0.0014879437082923957 -0.0029543883588273477 -0.00070252322670554478 0.0019200709128397153 -0.00070543830345610266 -0.0007491119833505374 0.00056199559508499195 -0.00046939708212418162 0.00047919892839499208 2.4910069853461001e-05 -0.00051614730069400865 7.120484286998269e-05 0.0010146883400398987 -0.00048425413807763216 -6.2976226796618854e-05 -0.0021954289002244576 -0.0006048164351988122 -0.0013236651631563473 -1.7092821937882419e-05
leaf_weight=151 876 377 4225 5319 1025 374 2995 1355 2268 647 4243 1986 1060 2430 577 13608 596 1151 154 965 821 1682 1233 394 1513 525 6166 234 204 819 862 173 937 522 662 1783 226 1052 4829 486 10562 622 1101 1775 823 532 2033 136 1900 149 1383 1072 153 1755 836 277 763 681 4859 737 651 252
leaf_count=151 876 377 4225 5319 1025 374 2995 1355 2268 647 4243 1986 1060 2430 577 13608 596 1151 154 965 821 1682 1233 394 1513 525 6166 234 204 819 862 173 937 522 662 1783 226 1052 4829 486 10562 622 1101 1775 823 532 2033 136 1900 149 1383 1072 153 1755 836 277 763 681 4859 737 651 252
internal_value=7.17312e-06 -0.0146261 -0.0071538 0.0205159 -0.0154539 0.00102003 0.00501294 -0.0229236 -0.0182136 0.012932 0.0171705 0.0083256 -0.000693878 -0.00989544 0.0131333 0.0260905 -0.00246696 0.012056 -0.0112824 -0.00480716 0.0231484 -0.0141851 -0.00523884 0.00304498 0.00646033 0.0123596 0.0227436 -0.00199327 -0.0113459 0.00578799 -0.025183 -0.0180919 0.0156714 -0.0147365 -0.0113904 -0.00195572 0.0171262 0.00102697 -0.0234862 0.00197578 -0.0260409 -0.0198331 0.0156712 -0.0103618 -0.0173758 -0.0086383 0.0213319 0.00779006 -0.0117521 -0.00780381 -0.00429112 0.0046888 -0.017658 -0.0110013 -0.00562428 0.00210084 -0.00318928 0.00491003 -0.0268368 -0.0108108 -0.0104222 -0.0136545
internal_weight=104557 61019 32106 43538 15930 16176 11975 28913 11515 18445 9606 8839 6615 10138 6115 25093 2724 5360 4975 5030 6165 6571 2554 1734 3441 1585 11485 3567 4889 1415 5792 1567 3932 3302 1309 4065 4381 1928 6540 1321 17398 1977 1922 4201 1711 705 2395 362 3824 2049 1587 1446 2421 2277 2619 1428 1157 1167 15421 888 1137 903
internal_count=104557 61019 32106 43538 15930 16176 11975 28913 11515 18445 9606 8839 6615 10138 6115 25093 2724 5360 4975 5030 6165 6571 2554 1734 3441 1585 11485 3567 4889 1415 5792 1567 3932 3302 1309 4065 4381 1928 6540 1321 17398 1977 1922 4201 1711 705 2395 362 3824 2049 1587 1446 2421 2277 2619 1428 1157 1167 15421 888 1137 903
cat_boundaries=0 1 2 3 4 5 6 7 8 9
cat_threshold=2 2 2 2 1 1 2 4 2
is_linear=0
shrinkage=0.03


Tree=13
num_leaves=63
num_cat=6
split_feature=0 0 5 0 2 4 2 2 0 5 6 5 4 1 0 0 0 2 5 5 5 5 5 2 5 5 5 0 1 0 1 5 0 5 1 1 5 5 1 6 4 1 2 2 0 5 6 6 0 6 1 0 1 6 1 2 2 0 1 1 2 2
split_gain=34205.9 4282.8 2355.67 1832.78 1134.98 818.278 762.058 638.729 560.492 401.46 365.315 287.139 304.696 277.067 272.758 264.091 255.337 211.258 203.863 193.016 183.817 155.13 149.936 148.374 142.195 133.128 131.699 129.482 123.555 119.655 116.79 105.392 104.965 98.6114 96.8518 89.3082 88.1587 87.1217 84.7178 83.0631 156.874 86.7829 82.7492 82.7198 79.6526 78.5353 77.2494 77.1871 76.7241 95.8887 116.365 76.3692 72.7702 72.216 71.8536 70.4059 69.9943 67.6791 85.9359 64.2273 67.8015 69.1941
threshold=65734.046642798188 58763.189316402226 177.50000000000003 70830.615618715659 6.5000000000000009 2.5000000000000004 7.5000000000000009 16.500000000000004 62586.131559871726 141.50000000000003 0 165.50000000000003 2.5000000000000004 394.49000000000007 55480.806977466746 76576.372433420256 63018.915859146669 21.500000000000004 141.50000000000003 143.50000000000003 293.50000000000006 145.50000000000003 183.50000000000003 14.500000000000002 268.50000000000006 251.50000000000003 262.50000000000006 68563.367197384825 686.93000000000018 57032.309406966066 2297.7500000000005 335.50000000000006 61009.241955501544 191.50000000000003 516.07000000000005 270.25500000000005 275.50000000000006 344.50000000000006 560.93500000000006 1 2.5000000000000004 352.40500000000003 11.500000000000002 7.5000000000000009 68000.61837911453 286.50000000000006 2 3 49687.159800289104 4 851.43500000000006 49687.159800289104 471.26500000000004 5 2742.7350000000006 21.500000000000004 10.500000000000002 62677.821560704971 1367.0200000000002 696.23500000000013 19.500000000000004 15.500000000000002
decision_type=2 2 2 2 2 2 2 2 2 2 1 2 2 2 2 2 2 2 2 2 2 2 2 2 2 2 2 2 2 2 2 2 2 2 2 2 2 2 2 1 2 2 2 2 2 2 1 1 2 1 2 2 2 1 2 2 2 2 2 2 2 2
left_child=1 7 5 6 20 53 13 9 10 14 21 12 -8 -2 48 22 23 24 30 32 -4 -7 -5 45 26 33 42 38 37 -9 -10 44 52 -18 -11 -19 -31 -22 -15 41 -41 -16 -13 -21 -26 -6 51 -33 -1 -50 -51 -36 -12 -3 -14 59 -23 -55 -59 -24 61 -61
right_child=3 2 4 15 16 8 11 29 18 34 19 17 54 27 39 -17 25 35 -20 43 28 56 55 -25 31 -27 -28 -29 -30 36 -32 47 -34 -35 46 -37 -38 -39 -40 40 -42 -43 -44 -45 -46 -47 -48 -49 49 50 -52 -53 -54 57 -56 -57 -58 58 -60 60 -62 -63
leaf_value=-0.0039807694483096154 -0.00089039904422791966 8.3444084594764824e-05 -0.0027854689551418503 0.0024523501066035128 -0.0013466904150472997 0.0013710420369207649 0.00069906525085701551 -0.0008982157451672473 0.0014063609525236036 -0.0030018504901675527 0.00011856080835038529 0.00037532363902988337 0.0023845213699628712 0.00084363511412081872 0.00030174252974106029 0.0047066048847132676 0.00018115472404482634 0.00091487491886018671 0.00019583519251157864 -0.0015341790497400171 -0.00091329776572473317 -0.0015163385710508064 0.0023904728029345117 -0.00037319050954281839 0.00088974109290687381 1.9842131976126053e-05 -0.00067861458183605776 0.00081519367301168487 -0.001985952285004801 0.0001372538675393503 0.00049505494062709648 0.00067638940897232324 0.00029426488670776323 -0.00086225926715720986 -0.0034564289303741979 -9.2350455873054795e-05 -0.0011740701540070091 0.00046430245583228835 -0.00011563135093433651 -0.001637731579877368 0.00016427158255786776 -0.00098670038824246148 0.00099887838653315284 -0.00052714998120692244 0.0019245346964161855 -0.00069763507778865578 -0.0023486984312085439 -0.0001772070598170311 -0.0020330463525941862 -0.0010468284925781218 -0.0023903296165556196 -0.00089995829782109739 -0.00055893257663266918 -0.001384817894166761 0.00097899341527246143 0.00095523782361384363 0.00020727627674347991 -0.00070785218862375651 0.0005176627567784458 0.0014838421079285057 0.0003895154239064058 0.0023575656320580069
leaf_weight=1738 520 367 4199 5492 1422 1019 1651 1435 2673 9010 917 932 3973 471 156 12821 258 337 1270 385 853 66 1379 1922 1521 3209 258 862 1218 948 839 416 1924 731 305 1064 450 182 1699 732 735 2272 1597 649 1890 1595 6800 157 1598 1979 1300 586 1630 1701 810 975 452 2070 157 2686 299 1059
leaf_count=1738 520 367 4199 5492 1422 1019 1651 1435 2673 9010 917 932 3973 471 156 12821 258 337 1270 385 853 66 1379 1922 1521 3209 258 862 1218 948 839 416 1924 731 305 1064 450 182 1699 732 735 2272 1597 649 1890 1595 6800 157 1598 1979 1300 586 1630 1701 810 975 452 2070 157 2686 299 1059
internal_value=7.36946e-05 -0.0142188 -0.00652832 0.0206618 -0.0148432 0.00151312 0.0134255 -0.0223352 0.00558694 -0.0237466 0.000204487 0.0164563 0.0211968 0.000962838 -0.0191532 0.0259791 -0.00804093 0.0127239 0.0135132 -0.00340599 -0.0244761 0.013136 0.0227586 -0.0126645 0.014918 -0.00260124 0.00972013 0.00443272 -0.0175632 -0.00877868 0.017238 0.0185542 -0.00070454 -0.0122245 -0.0266373 0.00211991 -0.00253219 -0.00994203 0.000525346 -0.0128549 -0.00721881 -0.0162603 0.0118031 -0.015087 0.0205541 -0.0168147 -0.0241646 0.00664921 -0.0228617 -0.020933 -0.0179963 -0.0158586 -0.00469965 -0.00970198 0.0250324 0.0196374 -0.00023166 -0.010891 -0.00744948 0.0209718 0.0190653 0.0201629
internal_weight=104621 61752 31708 42869 15589 16119 18158 30044 11824 27211 7042 14606 6434 3552 10510 24711 9137 8172 4782 5505 6452 1537 11890 4939 6771 4198 2787 3032 2253 2833 3512 3984 4471 989 16701 1401 1398 1035 2170 3895 1467 2428 2529 1034 3411 3017 7691 573 6615 4877 3279 891 2547 4295 4783 6398 518 3928 2227 5423 4044 3745
internal_count=104621 61752 31708 42869 15589 16119 18158 30044 11824 27211 7042 14606 6434 3552 10510 24711 9137 8172 4782 5505 6452 1537 11890 4939 6771 4198 2787 3032 2253 2833 3512 3984 4471 989 16701 1401 1398 1035 2170 3895 1467 2428 2529 1034 3411 3017 7691 573 6615 4877 3279 891 2547 4295 4783 6398 518 3928 2227 5423 4044 3745
cat_boundaries=0 1 2 3 4 5 6
cat_threshold=4 2 1 4 2 1
is_linear=0
shrinkage=0.03


Tree=14
num_leaves=63
num_cat=0
split_feature=0 0 0 5 2 2 0 2 2 4 5 5 4 5 1 5 2 2 1 2 1 0 5 0 5 5 0 0 0 4 3 1 3 0 5 5 5 2 1 0 5 1 1 5 5 1 5 4 5 5 1 3 1 5 5 2 5 5 3 3 5 5
split_gain=33204.2 3041.64 2980 2211.05 1041.44 910.188 588.432 573.478 464.192 377.266 371.449 367.135 286.493 426.318 275.183 228.728 225.294 164.733 161.437 154.959 145.463 136.144 136.137 134.876 134.664 130.417 125.598 124.733 107.473 102.578 99.0845 98.2102 95.3576 95.3438 94.335 120.88 93.4068 92.6777 85.7174 85.4565 82.0523 83.5895 117.029 80.425 79.8467 79.1357 116.344 138.899 78.3737 117.925 78.2558 74.2308 101.428 72.5572 72.4325 70.6129 70.1387 67.6019 72.5274 67.0605 65.1051 63.5054
threshold=64475.630287268235 58109.813001996015 68563.367197384825 177.50000000000003 7.5000000000000009 6.5000000000000009 75091.217639234907 15.500000000000002 15.500000000000002 5.5000000000000009 59.500000000000007 125.50000000000001 2.5000000000000004 115.50000000000001 408.24500000000006 183.50000000000003 14.500000000000002 21.500000000000004 466.94500000000011 15.500000000000002 509.59500000000008 55845.14077594909 276.50000000000006 62410.496662697558 336.50000000000006 252.50000000000003 53802.186773723464 66419.83164054295 61438.930579289001 2.5000000000000004 4.5000000000000009 686.93000000000018 5.5000000000000009 70968.599906237097 57.500000000000007 141.50000000000003 191.50000000000003 22.500000000000004 2376.8700000000003 60924.503046336024 93.500000000000014 225.68000000000004 432.47500000000008 285.50000000000006 15.500000000000002 686.93000000000018 262.50000000000006 6.5000000000000009 336.50000000000006 342.50000000000006 408.24500000000006 5.5000000000000009 418.26000000000005 276.50000000000006 272.50000000000006 21.500000000000004 193.50000000000003 211.50000000000003 1.0000000180025095e-35 5.5000000000000009 47.500000000000007 258.50000000000006
decision_type=2 2 2 2 2 2 2 2 2 2 2 2 2 2 2 2 2 2 2 2 2 2 2 2 2 2 2 2 2 2 2 2 2 2 2 2 2 2 2 2 2 2 2 2 2 2 2 2 2 2 2 2 2 2 2 2 2 2 2 2 2 2
left_child=1 8 4 7 14 22 15 12 11 10 32 26 -3 18 -2 29 23 19 40 25 36 -10 -5 61 -21 57 -1 -11 30 33 -20 59 -6 -4 -9 50 -16 -37 -12 -15 -14 -42 -43 -25 -22 46 47 60 -27 -50 -36 52 -18 -23 56 -56 -29 -17 -59 -24 -46 -7
right_child=2 3 6 5 9 16 -8 34 21 27 38 -13 13 39 20 17 51 -19 28 24 44 53 31 43 -26 48 -28 54 -30 -31 -32 -33 -34 -35 35 37 -38 -39 -40 -41 41 42 -44 -45 45 -47 -48 -49 49 -51 -52 -53 -54 -55 55 -57 -58 58 -60 -61 -62 -63
leaf_value=-0.0025338002179240583 -0.0012413760768454783 -0.0011308008855799351 0.0008758784493578353 -0.0028781179721389921 0.00056666211983869279 -0.0016736668838648343 0.0042047476456976863 -0.00017317076695443133 -0.0013526329360252487 0.00019195570269933793 0.0018874588870945719 -0.00264190302421686 0.0024238685719348368 -0.00090867256919519024 0.002264887377100414 0.00083965842491499822 -0.00056645963681771852 0.00061444157779921762 -0.0004766995392788409 0.0019823207216341202 -0.00078993880503874867 -0.00011550207733674572 -0.0011471931743099334 -0.00087167332783516017 0.00063134192236851403 0.0026324787415735423 -0.0010793880349402756 0.00067951105650017384 0.00050786736636608315 0.0030244584263425314 0.00088963673965271274 -0.0020445228142805562 -0.0002828446865390033 0.0017707198264678735 0.0013945274781800925 0.00043246015398034352 -0.00076209067165746987 -0.00053558942410172948 0.00092630475808196827 -0.00023140400715968289 -0.0010763082245480442 0.00077026403899517644 -0.0010517943247058731 -0.00011450819938840978 -9.173108289036446e-05 -0.0008752065210130244 0.00073194487699894059 -0.0010189287680839937 -0.00045929217205225469 0.0012843308892012805 0.00060246693224311914 -0.00059988080289646308 0.00023730105011688594 -0.0012340484180935567 0.0010160194345104922 -0.0003813101647304007 0.00011682598413726014 0.0024560329780757653 2.1681746398332089e-05 0.0010253978196170228 0.0012222224990492685 -0.00088860243098906936
leaf_weight=3256 800 2856 1375 4250 865 808 15240 640 1298 3156 3370 17256 781 1836 277 422 1000 1512 1455 3117 492 1188 1203 741 440 1277 3870 847 1079 3751 224 1143 428 2621 689 834 55 303 752 1324 120 538 103 948 1022 554 443 220 226 621 1945 1021 1356 486 1733 149 968 128 948 76 370 1994
leaf_count=3256 800 2856 1375 4250 865 808 15240 640 1298 3156 3370 17256 781 1836 277 422 1000 1512 1455 3117 492 1188 1203 741 440 1277 3870 847 1079 3751 224 1143 428 2621 689 834 55 303 752 1324 120 538 103 948 1022 554 443 220 226 621 1945 1021 1356 486 1733 149 968 128 948 76 370 1994
internal_value=7.44275e-06 -0.0155693 0.0183136 -0.00884717 0.00797588 -0.0171458 0.0236985 -0.000653901 -0.0227616 0.012403 0.0183213 -0.024126 -0.00452501 -0.00143164 -0.00485471 0.0197615 -0.0102339 0.0164204 0.00471628 0.0183159 -0.00116225 -0.011568 -0.0252968 -0.0146359 0.0227636 0.0139481 -0.0183974 0.00772654 0.000369833 0.0235097 -0.00437761 -0.0196201 0.00429234 0.0201652 0.00839946 0.0102068 0.0177108 0.00203166 0.022722 -0.00979747 0.0124903 0.00547963 0.00978159 -0.00793961 -0.00318284 -0.00109237 0.00162044 -0.00212159 0.0187288 0.0116529 0.0137358 -0.00437963 -0.00145161 -0.00591398 0.0114661 0.0155898 0.00719008 0.00716956 0.00317844 -0.0139093 0.00137931 -0.0186724
internal_weight=104800 56621 48179 29267 16501 14540 31678 14727 27354 12268 5415 24382 10316 7460 4233 16438 7868 8691 4300 7179 3433 2972 6672 4491 3557 3622 7126 6853 2758 7747 1679 2422 1293 3996 4411 3771 332 1137 4122 3160 1542 761 641 1689 3101 2609 2055 1612 2124 847 2634 3377 2356 1674 3697 1882 1815 1498 1076 1279 1392 2802
internal_count=104800 56621 48179 29267 16501 14540 31678 14727 27354 12268 5415 24382 10316 7460 4233 16438 7868 8691 4300 7179 3433 2972 6672 4491 3557 3622 7126 6853 2758 7747 1679 2422 1293 3996 4411 3771 332 1137 4122 3160 1542 761 641 1689 3101 2609 2055 1612 2124 847 2634 3377 2356 1674 3697 1882 1815 1498 1076 1279 1392 2802
is_linear=0
shrinkage=0.03


Tree=15
num_leaves=63
num_cat=6
split_feature=0 0 0 5 5 5 0 4 0 5 4 5 0 6 0 6 5 5 6 4 4 5 5 1 1 5 1 6 0 3 0 5 1 0 5 5 5 1 6 0 5 5 5 0 0 1 0 5 6 5 1 1 4 5 5 5 0 5 5 0 1 1
split_gain=32038.5 4110.86 1807.07 1739.92 900.646 876.9 803.74 757.11 376.805 370.393 541.056 531.51 285.213 275.748 267.436 230.484 229.352 211.503 198.922 193.611 191.489 191.006 171.444 160.019 154.14 147.913 143.085 142.155 144.105 133.523 131.346 118.616 114.136 112.965 108.157 106.484 100.51 100.206 147.5 99.1074 91.6991 123.776 90.7673 88.9036 85.8366 85.4658 84.5406 84.3968 83.5107 104.759 82.8709 78.4475 75.8515 186.464 108.21 118.445 75.0986 74.1145 72.7083 71.8934 68.9402 62.837
threshold=65734.046642798188 59758.296209144144 70830.615618715659 177.50000000000003 141.50000000000003 251.50000000000003 55728.236355113448 2.5000000000000004 62934.068587905218 189.50000000000003 2.5000000000000004 246.50000000000003 77049.401858926271 0 63369.47902625073 1 335.50000000000006 331.50000000000006 2 5.5000000000000009 2.5000000000000004 141.50000000000003 143.50000000000003 475.43500000000006 432.47500000000008 185.50000000000003 677.86500000000012 3 49687.159800289104 4.5000000000000009 62239.685050390275 95.500000000000014 3089.6000000000004 57815.977758475005 272.50000000000006 25.500000000000004 81.500000000000014 1702.2750000000003 4 68206.615860916776 262.50000000000006 267.50000000000006 334.50000000000006 68448.274146727505 49687.159800289104 710.74000000000012 67675.836356599131 346.50000000000006 5 285.50000000000006 2297.7500000000005 589.5200000000001 8.5000000000000018 234.50000000000003 336.50000000000006 342.50000000000006 67025.454654315705 137.50000000000003 193.50000000000003 68104.854764044663 516.07000000000005 3309.1400000000008
decision_type=2 2 2 2 2 2 2 2 2 2 2 2 2 1 2 1 2 2 1 2 2 2 2 2 2 2 2 1 2 2 2 2 2 2 2 2 2 2 1 2 2 2 2 2 2 2 2 2 1 2 2 2 2 2 2 2 2 2 2 2 2 2
left_child=1 4 9 7 6 29 37 45 13 10 35 18 25 22 17 57 34 48 43 -12 60 50 32 -6 -22 -4 -18 28 -25 -5 -31 -15 -9 -29 40 59 -26 38 -1 -20 -13 -42 -16 -11 -40 -3 -36 -28 49 -7 -10 -37 53 -27 -54 61 -21 -8 -32 -2 -17 -56
right_child=2 3 12 5 23 14 15 8 21 11 19 16 -14 31 42 20 26 -19 39 56 24 -23 -24 27 36 52 47 33 -30 30 58 -33 -34 -35 46 51 -38 -39 44 -41 41 -43 -44 -45 -46 -47 -48 -49 -50 -51 -52 -53 54 -55 55 -57 -58 -59 -60 -61 -62 -63
leaf_value=-0.002018001227842855 -0.00020815379134724919 -0.0009325426426612626 0.0023790815885687305 -0.0024496631434736322 -0.0026775352461618604 -0.0010722010653430104 -0.00086609458592344472 0.00021287354635038917 0.0014187852897056096 -0.0010199247991931793 0.0023191710472327954 0.0013671604023482481 0.0045839594865705012 0.0017223563278979197 0.00015181885178194908 -0.0025781255375780304 0.0010841225557006117 -0.0015111454734897062 -0.00032477354056147101 0.00030629538572495116 0.00081656568392107223 0.00017218240572343667 -0.00078861415571956689 -0.0032668798434901595 0.00061835135698214583 0.0011816774797045776 -0.0008134739078676889 -0.0022739849126684319 -0.00035639778258088838 -0.0019087801189414154 0.00018763760552772179 0.00027238063572553208 -0.0004288605925987365 -0.0013032154718949078 0.00077150107620909845 0.0010796830584118367 -0.00040860582928050389 -0.0030086868949216646 -0.0030294000468990582 0.00061936824743355826 -0.00091428593015123265 0.00054768667956405501 -0.00042341751896758428 -0.00017982689875351926 -0.00097514253424187006 3.5833148284515337e-05 0.0017622350597552992 0.00012407124078001318 -2.7787218866137662e-06 -0.0003979706662685606 0.00055292289733095636 0.00053350881345647582 0.0027747692364767621 -0.00017528524126392525 0.00086878474488460858 0.0015995899552013915 0.0012447223843169658 0.00024839550035392452 -0.0007763671399194929 0.00049742723467712218 -0.00083815720103225157 -0.00070309132928526364
leaf_weight=1787 824 3189 5968 2829 11032 815 3153 2564 2313 536 4090 597 11998 729 2317 184 509 1494 623 527 775 1159 796 332 488 2245 353 6262 771 904 251 578 1153 2538 1389 983 803 2402 601 687 236 305 1139 506 2479 645 2033 795 991 1846 725 1024 2486 388 317 1251 1601 193 810 550 954 119
leaf_count=1787 824 3189 5968 2829 11032 815 3153 2564 2313 536 4090 597 11998 729 2317 184 509 1494 623 527 775 1159 796 332 488 2245 353 6262 771 904 251 578 1153 2538 1389 983 803 2402 601 687 236 305 1139 506 2479 645 2033 795 991 1846 725 1024 2486 388 317 1251 1601 193 810 550 954 119
internal_value=-3.05886e-05 -0.0138254 0.0198878 -0.00510111 -0.0206652 -0.0128098 -0.014721 0.00235434 0.00669362 0.0127015 0.0167486 0.00816781 0.0251582 0.00175258 -0.00707975 -0.00709924 0.0127634 -0.0114147 -0.00397959 0.0220006 -0.00134831 0.0135454 -0.00176158 -0.024589 0.00409487 0.0220385 0.00320459 -0.0218207 -0.0116682 -0.0230914 -0.017084 0.0138868 0.00094431 -0.0230932 0.0162368 0.00708962 -0.00225407 -0.0215889 -0.0191144 0.00380153 0.00822496 -0.000720887 -0.000625 -0.013762 -0.0151364 -0.00898279 0.0189012 -0.00266551 -0.00752464 -0.0102931 0.0174984 0.0114948 0.0190156 0.0150285 0.0215313 0.0156669 0.0146617 -0.0126061 -0.0099246 0.000655022 -0.0112302 0.00220183
internal_weight=104941 62001 42940 27247 34754 13396 13819 13851 10017 18168 9599 8569 24772 5820 8602 6550 6217 5146 2352 6218 3204 4197 4513 20935 2066 12774 1657 9903 1103 4794 1965 1307 3717 8800 4560 3381 1291 7269 4867 1310 1138 541 3456 1042 3080 3834 3422 1148 3652 2661 3038 2007 6806 2633 4173 1687 2128 3346 1061 1374 1138 436
internal_count=104941 62001 42940 27247 34754 13396 13819 13851 10017 18168 9599 8569 24772 5820 8602 6550 6217 5146 2352 6218 3204 4197 4513 20935 2066 12774 1657 9903 1103 4794 1965 1307 3717 8800 4560 3381 1291 7269 4867 1310 1138 541 3456 1042 3080 3834 3422 1148 3652 2661 3038 2007 6806 2633 4173 1687 2128 3346 1061 1374 1138 436
cat_boundaries=0 1 2 3 4 5 6
cat_threshold=2 2 2 1 2 2
is_linear=0
shrinkage=0.03


Tree=16
num_leaves=63
num_cat=5
split_feature=0 0 0 5 2 2 4 2 0 5 6 1 5 5 0 2 5 2 5 0 0 4 5 0 5 5 0 1 1 1 6 1 5 6 1 1 1 1 5 1 5 6 2 5 0 0 5 2 6 2 1 2 2 2 5 1 5 4 0 1 5 2
split_gain=31270.6 3451.3 2306.14 2155.1 1077.34 919.832 592.475 481.154 445.538 357.136 349.824 326.685 324.546 330.125 316.064 266.168 224.485 217.412 175.177 169.749 157.873 149.263 148.151 135.216 131.272 183.567 130.253 123.425 112.483 105.779 104.943 105.919 99.3406 98.5491 96.6875 94.7552 94.6303 90.3717 90.1925 89.2443 88.735 85.6628 85.126 111.641 84.3175 82.0006 80.4753 80.0156 78.2459 76.5072 75.9084 74.6313 74.3442 72.3901 101.121 68.7961 68.0252 82.6643 64.5454 90.3623 64.4527 63.306
threshold=65052.626783761334 58109.813001996015 70830.615618715659 171.50000000000003 6.5000000000000009 7.5000000000000009 2.5000000000000004 16.500000000000004 62239.685050390275 125.50000000000001 0 415.27500000000003 165.50000000000003 59.500000000000007 77049.401858926271 14.500000000000002 276.50000000000006 21.500000000000004 141.50000000000003 68206.615860916776 62328.212170625797 6.5000000000000009 143.50000000000003 53323.639379689863 267.50000000000006 263.50000000000006 66620.422766370772 1467.4200000000003 462.72000000000008 686.93000000000018 1 626.93500000000006 285.50000000000006 2 2337.3950000000004 270.25500000000005 1027.3300000000002 530.0150000000001 344.50000000000006 352.40500000000003 145.50000000000003 3 21.500000000000004 276.50000000000006 67025.454654315705 51511.632430538353 275.50000000000006 21.500000000000004 4 8.5000000000000018 450.48000000000008 16.500000000000004 7.5000000000000009 15.500000000000002 336.50000000000006 293.06500000000005 137.50000000000003 4.5000000000000009 62410.496662697558 1251.7250000000001 81.500000000000014 15.500000000000002
decision_type=2 2 2 2 2 2 2 2 2 2 1 2 2 2 2 2 2 2 2 2 2 2 2 2 2 2 2 2 2 2 1 2 2 1 2 2 2 2 2 2 2 1 2 2 2 2 2 2 1 2 2 2 2 2 2 2 2 2 2 2 2 2
left_child=1 7 5 6 16 11 41 9 10 23 40 -2 13 -7 21 20 -5 24 34 37 -6 -4 28 -1 25 36 -26 -15 55 38 -25 -32 -22 -28 -10 -19 -14 -13 -18 -11 50 -3 43 51 61 -41 -9 53 49 -47 -8 -17 -24 -23 -55 -12 57 -30 -43 -60 -52 -29
right_child=2 3 14 4 15 12 8 46 18 39 22 19 17 27 -16 42 29 35 -20 -21 32 47 52 30 26 -27 33 44 56 -31 31 -33 -34 -35 -36 -37 -38 -39 -40 45 -42 58 -44 -45 -46 48 -48 -49 -50 -51 60 -53 -54 54 -56 -57 -58 -59 59 -61 -62 -63
leaf_value=-0.002480995768411745 -0.0010805949363397237 0.00013592636136533997 0.0023214689717974283 -0.0026475868734560752 -0.0010636459389881819 0.00059018609638470548 0.0018493403841796051 -0.00044289325036939441 0.0011918302093048483 -0.0027321328106656786 -0.00076369778083937355 0.0012662388438604698 0.0012845823678247542 0.002191001115205871 0.0044371702573657518 -0.00022059001840594672 -0.0010324513216957787 0.000737441185859013 3.5910716970176669e-05 0.00071932461479626145 -0.00075890807366656599 0.0014260213661560421 -0.0013466625470819292 -0.0012741810289755386 0.00045840708170178545 -0.0011217567462384992 -0.00021768333338523319 0.00021475397392127255 -0.00023574439883621039 -0.0018367062797738265 -0.00046661019830804978 -0.0015474604447449363 -7.0483246929551319e-05 0.0014396483220733964 0.00041836430014654147 -0.00011961510506203864 0.00048376452697014181 -0.00022534240170681618 0.00047375611280566106 -0.0033346868130150922 -1.9938160533480299e-05 -0.0013384674006766792 -0.00047100992060646437 -0.00027234482092807681 0.0016042518734985794 -0.0020531931929275559 -0.001341031669724042 0.00085894100712591455 -0.0018661701066185238 -0.0004505924295776137 0.00087776792821416146 0.00092169155434497442 -0.00047948026840484019 0.0022113321539329986 0.00099614566477294387 0.00038265932075284836 0.00079158050720322664 -0.0010085311225476296 -0.00073801028331777765 0.00051791413485164468 -0.00013106095208189727 0.0011902788189406652
leaf_weight=3139 717 383 5750 4620 2832 1812 570 1752 2438 6673 446 298 659 3873 11905 277 1159 361 1004 1078 1050 3198 362 2120 1199 183 60 536 2178 1231 1426 828 1212 3293 803 1277 2125 2317 180 3200 463 1762 1577 1632 864 209 533 999 7077 399 434 595 608 2332 554 1189 235 570 1631 147 254 346
leaf_count=3139 717 383 5750 4620 2832 1812 570 1752 2438 6673 446 298 659 3873 11905 277 1159 361 1004 1078 1050 3198 362 2120 1199 183 60 536 2178 1231 1426 828 1212 3293 803 1277 2125 2317 180 3200 463 1762 1577 1632 864 209 533 999 7077 399 434 595 608 2332 554 1189 235 570 1631 147 254 346
internal_value=-6.7471e-05 -0.0144623 0.0185644 -0.00774826 -0.0153382 0.0112525 0.000277186 -0.0222774 0.00369742 -0.0234785 -0.000792174 -0.00092517 0.01449 0.0191482 0.0247708 -0.00852425 -0.0240334 0.0107098 0.0114276 0.00267262 -0.0130978 0.0215047 -0.0044345 -0.0180048 0.0128674 0.00795753 0.0160677 0.0227389 -0.00219576 -0.0169261 -0.0145953 -0.0100887 -0.00718833 0.0191023 0.0148195 0.000805861 0.00987069 -0.00145698 -0.0110904 -0.0258207 0.0110343 -0.00979607 -0.00281549 0.000623003 0.0161168 -0.0241461 -0.00909847 0.0185896 -0.0224658 -0.0121382 0.0151669 0.00928899 -0.0150928 0.0198817 0.0233264 0.00412844 -0.00566209 -0.0069869 -0.0112542 -0.0072216 0.0084593 0.00959184
internal_weight=104934 59198 45736 31842 16365 20998 15477 27356 11554 25071 7309 4410 16588 7431 24738 9175 7190 9157 4245 3693 5094 12833 5588 7513 7519 2967 4552 5619 4618 2570 4374 2254 2262 3353 3241 1638 2784 2615 1339 17558 1721 3923 4081 2504 1746 10885 2285 7083 7685 608 1258 872 970 6084 2886 1635 2983 2748 3540 1778 688 882
internal_count=104934 59198 45736 31842 16365 20998 15477 27356 11554 25071 7309 4410 16588 7431 24738 9175 7190 9157 4245 3693 5094 12833 5588 7513 7519 2967 4552 5619 4618 2570 4374 2254 2262 3353 3241 1638 2784 2615 1339 17558 1721 3923 4081 2504 1746 10885 2285 7083 7685 608 1258 872 970 6084 2886 1635 2983 2748 3540 1778 688 882
cat_boundaries=0 1 2 3 4 5
cat_threshold=4 2 1 1 1
is_linear=0
shrinkage=0.03


Tree=17
num_leaves=63
num_cat=2
