tree
version=v4
num_class=1
num_tree_per_iteration=1
label_index=0
max_feature_idx=9
feature_names=real_demand_land renew_util gas_lag168 gas_lag24 gas_rec24 gas_rec168 h hour dow doy
feature_infos=[38314.599999999999:96832.100000000006] [8.2175757990007924e-05:0.72648534334946135] [5780.4499999999998:38557.900000000001] [5780.4499999999998:38557.900000000001] [9161.3899999999994:29283.983333333334] [13655.828035714285:25146.959523809524] [1:360] [0:23] [0:6] [1:366]
tree_sizes=11677 11699 11689 11709 11685 11704 11704 11703 11704 11702 11692 11721 11678 11699 11716 11676 11711 11694 11685 11679 11677 11663 11683 11698 11707 11708 11690 11681 11689 11691 11713 11697 11665 11659 11705 11661 11692 11681 11695 11677 11674 11670 11671 11647 11671 11658 11676 11699 11650 11684 11641 11631 11619 11615 11636 11622 11665 11633 11606 11606 11614 11681 11666 11627 11654 11635 11685 11625 11659 11642 11693 11670 11655 11614 11639 11641 11619 11629 11697 11644 11614 11647 11604 11682 11627 11584 11648 11584 11585 11629 11607 11644 11558 11641 11606 11543 11639 11634 11635 11605 11684 11589 11574 11602 11656 11573 11558 11586 11532 11543 11606 11640 11601 11614 11608 11605 11622 11587 11633 11674 11626 11533 11593 11556 11556 11599 11589 11595 11525 11483 11555 11548 11634 11564 11555 11548 11555 11543 11454 11608 11488 11546 11544 11546 11575 11505 11567 11698 11500 11470 11551 11566 11504 11536 11568 11573 11507 11487 11499 11487 11573 11621 11455 11543 11601 11491 11570 11578 11562 11462 11509 11637 11447 11656 11500 11493 11496 11556 11557 11622 11463 11524 11624 11492 11549 11616 11483 11505 11533 11563 11533 11514 11569 11537 11563 11482 11416 11434 11461 11547 11486

Tree=0
num_leaves=127
num_cat=0
split_feature=0 0 0 0 0 0 0 7 9 7 9 0 7 0 0 7 8 9 9 9 7 9 7 0 8 0 9 9 9 9 9 0 7 7 9 7 9 9 9 7 9 9 9 5 0 7 5 7 0 0 8 9 0 9 9 9 7 7 9 9 7 5 9 9 7 0 8 8 0 0 5 9 0 9 7 8 7 7 9 9 9 1 5 8 9 1 9 8 8 0 0 0 0 0 8 0 0 7 0 9 9 9 0 9 0 1 9 0 0 8 9 5 2 1 9 9 7 9 9 7 0 9 0 9 1 9
split_gain=7.01846e+12 1.31385e+12 1.11041e+12 2.96786e+11 2.37082e+11 1.66735e+11 1.45324e+11 1.0893e+11 1.0934e+11 7.2847e+10 6.09421e+10 4.62883e+10 4.60549e+10 4.00135e+10 3.89839e+10 3.47115e+10 3.28413e+10 3.29924e+10 3.1338e+10 2.93692e+10 2.87899e+10 2.85489e+10 2.79655e+10 2.6384e+10 2.62592e+10 2.02379e+10 1.90562e+10 1.82929e+10 1.78595e+10 1.63606e+10 2.38414e+10 1.35804e+10 1.18412e+10 1.1782e+10 1.15895e+10 1.10038e+10 1.05172e+10 1.2097e+10 1.01586e+10 1.00847e+10 9.6032e+09 1.73374e+10 1.07424e+10 9.76868e+09 9.0845e+09 8.65928e+09 8.427e+09 8.42098e+09 7.92218e+09 7.75741e+09 7.73313e+09 7.24242e+09 7.07744e+09 6.962e+09 6.85149e+09 6.83793e+09 6.75512e+09 6.57129e+09 6.5666e+09 6.52023e+09 6.35677e+09 6.18428e+09 5.74136e+09 5.69518e+09 5.64452e+09 5.34979e+09 5.34059e+09 4.9803e+09 4.8511e+09 4.37167e+09 4.28324e+09 4.24177e+09 4.08058e+09 3.93275e+09 3.85133e+09 4.89882e+09 3.82856e+09 3.8253e+09 3.82499e+09 6.29155e+09 3.76244e+09 3.52743e+09 3.52259e+09 3.45872e+09 3.43709e+09 3.3916e+09 3.28301e+09 3.23599e+09 3.19915e+09 3.14451e+09 3.11747e+09 3.11242e+09 3.02739e+09 2.99519e+09 2.89493e+09 2.71933e+09 2.7029e+09 2.67429e+09 2.58006e+09 2.54497e+09 2.51636e+09 3.14428e+09 2.51532e+09 2.51043e+09 2.50792e+09 2.50155e+09 2.45485e+09 2.43113e+09 2.36548e+09 2.34953e+09 2.34807e+09 2.34406e+09 2.28797e+09 2.30466e+09 3.68813e+09 6.03072e+09 5.3178e+09 3.62452e+09 2.37949e+09 2.24529e+09 2.18886e+09 2.18244e+09 2.16486e+09 2.10868e+09 2.57749e+09 2.25299e+09
threshold=67596.550000000017 57903.05000000001 77912.150000000009 50950.100000000006 63514.450000000004 83886.000000000015 72221.700000000012 6.5000000000000009 142.50000000000003 15.500000000000002 160.50000000000003 46016.100000000006 15.500000000000002 88082.800000000017 54622.150000000009 5.5000000000000009 4.5000000000000009 162.50000000000003 58.500000000000007 265.50000000000006 5.5000000000000009 56.500000000000007 11.500000000000002 80844.550000000003 4.5000000000000009 75383.150000000009 142.50000000000003 266.50000000000006 58.500000000000007 162.50000000000003 58.500000000000007 60944.750000000007 16.500000000000004 1.0000000180025095e-35 140.50000000000003 20.500000000000004 170.50000000000003 56.500000000000007 266.50000000000006 19.500000000000004 184.50000000000003 56.500000000000007 250.50000000000003 18806.481250000008 61355.000000000007 15.500000000000002 18806.481250000008 15.500000000000002 65438.650000000001 47916.750000000007 4.5000000000000009 289.50000000000006 55487.500000000007 58.500000000000007 60.500000000000007 190.50000000000003 9.5000000000000018 5.5000000000000009 100.50000000000001 250.50000000000003 21.500000000000004 18806.481250000008 267.50000000000006 190.50000000000003 19.500000000000004 43221.55000000001 5.5000000000000009 5.5000000000000009 69727.900000000009 85874.200000000026 15138.968571428572 142.50000000000003 90960.200000000026 336.50000000000006 16.500000000000004 5.5000000000000009 11.500000000000002 8.5000000000000018 252.50000000000003 190.50000000000003 271.50000000000006 0.1994020834974464 17679.743214285718 5.5000000000000009 178.50000000000003 0.34557055332510694 250.50000000000003 4.5000000000000009 5.5000000000000009 69213.35000000002 65754.60000000002 53941.850000000006 69213.35000000002 66866.050000000017 4.5000000000000009 61252.750000000007 65976.300000000003 9.5000000000000018 62444.100000000013 302.50000000000006 194.50000000000003 60.500000000000007 55851.950000000004 74.500000000000014 70505.60000000002 0.26239540104257714 295.50000000000006 58888.55000000001 69956.250000000015 5.5000000000000009 80.500000000000014 15308.828928571431 19780.850000000002 0.15279669994273395 62.500000000000007 172.50000000000003 9.5000000000000018 190.50000000000003 308.50000000000006 15.500000000000002 65976.300000000003 62.500000000000007 61148.150000000009 94.500000000000014 0.026795960021578791 86.500000000000014
decision_type=2 2 2 2 2 2 2 2 2 2 2 2 2 2 2 2 2 2 2 2 2 2 2 2 2 2 2 2 2 2 2 2 2 2 2 2 2 2 2 2 2 2 2 2 2 2 2 2 2 2 2 2 2 2 2 2 2 2 2 2 2 2 2 2 2 2 2 2 2 2 2 2 2 2 2 2 2 2 2 2 2 2 2 2 2 2 2 2 2 2 2 2 2 2 2 2 2 2 2 2 2 2 2 2 2 2 2 2 2 2 2 2 10 2 2 2 2 2 2 2 2 2 2 2 2 2
left_child=1 3 6 11 7 23 15 8 21 20 14 65 24 69 56 89 17 18 -17 33 36 67 38 78 31 35 28 55 -22 30 88 -9 54 -10 53 40 37 -6 57 73 41 -8 -42 -43 112 50 -20 -18 77 -13 106 119 70 -14 -16 104 58 84 109 120 -31 -23 63 96 81 80 102 98 123 -7 -40 -33 -15 108 75 -58 -65 -30 79 -4 -1 -27 -68 -36 -12 -52 -57 93 -11 -2 -32 -87 -75 -64 95 -63 -28 -25 -3 -73 101 -46 -56 -50 -19 -59 -24 -55 -29 -5 -97 -54 113 114 116 -116 -26 -115 -117 -51 -38 -96 -35 125 -125 -48
right_child=2 4 5 10 9 13 25 12 19 29 22 49 34 72 32 16 47 27 46 -21 26 61 45 97 44 64 62 39 48 60 90 71 -34 122 83 -37 59 -39 52 -41 42 43 -44 -45 100 -47 68 -49 103 51 85 -53 111 107 66 86 74 105 -60 -61 -62 94 87 76 -66 -67 82 -69 -70 -71 -72 99 -74 92 -76 -77 -78 -79 -80 -81 -82 -83 -84 -85 -86 91 -88 -89 -90 -91 -92 -93 -94 -95 121 110 -98 -99 -100 -101 -102 -103 -104 -105 -106 -107 -108 -109 -110 -111 -112 -113 -114 117 115 118 -118 -119 -120 -121 -122 -123 -124 124 -126 -127
leaf_value=-329.58791750570953 -34.458575005527734 -153.07007796036348 239.05222479633014 -123.58286568085474 -67.045656170943502 335.91557332791444 115.06332394458028 -77.472419837824049 -124.25990227861129 10.253416934500645 -197.4558180934232 -248.47341209170114 -52.110225766514738 449.80228317934268 -144.09295657694943 51.246648577352488 -7.7820445185018361 39.674437687445256 119.55075614611128 -122.93544836530691 -33.221985498914812 -58.75207718518157 -139.47164315356474 326.40152987828412 -89.443412664063928 201.92153228620069 -35.374292838748438 98.391505185586396 84.926631152609673 26.80127062922239 65.122354259515362 -27.922433524036048 -48.189886386884673 -219.92641062501659 -28.494318759408916 84.289705356887708 -151.51237872270397 62.93772583257811 -229.76523939146324 37.296629825240821 79.021749907706877 166.46318758247568 146.93945211315392 262.9863049424381 -87.291794541938586 -92.261679535527378 144.88733811102162 52.118237162673303 48.540286489385856 -205.73793336013568 -189.10516277723551 -245.63645372701652 -188.22948871339369 -19.80000419785695 -123.42765656094799 -12.734855531638162 -162.47318704418194 -197.81241559526177 -153.54476830671041 -65.083102009465463 -23.164988153998113 -27.002815337444531 -14.437759060219966 -78.018203512221149 140.79318575246074 -274.83855238635942 -114.35096603934444 -61.245902452432325 205.06662727713012 379.54717587059878 -180.50411635954225 -62.665803654650972 516.76852006934644 9.607889467719593 -95.961715026034923 -205.04902884381201 -37.659569633720473 7.037123972925869 257.08596818189159 192.61528156240828 -267.50199271299317 166.81665667460058 -28.787957463834712 -66.580184988144836 -240.74974190881801 -174.97156633017346 42.364351836602616 -49.187389524477595 -57.602425864094386 13.544884538891186 100.35917212044461 -125.78070941612567 93.169194792902047 46.017785295214779 -46.145968298716092 -4.2027306090340559 8.5381594787526716 282.52977151390519 -90.209369709612233 -33.705504909504292 -89.017807791607751 -26.798397549763816 -101.36261581678203 117.02157251998571 94.24658257760224 -155.52271113814444 -97.953747470430656 31.640358521763968 134.7735333557107 -69.447425355973792 79.741124055326509 -141.42942950138246 -42.187950699295691 -83.68407131177203 -41.481800435021093 -162.6382402939295 -179.18554248764008 -122.7348779078997 -93.986613106553193 -144.71125306216152 -95.718315937792241 70.835429353925051 -191.67962080444516 -23.582546694643863 141.00443145726544 212.04202797629614
leaf_weight=3656 2399 2173 5625 1710 3748 4905 3343 23982 1642 1315 2431 7310 1365 2365 4598 4044 4309 1986 4610 7086 3832 2062 3025 1449 820 5767 4428 3842 709 5713 4574 8279 3032 7301 6500 4104 2161 778 1874 2789 3653 2169 4920 1673 1394 2765 2257 4143 711 16699 3832 4742 1170 993 6820 3278 8131 4102 7468 1963 3826 2447 9025 4896 3228 8351 643 1096 2534 3611 10550 10319 1276 621 580 3477 3726 2840 2756 4940 1165 4674 1326 3204 5192 2372 1384 2277 1192 2516 4470 2268 1050 803 175 810 1764 9600 807 3715 4347 1737 14658 1497 1226 1824 2229 4939 2772 1250 476 5511 382 3587 879 1187 2165 5308 738 563 897 795 3694 133 240 563
leaf_count=914 2399 2173 5625 1374 3748 4905 3343 8280 1642 1315 2431 2483 1365 2365 2186 4014 2098 1854 4580 7086 2023 2062 781 1449 433 5767 1767 3761 709 5713 4574 3251 3032 7301 6500 4104 2161 778 1403 2789 3551 2169 4920 1673 575 2765 2251 4143 588 8341 958 2168 903 993 3841 2738 2215 2941 6754 1963 3826 2447 4282 2565 3228 2570 295 1096 2534 3611 7418 4115 1276 426 580 972 1059 1553 2756 4940 346 4674 846 3204 5192 593 1237 876 1192 2516 4470 567 1050 704 175 810 1059 9600 807 1465 1380 588 7545 1497 1226 456 585 4939 2772 1028 476 4650 190 944 384 731 548 1357 438 563 897 795 3694 67 240 563
internal_value=-37.6485 -108.586 162.169 -175.975 -55.2317 299.282 99.7418 -81.1267 -129.762 -10.3393 -148.418 -242.676 -63.8095 390.034 -126.323 65.5267 74.398 87.792 122.053 -171.83 -31.4849 -53.2261 -172.558 254.008 -74.7298 147.39 -19.3552 61.7875 16.9597 35.8369 59.8483 -61.7995 -104.514 -199.244 -19.5917 128.052 -77.8679 -44.7003 -188.642 86.643 139.448 165.034 118.002 208.506 -101.282 -140.709 149.753 21.5804 50.3619 -221.681 -150.467 -212.778 -174.544 8.97218 -110.603 26.8294 -156.289 -208.518 -138.555 -107.763 6.76023 -15.4361 -32.2912 -44.8152 175.487 -289.395 -104.035 -115.943 174.059 354.425 -187.938 -44.9536 473.298 103.253 -171.459 -175.229 -60.5785 22.6014 225.569 217.343 -314.597 186.21 -56.7383 -41.0704 -226.949 -168.203 3.62347 -16.9639 -22.0119 -9.88594 82.54 -150.934 62.1199 -9.49738 3.55714 -8.44145 -22.8645 288.289 -136.054 -55.0002 -74.2471 -53.7354 -108.37 94.9762 60.5088 -184.801 -121.862 23.029 113.643 -100.728 26.8758 -149.631 -114.7 -116.585 -131.326 -106.603 -154.54 -106.989 -136.331 -203.749 -135.154 49.7254 -210.44 149.439 82.3367 158.309
internal_weight=445627 328873 116754 145324 183549 36527 80227 116404 30564 67145 102838 42486 85840 12157 53693 46696 41781 33329 14381 19723 46055 10841 49145 24370 68839 33531 36508 18948 9589 21090 11551 46295 31077 12637 17001 19862 9547 4526 32654 11074 15758 7185 8573 3842 22544 16491 10337 8452 5757 29314 13726 22004 19105 7297 28045 7874 22616 13549 10428 5021 9539 6765 26919 14814 13669 13172 23447 4076 5727 8516 12424 22313 3641 8285 12188 11608 8622 3549 13321 10565 4821 10441 1969 9704 7623 8472 4662 12105 2507 4915 9044 4640 1671 9828 4703 3733 6192 11049 2980 14034 7478 3131 21478 2208 3212 5926 5254 5932 6614 2960 1286 6681 15066 14684 5789 2804 2985 8895 1925 17262 3058 970 10995 3193 373 2820
internal_count=314473 201259 113214 79696 121563 36527 76687 72244 30564 49319 62311 17385 41680 12157 30668 43258 38343 32102 14249 19723 28229 10841 31643 24370 24679 33429 18682 17853 6370 21090 11551 17111 17745 12637 17001 19760 9547 4526 25394 10798 15656 7185 8471 3842 7568 6249 10235 6241 4347 13555 3484 11072 14374 7297 14713 7055 12923 11020 9156 5021 9539 6765 12312 6450 13669 3830 12527 4076 5655 8516 8821 8831 3641 8009 3767 3187 3624 2262 13321 10565 1260 10441 1141 9704 7623 2118 3975 5862 2507 4915 9044 1160 1476 4986 4703 3733 2826 11049 2980 5580 2543 1163 11386 2085 3080 3397 1366 5932 6533 2402 1286 5553 5025 4835 2534 1553 981 2301 1169 8904 3058 970 10995 3121 307 2814
is_linear=0
shrinkage=0.03


Tree=1
num_leaves=127
num_cat=0
split_feature=0 0 0 0 0 0 0 7 9 7 9 7 0 0 7 8 9 9 0 0 9 7 9 7 8 9 9 7 9 9 9 0 0 7 7 9 7 9 9 0 9 9 0 7 9 9 9 9 9 0 0 9 0 9 7 9 9 7 9 7 8 9 9 9 0 8 8 0 7 0 9 0 0 0 7 8 7 7 9 0 9 0 9 9 9 9 8 9 7 1 8 0 8 9 0 0 0 1 7 0 9 9 0 1 0 0 1 0 7 0 0 0 2 1 8 1 2 0 0 0 0 1 9 9 7 9
split_gain=6.6021e+12 1.23355e+12 1.04807e+12 2.79265e+11 2.24037e+11 1.49373e+11 1.46181e+11 1.01768e+11 1.02878e+11 6.85623e+10 5.91696e+10 4.37724e+10 3.98291e+10 3.86481e+10 3.53177e+10 3.22282e+10 3.19129e+10 3.10247e+10 3.04486e+10 2.76493e+10 2.76336e+10 2.70756e+10 2.68619e+10 2.52355e+10 2.4932e+10 1.84885e+10 1.79396e+10 1.67853e+10 1.66888e+10 1.53937e+10 2.24325e+10 1.28167e+10 1.13605e+10 1.11414e+10 1.10856e+10 1.09075e+10 1.02122e+10 9.89574e+09 1.13822e+10 9.83754e+09 9.47138e+09 8.75222e+09 8.56495e+09 8.12181e+09 7.5885e+09 7.52998e+09 1.4022e+10 7.53565e+09 7.49335e+09 7.06307e+09 7.04461e+09 6.4466e+09 6.36511e+09 6.35755e+09 6.2725e+09 6.14687e+09 6.13494e+09 6.00936e+09 6.80057e+09 5.9811e+09 5.39187e+09 5.37587e+09 5.35862e+09 5.06329e+09 5.03376e+09 5.02488e+09 4.68599e+09 4.2208e+09 4.18111e+09 4.15939e+09 4.07956e+09 3.99945e+09 3.89722e+09 3.83957e+09 3.67226e+09 4.33586e+09 3.6023e+09 3.59929e+09 3.53998e+09 3.48135e+09 3.3878e+09 3.33726e+09 3.30018e+09 3.28987e+09 3.23186e+09 5.52697e+09 3.20709e+09 3.11444e+09 3.11075e+09 4.59334e+09 3.03787e+09 3.01032e+09 3.01011e+09 2.97682e+09 2.95586e+09 2.95048e+09 2.85357e+09 2.65672e+09 2.6896e+09 2.54317e+09 2.46774e+09 2.95848e+09 2.43668e+09 2.42672e+09 2.4083e+09 2.36668e+09 2.33902e+09 2.33628e+09 2.31914e+09 2.28231e+09 2.25462e+09 2.24833e+09 2.18471e+09 2.17958e+09 2.08372e+09 3.03412e+09 2.06535e+09 2.05949e+09 2.05451e+09 2.0496e+09 2.03689e+09 2.01436e+09 3.47015e+09 5.67437e+09 5.0035e+09 3.09021e+09
threshold=67596.550000000017 57903.05000000001 78127.35000000002 50655.750000000007 63514.450000000004 84902.050000000003 72789.000000000015 6.5000000000000009 142.50000000000003 15.500000000000002 160.50000000000003 15.500000000000002 46016.100000000006 54622.150000000009 5.5000000000000009 4.5000000000000009 162.50000000000003 58.500000000000007 81186.950000000026 88082.800000000017 265.50000000000006 5.5000000000000009 56.500000000000007 11.500000000000002 4.5000000000000009 266.50000000000006 142.50000000000003 20.500000000000004 58.500000000000007 162.50000000000003 58.500000000000007 61469.650000000009 75383.150000000009 16.500000000000004 1.0000000180025095e-35 142.50000000000003 19.500000000000004 170.50000000000003 56.500000000000007 53941.850000000006 266.50000000000006 94.500000000000014 61355.000000000007 15.500000000000002 190.50000000000003 184.50000000000003 56.500000000000007 251.50000000000003 74.500000000000014 55487.500000000007 65438.650000000001 60.500000000000007 47916.750000000007 58.500000000000007 5.5000000000000009 289.50000000000006 250.50000000000003 9.5000000000000018 94.500000000000014 21.500000000000004 4.5000000000000009 267.50000000000006 190.50000000000003 166.50000000000003 43221.55000000001 5.5000000000000009 5.5000000000000009 69727.900000000009 15.500000000000002 70505.60000000002 337.50000000000006 82768.750000000015 61252.750000000007 90960.200000000026 16.500000000000004 5.5000000000000009 11.500000000000002 8.5000000000000018 271.50000000000006 70505.60000000002 142.50000000000003 75799.500000000015 110.50000000000001 252.50000000000003 252.50000000000003 190.50000000000003 5.5000000000000009 178.50000000000003 15.500000000000002 0.3515485543553562 4.5000000000000009 69213.35000000002 5.5000000000000009 78.500000000000014 59459.450000000004 64919.400000000009 65754.60000000002 0.1994020834974464 17.500000000000004 65976.300000000003 194.50000000000003 60.500000000000007 62286.850000000013 0.10726985059272348 58888.55000000001 55851.950000000004 0.24730739306132191 69474.35000000002 9.5000000000000018 86444.450000000026 70230.200000000026 69337.10000000002 19780.850000000002 0.26239540104257714 1.0000000180025095e-35 0.33990689295356274 13210.650000000001 65976.300000000003 66768.800000000017 71342.050000000017 61148.150000000009 0.15279669994273395 62.500000000000007 172.50000000000003 9.5000000000000018 190.50000000000003
decision_type=2 2 2 2 2 2 2 2 2 2 2 2 2 2 2 2 2 2 2 2 2 2 2 2 2 2 2 2 2 2 2 2 2 2 2 2 2 2 2 2 2 2 2 2 2 2 2 2 2 2 2 2 2 2 2 2 2 2 2 2 2 2 2 2 2 2 2 2 2 2 2 2 2 2 2 2 2 2 2 2 2 2 2 2 2 2 2 2 2 2 2 2 2 2 2 2 2 2 2 2 2 2 2 2 2 2 2 2 2 2 2 2 10 2 2 2 10 2 2 2 2 2 2 2 2 2
left_child=1 3 6 12 7 18 14 8 22 21 13 24 64 57 91 16 17 119 84 109 34 37 66 40 31 44 28 32 -23 30 92 94 45 51 -10 53 67 38 -6 68 54 48 112 107 79 46 -8 -47 111 116 77 -15 -14 -13 87 114 117 58 -5 118 72 62 99 -48 78 105 102 70 -25 103 -27 -20 -24 -21 75 -59 -64 -30 -1 -18 -33 -29 -67 110 85 -4 -37 -12 89 -41 96 -2 -11 -74 -9 -32 -63 98 -34 -28 101 -44 -3 -50 -55 -53 -52 -17 -73 -7 -46 -19 121 -56 -54 -116 -42 -39 -31 -16 -36 122 124 -124 -26 -123
right_child=2 4 5 10 9 19 27 11 20 29 23 35 52 33 15 43 25 41 71 73 -22 26 60 39 42 36 61 81 50 59 95 80 97 -35 120 86 -38 56 -40 88 49 -43 100 -45 83 47 63 -49 69 -51 106 65 55 104 113 -57 -58 74 -60 -61 -62 90 76 -65 -66 82 -68 -69 -70 -71 -72 108 93 -75 -76 -77 -78 -79 -80 -81 -82 -83 -84 -85 -86 -87 -88 -89 -90 -91 -92 -93 -94 -95 -96 -97 -98 -99 -100 -101 -102 -103 -104 -105 -106 -107 -108 -109 -110 -111 -112 -113 -114 -115 115 -117 -118 -119 -120 -121 -122 125 123 -125 -126 -127
leaf_value=-319.70082165653548 -33.424904319976882 -150.98287194653952 237.10623246538296 -92.389606937591537 -65.034394996834507 339.39505601734868 116.06738767921883 -84.929086282524921 -120.53256026223754 9.9458611725890727 -192.91506429095048 -50.547148941089212 -241.01941363688536 -139.77035844972178 41.656114015133362 -23.294626030454577 37.727169229916939 109.01477413884781 272.38429864918965 436.30936850940196 -119.24749371825055 -32.563372803224638 -43.194805823499756 -177.10180860429367 -86.760765869877318 93.689029858622447 -34.313112558130705 85.974252586784658 82.379551484903487 15.532683527794658 54.045722253413537 -22.509347565571101 207.21584844223105 -46.744285790680131 -213.32879871938326 -28.158154727789846 38.857851163130981 -146.96743106873814 61.050077264531353 -166.3300637886633 -188.1232057196697 116.7837591298775 -84.673418167211665 52.400843945329406 -34.769186895552892 83.060130772323987 235.5299078928723 146.09496299516198 203.65526847902967 -145.14198912168516 107.78169652686688 -119.72494037782883 -225.79647038884443 -20.630377657880583 -191.85973771091221 -240.80895264417396 -63.130808958272766 -158.27881905326649 -148.82689233285339 -22.470075075376254 41.196636622073051 -20.080501858941243 -75.677752332686211 154.40046233662795 -266.59358905756056 -28.853177554595771 -59.408863597550408 121.34525851840441 -86.946963601355407 258.78136139015942 13.381639201188813 352.6017815495004 -18.473326847247382 501.26791115255492 -93.075065154150266 -197.6803799268543 -36.529843044071136 6.8260252958552519 -259.47831157523251 97.042941161980792 -49.899623445744695 135.69703668697167 -112.65465554062503 47.545950964394663 253.15558212066111 193.66162451977999 -65.266885126578458 -233.6659173494719 -90.837202781739805 -116.94532701088595 -47.711895913707551 13.124292664054563 -55.874642983500415 69.24857189435707 -65.021554810121458 91.352744866088827 14.950463582051011 162.96128579248713 171.05118289870401 8.2820444073540287 -87.129305422194136 -25.99453813542755 -93.213764857351649 133.45524375118424 29.492499251315888 -98.321782715963607 38.509637769576038 20.787887024856133 299.21342885074569 377.23910562894326 11.705401367117178 160.49531244479812 -40.922974228072952 -152.84418802479456 -182.12937097203763 -211.02950629990417 -154.02770766399496 -92.84740789228924 56.928000190062889 81.626852114582277 -185.92955427543092 -82.783289078851297 -40.237627527950238 -132.24217240733611 -173.81047275894875 -119.0529710528405
leaf_weight=3656 2399 1999 5591 2496 3748 3653 2829 10889 1642 1315 2500 1365 7310 4598 3020 2626 2025 1305 6150 2365 7086 3793 4008 5520 820 3422 4428 3779 709 4269 2737 6314 4157 3032 7301 6367 2970 2161 778 2309 11022 4601 1394 4368 1539 3047 2070 3884 1439 6681 1673 6820 2334 1038 4139 4126 1963 8640 8369 3826 1253 6765 4896 1043 8351 1354 1096 5024 506 916 683 858 957 1276 590 3552 3726 2840 1165 1590 11408 1792 615 1370 2750 5003 3125 5251 2305 6393 2277 2611 1192 547 17519 6307 3030 5090 3354 1764 4308 1737 981 643 5106 14658 595 1840 5314 2409 2411 1848 382 1880 7366 5908 1878 897 1444 1870 3694 3518 879 1925 2165 5308
leaf_count=914 2399 1999 5591 2019 3748 3653 2829 3602 1642 1315 2500 1365 2483 2186 2990 967 1854 1269 6150 2365 7086 2023 4008 1380 433 3341 1767 3779 709 4269 2737 2582 4157 3032 7301 6367 2970 2161 778 602 7893 4535 575 4368 1272 2981 2070 3884 1439 5553 1607 3841 2004 1038 2978 1876 1963 2358 7502 3826 1253 2955 2565 1043 2570 871 1096 4913 506 916 488 858 957 1276 590 1011 1059 1553 346 1590 4514 1792 270 1253 2750 5003 3125 5251 2305 1626 876 2611 1192 547 6413 6307 2031 5090 3354 1059 1380 588 981 643 5106 7545 478 1288 5314 2409 2042 1848 190 470 4360 1594 1260 897 1444 1870 3694 944 384 1169 548 1357
internal_value=-36.529 -105.422 157.061 -170.696 -53.6603 293.452 97.9172 -78.8798 -125.869 -10.034 -144.971 -62.0952 -237.929 -123.372 66.4335 74.7559 87.146 119.597 255.541 393.726 -166.675 -30.5528 -51.6295 -168.43 -72.7796 63.0127 -18.7863 149.15 16.3943 34.7618 58.0529 -60.1629 159.467 -101.379 -193.267 -19.004 87.1829 -75.5321 -43.3593 -138.717 -183.604 148.09 -98.7195 23.3156 30.2822 139.639 164.424 118.387 171.503 -170.191 48.3174 -107.285 -217.089 8.01273 -202.675 -208.222 -104.53 -152.275 -135.864 6.55742 -14.973 -31.3611 -43.4708 208.359 -280.713 -100.914 -112.465 102.904 -169.535 205.468 80.3286 289.551 -27.7427 459.101 -166.223 -169.761 -58.7612 21.9235 -305.159 63.8202 -40.1414 101.973 -55.0366 7.49122 224.132 216.594 -40.3764 -220.527 -121.842 -130.053 -16.5003 -9.16588 -21.3517 13.4358 -72.6528 80.0639 -9.24389 179.72 191.072 -22.1786 -72.3976 -52.1236 -131.973 181.99 21.0241 -105.119 89.6135 -5.13243 306.646 354.446 -6.40288 139.196 -111.775 -179.679 -199.604 -194.995 -183.162 -131.1 25.9973 56.9442 -204.127 -113.626 -127.386 -103.405 -149.905 -104.598
internal_weight=445522 328588 116934 145324 183264 35369 81565 116131 30564 67133 105108 85567 40216 54724 50520 45510 36676 15642 25666 9703 19723 46043 10841 50384 68566 21034 36496 31045 9610 21090 11551 46130 25474 31077 12637 17001 12099 9547 4526 17033 33351 10752 22436 8834 8935 12873 5942 6931 6151 19581 5817 28045 27044 7509 13770 19734 5021 23647 10865 9539 6765 26886 14814 3113 13172 23447 4076 9129 6026 2998 4105 12322 5512 3641 12782 12192 8622 3549 4821 3615 17722 5571 1969 5320 13344 10594 9492 7751 11007 8702 12072 5010 2507 1504 28408 9044 9795 12601 7511 6192 7439 3131 2980 2082 6144 21478 2268 4466 6172 6062 3950 3153 14997 6019 15608 13274 12900 3058 5713 4890 10995 14615 5789 2804 2985 8826
internal_count=314473 201259 113214 79696 121563 35369 77845 72244 30564 49319 63549 41680 16147 31225 46866 41856 35233 15510 25666 9703 19723 28229 10841 32324 24679 19723 18682 30979 6370 21090 11551 17111 25408 17745 12637 17001 11712 9547 4526 6419 25905 10650 7568 6623 8011 12807 5942 6865 6115 14706 4347 14713 12317 7509 11199 9834 5021 13480 9521 9539 6765 12312 6450 3113 3830 12527 4076 8742 1886 2998 3829 12322 5512 3641 3959 3369 3624 2262 1260 3444 7096 5571 1141 4567 13344 10594 9492 7751 4533 2228 5862 5010 2507 1504 10015 9044 4986 12601 7511 2826 2543 1163 2980 2082 6144 11386 2085 2255 6172 6062 3314 3117 5025 3448 7958 5954 9153 3058 5713 4860 10995 4835 2534 1553 981 2301
is_linear=0
shrinkage=0.03


Tree=2
num_leaves=127
num_cat=0
split_feature=0 0 0 0 0 0 0 7 9 7 7 9 0 7 9 0 9 9 9 0 9 9 9 0 7 9 9 0 0 7 9 9 9 9 9 5 7 7 0 0 7 7 7 7 9 0 0 9 9 9 5 9 0 7 5 9 9 5 7 0 1 7 9 0 7 9 5 0 7 9 7 0 9 9 9 5 0 0 9 9 1 0 0 9 7 0 7 9 9 0 0 1 9 1 9 0 9 1 7 0 9 7 0 7 9 9 1 7 0 0 5 0 9 9 0 1 9 7 7 0 0 7 0 7 7 9
split_gain=6.21648e+12 1.08258e+12 1.08197e+12 2.29416e+11 2.06137e+11 1.5619e+11 1.47206e+11 8.58933e+10 7.78144e+10 8.21873e+10 4.70375e+10 3.916e+10 3.74754e+10 3.67952e+10 3.66854e+10 3.53621e+10 3.30605e+10 5.48146e+10 3.11594e+10 2.61507e+10 2.5765e+10 2.52266e+10 2.2801e+10 2.17467e+10 1.88947e+10 1.74842e+10 2.00052e+10 1.69642e+10 1.57496e+10 1.55799e+10 1.47532e+10 1.22362e+10 1.16526e+10 1.10357e+10 1.09817e+10 9.6868e+09 9.03393e+09 7.93057e+09 7.70926e+09 7.564e+09 7.10369e+09 7.04463e+09 6.50301e+09 6.3811e+09 6.06056e+09 5.9889e+09 5.934e+09 5.92296e+09 1.28013e+10 8.15653e+09 7.90592e+09 5.78362e+09 5.77997e+09 5.72151e+09 5.71162e+09 5.4367e+09 5.41604e+09 5.02357e+09 4.99186e+09 4.95025e+09 4.78391e+09 5.73534e+09 4.75102e+09 4.7364e+09 4.70317e+09 5.80894e+09 4.41769e+09 4.35697e+09 4.26654e+09 4.23828e+09 4.2166e+09 3.88232e+09 3.64416e+09 8.54228e+09 7.41701e+09 6.74887e+09 3.61279e+09 3.60121e+09 3.60034e+09 6.59288e+09 3.5736e+09 3.46071e+09 3.35108e+09 3.33068e+09 3.25056e+09 3.11616e+09 3.06771e+09 3.01962e+09 3.28648e+09 2.92416e+09 2.84476e+09 2.84387e+09 2.80891e+09 2.77998e+09 2.70395e+09 2.6799e+09 2.6285e+09 2.5459e+09 2.51451e+09 2.47837e+09 2.4361e+09 2.43516e+09 2.36781e+09 2.33028e+09 2.31951e+09 2.63309e+09 2.56356e+09 2.30519e+09 2.29199e+09 2.19787e+09 2.1909e+09 2.12805e+09 2.08019e+09 2.35709e+09 2.07891e+09 2.0359e+09 2.34031e+09 2.02566e+09 2.02436e+09 2.00089e+09 1.98861e+09 1.90573e+09 1.90179e+09 1.90005e+09 1.8968e+09 1.85194e+09
threshold=67089.450000000026 56853.55000000001 77694.950000000012 61469.650000000009 50655.750000000007 83886.000000000015 72035.250000000015 6.5000000000000009 164.50000000000003 6.5000000000000009 15.500000000000002 168.50000000000003 46016.100000000006 5.5000000000000009 160.50000000000003 88082.800000000017 164.50000000000003 58.500000000000007 58.500000000000007 80844.550000000003 58.500000000000007 267.50000000000006 266.50000000000006 54212.05000000001 15.500000000000002 158.50000000000003 58.500000000000007 74390.950000000012 64315.700000000004 11.500000000000002 258.50000000000006 92.500000000000014 142.50000000000003 64.500000000000014 330.50000000000006 18806.481250000008 15.500000000000002 20.500000000000004 69079.900000000009 64048.350000000006 20.500000000000004 21.500000000000004 17.500000000000004 16.500000000000004 142.50000000000003 47916.750000000007 58991.700000000004 184.50000000000003 56.500000000000007 250.50000000000003 18806.481250000008 289.50000000000006 53941.850000000006 8.5000000000000018 17609.877023809528 266.50000000000006 58.500000000000007 15138.968571428572 1.5000000000000002 69474.35000000002 0.15702066843513449 9.5000000000000018 188.50000000000003 43221.55000000001 9.5000000000000018 100.50000000000001 18485.475000000002 69956.250000000015 16.500000000000004 178.50000000000003 1.0000000180025095e-35 86444.450000000026 184.50000000000003 255.50000000000003 56.500000000000007 19272.180059523813 90960.200000000026 69213.35000000002 252.50000000000003 194.50000000000003 0.086099715231096191 70357.750000000015 58991.700000000004 271.50000000000006 8.5000000000000018 58500.05000000001 16.500000000000004 266.50000000000006 188.50000000000003 69213.35000000002 54504.650000000001 0.32152973319753514 190.50000000000003 0.35701190169946179 60.500000000000007 57903.05000000001 251.50000000000003 0.3515485543553562 17.500000000000004 64423.500000000007 80.500000000000014 9.5000000000000018 64048.350000000006 10.500000000000002 38.500000000000007 138.50000000000003 0.062196334212116067 8.5000000000000018 76056.750000000015 64524.30000000001 20563.588392857146 79454.950000000026 74.500000000000014 94.500000000000014 59184.500000000007 0.075938419826536013 356.50000000000006 21.500000000000004 10.500000000000002 55377.05000000001 64524.30000000001 11.500000000000002 76993.900000000009 1.0000000180025095e-35 19.500000000000004 94.500000000000014
decision_type=2 2 2 2 2 2 2 2 2 2 2 2 2 2 2 2 2 2 2 2 2 2 2 2 2 2 2 2 2 2 2 2 2 2 2 2 2 2 2 2 2 2 2 2 2 2 2 2 2 2 2 2 2 2 2 2 2 2 2 2 2 2 2 2 2 2 2 2 2 2 2 2 2 2 2 2 2 2 2 2 2 2 2 2 2 2 2 2 2 2 2 2 2 2 2 2 2 2 2 2 2 2 2 2 2 2 2 2 2 2 2 2 2 2 2 2 2 2 2 2 2 2 2 2 2 2
left_child=1 4 6 8 12 19 13 11 18 21 28 20 63 77 23 71 17 81 42 78 99 58 38 64 31 26 -12 40 44 55 70 53 33 -30 67 91 54 72 92 -28 47 -27 60 52 56 -14 80 48 -8 -49 -50 -47 -31 110 85 69 -9 -57 -10 125 61 -3 -40 83 65 -6 -46 124 104 -16 -13 -7 74 108 -29 -76 -17 -2 79 118 123 -15 -26 -1 -58 -11 94 88 -34 -36 -59 -19 -18 -71 -66 -56 -64 -54 -91 -5 -22 -21 -32 -90 -25 -106 -107 -35 -74 -72 -20 -81 -61 -114 -38 -23 -117 -45 -4 -108 -43 -97 -75 -33 -24 -37
right_child=2 3 5 7 14 15 27 10 9 36 25 30 45 16 29 76 22 35 24 101 100 115 34 68 82 41 39 37 32 43 102 46 87 107 89 59 114 -39 62 -41 -42 120 -44 117 66 51 -48 49 50 -51 -52 -53 97 -55 95 57 84 90 -60 112 -62 -63 96 -65 86 -67 -68 -69 -70 93 109 -73 73 122 75 -77 -78 -79 -80 111 -82 -83 -84 -85 -86 -87 -88 -89 103 98 -92 -93 -94 -95 -96 121 -98 -99 -100 -101 -102 -103 -104 -105 105 106 119 -109 -110 -111 -112 -113 113 -115 -116 116 -118 -119 -120 -121 -122 -123 -124 -125 -126 -127
leaf_value=-310.11032101720951 -36.457460963511693 -110.87988243696375 253.65918608559682 -90.347107361291123 -95.248671250354562 320.80838494804289 91.528802423196154 -66.348468227823219 -162.6327041105024 -106.62299707320213 -29.648401284598361 -106.8964381881601 -233.78902622256402 12.694518531309582 -171.82527616844857 423.22119120806383 24.901223877757932 112.68367273441403 -25.760478822312141 307.64838348649789 25.812647323559101 -118.15128765676397 87.424486494214378 -140.5544006522417 -30.632169424607252 12.397284215708888 26.969566695260838 156.19023665186515 -19.899950135235958 -170.48489753098073 -98.893769300950595 -61.09376965623764 -16.356639858561675 115.96425418453614 9.2274702439679821 142.93369633078908 -76.836964006919558 110.76426807011831 75.425697544537215 78.705606946127375 71.860649382107013 -48.285936686781028 -8.4071068361018533 -38.397306043065697 -45.826959108186443 -193.61617559962187 -60.357330539849798 62.587286464539282 143.15385449422411 131.18762940179894 240.29441576649668 -233.58503582338545 -158.23383417217141 -57.550866587054479 -147.80945373796342 -209.96099906694391 41.109894689627161 -175.5254302256871 -212.86197140183822 155.62916803569806 -87.770282931526978 -167.27090706965259 13.731683365134062 -258.5959681172082 -194.13827716252501 -149.00303141867863 -75.82837840814372 125.360351213521 -61.949506647515008 -216.82165264189663 -175.18078874998358 365.92286769531898 98.560450525221484 170.20623428284944 188.62510119106199 296.38210513846133 486.23220978141893 11.60900424417262 239.52625380909217 158.45305733763797 -76.631681893388617 58.41553373475238 13.788528600598925 -251.6952962826258 -20.485162453156832 -77.130717485362396 -91.00808590257607 -10.810419039233931 -75.657269867195581 81.993596211110145 -148.15909740713249 54.582241257615436 -20.061663853901614 -129.18863306217315 -158.69425378226018 -121.77612874606658 66.544610674596981 -116.22306875956197 27.94183408372378 -51.279266557415177 94.039170608955629 265.78795140076221 -53.41879978389094 -34.968724635701804 -101.49739141887126 -162.1474660332382 -143.72754734073166 51.179487062708027 142.87901126735312 -131.30132656233923 19.299837616074544 198.59516977494002 223.04837569848303 120.52729838449606 -38.234230360301261 -168.49095551815213 -75.245983918819988 -114.23328854458333 213.19914239751273 -94.507279281376839 -11.879064758759867 -94.543532122402667 221.24296677823281 -116.31434521681366 46.615819410983768 82.483584385639446
leaf_weight=3656 3370 3909 1417 3124 2462 6107 2260 2262 2261 4841 2907 1515 7310 4858 3494 2365 1709 5044 2727 1449 1857 4897 4449 2235 2906 6261 4106 4506 2588 5734 2454 640 4121 629 2086 3167 2282 3114 2063 6684 3195 3400 490 607 17585 15608 11013 2652 1726 3790 1341 4126 1850 4802 1916 2534 868 8165 8452 1127 2830 2779 5006 8351 2512 6841 5900 2510 1680 6533 3921 2409 2203 3420 1770 744 1276 2403 2978 2755 6912 2149 3224 1165 6895 9670 504 7537 2202 1561 5902 893 4659 344 8547 4867 1021 4373 1538 2748 631 9600 1778 2984 13526 1374 1194 2310 2012 1397 1508 2102 1427 236 2793 1633 285 664 5317 1976 2240 4418 817 4573 1333 534
leaf_count=914 3370 3486 1417 3124 2021 6107 2260 876 2261 1433 2907 1515 2483 3916 2825 2365 1499 5044 2727 1449 1857 4897 4269 951 2906 6261 4106 4506 1265 1594 2454 640 1907 629 1717 3161 2282 3114 1994 6684 3195 3400 490 607 6575 7958 4785 2520 1726 3790 1341 1876 710 1346 638 1898 868 5420 8452 1127 817 871 4001 2570 673 6091 2168 2510 1680 5516 3921 2409 2203 3420 1770 744 1276 2403 2978 2755 2232 2107 3224 346 2614 3472 504 3589 1230 1450 5053 755 2868 86 2385 2188 949 1151 1538 2748 631 9600 1778 848 7685 1374 372 1851 2012 1397 1508 2102 1427 236 2793 1633 285 664 5317 686 2240 1121 817 3115 1333 468
internal_value=-35.4542 -105.277 144.504 -61.7417 -175.04 278.499 86.117 -30.1034 -94.7799 -121.701 -16.5886 -86.7908 -230.791 55.0557 -148.043 367.054 63.7701 93.8175 -67.8573 236.472 -37.7851 -173.557 42.865 -128.73 -55.5419 17.0895 40.2004 135.317 -32.016 -168.63 -123.815 -64.7386 -12.5233 25.274 70.9373 131.648 -92.1766 154.46 16.6969 59.019 111.539 -9.50925 -114.992 -141.955 -45.029 -210.576 -76.3007 122.31 145.718 102.95 185.64 -201.975 -148.749 -35.1344 -99.3966 -181.711 -25.5009 -171.057 -202.264 156.98 -120.478 -134.316 36.1323 -272.292 -150.668 -134.78 -53.3646 92.3515 -107.907 -198.762 -151.077 333.579 163.253 149.971 179.239 220.536 445.329 -16.4502 210.068 202.495 -90.7807 26.7181 -7.26995 -296.005 -13.5972 -86.9709 -163.449 -24.9258 -36.3563 36.6888 -164.046 103.947 -7.99443 -212.442 -166.749 -115.492 22.6803 -128.717 55.1718 -72.0664 43.1222 271.283 -79.7917 -52.2475 -111.709 -108.139 -127.905 65.0516 119.721 -163.659 -9.71523 175.833 187.165 208.516 -55.5945 -128.426 -154.645 -78.0275 221.72 -113.054 -33.8274 -108.821 180.057 -109.538 78.0183 134.217
internal_weight=445267 320799 124468 197532 123267 37775 86693 100904 96628 48315 81479 19425 40216 53143 83051 12157 47370 19435 48313 25618 8360 17528 27935 42851 38305 25598 13697 33550 55881 40200 11065 32175 22371 5527 13477 12428 30787 18586 14458 10790 14964 11901 10008 13228 33510 27044 23138 11769 5327 6442 3067 19734 11957 9037 25712 26972 10025 16601 10713 6491 9518 6688 8090 13172 20866 9303 23485 8292 21985 10371 6833 8516 15472 8452 7020 2514 3641 5773 14569 11591 12125 7007 6130 4821 7763 14511 11563 16844 9307 5185 14067 5937 6368 6877 11059 11201 6027 6223 3099 5872 2488 11049 4232 5186 20305 18070 4544 2939 4215 5318 4235 4857 2790 1663 5075 6815 1918 1271 6734 3170 5640 9285 4237 5213 5782 3701
internal_count=314473 195138 119335 129045 66093 37775 81560 69443 59602 31455 50018 19425 16147 48142 49946 12157 42369 18241 28147 25618 8360 17528 24128 24422 22483 25598 13697 33418 24420 25524 11065 16353 11319 3745 12817 12218 13927 18586 11311 10790 14832 11901 5664 4726 13101 12317 10772 11637 5327 6310 3067 9834 3455 5581 8852 20798 4358 12371 10713 6419 5174 4357 6944 3830 11674 8112 8743 8112 12748 8427 6833 8516 15472 8452 7020 2514 3641 5773 14569 11591 5987 6023 6130 1260 3482 4905 3562 7574 3985 4705 10473 5799 4367 5602 3058 3947 4950 1861 2988 5872 2488 11049 4232 2078 11068 10117 2432 2480 4215 5318 4235 4857 2790 1663 5075 6815 1918 1271 6734 1058 5640 3309 4237 3755 5602 3629
is_linear=0
shrinkage=0.03


Tree=3
num_leaves=127
num_cat=0
split_feature=0 0 0 0 0 0 0 7 9 7 7 9 0 9 0 7 8 9 9 0 9 9 9 0 7 9 9 9 0 0 7 9 9 9 9 7 9 7 7 0 8 7 8 7 9 7 7 7 9 9 9 5 0 0 0 9 0 7 7 9 9 9 5 7 0 8 1 7 8 9 7 9 9 0 7 8 9 9 9 5 0 9 9 9 1 7 8 0 9 0 0 7 0 0 9 8 1 8 9 0 9 9 1 0 7 8 0 9 8 0 9 8 7 9 1 8 0 0 9 7 5 9 0 1 9 9
split_gain=5.85086e+12 1.03157e+12 9.99963e+11 2.22953e+11 1.93954e+11 1.4696e+11 1.32376e+11 8.35119e+10 7.35807e+10 7.67851e+10 4.58702e+10 3.67091e+10 3.52609e+10 3.45173e+10 3.32728e+10 3.29361e+10 3.33325e+10 3.06215e+10 2.95925e+10 2.46051e+10 2.42342e+10 2.41871e+10 2.3737e+10 2.04643e+10 1.77781e+10 1.72964e+10 1.65238e+10 1.91809e+10 1.63719e+10 1.59126e+10 1.46591e+10 1.39656e+10 1.15131e+10 9.6391e+09 1.03624e+10 9.06199e+09 8.67828e+09 8.62044e+09 8.52763e+09 7.97701e+09 7.92388e+09 7.46196e+09 7.23641e+09 7.07445e+09 6.51491e+09 6.51041e+09 6.15976e+09 6.00389e+09 5.87877e+09 1.20449e+10 8.14126e+09 7.43877e+09 5.63498e+09 5.62856e+09 5.58333e+09 5.44189e+09 5.43835e+09 5.38338e+09 5.14162e+09 5.63584e+09 5.11543e+09 5.07056e+09 4.74974e+09 4.71166e+09 4.4566e+09 4.37936e+09 4.29363e+09 5.47689e+09 4.71161e+09 4.10819e+09 4.05546e+09 3.9878e+09 3.77052e+09 3.70438e+09 3.58795e+09 3.53651e+09 3.42881e+09 8.03749e+09 6.97887e+09 6.35023e+09 3.39942e+09 3.39576e+09 3.38757e+09 6.20323e+09 3.36374e+09 3.24845e+09 3.9969e+09 3.15305e+09 3.13375e+09 3.03567e+09 2.97256e+09 2.93295e+09 2.87583e+09 2.82978e+09 2.73887e+09 2.67259e+09 2.61556e+09 2.54134e+09 2.53445e+09 2.52055e+09 2.48185e+09 2.47185e+09 2.39548e+09 2.39412e+09 2.37847e+09 2.3721e+09 2.34758e+09 2.33509e+09 2.48819e+09 2.29519e+09 2.29219e+09 3.2279e+09 2.29137e+09 2.28134e+09 2.21697e+09 2.19728e+09 2.188e+09 2.15655e+09 2.11365e+09 2.10755e+09 2.09078e+09 2.04888e+09 2.2605e+09 2.01389e+09 2.01235e+09 2.2231e+09
threshold=67189.400000000009 56853.55000000001 77694.950000000012 61469.650000000009 50655.750000000007 83886.000000000015 72035.250000000015 15.500000000000002 164.50000000000003 6.5000000000000009 6.5000000000000009 168.50000000000003 46016.100000000006 160.50000000000003 88082.800000000017 5.5000000000000009 4.5000000000000009 162.50000000000003 58.500000000000007 80844.550000000003 60.500000000000007 58.500000000000007 268.50000000000006 54622.150000000009 15.500000000000002 266.50000000000006 160.50000000000003 58.500000000000007 74390.950000000012 64825.30000000001 11.500000000000002 258.50000000000006 92.500000000000014 144.50000000000003 64.500000000000014 15.500000000000002 94.500000000000014 15.500000000000002 20.500000000000004 64524.30000000001 4.5000000000000009 20.500000000000004 4.5000000000000009 21.500000000000004 184.50000000000003 20.500000000000004 17.500000000000004 16.500000000000004 184.50000000000003 56.500000000000007 250.50000000000003 18806.481250000008 47916.750000000007 69337.10000000002 58991.700000000004 289.50000000000006 53941.850000000006 8.5000000000000018 9.5000000000000018 94.500000000000014 266.50000000000006 142.50000000000003 15271.393571428573 1.5000000000000002 43221.55000000001 4.5000000000000009 0.14950101113560144 9.5000000000000018 5.5000000000000009 80.500000000000014 1.0000000180025095e-35 178.50000000000003 336.50000000000006 85874.200000000026 16.500000000000004 5.5000000000000009 184.50000000000003 255.50000000000003 56.500000000000007 19272.180059523813 90960.200000000026 302.50000000000006 252.50000000000003 194.50000000000003 0.088982338373077549 16.500000000000004 5.5000000000000009 58991.700000000004 271.50000000000006 69213.35000000002 69956.250000000015 9.5000000000000018 69847.250000000015 53941.850000000006 307.50000000000006 4.5000000000000009 0.35701190169946179 5.5000000000000009 190.50000000000003 70505.60000000002 295.50000000000006 60.500000000000007 0.3515485543553562 64423.500000000007 8.5000000000000018 4.5000000000000009 64048.350000000006 60.500000000000007 5.5000000000000009 68401.900000000009 80.500000000000014 4.5000000000000009 9.5000000000000018 291.50000000000006 0.31578815164816615 4.5000000000000009 64524.30000000001 76056.750000000015 74.500000000000014 7.5000000000000009 19153.387500000004 80.500000000000014 58589.900000000009 0.06296200955699964 267.50000000000006 186.50000000000003
decision_type=2 2 2 2 2 2 2 2 2 2 2 2 2 2 2 2 2 2 2 2 2 2 2 2 2 2 2 2 2 2 2 2 2 2 2 2 2 2 2 2 2 2 2 2 2 2 2 2 2 2 2 2 2 2 2 2 2 2 2 2 2 2 2 2 2 2 2 2 2 2 2 2 2 2 2 2 2 2 2 2 2 2 2 2 2 2 2 2 2 2 2 2 2 2 2 2 2 2 2 2 2 2 2 2 2 2 2 2 2 2 2 2 2 2 2 2 2 2 2 2 2 2 2 2 2 2
left_child=1 4 6 8 12 19 15 10 18 22 11 21 64 23 73 89 17 20 46 82 -17 103 63 58 32 44 27 75 45 40 60 70 57 34 -31 -18 53 42 72 115 61 76 100 105 99 48 66 56 49 -8 -50 -51 -14 118 84 -54 -32 65 59 -6 71 104 113 -10 88 121 67 68 -3 -55 -13 -15 90 -7 107 -9 78 117 -30 -80 -16 119 83 -4 -34 86 -60 -26 -1 -2 -27 -83 -46 -64 -95 124 -73 -39 101 -19 -11 -42 -58 -5 -12 -28 -33 -25 -109 -38 111 -23 -21 -62 -44 -29 -72 -78 -22 -63 -103 -20 -123 -120 125 -35
right_child=2 3 5 7 13 14 28 26 9 37 29 31 52 30 80 16 35 25 24 112 36 110 -24 74 87 38 43 39 41 33 47 106 54 95 -36 -37 109 97 -40 -41 98 -43 114 -45 92 -47 -48 -49 50 51 -52 -53 55 69 -56 -57 102 -59 85 -61 62 81 93 -65 -66 -67 -68 -69 -70 -71 116 96 -74 -75 -76 -77 77 -79 79 -81 -82 91 -84 -85 -86 -87 -88 -89 -90 -91 -92 -93 -94 94 -96 -97 -98 -99 -100 -101 -102 120 -104 -105 -106 -107 -108 108 -110 -111 -112 -113 -114 -115 -116 -117 -118 -119 123 -121 -122 122 -124 -125 -126 -127
leaf_value=-300.80751937633431 -33.36457105661183 -141.03428713626067 215.06902458551417 -87.63686679740178 -88.343151202214287 306.53441383394789 88.783181265434038 3.2408566876110818 -157.77049357150079 -93.836126174817608 30.723974622223473 -103.22327960218438 -226.77554623484139 -166.67081437555504 410.52561598748258 49.18616024067957 -13.174202375259229 34.858980713224497 -46.904394268027723 298.42020350600222 99.286854959984154 8.4360356107399443 -124.5146091998382 -131.57455468066274 -29.713267550164247 82.028870511951681 32.643898011288002 22.002503404749415 151.50474004804317 -17.227634159468376 -165.37052898988748 -95.927195595828394 -106.12408472556629 -7.6706416290079726 71.916417644285119 44.484114005752502 80.079941245058947 -35.307443420092262 17.968669525730633 80.584197498699396 -68.394036113524521 107.44155047294623 -123.52524904634363 -32.648994530121243 -23.805875391695317 69.704964681309221 -8.1549965044859718 -75.687422298049682 59.208141814835265 138.85973662004147 127.25221077467758 233.08665377659261 -187.80776397706643 159.7430250343987 -58.546643329308345 -226.57782578306765 -153.48733189271186 -55.824412248171456 -148.78293410461231 -140.0837946296644 -164.77223803499032 -93.89287184814404 -172.37649286901967 -206.4762610235029 -250.83828085475363 38.668831597503036 -87.481448929269675 -164.05164190703229 -74.556654792756049 234.97699526564944 -169.92563617647539 -210.31720170329527 49.394681264947835 346.69616687590434 -58.791832315185978 -62.66043458257171 95.603905092293402 174.65621177675501 182.96698702319893 287.49302055032877 471.64754479699252 28.950528940321032 232.34094607090825 170.55857363348002 -74.230561013294761 -87.681468498323042 -186.61194967464596 13.374898241972867 -244.14573296999708 11.260763756254224 120.41885717762099 -31.317836368964386 20.347271384865721 -160.60493840793791 -122.22732354285915 -39.979244160664415 -125.31522908363144 -78.136683317718209 -76.047015422744906 93.204641695338466 -67.679992962665509 -33.837018060318343 -112.73653488919817 -49.595938750484351 -19.826346420323709 -3.8382324833240653 -50.808456740576936 -105.32075887330147 -65.056112086392361 119.98561221185857 91.218887097753935 119.26325740197166 257.814477104959 -219.81606102335778 -97.884886453708873 80.553322594081791 -126.59982690086545 138.59306791923757 181.74866705418611 -46.590950468257958 55.101520817507776 -52.808956600220739 38.239844763225598 116.20093469917774 3.7839325801521411 -49.219466294402181
leaf_weight=3656 3197 1932 6734 3124 2451 4905 2260 1520 2272 6710 938 1553 7310 3494 2365 4555 5219 2065 1963 1449 1312 1579 6804 2685 2906 5174 3042 4389 4506 2239 5734 2454 5256 2857 2466 4629 2192 2869 1970 6145 2038 3114 7398 5625 2607 3195 490 1271 2718 1726 3790 1341 15608 1819 11013 4126 1850 4802 8640 8369 1054 906 6681 8452 8351 1215 2991 2657 1908 1022 3921 6533 1996 3611 1594 1415 2203 4237 1770 744 1276 866 2978 4857 6869 590 3552 3224 1165 2403 2799 4514 2705 4123 2825 4280 344 2206 6273 984 6366 1642 4373 2847 7822 3393 1800 13429 1541 3185 631 278 9600 1918 5157 664 1437 2012 874 13194 278 387 670 819 4264 1950
leaf_count=914 3197 1887 6734 3124 2019 4905 2260 1520 2272 2615 938 1553 2483 2825 2365 4411 2426 1861 1963 1449 1243 1579 6804 1269 2906 5054 3042 4389 4506 1102 1594 2454 3798 1396 2160 4629 2081 2869 1970 6145 832 3114 2808 5625 2115 3195 490 1271 2520 1726 3790 1341 7958 1819 4785 1876 710 1346 2358 7502 781 906 4227 8452 2570 1215 891 830 1566 1022 3921 5516 1690 3611 1594 1415 2203 4237 1770 744 1276 779 2978 4857 2189 590 1011 3224 346 2403 2799 1436 2372 3661 2234 1436 86 2206 2004 984 2130 493 1151 2847 3010 3393 1800 7219 860 3155 631 278 9600 1468 1299 664 1437 2012 874 4650 209 387 670 819 2365 1128
internal_value=-34.4091 -101.602 141.682 -59.3343 -169.789 270.144 84.6863 -28.4864 -92.0443 -118.252 -44.3799 -83.8966 -223.868 -143.602 356.044 54.4715 62.8469 76.1999 -65.8632 229.378 107.55 -36.756 -168.351 -124.868 -53.8757 51.8327 17.7207 39.7315 130.998 -30.6609 -163.571 -119.611 -62.7965 -7.42703 29.4959 13.9281 131.236 -89.6526 75.0062 57.6238 -41.5654 149.827 -96.7259 -8.07381 18.7413 107.713 -111.88 -137.697 117.973 141.347 98.837 180.072 -204.259 156.539 -74.0118 -195.916 -144.287 -34.0804 -143.592 -128.365 -176.26 -33.37 -165.925 -196.161 -264.124 -9.42379 -117.237 -130.932 -108.009 186.822 -145.935 -192.799 86.2769 323.572 -101.909 -28.5331 158.356 145.473 173.863 213.921 431.971 -41.8945 203.766 196.421 -88.0574 -156.479 -159.807 -7.05187 -287.126 -14.2158 95.5087 -21.6159 -1.3221 -158.425 -145.005 -20.4392 -206.069 -53.9268 -64.1857 53.6937 -81.1033 -45.3839 -124.856 -69.501 -14.413 13.4083 -76.8393 -105.801 -101.177 103.721 41.8289 25.0384 263.145 -200.308 -112.995 29.6994 -158.311 116.13 127.899 -49.6316 -20.9551 -28.7736 4.90041 150.057 -11.2189 -24.5266
internal_weight=445045 322128 122917 198861 123267 37775 85142 102344 96517 48234 76151 19624 40216 83051 12157 51526 45926 36078 48283 25618 15778 8459 17528 42851 38305 20300 26193 14133 33616 56527 40200 11165 32175 18056 4705 9848 11223 30706 11939 11198 38471 18586 25631 12060 8361 15030 9978 13228 11835 5327 6508 3067 27044 5846 23138 19734 11957 9037 23602 10820 26972 28240 16601 10724 13172 4235 9488 6497 3840 2841 6911 10371 9969 8516 19249 2935 15472 8452 7020 2514 3641 19480 14569 11591 12125 12782 12192 6130 4821 5600 7973 5380 5312 13629 6948 13351 6877 5075 10231 3049 13076 3958 6223 5971 8760 6435 4254 17655 14970 5377 2488 1857 11049 2972 12555 5053 5358 4215 3005 14100 1920 3020 1057 1693 9071 4807
internal_count=314473 196356 118117 130263 66093 37775 80342 70661 59602 31455 44468 19624 16147 49946 12157 46924 41324 34269 28147 25618 15424 8459 17528 24422 22483 18845 26193 14133 33418 24844 25524 11165 16353 9587 3262 7055 11013 13927 11513 11198 15257 18586 8852 12060 7332 14832 5664 4726 11637 5327 6310 3067 12317 5777 10772 9834 3455 5581 13480 9521 20798 11719 12371 10724 3830 4235 5174 4283 3453 2841 6911 8427 9543 8516 10942 2935 15472 8452 7020 2514 3641 7771 14569 11591 5987 3959 3369 6130 1260 5600 7853 2215 4487 10122 5895 6325 5602 5075 3538 2845 4745 1534 1861 5971 3948 6435 4254 9348 8079 5236 2488 1857 11049 2249 4107 5053 5358 4215 2936 5556 702 3020 1057 1693 4889 2524
is_linear=0
shrinkage=0.03


Tree=4
num_leaves=127
num_cat=0
split_feature=0 0 0 0 0 0 0 7 9 7 7 0 9 7 8 0 9 9 9 9 0 9 9 0 7 9 9 9 0 7 0 9 9 9 7 7 9 9 9 7 9 9 9 5 7 7 8 8 0 9 7 7 7 9 7 0 5 8 9 9 7 0 8 7 7 0 0 7 8 0 9 9 8 7 0 0 9 9 0 9 9 0 9 9 0 2 7 0 8 5 0 7 8 8 9 0 9 9 8 7 0 9 8 8 7 9 9 9 0 0 9 5 7 5 5 9 7 9 0 0 9 9 9 5 9 9
split_gain=5.51027e+12 9.58947e+11 9.53172e+11 2.03177e+11 1.82512e+11 1.38276e+11 1.2965e+11 7.57138e+10 6.84841e+10 7.21912e+10 4.19894e+10 3.4988e+10 3.46757e+10 3.2562e+10 3.27425e+10 3.1307e+10 3.09863e+10 2.75647e+10 2.55895e+10 2.36477e+10 2.32906e+10 2.28227e+10 2.23342e+10 1.9824e+10 1.69312e+10 1.68871e+10 1.55068e+10 1.77134e+10 1.54577e+10 1.5199e+10 1.423e+10 1.31569e+10 1.07797e+10 1.06201e+10 9.13721e+09 8.9751e+09 8.55959e+09 8.77024e+09 8.19169e+09 8.12338e+09 8.12333e+09 1.5307e+10 9.69407e+09 8.51413e+09 7.98564e+09 7.60039e+09 7.28325e+09 6.7826e+09 6.75299e+09 6.28971e+09 6.23432e+09 6.15864e+09 5.8217e+09 5.31815e+09 5.30331e+09 5.27585e+09 4.95754e+09 5.16224e+09 4.83872e+09 4.67443e+09 4.43315e+09 4.19333e+09 4.12962e+09 4.08956e+09 4.01322e+09 3.86314e+09 3.80353e+09 3.78328e+09 3.64481e+09 3.49365e+09 3.42469e+09 5.55618e+09 3.36814e+09 3.27613e+09 3.19864e+09 3.18665e+09 3.1755e+09 3.17256e+09 3.05252e+09 2.99645e+09 2.9768e+09 2.96672e+09 2.94846e+09 2.9012e+09 2.89272e+09 2.88958e+09 2.85254e+09 2.82798e+09 2.74267e+09 2.60236e+09 2.56118e+09 2.55325e+09 2.39375e+09 2.39117e+09 2.38467e+09 2.37596e+09 2.32579e+09 2.31638e+09 2.30757e+09 2.25164e+09 2.24313e+09 2.2172e+09 2.20996e+09 2.19893e+09 2.17253e+09 2.14948e+09 2.12683e+09 2.06831e+09 2.01878e+09 2.01447e+09 1.98147e+09 1.9804e+09 1.9728e+09 1.96728e+09 1.93514e+09 2.18959e+09 1.92582e+09 1.91634e+09 1.90789e+09 1.87682e+09 1.86612e+09 5.06352e+09 3.00435e+09 2.27847e+09 2.39563e+09 1.84489e+09
threshold=67089.450000000026 77694.950000000012 56853.55000000001 61469.650000000009 49509.80000000001 83886.000000000015 72035.250000000015 6.5000000000000009 164.50000000000003 6.5000000000000009 15.500000000000002 53941.850000000006 168.50000000000003 5.5000000000000009 4.5000000000000009 88082.800000000017 162.50000000000003 58.500000000000007 160.50000000000003 60.500000000000007 80544.60000000002 60.500000000000007 268.50000000000006 46016.100000000006 15.500000000000002 266.50000000000006 158.50000000000003 58.500000000000007 75383.150000000009 6.5000000000000009 64825.30000000001 250.50000000000003 148.50000000000003 92.500000000000014 15.500000000000002 20.500000000000004 144.50000000000003 64.500000000000014 94.500000000000014 15.500000000000002 184.50000000000003 56.500000000000007 250.50000000000003 18806.481250000008 20.500000000000004 16.500000000000004 4.5000000000000009 4.5000000000000009 64048.350000000006 184.50000000000003 21.500000000000004 9.5000000000000018 16.500000000000004 74.500000000000014 8.5000000000000018 58991.700000000004 17786.262767857148 5.5000000000000009 142.50000000000003 309.50000000000006 1.5000000000000002 43221.55000000001 3.5000000000000004 19.500000000000004 16.500000000000004 69079.900000000009 68401.900000000009 1.0000000180025095e-35 1.0000000180025095e-35 86444.450000000026 252.50000000000003 190.50000000000003 5.5000000000000009 16.500000000000004 90960.200000000026 69213.35000000002 60.500000000000007 138.50000000000003 51187.750000000007 302.50000000000006 68.500000000000014 58991.700000000004 271.50000000000006 300.50000000000006 82411.800000000003 13643.6 9.5000000000000018 69847.250000000015 4.5000000000000009 15138.968571428572 68950.000000000015 11.500000000000002 4.5000000000000009 5.5000000000000009 190.50000000000003 64048.350000000006 60.500000000000007 295.50000000000006 5.5000000000000009 8.5000000000000018 47916.750000000007 336.50000000000006 4.5000000000000009 5.5000000000000009 15.500000000000002 28.500000000000004 190.50000000000003 304.50000000000006 64423.500000000007 69474.35000000002 334.50000000000006 15367.77648809524 7.5000000000000009 19153.387500000004 21155.179761904768 36.500000000000007 5.5000000000000009 289.50000000000006 68401.900000000009 64423.500000000007 262.50000000000006 184.50000000000003 42.500000000000007 20339.501101190483 60.500000000000007 74.500000000000014
decision_type=2 2 2 2 2 2 2 2 2 2 2 2 2 2 2 2 2 2 2 2 2 2 2 2 2 2 2 2 2 2 2 2 2 2 2 2 2 2 2 2 2 2 2 2 2 2 2 2 2 2 2 2 2 2 2 2 2 2 2 2 2 2 2 2 2 2 2 2 2 2 2 2 2 2 2 2 2 2 2 2 2 2 2 2 2 10 2 2 2 2 2 2 2 2 2 2 2 2 2 2 2 2 2 2 2 2 2 2 2 2 2 2 2 2 2 2 2 2 2 2 2 2 2 2 2 2
left_child=2 6 4 8 23 20 13 12 17 22 30 32 21 75 16 69 19 52 64 -15 70 103 60 61 33 49 27 72 35 59 46 67 51 54 109 40 37 -32 53 47 41 -8 -42 -43 66 68 58 97 -29 90 102 56 114 -21 62 -35 -6 -58 99 85 -10 82 -19 120 76 -55 -27 -14 116 -7 71 105 -12 80 -17 -2 -13 98 83 112 -53 -26 -1 -70 -22 -20 -81 -51 -31 107 -18 -79 -38 -41 96 -33 -48 -11 -78 -9 -25 -68 -28 108 -90 -3 -49 -80 -5 -16 -44 -61 -60 -98 115 -4 -34 -102 -40 -52 121 122 -30 -124 -125 -45
right_child=1 5 3 7 11 15 28 10 9 39 26 18 31 14 34 74 25 24 29 38 84 -23 -24 100 81 44 50 48 63 88 36 95 45 55 -36 -37 92 -39 118 93 42 43 110 125 -46 -47 94 106 -50 87 119 73 -54 65 -56 -57 57 -59 79 111 -62 -63 -64 -65 -66 -67 101 -69 78 -71 -72 -73 -74 -75 -76 -77 77 91 89 86 -82 -83 -84 -85 -86 -87 -88 -89 104 -91 -92 -93 -94 -95 -96 -97 113 -99 -100 -101 117 -103 -104 -105 -106 -107 -108 -109 -110 -111 -112 -113 -114 -115 -116 -117 -118 -119 -120 -121 -122 -123 123 124 -126 -127
leaf_value=-291.78378450047182 -34.292262791033757 184.11126012369499 -105.82293639389074 -89.172689856498252 -145.13595575342126 301.75158641516367 98.537021112450105 29.802450963241714 -153.03779481414884 -91.021126159549041 3.2209675749585887 -133.59913723904251 -101.05121934596892 46.957873476495124 -25.682180379216607 398.21089470416746 16.00209621021413 -35.218342237829837 -188.79880779860025 119.71624226835141 240.43900166433968 46.92879378178457 -120.77927998999454 -219.97246994540805 -28.821930929359457 54.28904004576755 30.637154562041943 25.247234037763093 147.7173602747591 -104.25808953091875 -16.397641756286973 -96.153205470659586 -221.10475011160375 -85.694680181785046 42.931178332088194 73.231032920898556 -11.551628366081776 67.094591118925564 80.929581903585472 -34.248294379769987 66.909733590163299 145.09800056272218 146.15672906816914 208.45868870688668 16.76681418243464 -44.426552442642041 -66.342416129843571 -86.083167916827861 74.131095402914397 -23.148870657420371 -46.709164743540533 -185.50470251134925 -20.396276382885564 143.76567324781897 -55.44997982890186 -56.96340579991913 -131.86611765565942 -55.44395971772672 -91.076705712878493 -198.45020309904487 -200.28212059174265 -243.31331764891382 24.509839842398392 122.78003619917287 -59.612648263976567 208.37653839999982 102.8954885917467 -156.79564954323899 -176.91451697739313 344.54606807530769 224.37926665159318 163.49959993016583 -61.4038137681381 -83.917392618406723 457.50032928567225 10.922968931779881 -99.228449614275178 -141.95438379260329 -173.4637184932314 28.082213688623376 -153.42038135766362 12.973675129397485 -236.82261575685098 -219.92671827618847 270.26069243659407 -124.10465653631923 -31.532103813216615 19.736898158898498 -141.22135504168455 -161.563297046526 71.717980012931278 -98.548596260976495 -39.630180790948316 -75.792794783023965 -73.765677929794137 -52.699563129794974 -32.822030566615865 -65.742739850604082 -58.244575566770443 -19.405060142938279 -191.03321282062097 62.429283961345938 -5.0843747082236259 -15.285089152596807 -96.786470632473836 222.01840694878072 -116.09362184087985 -251.4044683722216 -52.575264118365766 14.086298954030823 109.0039152559706 -121.34299946111382 -45.308189263629444 53.449663320468709 -98.687793292794723 -144.32841271208588 -169.99336760994436 -222.84861341203964 116.38627274190004 -11.687150542178061 186.61425965965108 125.91911865258805 176.25443051249934 201.95088354047695 305.99599455878246 270.93013414021004
leaf_weight=3656 3370 2213 2504 2855 5147 6107 3540 938 2272 6710 1507 3518 1407 4619 3857 2365 1189 2386 8055 2616 7367 2218 6804 7310 2906 3057 2927 4106 1785 3861 2149 2756 2456 12086 4761 4379 8652 2393 2396 2869 3946 2289 2840 1136 1995 388 2038 2715 6684 2833 3250 3685 632 1629 4691 10980 1777 1441 906 361 8452 8351 1849 2950 1701 1710 5680 4978 4497 2409 2834 4831 1400 493 1276 2403 12524 2813 719 866 8919 3224 1165 2065 4897 675 4352 2705 7028 12744 1978 2158 3994 2206 6273 1924 1642 6357 1373 7753 7770 1553 3334 700 1155 3476 9840 538 2587 1631 2378 1784 13161 278 4000 2842 915 2195 3185 2390 2328 2998 1465 593 302 687
leaf_count=914 3370 2213 1172 2855 4577 6107 3540 938 2272 2615 1507 1625 1407 4445 1430 2365 988 2386 8055 2547 7367 2218 6804 2483 2906 2715 2927 4106 1785 1311 1072 2756 2456 5987 4761 4379 4641 2087 2285 2869 3748 2289 2840 1136 1995 388 832 789 6684 2260 3250 976 632 1629 1346 4785 1369 1195 906 361 8452 2570 1849 2950 1701 1710 5680 4978 2217 2409 2834 4831 1400 493 1276 2403 7067 2129 389 779 2442 3224 346 751 4897 675 1436 2372 2651 6747 1909 613 1363 2206 2004 1924 493 2130 878 3010 3963 1409 3334 700 1155 3476 3318 220 2587 1079 2378 1784 4650 209 2419 1441 600 992 3155 2390 2328 2998 1465 593 302 687
internal_value=-33.4159 135.873 -99.3147 -58.3351 -164.737 262.04 80.9542 -28.4762 -89.4627 -114.726 -15.7188 -143.823 -81.6679 51.797 59.9909 345.363 73.0889 -64.1337 -125.641 104.322 222.497 -35.5534 -163.3 -228.472 -52.5145 49.0499 16.0572 37.8219 127.069 -148.334 -30.4024 -116.508 -162.49 -61.266 12.52 111.493 -7.73257 27.5921 127.289 -86.9886 121.455 144.277 102.397 183.647 71.7007 -176.167 -40.6007 -93.8572 55.5298 17.0828 -8.99237 -146.989 -108.524 151.765 -33.4791 -72.0185 -126.871 -97.6503 -32.6793 -174.046 -190.276 -256.2 -9.14111 153.645 -104.048 176.865 82.3506 -144.515 -178.302 313.865 195.076 187.178 -27.9042 -159.835 419.013 -15.4718 -107.423 -102.541 -173.556 -41.055 -162.804 -6.84033 -278.513 -190.456 252.351 -183.8 -21.6376 -2.20164 -125.114 -165.633 50.8027 -123.116 -20.4202 -52.3091 -62.2602 -78.2919 -44.0225 -78.7246 -95.1802 -14.0936 -207.326 94.2089 11.6158 -65.34 -134.952 207.28 -109.605 -206.857 -71.7777 -13.8631 129.23 -134.337 -48.2572 -20.3263 -114.483 -126.298 -207.242 -198.046 101.168 -31.8692 163.256 155.638 177.126 199.355 237.119 232.028
internal_weight=444538 124558 319980 196743 123237 37775 86783 100418 96325 48225 80993 92790 19425 53167 47394 12157 37145 48100 47006 16155 25618 8360 17528 30447 38122 20990 25598 13697 33616 22919 55395 11065 45784 31992 10249 21195 17188 4542 11536 30697 16816 7652 9164 4112 12285 24322 38207 25622 10790 8705 11901 21462 9978 5955 8926 23066 8365 3218 27976 10875 10724 13172 4235 12421 24087 3339 10290 6385 23934 8516 13354 10520 2907 13097 3641 5773 22386 18868 20563 19285 12604 6130 4821 6562 12264 8730 5218 5538 12044 14001 3167 4971 12646 5075 10231 4680 3958 13067 13897 8691 17275 7233 6261 6142 8183 5689 12555 1257 5442 5488 5218 2145 14067 1920 9346 5346 3371 9965 5581 5640 9471 7143 4145 2360 895 1823
internal_count=314473 119335 195138 129045 66093 37775 81560 69443 59602 31455 50018 54825 19425 48142 42369 12157 35099 28147 30005 15771 25618 8360 17528 11268 22483 19328 25598 13697 33418 15992 24420 11065 24820 16353 7270 20997 9163 3159 11326 13927 16618 7652 8966 4112 11799 13768 15257 8852 10790 7529 11901 11052 5664 5886 5581 10772 7141 2564 11719 10875 10724 3830 4235 12421 14013 3339 9804 6385 13380 8516 13354 10520 2907 3911 3641 5773 12312 10687 10324 7771 3418 6130 1260 2968 12264 8730 2215 4632 5117 7356 2897 2742 6004 5075 3538 4680 1534 4745 7945 3948 7438 7089 6261 6142 3806 5689 4107 609 5442 2509 5218 2145 5556 702 5032 2613 3056 4955 5440 5640 9471 7143 4145 2360 895 1823
is_linear=0
shrinkage=0.03


Tree=5
num_leaves=127
num_cat=0
split_feature=0 0 0 0 0 0 0 7 9 7 7 9 0 7 0 9 9 7 0 9 9 0 9 0 7 0 9 9 9 9 9 9 7 5 9 9 9 7 0 7 5 9 9 9 9 0 9 9 9 5 0 1 0 0 0 5 1 7 5 7 7 0 9 9 9 9 0 9 9 0 7 0 5 9 9 0 0 0 9 9 9 1 9 0 5 0 9 0 9 9 9 7 0 9 7 9 1 5 7 7 0 9 0 1 9 0 9 1 9 9 1 1 7 1 9 7 7 9 9 9 9 7 9 5 9 1
split_gain=5.17888e+12 9.08429e+11 9.05255e+11 1.81293e+11 1.80542e+11 1.30728e+11 1.21039e+11 7.48635e+10 8.25078e+10 5.21674e+10 3.75429e+10 3.63726e+10 3.23517e+10 3.10247e+10 2.95051e+10 2.76504e+10 4.82867e+10 2.48499e+10 2.13322e+10 2.13163e+10 2.09141e+10 2.07173e+10 1.98639e+10 1.801e+10 1.45701e+10 1.38867e+10 1.36265e+10 1.35918e+10 1.41337e+10 1.18692e+10 1.54472e+10 1.02324e+10 1.01158e+10 8.416e+09 7.76184e+09 7.65338e+09 7.60677e+09 6.62227e+09 6.35693e+09 6.25514e+09 6.22457e+09 6.19546e+09 6.1547e+09 6.04976e+09 6.30222e+09 5.96185e+09 5.49817e+09 1.10324e+10 9.19372e+09 6.80927e+09 5.17263e+09 5.04077e+09 5.02868e+09 4.93851e+09 4.86053e+09 4.68482e+09 4.58495e+09 4.45294e+09 5.02027e+09 4.39039e+09 4.38448e+09 4.36074e+09 4.33996e+09 6.3452e+09 5.66144e+09 4.33791e+09 4.04876e+09 3.99061e+09 3.98817e+09 3.64877e+09 3.52781e+09 3.34425e+09 3.29231e+09 3.21325e+09 4.96246e+09 3.18839e+09 3.14615e+09 3.12282e+09 3.11425e+09 1.02656e+10 5.63013e+09 3.09782e+09 2.92995e+09 2.92052e+09 2.91864e+09 2.83505e+09 2.78406e+09 2.81882e+09 2.77121e+09 2.76762e+09 2.68519e+09 2.63504e+09 2.60363e+09 2.59008e+09 2.56822e+09 2.54298e+09 2.517e+09 2.48525e+09 2.40004e+09 2.37988e+09 2.37553e+09 2.35385e+09 2.32414e+09 2.31409e+09 2.26895e+09 2.23828e+09 2.13776e+09 2.12138e+09 2.14615e+09 2.06281e+09 2.05853e+09 1.95643e+09 2.88388e+09 1.94909e+09 1.90688e+09 1.89921e+09 1.87464e+09 1.87222e+09 1.96887e+09 1.85667e+09 1.85228e+09 1.85095e+09 1.84046e+09 1.836e+09 1.80964e+09 2.64938e+09
threshold=67089.450000000026 77694.950000000012 57136.700000000004 50655.750000000007 62838.950000000004 83886.000000000015 72221.700000000012 6.5000000000000009 142.50000000000003 15.500000000000002 15.500000000000002 160.50000000000003 46016.100000000006 5.5000000000000009 88082.800000000017 164.50000000000003 58.500000000000007 5.5000000000000009 80544.60000000002 265.50000000000006 56.500000000000007 54622.150000000009 258.50000000000006 60570.55000000001 11.500000000000002 74390.950000000012 142.50000000000003 170.50000000000003 58.500000000000007 158.50000000000003 58.500000000000007 58.500000000000007 1.0000000180025095e-35 18806.481250000008 158.50000000000003 334.50000000000006 190.50000000000003 20.500000000000004 64615.150000000009 15.500000000000002 18806.481250000008 250.50000000000003 266.50000000000006 60.500000000000007 180.50000000000003 69847.250000000015 188.50000000000003 56.500000000000007 250.50000000000003 19076.115267857149 69474.35000000002 0.15702066843513449 47916.750000000007 69847.250000000015 64919.400000000009 15271.393571428573 0.34557055332510694 9.5000000000000018 17641.531904761909 16.500000000000004 21.500000000000004 53635.850000000013 190.50000000000003 258.50000000000006 58.500000000000007 289.50000000000006 43221.55000000001 178.50000000000003 260.50000000000006 70357.750000000015 9.5000000000000018 85874.200000000026 18758.120386904764 257.50000000000006 190.50000000000003 64615.150000000009 54504.650000000001 69213.35000000002 172.50000000000003 58.500000000000007 255.50000000000003 0.24730739306132191 364.50000000000006 90960.200000000026 19272.180059523813 82411.800000000003 60.500000000000007 58991.700000000004 280.50000000000006 60.500000000000007 60.500000000000007 9.5000000000000018 69213.35000000002 44.500000000000007 8.5000000000000018 271.50000000000006 0.076713942610467586 18758.120386904764 19.500000000000004 5.5000000000000009 68950.000000000015 94.500000000000014 59184.500000000007 0.32152973319753514 92.500000000000014 58589.900000000009 333.50000000000006 0.071558578720912772 142.50000000000003 266.50000000000006 0.064985497610581006 0.15279669994273395 8.5000000000000018 0.37050837982227608 28.500000000000004 8.5000000000000018 15.500000000000002 74.500000000000014 94.500000000000014 291.50000000000006 92.500000000000014 17.500000000000004 218.50000000000003 17824.748125000002 94.500000000000014 0.026795960021578791
decision_type=2 2 2 2 2 2 2 2 2 2 2 2 2 2 2 2 2 2 2 2 2 2 2 2 2 2 2 2 2 2 2 2 2 2 2 2 2 2 2 2 2 2 2 2 2 2 2 2 2 2 2 2 2 2 2 2 2 2 2 2 2 2 2 2 2 2 2 2 2 2 2 2 2 2 2 2 2 2 2 2 2 2 2 2 2 2 2 2 2 2 2 2 2 2 2 2 2 2 2 2 2 2 2 2 2 2 2 2 2 2 2 2 2 2 2 2 2 2 2 2 2 2 2 2 2 2
left_child=2 6 3 12 7 18 13 8 20 17 23 21 66 77 71 16 69 27 73 32 93 57 36 43 42 46 31 28 -6 30 -11 -19 -10 103 86 45 100 78 94 56 -22 -29 67 51 96 88 47 -8 -48 -49 124 70 -14 -38 72 119 -26 58 -5 90 -31 -58 64 113 111 116 95 -13 -46 -15 -9 -7 -28 74 114 -32 -57 -2 79 -27 122 -40 92 -16 -81 -20 -12 -88 -24 -59 -23 -74 -37 -4 -33 -1 104 -56 -90 -69 -17 115 -36 -18 -45 -42 -50 108 -103 -99 -21 112 -25 -64 -3 -92 -54 -52 -119 -44 -66 -94 -80 -41 -35 -126
right_child=1 5 4 11 9 14 25 10 19 29 34 24 52 15 83 22 33 26 85 110 40 59 35 62 39 37 54 41 -30 60 75 38 -34 50 102 82 53 -39 81 123 105 -43 55 44 68 -47 48 49 106 -51 117 -53 65 -55 97 76 61 89 -60 -61 -62 -63 63 -65 120 -67 -68 99 -70 -71 -72 -73 91 -75 -76 -77 -78 -79 80 84 -82 -83 -84 -85 -86 -87 87 -89 98 -91 101 -93 121 -95 -96 -97 -98 109 -100 -101 -102 107 -104 -105 -106 -107 -108 -109 -110 -111 -112 -113 -114 -115 -116 -117 -118 118 -120 -121 -122 -123 -124 -125 125 -127
leaf_value=-283.36502216390721 -32.896118445359392 179.87242702539118 -95.903878578546966 -136.17705092178534 -61.615924085435267 288.41113656340696 82.486629677084323 -87.452071421821458 -103.50524705311486 -22.740280685119139 -43.687022788312191 -158.00470599328685 -212.58821984965249 9.8629203451655343 386.93515648697024 20.327099446671316 103.11299082391413 -33.663757511528857 232.78662910047336 -99.70543833352626 -59.587016865088664 -123.89299612953377 30.254333718371843 -26.667882161864714 -164.08154954987191 143.52467383520496 -37.062319717566901 -128.02480892533632 66.650954902584161 15.84001986691972 37.730747150791707 54.407691912327316 -183.90447172662323 129.20214206406791 -70.587201384229516 -1.1904984225787432 -21.210605923680198 100.90177463388859 80.732187117978341 -96.30127496744484 -38.116495369476453 -67.282212579458047 -155.53490080872871 -40.51355816999763 -118.82958859819601 108.03746610039477 47.146335704547582 128.22166709633956 136.43250815251369 218.71027844382729 145.77619559149028 -82.351353911457707 -178.42048043169183 22.49309155898591 -10.596873944601867 -160.02623626079932 -153.00651405395607 -173.68252078644286 -93.807932659282613 -51.723525941916229 -25.073250230938172 -107.2840516304136 -120.7500654407454 -55.383876844829047 -8.5491303141926025 -211.09775111586958 -236.16248839289062 -211.05743098890815 -85.819573057337593 54.595031799258699 -164.4237088825806 326.67726846584992 -103.87775100746207 220.61920578920996 161.10397762275369 75.269838978003662 -131.85004039191153 11.124108215816996 132.18817943750483 195.31735147329474 164.35676519936402 18.186766384838062 156.52175490147678 443.4951831180947 279.35469337602251 262.41068551849503 -22.603941911804696 16.814808585486805 85.069420535389341 -139.49159780801597 -50.606892191705917 -51.27092108643707 70.076841604050855 -153.00038239864182 -8.8504624371451541 -232.74945791904889 -62.402954919883932 -54.16825395575173 37.13075927318868 -176.83501870108884 66.162358675546301 -105.15373619452397 -33.828159956149051 50.493768038080859 -94.386305331035118 7.6479545964391438 92.617562851051943 -92.049877187573514 -155.64657935948219 -7.4368898367142462 -131.59298224669695 -40.656643871336655 -123.00402161202639 -70.567719711190165 215.55104301241312 -92.107634976802501 -117.74877393956628 207.19720412842094 116.91319740170337 -203.81020023936381 -40.011156659771473 20.052744307025645 95.601639219007382 -30.296268492843769 -26.62044019031196 115.59537919745388
leaf_weight=3592 3370 2206 2714 6861 3870 4858 3251 733 1599 2502 1286 3774 7494 4934 2390 1739 5169 3954 7388 4784 2875 3163 1913 354 3794 4524 12829 3669 966 5301 3189 695 11874 3165 2177 1797 5144 3054 2018 1594 1298 2571 1088 827 4460 3734 3360 2094 1996 1166 1265 2146 15400 4249 8572 7990 2970 2718 3979 1984 4245 5113 2084 10645 2014 4147 8497 4146 12622 2459 2001 3601 1278 2453 5127 5637 6460 2546 3069 811 4162 1102 162 1276 692 4831 2410 5061 3671 9938 1783 2603 1357 972 3415 1199 13576 2690 1264 3293 2454 2871 5360 881 4732 3712 2018 9103 1031 1243 2949 625 1334 1048 3509 2241 474 1476 256 2128 10286 1307 2079 498 174 365
leaf_count=898 3370 2206 2714 6279 3870 4858 3251 373 1599 2502 1286 3087 2511 3917 2390 1445 5169 2058 7388 4784 2875 1501 1475 354 986 4524 5242 3669 966 5301 3189 695 11874 3129 2177 1449 3332 3054 1853 1594 1298 2571 821 350 1613 3734 3063 2094 1996 1166 1265 565 7603 3556 4207 5284 750 765 3295 1984 4245 1297 935 3847 892 1879 2587 4146 4084 2393 510 3601 969 2453 5127 5637 5458 2546 3069 811 4162 739 162 1276 692 4831 2410 5061 3629 3149 1783 752 1225 972 1453 350 4330 1220 1264 1949 2325 2586 5360 752 1870 3712 2018 3211 1031 745 2949 193 344 262 3509 651 474 1476 256 1585 3947 1307 2079 498 99 365
internal_value=-32.6935 131.269 -96.5755 -157.86 -55.0606 254.43 78.0622 -77.8509 -116.417 -17.7142 -63.1146 -133.743 -210.178 50.9378 335.535 58.7827 85.7425 -33.9364 215.884 -151.576 -51.9796 -115.116 39.9194 -72.7252 -153.598 124.158 -23.022 -73.7448 -35.9927 22.2893 43.0555 5.13797 -174.364 121.109 -22.1291 63.4739 13.5575 141.257 26.3585 -128.44 -24.4023 -103.001 -165.766 -85.4196 -81.1934 77.5419 101.507 121.6 83.7635 160.598 144.27 -116.779 -191.61 -1.44082 -33.802 -154.726 -136.866 -134.746 -120.627 -94.316 -2.3538 -124.088 -54.3486 -66.4292 -42.9583 -183.756 -248.622 -183.157 -94.4396 24.7424 -143.795 304.708 -44.3876 189.578 182.551 61.7074 -147.432 -13.9519 149.292 166.105 138.404 58.6434 31.2704 406.645 234.041 244.503 -2.91956 4.09882 60.9109 -146.837 -98.5004 -68.5986 26.7152 -110.968 1.8486 -270.708 -69.3676 -19.6564 72.7929 -195.913 47.1546 -93.7826 -44.4473 95.4525 -86.3735 -4.20983 114.411 -99.9884 -118.502 -39.4002 -111.869 -86.0178 -102.806 -103.964 201.786 -73.7224 -176.61 173.58 193.868 -187.489 -34.8598 45.5376 117.417 -80.5932 120.547 69.6924
internal_weight=444996 124766 320230 129323 190907 37639 87127 118558 32777 72349 85781 88520 40803 54851 12125 48935 20144 51475 25514 21206 11571 45672 28791 69487 42848 32276 40399 11076 4836 20874 11328 11184 13473 12751 16294 15205 13586 18391 7230 13969 7885 6240 28879 41097 36217 10582 13885 6511 7374 3260 6701 4880 27515 9393 29215 17666 11877 23496 10840 22176 9546 8083 28390 13777 14613 20021 13288 11213 17082 7393 2734 8459 16710 13295 10842 8826 14450 5916 15337 6027 9310 3120 4623 3666 1503 12219 8757 7471 6848 12656 20192 3881 4461 3686 4110 4791 19135 12505 4935 7439 4193 17029 7537 6050 5559 5010 4014 13005 3902 3933 7733 2313 1688 3132 5715 4024 15874 2997 1732 3216 12300 2664 5148 2092 3704 539
internal_count=314673 119258 195415 69992 125423 37639 81619 73540 32777 51883 40763 53690 16302 49640 12125 43724 18821 31009 25514 21206 11571 26235 24903 24469 27455 31979 19933 11076 4836 20874 11328 6798 13473 12511 16294 14245 10658 18391 4740 5125 7885 6240 22330 13695 12247 10102 13588 6511 7077 3260 6590 1448 12467 6888 13135 13148 3033 13488 9574 12747 9546 2047 10774 5044 5730 9956 3835 9182 5697 6310 883 8459 6963 13295 10842 8826 10742 5916 15337 6027 9310 2592 4143 3666 1503 12219 8757 7471 6368 3914 10763 1721 3981 3686 2148 1248 6550 6172 4893 6095 3770 9262 7537 5921 2220 5010 4014 6828 3617 1965 7733 891 698 1197 5715 2434 8077 2997 1732 2406 4839 2532 5148 2092 3593 464
is_linear=0
shrinkage=0.03


Tree=6
num_leaves=127
num_cat=0
split_feature=0 0 0 0 7 0 0 0 9 7 9 0 9 7 0 7 8 9 0 9 0 7 9 0 9 9 0 9 9 9 0 9 9 8 9 7 9 7 0 9 0 7 8 7 9 9 9 9 0 9 0 8 9 9 5 0 7 7 7 1 8 7 1 8 1 7 0 1 7 8 9 0 2 0 0 7 9 7 9 5 5 9 0 1 0 9 9 5 0 9 9 9 1 9 1 7 9 0 5 7 9 8 7 9 7 7 8 8 7 8 8 9 7 0 9 0 8 7 7 7 0 8 9 9 1 9
split_gain=4.87388e+12 9.15683e+11 7.82926e+11 2.07282e+11 1.65274e+11 1.10994e+11 1.08559e+11 9.15674e+10 4.68295e+10 6.30136e+10 4.33073e+10 3.55259e+10 2.62934e+10 2.57149e+10 2.56731e+10 2.49975e+10 2.43341e+10 2.34716e+10 2.34513e+10 2.19044e+10 2.16763e+10 2.06045e+10 2.02754e+10 2.02286e+10 1.50318e+10 1.49995e+10 1.3038e+10 1.29069e+10 1.35509e+10 1.17326e+10 1.07383e+10 1.02731e+10 9.74769e+09 9.65318e+09 1.08378e+10 9.33146e+09 8.54023e+09 8.20432e+09 8.09893e+09 7.60041e+09 7.2211e+09 7.08469e+09 6.83143e+09 6.389e+09 6.12041e+09 6.02678e+09 1.04364e+10 6.09105e+09 5.91101e+09 5.73019e+09 5.66416e+09 5.65713e+09 5.6403e+09 5.57964e+09 5.1122e+09 4.79226e+09 4.49763e+09 4.23295e+09 4.02979e+09 3.98495e+09 4.01334e+09 3.96057e+09 6.22219e+09 3.92087e+09 3.90821e+09 3.86415e+09 3.80958e+09 3.58403e+09 5.03589e+09 5.29298e+09 3.52693e+09 3.43762e+09 3.42875e+09 3.32719e+09 3.25533e+09 3.16965e+09 3.16492e+09 3.32862e+09 3.10137e+09 3.04695e+09 3.01646e+09 2.96716e+09 2.9596e+09 2.95091e+09 2.86645e+09 2.85159e+09 2.84569e+09 2.75991e+09 2.74803e+09 2.74647e+09 2.53869e+09 2.51982e+09 2.43646e+09 4.2657e+09 2.41556e+09 2.41071e+09 2.39262e+09 2.32129e+09 2.28778e+09 2.25094e+09 2.24637e+09 2.22406e+09 4.06384e+09 3.19694e+09 2.25533e+09 2.21022e+09 2.74123e+09 2.19643e+09 2.14973e+09 2.54751e+09 2.13699e+09 2.10253e+09 2.08673e+09 2.0837e+09 1.96616e+09 1.96465e+09 1.92755e+09 1.8771e+09 1.86413e+09 2.37356e+09 1.84168e+09 2.11392e+09 1.83337e+09 1.82774e+09 3.53244e+09 1.81798e+09
threshold=67596.550000000017 57997.900000000009 78127.35000000002 51187.750000000007 15.500000000000002 84902.050000000003 72789.000000000015 62838.950000000004 166.50000000000003 6.5000000000000009 160.50000000000003 46016.100000000006 58.500000000000007 5.5000000000000009 64524.30000000001 5.5000000000000009 4.5000000000000009 162.50000000000003 54622.150000000009 58.500000000000007 81186.950000000026 5.5000000000000009 258.50000000000006 88082.800000000017 142.50000000000003 265.50000000000006 75383.150000000009 170.50000000000003 58.500000000000007 58.500000000000007 53941.850000000006 142.50000000000003 92.500000000000014 5.5000000000000009 162.50000000000003 16.500000000000004 58.500000000000007 19.500000000000004 65438.650000000001 309.50000000000006 70505.60000000002 15.500000000000002 4.5000000000000009 20.500000000000004 250.50000000000003 184.50000000000003 56.500000000000007 251.50000000000003 47916.750000000007 190.50000000000003 64919.400000000009 4.5000000000000009 289.50000000000006 60.500000000000007 19272.180059523813 60570.55000000001 19.500000000000004 16.500000000000004 1.0000000180025095e-35 0.067216466759940183 5.5000000000000009 15.500000000000002 0.3515485543553562 5.5000000000000009 0.32739348384789585 8.5000000000000018 43221.55000000001 0.16031003169839331 9.5000000000000018 5.5000000000000009 54.500000000000007 69727.900000000009 13572.150000000001 59281.150000000001 82768.750000000015 20.500000000000004 267.50000000000006 7.5000000000000009 294.50000000000006 18758.120386904764 18693.25627976191 190.50000000000003 70505.60000000002 0.1994020834974464 79454.950000000026 250.50000000000003 337.50000000000006 17679.743214285718 90960.200000000026 94.500000000000014 266.50000000000006 86.500000000000014 0.081775475788778043 80.500000000000014 0.24730739306132191 1.5000000000000002 271.50000000000006 65754.60000000002 15367.77648809524 10.500000000000002 266.50000000000006 1.0000000180025095e-35 7.5000000000000009 124.50000000000001 15.500000000000002 16.500000000000004 5.5000000000000009 4.5000000000000009 22.500000000000004 5.5000000000000009 1.5000000000000002 70.500000000000014 9.5000000000000018 69213.35000000002 214.50000000000003 69474.35000000002 1.0000000180025095e-35 9.5000000000000018 5.5000000000000009 1.0000000180025095e-35 59846.900000000009 2.5000000000000004 74.500000000000014 96.500000000000014 0.058954839241203434 257.50000000000006
decision_type=2 2 2 2 2 2 2 2 2 2 2 2 2 2 2 2 2 2 2 2 2 2 2 2 2 2 2 2 2 2 2 2 2 2 2 2 2 2 2 2 2 2 2 2 2 2 2 2 2 2 2 2 2 2 2 2 2 2 2 2 2 2 2 2 2 2 2 2 2 2 2 2 10 2 2 2 2 2 2 2 2 2 2 2 2 2 2 2 2 2 2 2 2 2 2 2 2 2 2 2 2 2 2 2 2 2 2 2 2 2 2 2 2 2 2 2 2 2 2 2 2 2 2 2 2 2
left_child=1 3 6 11 7 20 13 8 12 22 18 66 67 113 31 27 17 19 59 -15 84 39 58 -7 29 49 43 28 -9 -17 57 36 51 34 70 53 -6 71 65 72 64 115 78 45 97 46 -8 114 -13 82 76 92 101 -20 -48 -34 83 -23 -10 60 111 62 90 -55 89 -31 96 68 69 -3 -16 86 95 -53 -22 107 77 -26 -11 -52 -42 -44 -19 -28 125 -51 -27 -65 -25 91 -32 -21 93 -14 -40 -12 -1 -29 -41 -80 -81 -50 103 -103 -104 106 -61 -36 109 -33 -92 -5 -76 -2 -47 -18 -100 -108 119 -24 -38 -122 -82 124 -91 -4
right_child=2 4 5 10 14 23 26 15 9 42 21 48 32 16 33 24 41 25 35 40 74 30 118 88 50 37 56 44 -30 38 61 108 55 -35 75 -37 120 -39 94 98 80 -43 81 -45 -46 47 54 -49 52 85 79 73 -54 63 -56 -57 -58 -59 -60 105 -62 -63 -64 87 -66 -67 -68 -69 -70 -71 -72 -73 -74 -75 112 -77 -78 -79 99 100 122 -83 -84 -85 -86 -87 -88 -89 -90 123 110 -93 -94 -95 -96 -97 -98 -99 116 -101 -102 102 104 -105 -106 -107 117 -109 -110 -111 -112 -113 -114 -115 -116 -117 -118 -119 -120 -121 121 -123 -124 -125 -126 -127
leaf_value=-274.864539281725 -28.178512218677735 -118.91687971493639 169.65630047807645 -48.838080923413038 -45.318120873612401 305.01229971081221 99.08215486076152 -57.213937763193456 -110.32690883280459 -74.274072489096497 -157.13969045299808 -206.21075226560623 -36.427191514027044 49.21234180453574 15.573552004076722 -30.817967789435976 -22.819354529346192 29.47244990774103 -122.46133184917605 123.77446765500061 232.91953322395725 -156.43535377085959 -83.232178381559436 375.32809018988996 -107.70200789076401 79.955147174671964 170.85040760095751 -134.62102056679996 65.131378148833704 63.64736932927633 -154.66119806158869 -11.842757664000686 -65.337971765731638 -20.382789899967513 61.502856171463186 -39.624855634033715 -2.36340519739543 32.348473745913594 96.557178602269332 -190.92570282478064 121.26911074614608 46.662701466125149 -65.649193288926568 72.084223628351381 -62.332320858263174 100.96689735368496 150.11895153229065 125.01035366296144 -192.57619271981366 -8.9357951693670206 -8.2647158161537924 -6.2526252502265782 -203.74285068543102 -90.892227981600456 230.45258268249597 -36.386563536169191 117.5580538652017 -37.341161877896624 -180.11278802989472 -132.80321267303435 -67.154151288475774 -79.428939021814557 -101.08908694295774 -97.755997554654741 47.176499771906393 -1.6287244545316724 -229.07778118011251 -61.679426442806438 -141.73866234046315 -56.790428334661861 75.609868454940909 105.92134994955676 -128.52157186941523 79.057519979851918 308.02427312889131 -1.4022307819079494 -29.579891442751336 -49.130032790151361 -15.843658296184882 -49.591826571243381 155.84092856282771 -98.52876658098873 83.003249859861924 140.04521359297297 205.9242342431094 40.37912646843553 11.937135251054483 -21.362118006235548 430.19241281643008 -75.02244694994252 -80.26830720646791 185.98378248793577 -43.78716534246557 32.401894945303837 28.631471116103011 -190.31895373167842 -225.76814065822526 -82.613924244120767 -165.26809565681802 -55.923541471604786 -4.7103011153980123 -91.555377363160261 -174.65360180743136 -153.98190512472357 -114.30568477535442 -73.10876163208556 -123.00892031284502 3.4652920421925155 -53.354188269758474 -46.211358727154852 -131.21042340999466 -125.57185969396065 256.9070965743382 10.491990640901985 51.234564530931863 16.900511091222473 -110.95659570569966 -176.36656800766821 -71.541898023582803 -126.43813948683709 11.292016683860899 48.055827181289011 214.5489676428528 106.40316013936479 112.93740432281911 210.43700090658288
leaf_weight=3592 2386 2731 4865 337 1943 6023 2796 4376 812 8307 2449 7494 2029 4898 1000 4468 2728 2131 4888 3026 6122 10218 1608 2390 985 3463 6327 2897 1001 998 4071 5599 12624 2269 1723 3250 1690 2999 1655 517 899 4399 3287 3321 2731 1107 1984 3898 2926 3868 9992 873 5145 21747 1115 8688 3335 276 9147 8373 1428 2356 8111 632 778 4476 8497 1801 2697 2253 7387 5106 1094 778 839 3708 7953 7697 1564 3578 883 9963 1649 5035 7202 1451 659 1303 1276 152 861 728 3880 1349 659 10254 1199 1055 759 6516 1395 1041 12473 2549 585 434 764 890 2976 2971 5377 7085 5278 2643 2025 1902 2630 2693 1117 3984 2363 3482 1055 3214 220 1239
leaf_count=898 2386 2647 4865 301 1943 6023 2796 4376 812 3312 2449 2511 1801 4829 1000 2311 1021 1873 2290 2996 6122 3639 1608 2390 985 3382 6327 2897 1001 998 2511 5599 5835 2269 1723 3250 1690 2999 1589 517 899 4399 923 3321 2731 1107 1984 3898 2431 3250 5087 543 2370 11727 1115 3597 3335 276 9147 3108 1260 2356 2072 287 616 2160 2587 517 684 1752 7387 4974 1094 778 839 3708 3432 2546 1075 1646 883 3303 1610 5035 7202 1295 488 829 1276 77 690 728 1666 1238 476 10254 350 1055 759 1902 858 1041 3488 2549 585 434 395 890 2976 2971 2512 5987 5278 2643 1833 1275 2630 749 1117 3984 2363 3482 1055 3214 220 1239
internal_value=-31.7322 -91.2117 134.088 -146.647 -45.7951 252.398 83.3627 -60.6732 -80.1027 -100.601 -122.875 -199.886 -56.1959 56.567 9.77071 -30.7872 63.5783 74.3069 -104.063 101.954 219.602 -143.208 -147.267 338.859 -20.2684 53.7545 127.732 -69.0379 -34.4362 7.93368 -128.564 -12.3875 -42.5203 37.2108 46.096 -87.7963 10.7582 75.4584 30.1658 -169.072 125.533 19.4005 -74.3547 109.207 -96.8758 118.744 141.118 99.9781 -182.858 24.5882 -31.2065 -16.1677 -175.776 -93.2758 179.035 -53.5362 148.208 -153.304 -174.425 -128.577 -113.227 -116.067 -120.752 -87.2508 111.129 10.2741 -241.164 -99.7807 -108.713 -90.8362 68.4522 89.4676 -179.534 33.9527 248.422 16.4315 -43.2533 -55.7775 -61.4017 -17.8149 166.74 -90.3733 52.8281 157.202 193.09 4.51811 69.082 -46.321 394.447 117.906 -136.221 135.848 -27.5694 -8.94009 77.2169 -183.925 -262.588 -120.742 -132.112 -48.1661 -37.0026 -168.424 -164.176 -135.886 -171.952 -139.652 -142.092 41.7368 -31.3875 -23.7583 -124.182 -122.089 263.928 -7.85555 68.8177 -6.50244 -123.129 -164.582 -106.948 -114.018 25.2191 33.194 187.819 99.1165 36.1376 177.941
internal_weight=444747 327333 117414 147408 179925 35234 82180 141924 86008 46305 101907 45501 39703 51237 38001 55916 46208 37179 52934 15853 25545 48973 16668 9689 43856 21326 30943 12060 5377 12256 31270 21024 30221 16977 14708 31820 9478 12227 7788 17703 10955 9029 29637 16246 6683 12925 5895 7030 32213 9099 31600 8909 24719 28570 3099 21312 14697 10494 9959 21114 8850 20776 18420 23682 8118 5474 13288 9482 7681 4984 8387 9228 13797 1651 12239 6321 16635 8682 16387 14965 2837 13250 3780 11362 13306 5319 4122 1935 3666 7340 10309 3754 7258 3378 2314 12703 4791 3952 3906 8080 4973 19574 16648 3590 13058 12264 11830 2613 11546 8570 6238 7422 6117 5029 3132 4630 3389 3457 6709 5592 7535 5845 1938 3586 372 6104
internal_count=314673 201576 113097 81186 120390 35234 77863 82389 48241 27183 62376 18810 21058 47112 38001 34148 42083 35388 30617 15517 25545 31759 16668 9689 22088 19871 30751 12060 5377 7534 14056 21024 15458 16977 14708 18383 9478 11843 5223 17703 10688 6695 10515 16054 6683 12733 5895 6838 14975 8028 14554 6026 12464 15133 3099 9432 14697 3915 9959 12234 7548 10141 7785 12843 7851 3158 3835 5600 5083 4399 8387 8844 13797 1321 12239 6321 6963 3531 6289 7591 2837 4226 3483 11362 13306 4545 3870 1116 3666 7235 5713 3724 4705 3039 2065 12703 1248 3952 3906 2977 2504 10094 7663 3590 4073 4686 4252 2613 11546 8570 3202 6288 6117 5029 2940 2296 3389 1144 6709 5592 7535 5845 1938 3511 297 6104
is_linear=0
shrinkage=0.03


Tree=7
num_leaves=127
num_cat=0
split_feature=0 0 0 0 0 0 0 7 9 7 0 7 9 9 7 8 9 9 0 9 9 9 0 0 9 8 9 9 7 0 7 9 0 9 9 5 9 9 7 9 0 1 7 7 5 9 0 8 0 7 8 7 9 7 5 9 8 0 0 0 0 1 7 8 7 0 9 0 9 9 9 7 8 7 7 5 0 7 7 9 0 0 8 9 9 9 0 9 7 9 7 8 0 7 9 0 8 1 1 9 1 9 7 0 8 9 9 8 1 9 8 9 1 9 7 0 9 9 9 8 9 8 1 9 5 1
split_gain=4.58878e+12 8.07647e+11 7.97827e+11 1.73025e+11 1.5022e+11 1.34658e+11 8.78808e+10 6.33845e+10 5.5261e+10 5.92612e+10 3.56855e+10 3.40308e+10 2.8741e+10 2.87121e+10 2.57279e+10 2.83607e+10 2.48318e+10 2.37097e+10 2.28158e+10 1.95489e+10 1.91733e+10 1.8534e+10 1.72394e+10 1.58718e+10 1.48356e+10 1.42508e+10 1.26002e+10 1.48417e+10 1.22451e+10 1.22364e+10 1.16223e+10 1.11515e+10 1.03336e+10 9.92416e+09 1.38148e+10 1.18789e+10 1.14986e+10 8.58052e+09 8.17635e+09 8.00863e+09 7.85758e+09 1.09326e+10 6.82258e+09 6.76935e+09 6.22094e+09 6.0674e+09 5.9087e+09 5.81804e+09 5.76828e+09 5.58272e+09 5.5521e+09 5.19827e+09 5.1478e+09 4.83942e+09 5.75066e+09 4.83196e+09 4.63424e+09 4.13273e+09 4.12043e+09 4.02433e+09 3.94904e+09 3.92697e+09 4.32915e+09 4.12855e+09 3.89541e+09 3.58454e+09 3.57373e+09 3.41815e+09 3.38257e+09 4.58421e+09 3.3749e+09 3.25964e+09 3.21889e+09 3.20919e+09 3.1728e+09 3.04361e+09 3.02831e+09 3.01213e+09 2.85939e+09 2.59872e+09 2.58572e+09 2.57336e+09 2.57253e+09 2.45962e+09 2.37331e+09 3.09479e+09 2.34188e+09 2.25115e+09 2.22454e+09 2.19072e+09 2.17773e+09 2.15255e+09 2.14544e+09 2.13463e+09 2.4148e+09 2.12803e+09 2.0816e+09 2.06966e+09 2.06853e+09 2.0542e+09 2.02356e+09 1.98263e+09 1.97282e+09 1.95379e+09 1.91931e+09 1.91903e+09 2.30367e+09 2.1624e+09 2.11397e+09 1.90159e+09 2.89708e+09 1.89921e+09 1.89578e+09 1.88627e+09 2.15062e+09 1.86845e+09 1.83959e+09 2.46673e+09 2.70707e+09 1.83601e+09 1.82446e+09 1.81482e+09 1.80575e+09 2.14736e+09 1.77486e+09 1.75041e+09
threshold=67089.450000000026 76993.900000000009 56853.55000000001 61469.650000000009 49509.80000000001 82768.750000000015 71678.200000000012 15.500000000000002 164.50000000000003 6.5000000000000009 88082.800000000017 6.5000000000000009 168.50000000000003 160.50000000000003 5.5000000000000009 4.5000000000000009 162.50000000000003 58.500000000000007 54076.100000000013 58.500000000000007 60.500000000000007 268.50000000000006 46016.100000000006 79454.950000000026 266.50000000000006 4.5000000000000009 158.50000000000003 58.500000000000007 15.500000000000002 64315.700000000004 20.500000000000004 250.50000000000003 58991.700000000004 184.50000000000003 58.500000000000007 18806.481250000008 254.50000000000003 142.50000000000003 15.500000000000002 64.500000000000014 53251.500000000007 0.3515485543553562 15.500000000000002 20.500000000000004 17679.743214285718 94.500000000000014 85296.700000000012 4.5000000000000009 64048.350000000006 21.500000000000004 4.5000000000000009 17.500000000000004 184.50000000000003 9.5000000000000018 17641.531904761909 274.50000000000006 5.5000000000000009 69337.10000000002 74157.800000000017 59281.150000000001 74157.800000000017 0.16031003169839331 9.5000000000000018 5.5000000000000009 1.5000000000000002 43221.55000000001 82.500000000000014 69727.900000000009 257.50000000000006 184.50000000000003 142.50000000000003 1.0000000180025095e-35 5.5000000000000009 16.500000000000004 16.500000000000004 15308.828928571431 73750.200000000026 10.500000000000002 15.500000000000002 60.500000000000007 90960.200000000026 80844.550000000003 1.0000000180025095e-35 178.50000000000003 266.50000000000006 188.50000000000003 68502.500000000015 271.50000000000006 9.5000000000000018 334.50000000000006 8.5000000000000018 5.5000000000000009 62444.100000000013 8.5000000000000018 142.50000000000003 64048.350000000006 5.5000000000000009 0.11086376700882399 0.31578815164816615 295.50000000000006 0.42765163436196646 337.50000000000006 10.500000000000002 68612.550000000017 5.5000000000000009 60.500000000000007 138.50000000000003 5.5000000000000009 0.062196334212116067 80.500000000000014 4.5000000000000009 56.500000000000007 0.097355050501239784 302.50000000000006 9.5000000000000018 47916.750000000007 190.50000000000003 60.500000000000007 176.50000000000003 4.5000000000000009 250.50000000000003 4.5000000000000009 0.075938419826536013 356.50000000000006 15865.340595238098 0.55866397874061802
decision_type=2 2 2 2 2 2 2 2 2 2 2 2 2 2 2 2 2 2 2 2 2 2 2 2 2 2 2 2 2 2 2 2 2 2 2 2 2 2 2 2 2 2 2 2 2 2 2 2 2 2 2 2 2 2 2 2 2 2 2 2 2 2 2 2 2 2 2 2 2 2 2 2 2 2 2 2 2 2 2 2 2 2 2 2 2 2 2 2 2 2 2 2 2 2 2 2 2 2 2 2 2 2 2 2 2 2 2 2 2 2 2 2 2 2 2 2 2 2 2 2 2 2 2 2 2 2
left_child=2 6 4 8 22 23 14 11 17 21 46 12 19 18 86 16 20 51 53 91 -16 64 65 68 52 32 27 72 40 47 33 71 -19 34 60 -36 58 39 -17 -31 82 55 50 67 -27 57 88 70 121 119 99 61 103 54 -6 83 -56 -22 -35 -46 -8 62 63 -4 -10 87 -59 101 69 77 -13 -14 -9 105 79 -57 89 -3 93 111 -12 -25 -15 -42 85 -39 -2 -1 -7 -38 -41 92 -5 94 -34 -33 -44 -37 -52 -11 -47 -26 -87 -18 -30 -20 107 -107 -108 110 -21 -55 -93 -72 -115 -24 117 -49 -119 -28 -54 -29 -23 -124 -101 -81
right_child=1 5 3 7 13 10 30 26 9 42 80 29 31 28 15 38 24 25 73 109 45 122 115 81 43 44 49 48 104 37 -32 95 78 36 35 97 76 84 -40 90 41 -43 96 -45 59 100 -48 116 -50 -51 98 -53 120 74 56 75 -58 66 -60 -61 -62 -63 -64 -65 -66 -67 -68 -69 -70 -71 113 -73 -74 -75 -76 -77 -78 -79 -80 125 -82 -83 -84 -85 -86 102 -88 -89 -90 -91 -92 112 -94 -95 -96 -97 -98 -99 -100 124 -102 -103 -104 -105 -106 106 108 -109 -110 -111 -112 -113 -114 114 -116 -117 -118 118 -120 -121 -122 -123 123 -125 -126 -127
leaf_value=-266.61906761524972 -38.025701263890269 223.92559342444545 -127.30996752604169 -115.56259449191234 -135.90438870099854 301.79998631552013 77.589036961411992 4.2833098440202919 -138.66961151065084 -83.705886089436248 364.06918860738642 -15.746410239457081 -91.66567546788994 -196.07370111342479 39.517128891870314 -16.266670114337536 10.3228099689704 -78.34094007909772 -117.98919381364425 7.1096756773663472 112.55994205978719 -100.81494529563695 -200.02458946376865 197.21039510636641 66.62914217501303 -41.219345753558081 28.749236852318816 14.659352522841024 -38.674771766349266 -17.607064025260755 71.392326953770549 -87.903372544007112 -18.650595189771551 47.001426243795279 133.78885451737739 237.40009002436653 124.46334035181705 -12.438936018433539 37.787758990386251 104.37717842057835 -143.57572551121174 -106.60372090103652 -30.816207558954883 12.63833830004431 -10.19321307227198 96.435053993029982 301.53096601331589 -66.523094448735989 67.483616260645491 -29.740264415828854 -110.21094292722087 -6.0240765681633581 -18.505195785800467 -164.15140670920476 -118.22903825416849 -168.85640207067084 -50.190828563685045 142.39505451569354 94.404368759335838 50.01176576076449 126.26342108778756 -74.555100644628141 -144.77591113154111 -65.283973016580788 -182.83316993069303 -222.20560732333607 221.71618437171321 95.589508546129721 195.20991150626841 134.93612865774281 -46.002579710373595 -143.3186183148172 -58.017761281687825 -53.8719504611459 -75.437825175335533 -130.95806260625201 141.80557352619007 164.86152728144469 2.2279643622442027 -148.93913464441351 417.28866572270209 223.75607517011116 -163.26234475428572 -179.25706389899835 -8.7129637171874048 -68.884269968888333 1.2050533465034803 -218.99622645158618 252.30891352997756 76.517767770379365 41.442193360058958 17.341487498990368 -60.623823727209825 -53.122832771413677 -84.406265156024602 -46.653424530984346 -69.664008946304492 171.36387150201654 -85.480683012415383 -75.827584821515501 20.16095261774143 15.86168859429849 -30.853211565177549 60.900530339503618 -99.686210774130572 -90.327265118646366 -140.26616288518036 -47.77685764727007 -97.186744289653845 82.749213362264101 113.82336551388518 -233.95432023547943 -98.115580884986954 31.069961220821156 -31.092477791022308 -180.21626076261848 -70.084215056564773 68.284417274071302 -33.415507162001234 -3.8492706972053234 21.425134440672508 70.318905420698897 -148.36690827475266 -60.399726647477813 -43.944438730063375 -120.82079245587104
leaf_weight=3592 2380 966 1947 750 6909 945 2520 1578 2290 6731 2390 7991 1416 2531 4271 5512 1073 13047 3280 1532 3119 4979 7494 6012 5151 4156 2934 3618 779 2571 6220 2682 3602 3242 3219 1839 2037 4093 4637 621 2409 6053 2845 1912 3037 5255 4838 1775 6714 5622 7465 499 3577 2774 2136 2462 1559 1898 3363 1489 3712 2676 2957 1918 8422 8497 701 4031 2544 4674 11488 4944 1416 1686 547 8514 4299 4017 1197 8286 1276 7312 14537 6306 7217 2199 3225 1199 6357 1484 2436 507 4359 10628 584 1941 2203 560 5149 3137 333 800 2780 1913 1149 11744 1506 1184 3223 655 269 403 171 580 3666 10110 5769 287 1310 3308 1446 617 1642 295 3151 2632
leaf_count=898 2380 966 1899 750 6189 945 2520 1578 2290 2627 2390 3491 1416 2294 4019 2410 845 6999 1501 1532 3032 4979 2511 6012 4848 3271 2934 3618 779 1266 6220 2682 3602 2834 3219 1839 2037 1921 4637 621 2037 1532 2845 1912 2287 5180 4838 731 6714 5622 2824 499 2962 728 1716 1784 1274 1898 3363 1489 3712 798 914 1561 8422 2587 701 3938 2544 4674 4663 4944 1416 1686 547 6330 4299 4017 1197 2364 1276 7312 6752 5370 3581 1224 3225 350 6357 1445 1824 507 4359 3071 584 1941 2203 560 1297 974 231 629 827 1850 1149 6695 1506 788 1081 655 269 109 171 580 1185 5040 1839 227 386 3308 1182 617 1642 295 1192 658
internal_value=-30.8038 123.244 -91.1276 -53.475 -150.841 231.754 69.6794 -25.8157 -82.2199 -104.841 300.569 -39.9326 -74.2719 -131.731 45.2021 52.653 65.3026 -59.3278 -115.581 -31.9313 93.672 -148.676 -208.128 189.14 43.0987 -48.4458 14.6684 34.0047 -149.011 -27.881 108.272 -106.048 -58.5224 117.001 137.346 171.464 100.287 -10.5186 8.43064 21.4152 -152.341 -141.872 -79.6537 64.3524 -14.7194 114.129 275.787 -39.4592 50.1899 -8.05649 -85.9319 -100.407 11.5344 -135.188 -119.746 -152.713 -89.5265 135.857 71.1392 9.61484 106.584 -105.365 -117.448 -96.5346 -173.395 -233.929 163.805 74.2575 164.411 156.293 -31.6239 -131.822 -25.1836 -93.6997 -146.369 -139.462 124.904 176.32 -42.372 -149.12 382.615 211.781 -168.13 -169.398 -21.5521 -31.7656 -15.4539 -254.711 258.722 104.261 54.2328 -62.028 -68.693 -45.9757 -27.8279 -70.5871 -47.7719 222.001 -100.118 -72.1861 91.8906 59.8052 -47.6519 42.7277 -75.0414 -96.9064 -92.9887 -86.4311 -110.911 38.9838 23.0595 -173.02 -11.7986 -39.6875 -22.6001 -188.651 -59.7943 -42.1866 -15.1326 11.4738 -7.00983 22.7714 -110.387 -134.977 -59.8524 -142.163
internal_weight=444423 125060 319363 195862 123501 41331 83729 99816 96046 48309 15806 74009 19226 92609 51234 45629 35480 47737 47869 8243 15577 17628 30892 25525 19903 37740 25807 13943 44740 54783 32495 10983 29058 26275 11850 5618 14425 21917 10149 5628 42812 25744 30681 11894 8682 11306 12140 32866 10949 11864 25633 9997 8009 25246 10604 19691 3695 5718 6605 4526 6232 9498 6822 3865 10712 13288 2599 9982 12201 9657 23725 6360 2994 22623 14642 10976 7820 4983 16011 14095 3666 13324 17068 8715 16289 9072 5605 4791 7302 3521 3057 5787 5109 14814 4186 4623 5048 2399 12614 13019 5588 5951 4979 2986 1928 20937 17657 12928 4729 2456 1801 3177 678 15734 4246 17604 9141 3372 1597 6242 5023 4235 6916 1937 6288 10918
internal_count=314673 119258 195415 129160 66255 41331 77927 69399 59761 31590 15806 43592 19226 54869 45879 40274 33227 28171 26842 8243 15061 17628 11386 25525 18166 22500 25807 13943 28027 24366 32048 10983 15453 25828 11850 5618 13978 11264 7047 3711 26099 17053 13962 11327 7047 11042 12140 13102 10949 11864 8914 5671 6839 13585 9179 15521 2990 5631 6197 3776 6232 5172 4374 3460 10712 3835 2599 9415 12201 9657 9919 6360 2994 13257 4406 8114 7781 4983 8454 3859 3666 13324 9046 7407 7553 3972 5605 1248 7302 3482 2445 5787 5109 7257 4186 4623 5048 2399 4121 4793 5411 5477 2051 2695 1928 11571 10070 7483 2587 2456 1801 837 678 6428 1765 7551 3183 1344 613 6242 4144 4235 6916 1937 2166 3022
is_linear=0
shrinkage=0.03


Tree=8
num_leaves=127
num_cat=0
split_feature=0 0 0 0 7 0 0 0 0 7 7 2 7 8 0 8 0 0 7 0 0 2 0 1 1 2 7 7 2 1 7 2 2 5 8 8 0 8 7 2 7 7 5 7 7 7 0 2 1 7 0 2 0 0 5 1 7 5 8 2 7 7 0 8 7 0 7 5 0 0 8 0 1 5 0 2 8 5 1 5 7 1 2 7 0 2 7 1 7 1 1 8 7 7 5 0 8 1 8 2 5 8 7 7 8 7 7 0 7 8 0 8 0 0 0 7 8 7 8 5 0 7 1 0 7 1
split_gain=4.32054e+12 7.61451e+11 7.48845e+11 1.79261e+11 1.30176e+11 1.09124e+11 1.01387e+11 7.57283e+10 3.12642e+10 3.0621e+10 2.77556e+10 2.70533e+10 2.45759e+10 2.63692e+10 2.44741e+10 1.82031e+10 1.78755e+10 1.76637e+10 1.68126e+10 1.45887e+10 1.35972e+10 1.17557e+10 1.13616e+10 1.10823e+10 1.06738e+10 9.30375e+09 1.21449e+10 7.97764e+09 7.47902e+09 7.43573e+09 7.34874e+09 7.19342e+09 6.78499e+09 6.1261e+09 5.83847e+09 5.82345e+09 5.50822e+09 5.4771e+09 5.45003e+09 4.9507e+09 4.85661e+09 4.5133e+09 4.3205e+09 4.09013e+09 4.08315e+09 3.86667e+09 3.66446e+09 3.3876e+09 3.35424e+09 3.31433e+09 3.17064e+09 2.95884e+09 2.91326e+09 2.90535e+09 2.85688e+09 2.85192e+09 2.81502e+09 3.76466e+09 2.80325e+09 2.77023e+09 2.74877e+09 2.73949e+09 2.70568e+09 2.67992e+09 2.45949e+09 2.43301e+09 2.38555e+09 2.37434e+09 2.35659e+09 2.34436e+09 2.33654e+09 2.31907e+09 2.11025e+09 2.08512e+09 2.06829e+09 2.04841e+09 1.99995e+09 1.95718e+09 1.93507e+09 1.8331e+09 1.83159e+09 1.76667e+09 1.75736e+09 1.70948e+09 1.62378e+09 1.59157e+09 1.58615e+09 1.58297e+09 1.67186e+09 1.55525e+09 1.53359e+09 1.52983e+09 1.52974e+09 1.52617e+09 1.50475e+09 1.49492e+09 1.48318e+09 1.41978e+09 1.41921e+09 1.40306e+09 1.38708e+09 2.2511e+09 1.3893e+09 1.37239e+09 1.6977e+09 1.64272e+09 1.32414e+09 1.32055e+09 1.31969e+09 1.31617e+09 1.3159e+09 1.30716e+09 1.29788e+09 1.29568e+09 1.26755e+09 1.2393e+09 1.22447e+09 1.213e+09 3.13471e+09 1.6948e+09 1.19291e+09 1.17068e+09 1.2809e+09 1.16459e+09 1.15966e+09 1.14271e+09
threshold=67089.450000000026 77694.950000000012 57903.05000000001 51187.750000000007 15.500000000000002 83886.000000000015 71843.35000000002 61572.80000000001 47231.750000000007 6.5000000000000009 16.500000000000004 13702.650000000001 5.5000000000000009 4.5000000000000009 88082.800000000017 5.5000000000000009 55487.500000000007 80544.60000000002 21.500000000000004 74390.950000000012 64524.30000000001 16411.350000000002 64315.700000000004 0.093524762138458797 0.25746462147076282 16479.750000000004 5.5000000000000009 15.500000000000002 11691.500000000002 0.1427218373135872 7.5000000000000009 14875.750000000002 13974.6 19153.387500000004 4.5000000000000009 4.5000000000000009 43221.55000000001 4.5000000000000009 20.500000000000004 14037.950000000003 1.0000000180025095e-35 20.500000000000004 19114.451130952384 5.5000000000000009 1.0000000180025095e-35 19.500000000000004 69213.35000000002 12304.000000000002 0.12697514463117912 1.0000000180025095e-35 63931.80000000001 19780.850000000002 49509.80000000001 86444.450000000026 17679.743214285718 0.083429446453368097 20.500000000000004 19153.387500000004 4.5000000000000009 17111.350000000002 8.5000000000000018 22.500000000000004 68401.900000000009 5.5000000000000009 10.500000000000002 90960.200000000026 19.500000000000004 15069.969791666668 76292.000000000015 68739.200000000026 3.5000000000000004 82411.800000000003 0.17657224560211612 15963.208988095239 53941.850000000006 12376.500000000002 4.5000000000000009 15069.969791666668 0.00745662650738839 15138.968571428572 15.500000000000002 0.27282087991163179 21462.250000000004 15.500000000000002 69474.35000000002 21462.250000000004 9.5000000000000018 0.2044017384920139 17.500000000000004 0.46772903290995554 0.050659113129546691 4.5000000000000009 9.5000000000000018 11.500000000000002 18973.912261904767 59459.450000000004 4.5000000000000009 0.21460396283816219 5.5000000000000009 15428.850000000002 19823.692500000005 3.5000000000000004 8.5000000000000018 5.5000000000000009 4.5000000000000009 1.5000000000000002 9.5000000000000018 59846.900000000009 15.500000000000002 3.5000000000000004 60764.950000000004 1.0000000180025095e-35 70357.750000000015 67596.550000000017 68049.150000000009 7.5000000000000009 4.5000000000000009 8.5000000000000018 1.0000000180025095e-35 17641.531904761909 62730.250000000007 20.500000000000004 0.13795565108470334 53635.850000000013 19.500000000000004 0.084301402667066053
decision_type=2 2 2 2 2 2 2 2 2 2 2 8 2 2 2 2 2 2 2 2 2 10 2 2 2 10 2 2 8 2 2 10 8 2 2 2 2 2 2 10 2 2 2 2 2 2 2 8 2 2 2 10 2 2 2 2 2 2 2 8 2 2 2 2 2 2 2 2 2 2 2 2 2 2 2 10 2 2 2 2 2 2 10 2 2 10 2 2 2 2 2 2 2 2 2 2 2 2 2 10 2 2 2 2 2 2 2 2 2 2 2 2 2 2 2 2 2 2 2 2 2 2 2 2 2 2
