tree
version=v4
num_class=1
num_tree_per_iteration=1
label_index=0
max_feature_idx=6
objective=regression_l1
feature_names=real_demand_land renew_gen_total_kr hour dow month doy day_type
feature_infos=[38314.599999999999:96832.100000000006] [0.82234300000000005:7654.1149999999998] [0:23] [0:6] [1:12] [1:366] -1:1:2:0
tree_sizes=5368 5671 5639 5669 5699 5644 5655 5679 5684 5688 5623 5742 5649 5678 5709 5668 5659 5673 5645 5725 5688 5681 5662 5687 5720 5682 5735 5711 5680 5712 5657 5736 5724 5682 5717 5736 5729 5720 5735 5665 5719 5777 5705 5743 5765 5781 5777 5693 5735 5771 5723 5707 5744 5712 5763 5743 5720 5761 5667 5767 5746 5723 5766 5715 5734 5741 5751 5794 5744 5753 5721 5753 5727 5771 5693 5731 5725 5764 5762 5719 5718 5682 5748 5743 5763 5790 5772 5779 5764 5731 5765 5769 5758 5690 5779 5709 5752 5766 5729 5761 5786 5735 5737 5758 5748 5766 5740 5692 5753 5760 5745 5746 5769 5764 5741 5744 5726 5718 5784 5773 5805 5730 5758 5746 5761 5791 5773 5786 5802 5781 5750 5747 5740 5743 5754 5764 5691 5765 5758 5795 5779 5778 5761 5737 5750 5782 5762

Tree=0
num_leaves=63
num_cat=3
split_feature=2 6 5 2 1 2 5 2 5 5 2 2 5 5 5 5 5 5 6 2 3 5 5 1 5 2 5 2 4 3 5 3 3 1 2 5 5 2 5 1 5 2 5 5 5 5 5 4 2 2 2 2 2 5 5 1 2 6 5 5 5 2
split_gain=4454.77 3059.31 774.393 654.697 484.947 180.389 124.695 116.793 134.654 206.615 115.977 119.684 103.873 94.8145 85.1944 185.819 205.816 83.3627 76.2543 71.7277 67.3889 67.0722 197.379 91.9123 63.513 58.4083 58.0352 57.2006 54.3309 53.6714 45.1315 44.0593 42.8055 40.2479 36.7704 34.6785 98.2353 45.3205 41.0674 42.2461 36.8727 31.3074 30.0198 29.9775 27.284 26.5549 27.6354 24.9846 24.9717 20.8785 20.4354 20.1205 19.715 19.2239 18.9479 18.7477 17.7357 16.4663 28.6574 16.4172 45.4505 23.5041
threshold=7.5000000000000009 0 92.500000000000014 16.500000000000004 4535.0845000000008 22.500000000000004 346.50000000000006 14.500000000000002 92.500000000000014 160.50000000000003 5.5000000000000009 1.0000000180025095e-35 264.50000000000006 140.50000000000003 68.500000000000014 156.50000000000003 264.50000000000006 324.50000000000006 1 21.500000000000004 5.5000000000000009 262.50000000000006 320.50000000000006 2836.5531000000005 239.50000000000003 8.5000000000000018 162.50000000000003 6.5000000000000009 10.500000000000002 5.5000000000000009 348.50000000000006 5.5000000000000009 1.0000000180025095e-35 2610.8462500000005 21.500000000000004 238.50000000000003 208.50000000000003 11.500000000000002 88.500000000000014 3168.7730000000006 168.50000000000003 12.500000000000002 118.50000000000001 124.50000000000001 343.50000000000006 120.50000000000001 130.50000000000003 2.5000000000000004 1.0000000180025095e-35 14.500000000000002 21.500000000000004 5.5000000000000009 8.5000000000000018 138.50000000000003 128.50000000000003 3860.6295000000005 6.5000000000000009 2 28.500000000000004 174.50000000000003 100.50000000000001 21.500000000000004
decision_type=2 1 2 2 2 2 2 2 2 2 2 2 2 2 2 2 2 2 1 2 2 2 2 2 2 2 2 2 2 2 2 2 2 2 2 2 2 2 2 2 2 2 2 2 2 2 2 2 2 2 2 2 2 2 2 2 2 1 2 2 2 2
left_child=2 4 10 29 5 7 27 8 -2 33 11 -1 20 -7 -6 49 -17 -18 56 55 59 25 23 52 -21 -11 43 48 42 35 31 50 -13 45 -28 36 38 -38 39 57 -40 -42 -29 -22 -37 -10 -47 -34 54 -16 -14 -8 -23 -35 -4 -9 -12 58 -3 60 -5 -61
right_child=1 3 6 12 14 13 51 19 9 21 18 32 30 -15 15 16 17 -19 -20 24 26 22 -24 -25 -26 -27 34 28 -30 -31 -32 -33 47 53 -36 44 37 -39 40 -41 41 -43 -44 -45 -46 46 -48 -49 -50 -51 -52 -53 -54 -55 -56 -57 -58 -59 -60 61 -62 -63
leaf_value=0.41193806976079939 0.41673393726348879 0.41170923173427582 0.41014165759086607 0.41219521403312681 0.41259606301784513 0.41259029179811479 0.40933423310518263 0.4148717626929283 0.41208129346370698 0.41192884832620619 0.41183489233255388 0.40816066920757293 0.4110991007089615 0.4107086855173111 0.40887142688035966 0.41374167919158933 0.40918449431657788 0.41185352206230164 0.41035248100757599 0.41276758357882498 0.41077285289764404 0.41092513889074328 0.41607740581035613 0.41009687632322311 0.41104330807924272 0.4155771094560623 0.41286533132195474 0.41060448572039604 0.41115201398730278 0.40731294274330138 0.4112055513262749 0.40941798865795137 0.40999552726745603 0.40989123448729514 0.41044390857219698 0.40800743460655214 0.41020532429218293 0.41272993922233581 0.407669026106596 0.40796790644526482 0.40947547554969788 0.41185026228427885 0.40854666411876678 0.4097578853368759 0.4102598974108696 0.40944082945585253 0.41119403123855591 0.41074803441762925 0.40692695498466491 0.41005111604928968 0.40966631606221199 0.41166526630520822 0.41217293471097949 0.4107975032925606 0.40885170906782148 0.41284939140081406 0.41431702643632889 0.40843741059303285 0.41054664924740791 0.41349810779094698 0.41085754722356799 0.41120501220226285
leaf_weight=226 842 55 83 301 119 221 263 3802 209 167 148 153 180 372 275 281 204 75 142 382 303 93 430 186 197 778 162 68 98 1118 103 201 602 98 69 449 59 73 320 110 69 51 421 95 83 50 117 342 3613 69 66 90 180 83 539 161 150 77 122 173 215 69
leaf_count=226 842 55 83 301 119 221 263 3802 209 167 148 153 180 372 275 281 204 75 142 382 303 93 430 186 197 778 162 68 98 1118 103 201 602 98 69 449 59 73 320 110 69 51 421 95 83 50 117 342 3613 69 66 90 180 83 539 161 150 77 122 173 215 69
internal_value=0.41091 0.420702 0.391273 0.400432 0.430464 0.432848 0.385423 0.434064 0.429706 0.426073 0.408445 0.404008 0.41362 0.416899 0.410967 0.407825 0.418486 0.400233 0.421788 0.437167 0.417995 0.430933 0.425018 0.411336 0.427303 0.436498 0.410735 0.384163 0.39294 0.390554 0.402588 0.398462 0.399912 0.410071 0.422697 0.394325 0.397802 0.421788 0.393864 0.401318 0.387697 0.401879 0.388854 0.403793 0.388209 0.415666 0.406747 0.402298 0.382947 0.390472 0.406976 0.402635 0.422417 0.398448 0.388499 0.438608 0.430409 0.408044 0.413082 0.424018 0.420995 0.430465
internal_weight=20852 13914 6938 4523 9391 8368 5175 7775 3233 2391 1763 1323 1937 593 1023 904 560 279 440 4542 1387 1834 889 459 579 945 629 4822 587 2586 550 447 1097 557 231 1468 936 132 804 364 440 120 489 398 532 376 167 944 4235 344 246 353 273 181 622 3963 298 254 177 758 516 242
internal_count=20852 13914 6938 4523 9391 8368 5175 7775 3233 2391 1763 1323 1937 593 1023 904 560 279 440 4542 1387 1834 889 459 579 945 629 4822 587 2586 550 447 1097 557 231 1468 936 132 804 364 440 120 489 398 532 376 167 944 4235 344 246 353 273 181 622 3963 298 254 177 758 516 242
cat_boundaries=0 1 2 3
cat_threshold=2 2 4
is_linear=0
shrinkage=1


Tree=1
num_leaves=63
num_cat=0
split_feature=0 0 0 5 2 4 5 2 2 5 0 3 5 5 5 4 5 5 0 2 5 5 2 3 5 2 2 0 5 1 1 2 0 2 1 1 1 5 0 1 3 2 2 2 3 0 2 5 5 4 1 2 0 2 0 3 2 5 3 0 5 0
split_gain=10282.9 775.003 683.136 512.122 453.712 265.247 160.976 138.686 122.407 120.119 96.3407 99.6684 80.5702 72.3779 74.8023 71.408 78.6012 61.8357 56.8125 50.1923 44.8155 40.9035 36.2761 39.9444 34.7585 31.277 29.707 28.2865 26.2584 25.9048 25.5829 24.5479 24.1539 22.8701 21.0888 20.2198 19.8386 19.5545 29.7223 21.8888 18.0253 16.0875 18.4838 15.6277 20.0923 14.9053 14.4448 14.1223 13.9814 12.3406 12.307 17.8487 12.169 12.0839 11.6682 11.296 11.1617 10.5539 10.4876 10.4089 10.361 9.20568
threshold=64700.000000000007 68957.550000000017 59080.850000000013 170.50000000000003 7.5000000000000009 2.5000000000000004 166.50000000000003 17.500000000000004 6.5000000000000009 142.50000000000003 61654.850000000006 4.5000000000000009 56.500000000000007 267.50000000000006 330.50000000000006 5.5000000000000009 46.500000000000007 259.50000000000006 71024.500000000015 21.500000000000004 94.500000000000014 265.50000000000006 8.5000000000000018 3.5000000000000004 124.50000000000001 11.500000000000002 1.5000000000000002 67822.950000000026 190.50000000000003 985.66100000000017 597.10200000000009 8.5000000000000018 67077.300000000017 11.500000000000002 767.85400000000016 812.24550000000011 777.40400000000011 56.500000000000007 54754.850000000006 332.65645000000006 5.5000000000000009 14.500000000000002 21.500000000000004 15.500000000000002 5.5000000000000009 61970.55000000001 1.5000000000000002 330.50000000000006 310.50000000000006 6.5000000000000009 3752.3910000000005 21.500000000000004 66626.60000000002 15.500000000000002 70220.050000000003 5.5000000000000009 21.500000000000004 80.500000000000014 5.5000000000000009 60655.700000000004 343.50000000000006 60953.200000000004
decision_type=2 2 2 2 2 2 2 2 2 2 2 2 2 2 2 2 2 2 2 2 2 2 2 2 2 2 2 2 2 2 2 2 2 2 2 2 2 2 2 2 2 2 2 2 2 2 2 2 2 2 2 2 2 2 2 2 2 2 2 2 2 2
left_child=2 4 7 5 15 43 12 20 -5 10 11 30 32 28 52 16 27 -17 19 26 22 53 23 -1 55 45 -3 -2 36 -12 31 57 -6 -31 47 -16 -8 -25 -39 -40 -26 -30 -43 44 -4 -11 -19 48 56 -21 51 -27 -15 -10 -51 -9 59 -7 -45 -23 -37 -36
right_child=1 18 3 8 6 9 13 24 21 25 29 -13 -14 14 35 17 -18 46 -20 49 -22 34 -24 37 40 50 -28 -29 41 33 -32 -33 -34 -35 61 60 -38 38 39 -41 -42 42 -44 58 -46 -47 -48 -49 -50 54 -52 -53 -54 -55 -56 -57 -58 -59 -60 -61 -62 -63
leaf_value=-0.0019272457793354989 -0.00075368735790252604 0.00033945780694484784 -0.00178305480480194 -0.0035719557434320441 2.468741834163679e-05 -3.1283935904503065e-05 -5.3638523072003785e-05 0.00038499145209789309 -0.0020365085542201995 -0.0015095506936311713 0.0015221177190542225 0.0017934679806232456 0.0024266446039080619 0.00081841260194778439 0.0005865125924348827 -0.0019325878053903572 0.0021458005428314211 -0.0010978108853101725 0.0048482838124036792 0.0012986555524170398 -0.0035404773116111754 -0.0010816030561923982 -0.0031159511581063271 -0.0022531578898429866 -0.00070033062547445292 0.00061984486430883418 0.0022962583065032952 0.00037969168424606403 -0.000564067161083221 -0.00014562538862228412 -0.00056289489716291436 -0.00041492653191089687 0.00092262751758098607 0.00085936822146177373 -0.0012079746276140212 -0.00065868169069290157 0.0007699335873126989 -0.0014041099727153776 0.00089365483224391909 -0.0005331786319613457 -0.001389454972743988 0.00054266123548150046 -0.00053152323514223077 5.9774565696716908e-05 -0.0011753524303436274 -0.00024083211421966564 0.00030144391357898756 -0.00058114935010671607 0.00027417882308363893 -0.00021224294900894225 -0.00063780622780323058 -0.00041214628368616056 0.0015990091592073437 -0.0011025519132614131 0.00066561550498008709 -0.00028008409738540627 -0.0010223929837346079 0.00047047532200813314 -0.0012988259732723234 0.00031256529986858293 -5.2466538548469609e-05 -0.00061067893803119669
leaf_weight=236 199 89 380 1083 136 52 62 73 303 100 436 138 1000 271 78 247 120 58 5251 74 4909 72 443 73 145 90 1027 67 135 72 220 84 108 118 165 57 102 65 55 64 158 108 66 67 143 51 101 63 100 60 72 73 292 95 54 87 106 103 56 79 75 395
leaf_count=236 199 89 380 1083 136 52 62 73 303 100 436 138 1000 271 78 247 120 58 5251 74 4909 72 443 73 145 90 1027 67 135 72 220 84 108 118 165 57 102 65 55 64 158 108 66 67 143 51 101 63 100 60 72 73 292 95 54 87 106 103 56 79 75 395
internal_value=-1.29428e-05 0.0222842 -0.0199093 -0.0112723 0.0103839 -0.000944568 0.0166747 -0.0263665 -0.0207355 0.00557489 0.0101799 0.00155779 0.0243087 0.00905297 0.0147089 -0.00939394 -0.00015544 -0.0181773 0.0282426 0.022638 -0.0276185 -0.0148041 -0.0216026 -0.0160041 -0.0105616 -0.00901554 0.0250538 -0.00924812 -0.000190275 0.0184026 -0.0051634 0.0016318 0.00885246 0.00915789 -0.0115102 -0.000571429 0.0095122 -0.00782101 -0.0026087 0.00630252 -0.0165347 -0.00533981 0.000689655 -0.0171827 -0.0194455 -0.0196689 -0.00358491 -0.00642857 -0.00411765 0.00829787 -0.00217021 0.00239264 0.0204085 -0.0229146 0.00210526 0.00075 -0.00782101 0.00870968 -0.00756098 -0.00258278 -0.00772727 -0.0153214
internal_weight=20861 9837 11024 4716 3282 2255 2490 6308 2461 1609 1223 597 1244 1246 773 792 386 406 6555 1304 5845 1378 936 493 463 386 1116 266 473 626 459 239 244 190 980 210 164 257 184 119 303 309 174 646 523 151 159 420 357 188 235 163 563 398 114 160 257 155 123 151 132 560
internal_count=20861 9837 11024 4716 3282 2255 2490 6308 2461 1609 1223 597 1244 1246 773 792 386 406 6555 1304 5845 1378 936 493 463 386 1116 266 473 626 459 239 244 190 980 210 164 257 184 119 303 309 174 646 523 151 159 420 357 188 235 163 563 398 114 160 257 155 123 151 132 560
is_linear=0
shrinkage=0.03


Tree=2
num_leaves=63
num_cat=4
split_feature=0 0 0 5 5 5 5 5 0 5 6 5 0 5 5 0 5 0 3 5 5 5 5 5 5 3 6 5 1 0 5 1 1 6 1 5 1 1 1 5 1 0 5 1 1 0 5 0 1 0 5 0 5 5 0 0 5 0 0 6 5 0
split_gain=10088 800.364 665.772 593.744 296.451 188.215 304.403 175.436 137.455 107.446 106.133 85.1466 84.8179 75.5321 72.5905 63.4499 54.8561 53.5087 73.7446 51.3171 49.6576 40.8511 56.4491 40.154 36.8676 32.4499 32.4247 29.1233 28.5421 28.154 22.651 22.3363 21.9891 19.9125 16.4963 16.1318 14.2643 13.9714 13.563 13.0138 12.5983 12.5745 12.5703 11.9618 11.299 10.7986 10.6973 10.4271 10.38 10.2258 9.64691 9.58809 16.3767 9.449 9.14204 9.12096 8.87507 8.82527 8.63984 11.615 22.1451 8.63573
threshold=65106.30000000001 58989.05000000001 68390.60000000002 170.50000000000003 58.500000000000007 170.50000000000003 56.500000000000007 267.50000000000006 62274.80000000001 265.50000000000006 0 330.50000000000006 71988.550000000003 140.50000000000003 331.50000000000006 63597.400000000009 128.50000000000003 55123.000000000007 4.5000000000000009 142.50000000000003 184.50000000000003 184.50000000000003 250.50000000000003 62.500000000000007 110.50000000000001 3.5000000000000004 1 333.50000000000006 433.98750000000007 67398.35000000002 250.50000000000003 602.72300000000007 786.75740000000008 2 947.29200000000014 104.50000000000001 672.77400000000011 840.45000000000016 1607.2277500000002 54.500000000000007 1642.3515000000002 66742.450000000026 26.500000000000004 1247.1577500000003 2564.0695000000005 63904.100000000013 48.500000000000007 63806.200000000004 296.17115000000007 70348.150000000009 26.500000000000004 60953.200000000004 96.500000000000014 162.50000000000003 67077.300000000017 60185.400000000009 190.50000000000003 64189.200000000004 57243.500000000007 3 156.50000000000003 57050.80000000001
decision_type=2 2 2 2 2 2 2 2 2 2 1 2 2 2 2 2 2 2 2 2 2 2 2 2 2 2 1 2 2 2 2 2 2 1 2 2 2 2 2 2 2 2 2 2 2 2 2 2 2 2 2 2 2 2 2 2 2 2 2 1 2 2
left_child=1 16 5 4 33 6 29 20 10 40 19 54 21 43 15 44 17 -1 -19 31 37 39 25 -20 -12 32 30 -24 -25 42 -22 51 -23 -3 -17 61 -13 -7 -29 49 -5 -28 -2 -10 -11 56 48 -16 -35 -4 -31 52 -6 -8 -9 -33 -42 -45 -18 -60 -61 -30
right_child=2 3 12 9 8 7 53 11 13 14 24 36 -14 -15 47 34 58 18 23 -21 26 22 27 28 -26 -27 41 38 35 50 -32 55 -34 46 -36 -37 -38 -39 -40 -41 45 -43 -44 57 -46 -47 -48 -49 -50 -51 -52 -53 -54 -55 -56 -57 -58 -59 59 60 -62 -63
leaf_value=-0.003265047981217504 -0.00052193111528456152 -0.0017715861428976047 0.0010004966826438898 -0.0035503507850021118 0.00036162760359048917 -6.4075040660798159e-05 0.0024248411054760216 0.00083421968221664416 0.0017029782141745086 -0.00097437044432759242 0.0017410312061905864 0.00035585836449265494 0.0049812574093043805 7.6396687030788608e-06 -0.0022720487014353274 0.0005073753946982332 -0.0037285771517157548 -0.0016233371300697326 -0.0022149056078195574 -0.0012425692175924775 -0.001621629930049181 -0.00040785222637653384 0.0024375162960290899 0.00027527702222764517 8.2538583263754841e-05 0.00081836374711990285 -0.00070592880978807837 0.00078025559878349251 -0.00096345466496050385 5.3933670625090636e-05 -0.00011571679072827134 -0.00074726242254674385 0.00062528828277066376 -0.0019491596360206591 -0.00014294346579909355 -0.0018984056706726564 -0.00025990893700718998 0.00044524836462736192 0.0015255577548444271 0.0033916550935506815 -0.00081749854284524797 0.00017656731769814969 -7.2136791542171396e-05 0.00053219053517282065 -0.00096341017046570768 -0.00039679323810338894 -0.0014597381126582613 -0.00067616444259882005 -0.00061745959711074767 0.0015759465252198281 0.00092207550796866427 0.00056409565910696847 -0.00031735976833104974 0.00063961874721944366 0.0015510388844311232 -0.00027338838408887291 -0.0017761208583712566 0.0012655563163608318 -0.0029795141233205794 -0.00028998473314940931 -0.002461156229496002 0.00021017700167745345
leaf_weight=1049 146 235 233 976 83 51 798 267 434 565 181 93 4753 207 367 120 3172 550 145 137 193 95 470 156 141 227 98 216 52 68 55 85 52 86 123 75 192 54 55 691 51 94 178 111 246 53 96 110 253 190 61 123 101 73 168 167 119 53 535 57 380 56
leaf_count=1049 146 235 233 976 83 51 798 267 434 565 181 93 4753 207 367 120 3172 550 145 137 193 95 470 156 141 227 98 216 52 68 55 85 52 86 123 75 192 54 55 691 51 94 178 111 246 53 96 110 253 190 61 123 101 73 168 167 119 53 535 57 380 56
internal_value=-1.56986e-05 -0.0190166 0.0227155 -0.0103561 0.00022864 0.0097219 0.0176284 0.00144664 0.00650027 -0.020022 -0.000825147 0.0111667 0.0275337 0.015764 -0.0147551 -0.0103605 -0.0262807 -0.0223092 -0.0174662 -0.00741379 -0.0113945 0.0227052 0.0186457 -0.00892562 0.0134161 0.00914439 -0.0158182 0.0234413 -0.00327434 -0.00231788 -0.0229839 -0.00338104 -0.00183673 -0.0168358 0.00308642 -0.0113115 -0.00157895 0.00714286 0.0156089 0.0267684 -0.0267473 -0.0065625 -0.00703704 0.0211706 -0.0143896 -0.0203139 -0.0130345 -0.0244654 -0.010531 0.0226241 0.00953488 0.00205212 -0.00228261 0.0280023 0.0195172 -0.01 -0.024 0.0142683 -0.028277 -0.0258025 -0.0221739 -0.00388889
internal_weight=21021 11450 9571 5223 2493 2589 1324 1265 1823 2730 1018 720 6982 805 1531 1054 6227 2083 1034 696 545 2229 1115 484 322 374 440 741 339 453 248 559 147 670 243 183 285 105 271 1114 1199 192 324 598 811 223 435 477 339 423 129 307 184 871 435 252 170 164 4144 972 437 108
internal_count=21021 11450 9571 5223 2493 2589 1324 1265 1823 2730 1018 720 6982 805 1531 1054 6227 2083 1034 696 545 2229 1115 484 322 374 440 741 339 453 248 559 147 670 243 183 285 105 271 1114 1199 192 324 598 811 223 435 477 339 423 129 307 184 871 435 252 170 164 4144 972 437 108
cat_boundaries=0 1 2 3 4
cat_threshold=2 2 2 2
is_linear=0
shrinkage=0.03


Tree=3
num_leaves=63
num_cat=2
split_feature=0 0 0 5 2 4 2 5 0 2 3 5 5 5 5 5 5 5 5 0 2 2 5 2 6 5 5 0 5 2 0 3 6 5 2 2 5 2 2 2 2 2 0 0 0 2 3 5 0 0 0 3 2 0 0 3 5 2 5 2 5 5
split_gain=10006.3 796.518 649.071 596.493 373.168 299.469 147.764 134.284 131.475 128.355 94.5423 84.0015 73.4024 71.5514 53.3929 64.2405 61.2208 52.1173 50.8595 48.9347 60.5311 42.5117 34.7443 35.4449 33.345 32.4031 31.9888 29.8331 28.4668 28.1223 24.826 22.9628 22.7155 21.6195 19.9778 19.609 19.5918 19.07 18.6933 20.8698 18.2992 29.3958 17.7796 17.5543 15.9597 18.5072 15.8589 14.9925 16.2246 14.508 14.3926 14.1695 13.193 13.1524 12.7131 12.7064 12.6125 11.9648 11.7439 11.4356 10.9673 10.5948
threshold=65106.30000000001 58887.150000000001 69211.750000000015 170.50000000000003 7.5000000000000009 2.5000000000000004 6.5000000000000009 170.50000000000003 61654.850000000006 16.500000000000004 4.5000000000000009 56.500000000000007 267.50000000000006 140.50000000000003 184.50000000000003 259.50000000000006 54.500000000000007 144.50000000000003 332.50000000000006 71811.35000000002 21.500000000000004 14.500000000000002 94.500000000000014 8.5000000000000018 0 142.50000000000003 285.50000000000006 60953.200000000004 124.50000000000001 5.5000000000000009 55637.750000000007 5.5000000000000009 1 190.50000000000003 16.500000000000004 9.5000000000000018 184.50000000000003 1.5000000000000002 11.500000000000002 21.500000000000004 8.5000000000000018 15.500000000000002 67398.35000000002 63708.950000000004 64598.350000000006 21.500000000000004 5.5000000000000009 40.500000000000007 53495.30000000001 67077.300000000017 66742.450000000026 5.5000000000000009 19.500000000000004 63597.400000000009 62718.30000000001 3.5000000000000004 80.500000000000014 8.5000000000000018 343.50000000000006 1.5000000000000002 28.500000000000004 355.50000000000006
decision_type=2 2 2 2 2 2 2 2 2 2 2 2 2 2 2 2 2 2 2 2 2 2 2 2 1 2 2 2 2 2 2 2 1 2 2 2 2 2 2 2 2 2 2 2 2 2 2 2 2 2 2 2 2 2 2 2 2 2 2 2 2 2
left_child=1 9 4 5 14 34 -5 11 10 22 25 42 33 43 16 -16 29 -12 49 20 37 26 23 24 -1 40 54 -28 30 60 -11 44 35 52 46 -29 -22 -4 -35 50 56 -42 -6 -10 45 -23 -3 -26 -49 -14 -40 -30 -9 -15 -8 -38 -7 -48 -20 -17 -2 -60
right_child=2 3 19 6 7 8 21 12 13 28 17 -13 18 53 15 59 -18 -19 58 -21 36 31 -24 -25 47 -27 27 32 51 -31 -32 -33 -34 38 -36 -37 55 -39 39 -41 41 -43 -44 -45 -46 -47 57 48 -50 -51 -52 -53 -54 -55 -56 -57 -58 -59 61 -61 -62 -63
leaf_value=-0.0019647961419642711 -0.00067713834575749868 -0.0015983280876302706 0.00087951210575938296 -0.0033563765066852414 8.8059046953766753e-05 -0.00036438648474276081 -0.0019583886987769592 0.00091985020183363905 0.00093160434169918148 -0.0012576058571375903 0.0016888002700048692 0.0023049915035567438 0.00073111501814425071 -0.00029737855932578463 -0.0017939643079188466 -0.00094367459942132186 0.0021820194980044661 -0.00063878993031039779 -0.00058179099552065235 0.0047893588743969807 0.0012507001498380304 -3.2489034390449364e-05 -0.0033797656961211558 -0.0031151216368824988 -0.0012499323849642268 -0.0012796639140692351 -0.0013668260951337228 0.00032878541682064414 -0.00074830388662755433 0.00067688026724740773 0.00011931644134752395 -0.0011415388762924077 -0.0015182510259944204 -0.00074947169772148154 -0.00026592322490975287 -0.0003550022741349046 -3.2787161800861273e-05 0.0022547668273115158 -0.00028118865601804152 -0.00059463556157173664 -0.00072703625780403736 0.00042556026325754891 0.00085198994638010779 0.0017757236975267515 0.00052148594605162747 -0.00078439903318852199 -0.00063762961393833194 -0.00093870563233271144 3.2367241000457733e-05 0.0017688560075546803 0.00075163395443150673 -0.0013580717747935646 -6.5632521184538772e-06 0.00030792222145736289 -0.0007999530052285633 0.00052221593838572495 0.00022487049626983724 -0.0021080805769586562 0.0006172268520060187 0.00053746374468773505 -6.8870168686060992e-05 -4.3095274281800817e-05
leaf_weight=202 138 417 97 1206 147 93 269 78 434 54 169 998 256 144 191 55 82 66 57 4838 105 219 4688 420 69 130 138 102 154 63 153 185 58 77 114 132 87 1263 50 74 171 72 105 274 59 231 113 57 135 274 114 192 57 99 174 53 156 67 59 101 95 71
leaf_count=202 138 417 97 1206 147 93 269 78 434 54 169 998 256 144 191 55 82 66 57 4838 105 219 4688 420 69 130 138 102 154 63 153 185 58 77 114 132 87 1263 50 74 171 72 105 274 59 231 113 57 135 274 114 192 57 99 174 53 156 67 59 101 95 71
internal_value=0.000132851 -0.018842 0.0227324 -0.0103175 0.0115532 0.000250099 -0.0199171 0.0172156 0.00673673 -0.0262084 -0.0017853 0.024048 0.00989717 0.0144164 -0.00732414 -0.0158213 0.00047619 0.0144255 0.0158577 0.0281841 0.0236449 -0.0138417 -0.0275767 -0.0221178 -0.0163931 -0.00790997 -0.0182474 -0.0124186 -0.0124231 -0.00587838 -0.00362319 -0.00829971 -0.0069863 0.0004 -0.0162447 -0.00282051 0.00991837 0.0261176 -0.00390476 0.000252101 -0.00439024 -0.0102469 0.00857143 0.0192373 -0.00500982 -0.00693333 -0.0184422 -0.00931034 -0.005 0.0206038 0.00621951 -0.0176879 0.0104444 0.00037037 -0.0239052 0.00257143 0.0013253 -0.011 0.00240642 -0.00153846 -0.0106867 0.00738462
internal_weight=21001 11416 9585 5292 3142 2519 2773 2417 1808 6124 857 1250 1167 951 725 347 378 235 717 6443 1605 1567 5571 883 463 622 873 430 553 296 207 694 292 450 711 234 245 1360 315 238 492 243 252 708 509 450 597 261 192 530 164 346 135 243 443 140 249 180 187 156 233 130
internal_count=21001 11416 9585 5292 3142 2519 2773 2417 1808 6124 857 1250 1167 951 725 347 378 235 717 6443 1605 1567 5571 883 463 622 873 430 553 296 207 694 292 450 711 234 245 1360 315 238 492 243 252 708 509 450 597 261 192 530 164 346 135 243 443 140 249 180 187 156 233 130
cat_boundaries=0 1 2
cat_threshold=2 2
is_linear=0
shrinkage=0.03


Tree=4
num_leaves=63
num_cat=1
split_feature=0 0 5 0 2 5 2 2 0 5 2 5 3 5 0 5 5 5 0 5 2 5 2 5 3 0 0 5 5 5 2 3 3 1 0 0 5 2 2 5 5 5 5 2 6 2 0 0 0 0 2 2 0 2 1 5 5 0 5 5 5 1
split_gain=9664.17 878.793 563.21 559.855 324.385 317.009 178.511 155.159 135.162 118.595 89.9776 89.0356 76.866 59.5418 57.9527 52.4074 50.0887 76.643 50.0601 46.3327 46.3488 45.7616 41.1108 37.0899 36.4833 36.3657 35.8392 35.5254 32.3943 31.5123 31.0991 30.2252 26.2209 26.0085 24.2472 22.417 20.1926 19.6868 18.435 18.1457 17.4087 17.3094 16.7385 16.3607 16.3276 15.4871 15.1049 14.0099 13.7171 13.2695 13.186 12.863 12.7333 17.8132 12.3661 17.2976 11.4743 11.4199 14.0499 11.3668 11.204 10.9169
threshold=65533.400000000009 59080.850000000013 170.50000000000003 69837.400000000009 7.5000000000000009 58.500000000000007 6.5000000000000009 16.500000000000004 62818.850000000006 166.50000000000003 21.500000000000004 56.500000000000007 4.5000000000000009 138.50000000000003 63388.650000000009 142.50000000000003 174.50000000000003 317.50000000000006 67485.650000000009 94.500000000000014 8.5000000000000018 52.500000000000007 14.500000000000002 144.50000000000003 3.5000000000000004 71988.550000000003 67822.950000000026 267.50000000000006 271.50000000000006 329.50000000000006 20.500000000000004 5.5000000000000009 5.5000000000000009 597.10200000000009 67177.85000000002 58008.400000000001 168.50000000000003 1.5000000000000002 21.500000000000004 285.50000000000006 258.50000000000006 184.50000000000003 335.50000000000006 10.500000000000002 0 15.500000000000002 55503.650000000009 60953.200000000004 60953.200000000004 63708.950000000004 1.5000000000000002 10.500000000000002 61259.250000000007 9.5000000000000018 757.6839500000001 154.50000000000003 78.500000000000014 53495.30000000001 64.500000000000014 306.50000000000006 32.500000000000007 1642.3515000000002
decision_type=2 2 2 2 2 2 2 2 2 2 2 2 2 2 2 2 2 2 2 2 2 2 2 2 2 2 2 2 2 2 2 2 2 2 2 2 2 2 2 2 2 2 2 2 1 2 2 2 2 2 2 2 2 2 2 2 2 2 2 2 2 2
left_child=1 7 5 4 16 44 59 19 12 11 18 34 15 61 22 33 21 -18 27 20 24 26 39 -14 -1 30 -2 51 -16 -30 37 54 38 52 -6 57 46 -5 -24 -8 43 -32 -29 -20 -3 47 -33 -35 -41 -15 -19 -11 53 56 55 -9 -7 -26 -59 -4 -46 -10
right_child=3 2 6 25 9 8 14 31 13 10 -12 -13 23 49 28 -17 17 50 40 -21 -22 -23 32 -25 35 -27 -28 42 29 -31 41 36 -34 45 -36 -37 -38 -39 -40 48 -42 -43 -44 -45 60 -47 -48 -49 -50 -51 -52 -53 -54 -55 -56 -57 -58 58 -60 -61 -62 -63
leaf_value=-0.0017585939872264244 -0.00049996821924107033 -0.0015379285284035677 -0.0035529430949525825 0.00079890115155290594 -8.7554277318563359e-05 -0.00032572540874181434 -0.0017124669632658986 0.00032879106864771635 0.0018197280704503182 -0.00062608567978615355 -0.00035135258789919518 0.0026170993942011842 0.0018526587890629841 -0.00024039682893172985 -0.00065882527091222552 -0.00093126862164558035 -0.0014760885103281089 -0.00038920614782326558 -4.1700625155191852e-05 -0.0032528790307756405 -0.0030216679877760242 0.0030505088179059656 0.00011458517978685966 -4.207063557262469e-05 -0.0011602881365681056 0.004665744607875155 0.00049633468572478129 0.0010305864422674488 0.00024186362853690301 -0.00066447955515029525 0.0015708862481234552 -0.0013519935063379003 -0.0012385201588717919 -0.00067045713958067911 0.00087632908277750492 0.00073091060327528984 -0.0016390738535710296 0.0023424864047796607 -0.00096580296753020047 -0.0014197559600311604 0.0017115136550364329 0.00046763473740409566 4.5127380901791577e-05 0.00092042447271010964 -0.00063441230500273617 0.00037654444386236551 -0.00029916743524751211 -6.1276531654639869e-05 -0.00061216017480522189 0.00035079210235013255 0.00057793935679472384 0.00013288530322045798 0.00076503723986847457 -0.00064111449163554491 -0.00067176377071964135 -0.0011021481826247151 0.00048546424107859254 -0.0021405111118404669 1.8330811682333859e-05 -0.0020135438141110824 -0.0012850047712450506 0.0008057160828415002
leaf_weight=228 151 277 799 81 105 50 314 107 397 50 211 970 178 63 223 192 196 53 50 4827 422 75 171 82 53 4730 113 239 288 91 119 52 133 143 164 55 107 899 128 123 391 151 74 135 241 64 143 122 162 137 102 128 164 73 82 80 101 51 89 370 216 138
leaf_count=228 151 277 799 81 105 50 314 107 397 50 211 970 178 63 223 192 196 53 50 4827 422 75 171 82 53 4730 113 239 288 91 119 52 133 143 164 55 107 899 128 123 391 151 74 135 241 64 143 122 162 137 102 128 164 73 82 80 101 51 89 370 216 138
internal_value=-1.29045e-05 -0.0180521 -0.00922059 0.0230315 0.0129186 0.000727824 -0.0185867 -0.025683 0.00718487 0.0179142 0.0115023 0.0245278 0.000846878 0.0172653 -0.01218 -0.00326733 -0.00530435 -0.0132479 0.0150422 -0.0271703 -0.0209131 0.00292035 -0.0164985 0.0152308 -0.0144958 0.0284548 -0.00295455 0.00800407 -0.00478405 0.00055409 0.023904 -0.0107706 -0.00944444 0.000460251 0.00925651 -0.00653226 -0.0172848 0.0263878 -0.00451505 -0.021586 0.0210417 0.0148889 0.0140895 0.0134595 -0.0160218 -0.00574468 -0.0115385 -0.0089434 -0.0161053 0.0033 0.00251613 -0.00269663 0.00572165 0.00107143 -0.00345725 0.000802139 0.00695364 -0.0113472 -0.00685714 -0.0275364 -0.0125383 0.022486
internal_weight=20923 11736 5440 9187 3207 2638 2802 6296 1904 2517 1278 1239 1169 735 1633 909 690 351 1067 5725 898 339 1031 260 476 5980 264 491 602 379 1250 571 432 717 269 248 302 980 299 599 576 270 313 185 734 329 195 265 285 200 155 178 388 224 269 187 151 193 140 1169 457 535
internal_count=20923 11736 5440 9187 3207 2638 2802 6296 1904 2517 1278 1239 1169 735 1633 909 690 351 1067 5725 898 339 1031 260 476 5980 264 491 602 379 1250 571 432 717 269 248 302 980 299 599 576 270 313 185 734 329 195 265 285 200 155 178 388 224 269 187 151 193 140 1169 457 535
cat_boundaries=0 1
cat_threshold=2
is_linear=0
shrinkage=0.03


Tree=5
num_leaves=63
num_cat=3
split_feature=0 0 0 4 2 4 2 2 3 4 0 0 6 2 2 4 4 4 2 2 4 2 6 4 2 1 2 3 3 0 4 0 4 1 2 2 4 1 4 4 4 0 0 1 1 2 3 2 0 6 4 4 0 0 1 4 1 2 1 1 4 4
split_gain=9595.82 841.154 631.943 457.191 370.515 243.391 152.987 148.105 132.632 118.83 108.809 72.4172 75.2057 55.9605 58.163 53.5412 81.7046 63.7893 50.9154 41.7118 41.1777 31.856 26.1925 25.4051 23.4211 22.5474 27.8672 21.5748 21.0113 20.855 20.2425 19.4227 18.3753 18.2145 18.4052 17.1352 15.6088 26.6298 14.7555 21.9216 25.9621 16.237 14.7178 14.4149 13.5948 13.3219 13.2676 12.7899 12.5422 12.4118 12.3976 11.7548 14.6272 11.6457 11.2783 10.7754 10.7038 10.6459 10.4557 10.0373 9.93524 9.46559
threshold=64502.650000000001 68266.400000000009 58989.05000000001 5.5000000000000009 7.5000000000000009 2.5000000000000004 6.5000000000000009 16.500000000000004 4.5000000000000009 5.5000000000000009 71988.550000000003 61560.400000000001 0 21.500000000000004 4.5000000000000009 5.5000000000000009 2.5000000000000004 10.500000000000002 14.500000000000002 22.500000000000004 3.5000000000000004 8.5000000000000018 1 6.5000000000000009 22.500000000000004 1319.7315000000001 11.500000000000002 5.5000000000000009 3.5000000000000004 61466.700000000004 6.5000000000000009 66742.450000000026 11.500000000000002 578.74800000000016 8.5000000000000018 16.500000000000004 9.5000000000000018 2564.0695000000005 6.5000000000000009 8.5000000000000018 7.5000000000000009 70079.85000000002 66961.450000000026 849.83635000000015 536.78050000000019 14.500000000000002 5.5000000000000009 5.5000000000000009 60383.55000000001 2 11.500000000000002 7.5000000000000009 55503.650000000009 69709.000000000015 3928.3890000000006 10.500000000000002 296.17115000000007 21.500000000000004 444.90550000000002 173.48500000000004 8.5000000000000018 8.5000000000000018
decision_type=2 2 2 2 2 2 2 2 2 2 2 2 1 2 2 2 2 2 2 2 2 2 1 2 2 2 2 2 2 2 2 2 2 2 2 2 2 2 2 2 2 2 2 2 2 2 2 2 2 1 2 2 2 2 2 2 2 2 2 2 2 2
left_child=2 4 7 5 15 49 55 20 9 -6 13 12 -7 14 30 16 47 -17 22 42 21 28 29 -15 32 57 -27 43 -1 -8 53 -10 46 34 48 -33 -31 -38 -16 40 -40 -42 -11 56 -30 -35 59 58 -14 -4 -41 52 -29 -3 -28 -5 -9 -13 -2 -20 -48 -61
right_child=1 10 3 6 8 11 18 27 31 19 -12 25 33 23 38 17 -18 -19 24 -21 -22 -23 -24 -25 -26 26 54 51 44 36 -32 35 -34 45 -36 -37 37 -39 39 50 41 -43 -44 -45 -46 -47 60 -49 -50 -51 -52 -53 -54 -55 -56 -57 -58 -59 -60 61 -62 -63
leaf_value=-0.0017130365577101103 -0.00018909847166374393 0.00039980677586192945 -0.00018097535582217659 -0.0035552596674881063 0.0020969995275189244 0.0013289909811649246 -0.0011508153217016184 -0.00061144859976671958 -0.00013414980988754542 0.00051167544704075918 0.0045575758969510832 0.0015693579514216604 -1.33146794518188e-05 0.0013375528904028882 0.0026825101127648616 -0.0018865411008553311 0.0035067935286946629 -0.00013461754081526027 0.00062558144331870179 -0.00045356391985792749 -0.0031580304084752645 -0.0028295861600223988 -0.0017227050091983391 6.6392240260592641e-05 -0.00095190965830387942 -0.0002972585581928633 0.0010794525308482708 -0.001334326377986858 -0.00047859301517826189 -0.00075922426133582632 -0.00010458109550782412 -9.9528854478903581e-05 -0.0010598316760017958 -0.00062392484704558904 -0.00062188105688647797 0.00072599343210953183 0.00043223113843587842 -0.00037036259685795992 0.0011193337218162556 0.0021505786878463782 -0.00038476108529784058 0.00076000081030610427 0.0010781093812988712 -0.00079330920614642888 -0.0011282384713461448 2.8662354128269895e-05 -7.6058137497955756e-06 0.00017066355935464294 0.00089205633931553694 -0.0014424947136163302 0.0011043749917209291 -0.0015048527314819712 -0.00027454435531367501 0.00090771967470936875 0.00016790109721084967 -0.0020278706824756461 0.00022071386857083292 0.0006517866282802037 -0.00085349473230700572 0.00040284447778243966 -0.00086484879148596313 -0.00030854088662883692
leaf_weight=199 91 63 60 755 770 157 230 80 370 499 4779 321 96 119 887 251 66 144 55 84 4891 360 313 173 159 73 72 57 145 151 89 83 56 212 85 133 79 128 128 491 51 52 296 72 92 61 50 59 66 542 166 106 139 64 63 357 104 165 134 65 79 239
leaf_count=199 91 63 60 755 770 157 230 80 370 499 4779 321 96 119 887 251 66 144 55 84 4891 360 313 173 159 73 72 57 145 151 89 83 56 212 85 133 79 128 128 491 51 52 296 72 92 61 50 59 66 542 166 106 139 64 63 357 104 165 134 65 79 239
internal_value=8.58124e-05 0.0212587 -0.0193598 -0.0110365 0.00789262 -4.56158e-05 -0.0190206 -0.0256093 0.014 0.0183566 0.0268989 0.00693654 -4.43131e-05 0.0215112 0.0233099 -0.0104295 -0.00188571 -0.018 -0.0130923 0.0108191 -0.0270564 -0.0207286 -0.0178135 0.00924658 -0.00704125 0.0137464 0.00548077 -0.0108602 -0.0152752 -0.0140816 0.00861111 0.00174061 -0.00408088 -0.00553846 0.000364372 0.00888889 -0.00955307 -0.0042029 0.0250986 0.0223649 0.0144156 0.00320388 0.0129434 -0.00445312 -0.00924051 -0.0108791 -0.00221311 -0.00887324 0.0062963 -0.0159468 0.0251598 -0.0162914 -0.0119388 0.0162992 0.0135556 -0.0275719 0 0.017284 -0.0121333 0.000752089 -0.0104651 -0.00138158
internal_weight=20976 10042 10934 4689 2980 1973 2716 6245 2235 1649 7062 1371 677 2283 1991 745 350 395 1604 879 5687 796 901 292 703 694 208 558 436 588 216 586 544 520 247 216 358 207 1775 888 231 103 795 256 237 273 488 284 162 602 657 302 196 127 135 1112 184 486 225 359 129 304
internal_count=20976 10042 10934 4689 2980 1973 2716 6245 2235 1649 7062 1371 677 2283 1991 745 350 395 1604 879 5687 796 901 292 703 694 208 558 436 588 216 586 544 520 247 216 358 207 1775 888 231 103 795 256 237 273 488 284 162 602 657 302 196 127 135 1112 184 486 225 359 129 304
cat_boundaries=0 1 2 3
cat_threshold=4 2 1
is_linear=0
shrinkage=0.03


Tree=6
num_leaves=63
num_cat=4
split_feature=0 0 0 4 2 4 2 2 4 0 3 4 2 0 2 4 2 4 2 6 2 4 0 2 6 1 4 4 0 1 3 6 4 4 0 0 0 0 3 1 1 2 1 0 4 2 6 4 4 1 2 2 4 0 0 0 2 0 4 0 3 0
split_gain=9367.32 783.894 655.438 509.967 376.103 269.721 189.962 126.194 115.203 93.4703 93.8126 64.0327 63.1624 52.0419 49.5734 49.4457 48.5414 47.5157 43.8122 42.818 52.5457 33.4496 32.4864 32.27 46.0364 31.9608 30.4378 25.0075 24.2829 24.2766 23.8174 23.5785 23.3213 20.4562 20.8679 19.9017 19.4866 19.3801 19.2103 19.2 19.132 18.8475 16.9729 16.6855 15.4683 15.3106 15.1439 14.4696 14.3247 14.0675 13.7408 12.9093 14.9395 12.3413 10.7069 10.5173 10.4844 10.4149 10.4139 10.6253 10.3117 9.75302
threshold=65106.30000000001 58887.150000000001 69456.000000000015 5.5000000000000009 7.5000000000000009 2.5000000000000004 6.5000000000000009 16.500000000000004 6.5000000000000009 62274.80000000001 4.5000000000000009 2.5000000000000004 14.500000000000002 72940.250000000015 21.500000000000004 6.5000000000000009 5.5000000000000009 10.500000000000002 20.500000000000004 0 14.500000000000002 4.5000000000000009 60953.200000000004 8.5000000000000018 1 492.0483000000001 5.5000000000000009 6.5000000000000009 51187.750000000007 2108.0080000000003 5.5000000000000009 2 10.500000000000002 9.5000000000000018 64025.400000000001 67177.85000000002 67177.85000000002 57343.55000000001 5.5000000000000009 633.3334000000001 3860.6295000000005 1.5000000000000002 849.83635000000015 68044.150000000009 4.5000000000000009 16.500000000000004 3 1.5000000000000002 4.5000000000000009 615.20950000000005 15.500000000000002 22.500000000000004 9.5000000000000018 60953.200000000004 66848.500000000015 64025.400000000001 1.0000000180025095e-35 67177.85000000002 7.5000000000000009 56862.05000000001 5.5000000000000009 67398.35000000002
decision_type=2 2 2 2 2 2 2 2 2 2 2 2 2 2 2 2 2 2 2 1 2 2 2 2 1 2 2 2 2 2 2 1 2 2 2 2 2 2 2 2 2 2 2 2 2 2 1 2 2 2 2 2 2 2 2 2 2 2 2 2 2 2
left_child=1 7 4 5 15 45 33 21 11 10 25 35 22 18 19 16 47 -17 41 36 -21 23 -8 24 37 44 -13 -20 -26 55 51 32 -24 -5 -35 -6 -10 -1 42 -16 -34 -4 48 -28 53 -3 -29 -2 -9 -22 -27 52 -14 -7 -51 -11 -23 -49 59 -40 -47 -19
right_child=2 3 13 6 8 9 12 38 14 29 -12 26 30 -15 39 17 -18 61 27 20 49 56 31 -25 28 50 43 46 -30 -31 -32 -33 40 34 -36 -37 -38 -39 58 -41 -42 -43 -44 -45 -46 60 -48 57 -50 54 -52 -53 -54 -55 -56 -57 -58 -59 -60 -61 -62 -63
leaf_value=-0.0022682801810432079 -0.00047324806618262492 -0.0013422431193775037 0.00079030098996629543 -0.0034697671619778911 8.1918057835205779e-05 7.7782430083050413e-05 -0.0016913244790260126 0.00059103511424585665 0.00064915628401971239 0.0009485400409854893 0.0015305710250415926 0.0024433285030323534 0.00038085442760607546 0.0046594367713782663 0.00023647929681552048 -0.0015146954468249756 0.0013559364980320881 -0.00057549818525763185 0.0015879192424185144 -0.00056528180935504603 0.0011945053493107875 -0.0019827736681024576 -0.00060946947857531519 -0.00283942216044722 -0.0018221457769130981 -0.00050139230409179496 0.00051452978294273951 0.00011942514288244721 -0.00084115552799456539 0.00041010696023400129 -0.00077945724314828992 -0.0013201806594194886 0.00032935803943714867 -0.0020562393682421742 -0.00034797392778441349 0.00080312624113974655 0.0014730543512296995 -0.00068660342966800954 -0.0011929823175401853 -0.00073973441527387131 -0.00034061805141074594 0.002144463823068773 -0.0008637576316452289 0.0015110123641422502 -0.00035456746018072748 0.00013520212434253996 0.00097083953534556479 -0.00057805166147774031 -0.00057011669944216604 -0.00012701296377610859 0.00023814936941475324 -0.00051943174629357684 -0.00023569031917111848 0.0011357773751009758 0.00063067082916807345 0.001876388045050015 -0.0033158668606657385 0.00034900709642224137 -0.0014418131373984354 -0.00023547788349516984 -0.00083488966885840509 0.00053152584851236197
leaf_weight=351 159 587 102 792 138 139 306 54 284 317 199 831 135 4362 108 212 100 85 156 125 65 174 359 667 71 331 194 176 359 171 207 210 84 383 53 153 391 140 90 72 53 1406 77 90 85 62 50 59 124 60 58 154 310 91 79 194 3805 50 118 99 53 69
leaf_count=351 159 587 102 792 138 139 306 54 284 317 199 831 135 4362 108 212 100 85 156 125 65 174 359 667 71 331 194 176 359 171 207 210 84 383 53 153 391 140 90 72 53 1406 77 90 85 62 50 59 124 60 58 154 310 91 79 194 3805 50 118 99 53 69
internal_value=0.000216751 -0.0180806 0.0221178 -0.00966998 0.0113538 0.00103629 -0.0177085 -0.0253989 0.0167259 0.00789274 0.00156146 0.022532 -0.0115512 0.0278407 0.00983108 -0.00760218 0.000163043 -0.0154098 0.0236825 0.0124303 0.00355623 -0.0267667 -0.0165415 -0.0230856 -0.0194463 -0.00357955 0.0258027 0.0146073 -0.0122791 0.0162757 -0.00528536 -0.0130028 -0.00943548 -0.0268241 -0.0216055 0.01 0.0167556 -0.025723 -0.0118505 -0.00466667 0.00109489 0.0259814 -0.00576471 0.0173239 0.00352381 -0.0144444 0.00823009 -0.00649254 -0.000674157 0.0129412 -0.00933162 -0.00225376 0.000337079 0.00756522 0.00755396 0.0195499 -0.0282357 0.00192661 -0.0169055 -0.0125397 -0.00443478 -0.00272727
internal_weight=21038 11462 9576 5333 3324 2287 3046 6129 2590 1585 903 1406 1818 6252 1184 734 368 366 1890 1004 329 5567 1012 1588 921 704 1115 382 430 682 806 706 496 1228 436 291 675 491 562 180 137 1508 255 284 315 702 226 268 178 204 389 599 445 230 139 511 3979 109 307 189 115 154
internal_count=21038 11462 9576 5333 3324 2287 3046 6129 2590 1585 903 1406 1818 6252 1184 734 368 366 1890 1004 329 5567 1012 1588 921 704 1115 382 430 682 806 706 496 1228 436 291 675 491 562 180 137 1508 255 284 315 702 226 268 178 204 389 599 445 230 139 511 3979 109 307 189 115 154
cat_boundaries=0 1 2 3 4
cat_threshold=2 2 2 2
is_linear=0
shrinkage=0.03


Tree=7
num_leaves=63
num_cat=3
split_feature=0 0 0 5 2 5 2 2 5 0 5 0 2 3 5 5 5 2 2 5 5 6 5 5 5 1 6 5 5 0 5 5 5 5 5 2 0 0 2 0 1 0 5 0 5 0 5 2 3 5 1 3 5 6 5 0 0 2 2 2 5 5
split_gain=9173.82 697.86 673.23 512.272 326.364 214.892 167.1 143.601 135.895 113.887 95.1017 92.2276 69.6103 67.355 66.4388 53.1047 51.1922 50.9224 50.1771 41.0427 46.2801 38.7407 37.4675 45.4651 38.8363 34.4768 32.968 24.6785 24.4346 30.5719 24.3003 20.4944 20.0321 19.2879 32.6418 37.3135 19.1458 18.1985 17.9122 17.7052 17.5779 17.4819 19.6097 16.9602 16.7648 20.851 16.0897 15.6444 15.3651 14.7175 14.5313 13.7925 12.7013 12.2266 20.405 16.4133 12.2239 11.8732 11.8531 18.9418 11.7965 11.5591
threshold=65106.30000000001 59276.250000000007 68266.400000000009 170.50000000000003 7.5000000000000009 56.500000000000007 16.500000000000004 6.5000000000000009 162.50000000000003 71643.650000000009 56.500000000000007 61654.850000000006 21.500000000000004 4.5000000000000009 100.50000000000001 265.50000000000006 142.50000000000003 8.5000000000000018 4.5000000000000009 267.50000000000006 330.50000000000006 0 172.50000000000003 54.500000000000007 259.50000000000006 767.85400000000016 1 144.50000000000003 286.50000000000006 55637.750000000007 194.50000000000003 184.50000000000003 204.50000000000003 190.50000000000003 251.50000000000003 11.500000000000002 64189.200000000004 64113.30000000001 1.0000000180025095e-35 58110.05000000001 812.24550000000011 52592.200000000004 56.500000000000007 56654.55000000001 299.50000000000006 64025.400000000001 142.50000000000003 4.5000000000000009 5.5000000000000009 338.50000000000006 777.40400000000011 2.5000000000000004 104.50000000000001 2 48.500000000000007 62909.600000000013 74123.650000000009 19.500000000000004 13.500000000000002 21.500000000000004 330.50000000000006 324.50000000000006
decision_type=2 2 2 2 2 2 2 2 2 2 2 2 2 2 2 2 2 2 2 2 2 1 2 2 2 2 1 2 2 2 2 2 2 2 2 2 2 2 2 2 2 2 2 2 2 2 2 2 2 2 2 2 2 1 2 2 2 2 2 2 2 2
left_child=1 6 4 5 22 53 14 44 10 12 48 13 18 46 17 -9 37 21 32 30 57 39 23 47 -24 36 -18 -15 29 -8 50 -14 -4 -20 35 -35 60 -13 51 -1 -22 -23 -43 -44 -5 61 -7 -2 -6 -36 -10 -16 -31 55 -55 -3 -11 -21 -32 -60 -17 -46
right_child=2 3 9 7 8 11 28 15 19 56 -12 16 31 27 38 25 26 -19 33 20 40 41 24 -25 -26 -27 -28 -29 -30 52 58 -33 -34 34 49 -37 -38 -39 -40 -41 -42 42 43 -45 45 -47 -48 -49 -50 -51 -52 -53 -54 54 -56 -57 -58 -59 59 -61 -62 -63
leaf_value=-0.0020912260440174241 -0.00065723700238295491 -0.0027494154868337992 0.00076189941878879619 -0.0033138927609815461 0.00076418776811263073 -0.00021921334669346924 -0.001112903162087705 -0.0014555386957342763 -9.6892063201274584e-05 0.0018874358057075411 0.0020579463265440042 0.00076238862860281977 0.0012423682297917024 0.0014555286806672973 -0.002529059237367807 -0.00029221395045483711 -0.00032030907997470629 -0.0027394413305210689 0.0024801911416333176 0.0011990165923647634 0.00053847899297968405 -0.001074550534540373 -0.0014856408631518524 0.0029278622703517799 -0.00025159592831579144 -0.00063748734309470255 0.00080838883986627641 -0.00039255811646129096 -0.0015486782524226465 0.00028555937676024546 -0.00059507548159320935 -1.370429777205806e-05 -0.00014437863643207787 -0.00018956066489033861 0.0021938376985461147 0.00066527018762566775 0.00054247681913156961 0.0016237916269732768 -0.0030228927202327286 -0.0010484897361619191 -0.00041640964502584477 -0.0011267689785141393 -0.00073772083672280885 0.00092830635430486198 -0.00069921999680050808 -0.00025997908332009824 -0.0010004535622704864 0.00013933520540438337 -0.00020952286780126782 0.00098068707853876062 0.00052535911824375613 -0.0010055459548601498 -0.0004320458216799136 -0.00070319977116687466 -0.001586744743251337 -0.00083163712284973156 0.0048881833396675059 0.00064375145038940429 0.00038722378696790904 -0.00059788084611785478 -0.00080404602861039118 -0.0021689817050279036
leaf_weight=204 155 100 130 750 140 461 132 453 58 1116 724 544 108 133 107 325 178 486 846 259 63 58 193 50 119 597 57 56 131 107 86 163 78 75 445 124 78 220 4519 72 106 109 88 78 52 50 107 69 66 140 105 119 256 319 68 124 3825 157 84 57 53 262
leaf_count=204 155 100 130 750 140 461 132 453 58 1116 724 544 108 133 107 325 178 486 846 259 63 58 193 50 119 597 57 56 131 107 86 163 78 75 445 124 78 220 4519 72 106 109 88 78 52 50 107 69 66 140 105 119 256 319 68 124 3825 157 84 57 53 262
internal_value=9.71706e-05 -0.0180031 0.0218248 -0.00957088 0.00841831 0.000544994 -0.0245067 -0.0187099 0.0144409 0.0265617 0.0226452 0.00587699 0.0207255 -0.00202114 -0.0260856 -0.0126693 0.0118619 -0.0194247 0.0228183 0.00661538 0.011641 -0.0136453 -0.0111604 -0.00306569 -0.0182692 -0.00897436 -0.000382979 0.0134921 -0.00977636 -0.00672727 -0.000923077 0.00653137 0.00894231 0.024589 0.021199 0.0107035 -0.00276316 0.0156283 -0.0276228 -0.0219565 -0.00159763 -0.00675676 -0.0036 0.00289157 -0.0268761 -0.0215934 -0.0071831 -0.00883929 0.00466019 0.0247692 0.00791411 -0.0193805 -0.0022314 -0.0147791 -0.0115504 -0.0203571 0.0290528 0.0170192 -0.00726872 -0.00191489 -0.00555556 -0.0244586
internal_weight=20994 11453 9541 4987 2491 2367 6466 2620 1905 7050 930 1756 2109 757 5840 1506 999 1095 1838 975 585 609 586 274 312 1053 235 189 626 495 390 271 208 1630 784 199 456 764 4745 276 169 333 275 166 1114 364 568 224 206 585 163 226 363 611 387 224 4941 416 227 141 378 314
internal_count=20994 11453 9541 4987 2491 2367 6466 2620 1905 7050 930 1756 2109 757 5840 1506 999 1095 1838 975 585 609 586 274 312 1053 235 189 626 495 390 271 208 1630 784 199 456 764 4745 276 169 333 275 166 1114 364 568 224 206 585 163 226 363 611 387 224 4941 416 227 141 378 314
cat_boundaries=0 1 2 3
cat_threshold=2 2 2
is_linear=0
shrinkage=0.03


Tree=8
num_leaves=63
num_cat=1
split_feature=0 0 0 5 2 5 5 2 0 4 0 3 2 2 2 5 5 5 5 5 2 0 5 5 2 6 5 0 5 2 2 5 5 2 2 5 5 5 5 0 0 5 3 5 2 0 0 0 5 0 3 5 3 2 2 0 3 0 0 0 0 2
split_gain=8922.6 825.263 618.07 539.684 334.361 197.084 152.616 151.05 122.237 108.058 106.989 94.5136 82.4759 70.5881 62.4471 55.411 79.4788 65.7038 51.0899 46.6163 41.6757 37.7456 31.8005 31.6531 28.4458 37.0851 25.3979 23.683 22.1867 21.8065 23.1319 21.7019 29.5441 24.5606 21.6177 21.1314 20.4104 19.8841 18.6063 17.6859 17.4319 17.0609 16.8828 16.8234 15.8409 16.381 15.1923 14.9477 14.4825 14.4142 14.2634 13.9795 13.825 22.2441 13.8079 12.7696 12.7646 12.6723 12.5881 12.2344 12.1956 11.8473
threshold=64502.650000000001 68266.400000000009 57824.400000000009 158.50000000000003 7.5000000000000009 58.500000000000007 164.50000000000003 6.5000000000000009 72940.250000000015 2.5000000000000004 61259.250000000007 4.5000000000000009 16.500000000000004 21.500000000000004 5.5000000000000009 184.50000000000003 56.500000000000007 259.50000000000006 267.50000000000006 330.50000000000006 14.500000000000002 61758.55000000001 118.50000000000001 142.50000000000003 9.5000000000000018 0 96.500000000000014 51187.750000000007 182.50000000000003 7.5000000000000009 15.500000000000002 190.50000000000003 249.50000000000003 11.500000000000002 17.500000000000004 192.50000000000003 285.50000000000006 194.50000000000003 40.500000000000007 65858.750000000015 70889.550000000017 336.50000000000006 4.5000000000000009 276.50000000000006 14.500000000000002 66742.450000000026 69324.550000000017 62526.950000000004 142.50000000000003 65742.85000000002 5.5000000000000009 285.50000000000006 5.5000000000000009 8.5000000000000018 1.5000000000000002 62274.80000000001 1.5000000000000002 63292.350000000006 55637.750000000007 57243.500000000007 67398.35000000002 18.500000000000004
decision_type=2 2 2 2 2 2 2 2 2 2 2 2 2 2 2 2 2 2 2 2 2 2 2 2 2 1 2 2 2 2 2 2 2 2 2 2 2 2 2 2 2 2 2 2 2 2 2 2 2 2 2 2 2 2 2 2 2 2 2 2 2 2
left_child=2 4 12 5 15 34 9 43 13 60 11 29 22 14 35 16 -2 -17 37 39 21 -9 24 42 25 59 -13 -27 -15 -7 -31 -16 33 40 52 46 -23 -8 -29 -20 -33 -34 47 -5 -39 -46 -3 -12 -11 -50 -22 58 55 -54 -19 -4 -25 -45 -14 -1 -6 -43
right_child=1 8 3 7 6 10 18 20 -10 48 23 26 51 28 31 17 -18 54 19 -21 50 36 -24 56 -26 27 -28 38 -30 30 -32 32 41 -35 -36 -37 -38 44 -40 -41 -42 61 -44 57 45 -47 -48 -49 49 -51 -52 -53 53 -55 -56 -57 -58 -59 -60 -61 -62 -63
leaf_value=-0.0022693658005085836 -0.0005172019997262431 0.00021124285320996277 -0.0023085359763179237 -0.0034333527274292147 -1.7454832644906991e-05 -0.00017800421692910128 0.00029200043308958784 -0.0015461445964455207 0.0043625524076871293 0.0021440251083132923 0.00038621881613751349 0.0012691180794035066 -0.00080487742764167398 0.0012266711578016248 0.0024355173013329585 -0.0017858965131485058 0.0022883952950648939 -0.0011395866306365379 0.00037749578694429406 -0.00014143713458127704 -0.00038289722359519774 -0.0007741076719718781 -0.0031116191043879483 0.00030541344974744809 -0.003024962813068667 -0.001682483568181467 0.00010389131598389667 -0.0015159484333881507 0.00010715384281426099 -0.00071484627323296522 8.1211590153654195e-05 -0.00042788514975657886 0.0021349798837067401 0.00076810197968773804 -1.7625489064977404e-05 -0.00012212280709970519 -0.00022080429187480154 -0.00059418902061665168 -0.00074143391554776119 0.0010938503821262024 0.00039857380608500467 0.0013729473929415942 0.0028571109399358413 -0.0020479080596387182 -0.00030544016380197825 0.00046170894977194563 0.00084206837404323775 0.00093111862460564659 0.00020188676302567292 0.0011108789167357475 -0.0009209265276462408 -0.0016544560346961716 -0.00045484838846950146 -0.001690821247421522 0.00026099447714970578 -0.0010806578682092277 -0.00036276764265834175 -0.00040384145548000294 -0.00040019525971871306 -0.00061295574910279595 0.00072641744927632809 0.00021147377441151416
leaf_weight=311 254 66 185 922 185 341 170 544 4368 689 241 155 118 146 1072 230 93 58 151 191 507 235 3570 50 488 78 141 53 204 310 69 57 573 174 84 100 205 111 265 332 55 118 89 444 77 75 114 360 62 107 235 57 135 94 97 193 88 59 188 58 67 60
leaf_count=311 254 66 185 922 185 341 170 544 4368 689 241 155 118 146 1072 230 93 58 151 191 507 235 3570 50 488 78 141 53 204 310 69 57 573 174 84 100 205 111 265 332 55 118 89 444 77 75 114 360 62 107 235 57 135 94 97 193 88 59 188 58 67 60
internal_value=0.000389908 0.0207578 -0.0184492 -0.011618 0.00741607 -0.00131361 0.0132206 -0.019908 0.0262938 0.0210811 0.00380694 -0.00271654 -0.0259391 0.0213253 0.0231687 -0.0101639 -0.00146974 -0.018 0.00533875 0.0105045 -0.0139397 -0.0179878 -0.026977 0.0118116 -0.0228651 -0.0192549 0.0115541 -0.0128788 0.00874286 -0.00858333 -0.0135356 0.024936 0.0218419 0.0136364 -0.0149783 0.00985714 -0.0114545 -0.00270208 -0.00924528 0.0154658 0.00267857 0.0249667 0.0144348 -0.0271368 -0.00787072 -0.00157895 0.016 0.012629 0.0261538 0.018284 -0.00857143 -0.0121488 -0.0169522 -0.0111354 -0.00290323 -0.0204762 -0.00130435 -0.0227237 -0.00960784 -0.0260976 0.00380952 0.0168539
internal_weight=20928 10056 10872 5686 2949 2535 2217 3151 7107 1110 1844 1016 5186 2739 2389 732 347 385 1107 674 1726 984 4823 828 1253 765 296 396 350 720 379 2109 1037 286 691 280 440 433 318 483 112 751 690 1425 263 152 180 601 858 169 742 363 607 229 155 378 138 503 306 369 252 178
internal_count=20928 10056 10872 5686 2949 2535 2217 3151 7107 1110 1844 1016 5186 2739 2389 732 347 385 1107 674 1726 984 4823 828 1253 765 296 396 350 720 379 2109 1037 286 691 280 440 433 318 483 112 751 690 1425 263 152 180 601 858 169 742 363 607 229 155 378 138 503 306 369 252 178
cat_boundaries=0 1
cat_threshold=2
is_linear=0
shrinkage=0.03


Tree=9
num_leaves=63
num_cat=0
split_feature=0 0 0 5 2 5 2 0 5 4 3 2 2 4 5 5 0 0 2 0 5 2 5 2 3 5 5 4 5 5 0 2 0 1 2 5 1 5 5 0 2 0 5 5 1 5 5 0 5 0 5 2 3 0 3 5 1 1 0 2 5 5
split_gain=8830.48 711.663 680.309 524.507 356.244 218.899 186.539 136.116 131.332 101.975 93.4341 82.0317 80.2117 61.7501 65.7088 62.0418 55.7496 53.4111 50.9875 48.0945 37.0979 33.0243 31.7066 32.9464 30.8361 30.7348 27.0664 25.3479 25.25 22.3679 22.1123 21.7018 21.3946 20.3807 18.6344 17.9014 17.76 17.7063 18.5172 17.1913 16.9665 16.8258 16.0497 15.6682 15.3975 15.3928 15.1351 15.75 15.0588 14.9376 13.4604 13.3898 15.9987 12.1949 11.9814 18.5128 11.9727 11.9081 11.5986 11.4868 14.6144 11.1787
threshold=64896.750000000007 69837.400000000009 57824.400000000009 158.50000000000003 7.5000000000000009 58.500000000000007 6.5000000000000009 61560.400000000001 166.50000000000003 2.5000000000000004 4.5000000000000009 21.500000000000004 16.500000000000004 6.5000000000000009 256.50000000000006 50.500000000000007 67485.650000000009 73546.300000000017 14.500000000000002 60953.200000000004 267.50000000000006 20.500000000000004 128.50000000000003 8.5000000000000018 3.5000000000000004 96.500000000000014 285.50000000000006 11.500000000000002 142.50000000000003 276.50000000000006 52934.05000000001 11.500000000000002 67822.950000000026 523.66500000000008 1.5000000000000002 192.50000000000003 786.75740000000008 251.50000000000003 190.50000000000003 63708.950000000004 15.500000000000002 62526.950000000004 12.500000000000002 96.500000000000014 646.34850000000017 78.500000000000014 286.50000000000006 55977.650000000009 76.500000000000014 67485.650000000009 333.50000000000006 15.500000000000002 5.5000000000000009 66742.450000000026 5.5000000000000009 76.500000000000014 2108.0080000000003 306.5338000000001 62423.500000000007 22.500000000000004 299.50000000000006 354.50000000000006
decision_type=2 2 2 2 2 2 2 2 2 2 2 2 2 2 2 2 2 2 2 2 2 2 2 2 2 2 2 2 2 2 2 2 2 2 2 2 2 2 2 2 2 2 2 2 2 2 2 2 2 2 2 2 2 2 2 2 2 2 2 2 2 2
left_child=2 4 12 5 13 51 29 10 9 49 33 16 22 15 -15 32 20 21 19 -8 31 34 23 24 -1 57 -21 -22 41 -5 -26 -10 42 43 -3 -23 -28 38 -18 -31 48 44 -2 45 -9 -7 47 -14 -35 -6 -39 52 58 -33 -32 -56 -43 -12 -4 60 -20 -16
right_child=1 17 3 6 8 7 18 28 11 -11 25 -13 46 14 61 -17 37 -19 59 26 27 35 -24 -25 30 -27 36 -29 -30 39 54 53 -34 40 -36 -37 -38 50 -40 -41 -42 56 -44 -45 -46 -47 -48 -49 -50 -51 -52 -53 -54 -55 55 -57 -58 -59 -60 -61 -62 -63
leaf_value=-0.001914958520212211 -0.0011649891665372265 0.00081350848457854917 -0.0023942475382777318 -0.003264606014477903 9.1460608045406677e-05 -0.00031127943173884007 -0.0016670650154175109 0.00098665297304712744 -0.00067586027162943978 0.0021644702065615434 0.0014625924387343975 -0.00025432877000528041 -0.0010584648884292541 -0.0014671230936046441 0.00027043360858339417 0.0017916946733113604 0.00095351179573761153 0.0044328381498714934 -5.3979779801844041e-05 -0.00093081840005829143 0.00086142302709717004 0.0012205750162762828 -0.0030850689538768298 -0.0028322654473177645 -0.0015038422340190797 4.820334531034309e-05 0.00051291961877642954 -5.765601850022617e-05 4.1194872032812577e-05 -0.0019272096277714605 -0.0010252371665115533 -0.00016474995496392031 0.0002720805332656112 -0.00010733589336854088 0.001936350108204794 0.00036421101218540972 -0.0004591979356654324 0.0016692791849295648 0.00014806363829018287 -0.00027582378930670779 5.8409839316083955e-05 0.0014728800844223057 -0.00025931043144582639 -0.00029321829898688146 -3.7616295999211565e-05 0.00067177157787098255 -0.0017438999604456006 -0.00030681948783955858 -0.00069520815375953061 0.00071791823272561776 0.00042018184643507703 -0.00039034217278666682 -0.0010600345482100358 0.00064230563236658436 -0.0013541332957439942 0.00063947306175292482 0.00065621143617157539 0.00087758522936104367 -0.00098907072918024037 -0.0006745523709742404 -0.00066309628166267621 -0.00049912156528438142
leaf_weight=461 55 110 197 956 173 55 394 141 68 1070 70 241 147 227 126 113 75 4106 364 341 297 197 3287 665 175 149 63 100 143 471 199 93 113 79 1376 211 228 352 103 51 56 354 150 201 85 83 61 170 325 160 63 143 185 51 54 50 110 103 198 178 251 70
leaf_count=461 55 110 197 956 173 55 394 141 68 1070 70 241 147 227 126 113 75 4106 364 341 297 197 3287 665 175 149 63 100 143 471 199 93 113 79 1376 211 228 352 103 51 56 354 150 201 85 83 61 170 325 160 63 143 185 51 54 50 110 103 198 178 251 70
internal_value=0.00025641 0.0212289 -0.0178378 -0.0109073 0.0108811 -0.00104221 -0.0189172 0.00417605 0.0159803 0.022516 -0.00264942 0.00962578 -0.0256956 -0.00611241 -0.0142553 0.00187935 0.0128286 0.02761 -0.0124849 -0.0169006 0.0064532 0.0234424 -0.0267246 -0.0232668 -0.0196486 0.0109938 -0.0117722 0.011864 0.0133613 -0.0268336 -0.0143096 -0.00367925 -0.00490566 -0.00814768 0.0255182 0.0158824 -0.00505155 0.0193761 0.0114607 -0.0218391 -0.0122609 0.0157391 -0.0106829 -0.00256637 0.00902655 0.00521739 -0.012381 -0.00974763 -0.0144059 0.00801802 0.0227711 -0.0151452 -0.0171724 0.00291667 -0.00940594 -0.00115385 0.0190086 0.0195954 -0.0205823 -0.00677175 -0.00482927 -0.00153061
internal_weight=20943 9700 11243 5974 3700 2677 3297 1954 2846 1403 1121 1443 5269 854 423 431 1202 6000 1819 1026 609 1894 4891 1604 939 322 632 397 833 1478 478 212 318 799 1486 408 291 593 178 522 460 690 205 339 226 138 378 317 404 333 415 723 580 144 303 104 464 173 395 793 615 196
internal_count=20943 9700 11243 5974 3700 2677 3297 1954 2846 1403 1121 1443 5269 854 423 431 1202 6000 1819 1026 609 1894 4891 1604 939 322 632 397 833 1478 478 212 318 799 1486 408 291 593 178 522 460 690 205 339 226 138 378 317 404 333 415 723 580 144 303 104 464 173 395 793 615 196
is_linear=0
shrinkage=0.03


Tree=10
num_leaves=63
num_cat=5
split_feature=0 0 5 0 4 2 2 2 0 5 5 2 6 0 2 5 5 0 2 5 4 4 5 0 6 2 5 0 0 5 5 1 2 2 6 2 5 0 1 5 0 2 2 1 6 0 2 2 2 5 4 0 5 6 0 2 5 1 0 2 0 0
split_gain=8556.88 900.628 577.104 497.719 261.7 242.538 208.69 170.074 112.159 100.717 87.0327 77.9093 60.7329 60.6415 49.5844 47.4968 43.2256 39.6964 38.077 37.8975 37.7776 70.374 44.1407 37.458 35.4735 38.0051 33.4084 29.1629 26.514 25.7553 24.815 23.4163 23.0065 22.8063 20.6951 20.6892 19.2561 23.0441 18.7604 17.8202 17.3756 17.3596 16.0838 15.0332 15.0022 14.8732 14.187 14.0273 21.3128 14.012 13.02 12.9602 12.3949 11.9937 11.6715 11.6665 11.6023 12.8696 11.2231 11.0696 11.0405 10.2773
threshold=65858.750000000015 58989.05000000001 162.50000000000003 69837.400000000009 2.5000000000000004 7.5000000000000009 7.5000000000000009 16.500000000000004 62818.850000000006 164.50000000000003 56.500000000000007 21.500000000000004 0 74504.550000000017 14.500000000000002 118.50000000000001 280.50000000000006 55252.450000000004 20.500000000000004 110.50000000000001 6.5000000000000009 10.500000000000002 28.500000000000004 63292.350000000006 1 13.500000000000002 136.50000000000003 63388.650000000009 61047.950000000004 267.50000000000006 194.50000000000003 412.01350000000008 21.500000000000004 1.5000000000000002 2 8.5000000000000018 326.50000000000006 60764.950000000004 173.48500000000004 84.500000000000014 67398.35000000002 6.5000000000000009 2.5000000000000004 1642.3515000000002 3 64502.650000000001 19.500000000000004 8.5000000000000018 15.500000000000002 142.50000000000003 6.5000000000000009 66848.500000000015 284.50000000000006 4 57343.55000000001 5.5000000000000009 288.50000000000006 896.2120000000001 60655.700000000004 20.500000000000004 68390.60000000002 55385.950000000004
decision_type=2 2 2 2 2 2 2 2 2 2 2 2 1 2 2 2 2 2 2 2 2 2 2 2 1 2 2 2 2 2 2 2 2 2 1 2 2 2 2 2 2 2 2 2 1 2 2 2 2 2 2 2 2 1 2 2 2 2 2 2 2 2
left_child=1 7 4 5 41 20 16 15 12 10 40 24 19 18 23 17 -4 -1 33 -6 22 -22 -2 53 29 -26 43 36 47 35 -20 34 -16 50 -19 -11 37 -18 -34 -9 -7 -3 -29 -10 -32 -40 -31 -14 -49 -30 -5 -27 -25 58 -36 -24 57 59 -8 -41 -37 -17
right_child=3 2 6 13 8 9 14 39 26 11 -12 -13 28 -15 32 61 27 31 30 -21 21 -23 55 52 25 51 -28 42 49 46 44 -33 38 -35 54 60 -38 -39 45 56 -42 -43 -44 -45 -46 -47 -48 48 -50 -51 -52 -53 -54 -55 -56 -57 -58 -59 -60 -61 -62 -63
leaf_value=-0.0026457922122854489 -0.00030473652355330201 -0.0012473845412796555 -0.0028059031473996751 0.00093979012372403961 0.0017085602656863096 -0.00013003987943709911 -0.00097919114224890983 0.00026172376322982472 0.001657636212321486 -0.00033859013218373504 0.0023196010324726224 -0.00026785486334157226 -7.5417031116871151e-05 0.0046181543254513371 1.4989428217538902e-05 -0.003229632995585385 -0.0013830203550036634 0.00021055132856806518 0.0012794603369047908 -0.00020485187964523586 -0.0011809048045538823 0.00041856464355006091 0.00026564099740174815 -0.0003899703986964295 -0.00041639101087134284 0.00010444357465078879 0.00025898030765744403 -0.0010128754395178604 0.00036446934651829271 0.0013385267484884715 0.000145512185864598 -0.001156852822996628 1.9450432927967664e-05 0.0019251200957945485 -0.0013233163611823359 0.00028995280698215276 -0.0019995170612093606 5.9899885756186656e-05 -0.0010519488139392342 0.00019612236653607145 0.00058234077169114771 -0.00042090269111606126 0.00015780358171065266 0.00071036196784650537 0.0012243186995740411 -7.4884522688072332e-05 0.00099822904297358823 -0.00066093326815472168 0.00022683284184883912 -0.00058652261917580939 0.00015410399491430553 0.00090352542078101969 -3.5950487672742059e-05 -0.0017440424399528581 -0.00035123936602911743 0.0015202227018905278 -0.0014947365677782604 -0.0010216725071205224 -0.00055323850867866284 -0.00062281160947954683 0.00062545207704670363 -0.0022613548083099131
leaf_weight=793 146 462 944 69 189 104 68 52 421 50 837 205 239 3675 471 2377 91 96 265 69 168 138 97 150 90 67 200 52 336 401 183 453 102 1718 96 71 246 57 173 108 136 361 65 144 53 57 150 176 60 77 50 158 158 197 81 65 102 110 197 196 59 1746
leaf_count=793 146 462 944 69 189 104 68 52 421 50 837 205 239 3675 471 2377 91 96 265 69 168 138 97 150 90 67 200 52 336 401 183 453 102 1718 96 71 246 57 173 108 136 361 65 144 53 57 150 176 60 77 50 158 158 197 81 65 102 110 197 196 59 1746
internal_value=0.000207865 -0.0163832 -0.00784103 0.0223886 0.00215069 0.0122774 -0.0168626 -0.0243092 0.00824176 0.016701 0.0234262 0.0109113 0.00230366 0.0273358 -0.00928798 -0.0258844 -0.0250515 -0.0213496 0.0235586 0.0151163 -0.00449511 -0.0119608 0.00292208 -0.0147273 0.0142256 0.00580952 0.0171373 -0.0180235 -0.00141892 0.0178523 0.0162275 -0.016281 -0.00407223 0.025558 -0.00934066 0.008 -0.0219289 -0.0133784 -0.0101205 -0.00866197 0.0075 -0.0119927 -0.00487179 0.0208673 0.00915254 -0.0148696 0.0210708 -0.00625263 -0.0114407 0.00414044 0.0128571 0.0124 -0.00662338 -0.0201299 -0.0154237 0.0137037 -0.0103488 -0.00811594 -0.0159623 -0.00493421 0.0143077 -0.0275552
internal_weight=20927 11972 5762 8955 2734 2942 3028 6210 1911 2328 1077 1251 1146 6013 1573 5642 1455 1519 2338 258 614 306 308 770 1046 315 765 511 888 731 501 726 803 1837 273 180 394 148 332 568 240 823 117 565 236 230 551 475 236 413 119 225 308 462 177 162 516 414 265 304 130 4123
internal_count=20927 11972 5762 8955 2734 2942 3028 6210 1911 2328 1077 1251 1146 6013 1573 5642 1455 1519 2338 258 614 306 308 770 1046 315 765 511 888 731 501 726 803 1837 273 180 394 148 332 568 240 823 117 565 236 230 551 475 236 413 119 225 308 462 177 162 516 414 265 304 130 4123
cat_boundaries=0 1 2 3 4 5
cat_threshold=4 2 4 2 2
is_linear=0
shrinkage=0.03


Tree=11
num_leaves=63
num_cat=2
split_feature=2 6 5 2 1 2 2 5 5 5 2 5 2 3 5 5 5 5 5 2 6 5 5 2 1 3 3 5 5 5 2 5 5 1 2 5 5 5 5 5 2 5 5 1 2 2 2 5 2 4 5 2 1 5 2 2 1 5 2 5 3 2
split_gain=3782.75 2385.76 713.222 614.188 415.197 237.737 113.184 139.482 209.187 107.466 104.006 102.822 100.084 89.2738 73.9811 125.393 179.456 68.6469 64.7195 58.8733 56.4701 47.2217 138.505 76.4047 74.0423 39.4271 34.7442 34.7259 79.3391 39.4277 35.9863 33.6271 32.2085 31.6267 30.1177 37.6666 27.8924 25.9463 24.7808 38.3669 35.8105 40.1952 26.0284 24.2108 23.8197 23.6277 22.3832 22.342 22.1877 20.463 19.4502 19.3388 20.2425 18.7367 18.3798 19.5429 16.5128 16.2695 16.2245 16.0201 15.3121 14.8369
threshold=7.5000000000000009 0 96.500000000000014 15.500000000000002 4535.0845000000008 21.500000000000004 14.500000000000002 92.500000000000014 170.50000000000003 309.50000000000006 5.5000000000000009 138.50000000000003 1.0000000180025095e-35 5.5000000000000009 68.500000000000014 154.50000000000003 264.50000000000006 142.50000000000003 323.50000000000006 6.5000000000000009 1 329.50000000000006 262.50000000000006 8.5000000000000018 2564.0695000000005 5.5000000000000009 1.0000000180025095e-35 279.50000000000006 162.50000000000003 344.50000000000006 21.500000000000004 88.500000000000014 271.50000000000006 4387.3215000000009 20.500000000000004 235.50000000000003 84.500000000000014 316.50000000000006 146.50000000000003 238.50000000000003 10.500000000000002 168.50000000000003 343.50000000000006 2610.8462500000005 16.500000000000004 17.500000000000004 22.500000000000004 132.50000000000003 1.0000000180025095e-35 2.5000000000000004 138.50000000000003 8.5000000000000018 786.75740000000008 168.50000000000003 5.5000000000000009 1.0000000180025095e-35 3860.6295000000005 347.50000000000006 6.5000000000000009 146.50000000000003 1.0000000180025095e-35 1.0000000180025095e-35
decision_type=2 1 2 2 2 2 2 2 2 2 2 2 2 2 2 2 2 2 2 2 1 2 2 2 2 2 2 2 2 2 2 2 2 2 2 2 2 2 2 2 2 2 2 2 2 2 2 2 2 2 2 2 2 2 2 2 2 2 2 2 2 2
left_child=2 4 10 25 5 6 7 -2 43 17 12 -7 -1 32 -6 36 53 54 -18 48 -12 22 23 -10 51 31 -14 28 45 -29 -30 33 44 -3 56 -36 -16 -26 -33 40 -40 -42 -41 -9 59 -15 -13 -47 -11 -28 -45 52 -24 -17 55 -4 -8 -50 61 -5 -46 -19
right_child=1 3 9 13 14 11 34 8 21 19 20 46 26 27 15 16 18 58 -20 -21 -22 -23 24 -25 37 -27 49 29 30 -31 -32 38 -34 -35 35 -37 -38 -39 39 42 41 -43 -44 50 60 47 -48 -49 57 -51 -52 -53 -54 -55 -56 -57 -58 -59 -60 -61 -62 -63
leaf_value=0.00074055556867576083 0.0044237130842863879 -0.00020728067191921328 -0.00047482339811839744 -0.0010977500067895795 0.0010607564382824851 0.0012685678044772647 0.0031177152531711885 0.00027253167501978866 0.00026039988500392797 -0.00040502883194498348 0.0014962116892087522 0.00033850309693076537 -0.0018855565238102411 -0.0017531706431426579 -5.038380250493024e-05 0.00028457806714856423 -0.0011787677869506724 -0.0015179898670525831 0.00050139759022051807 0.00021563789246801688 -0.00034747721313080766 0.0041510446843249331 0.0017351016792924061 0.0034949998146443636 -0.00046755424094927053 -0.0027293795080730499 -0.00076103399117061514 -0.0013380574614150703 0.0013081636989117052 0.00020614523165279617 -0.00040565339135006207 -0.0027889125674639441 -1.5583807937125104e-06 -0.0027220499296582842 0.0019153340095917845 0.00060443047831630842 -0.001364369017734903 0.00046199732157298554 -0.0014100764461803855 -0.0021878335435725586 -0.0020607615281124808 0.00027222071093833733 -0.00076201894319165124 -0.00056015764179905773 -9.4589419790842291e-05 -6.803626039021793e-05 -0.00025087593624738947 -0.00094571529664777055 -0.0022387570614971768 -0.00010892336951373149 -2.3279003332341563e-05 0.0012690891263697412 -0.00035860711239501408 0.0021787449187188421 -0.00081598185949164704 -0.0016096808509603274 0.0012151659413313829 -0.0012728243140805657 -0.0016292947098943073 0.00062638382742186279 0.00098165003091579437 -0.0032276150584064117
leaf_weight=225 857 255 111 64 129 443 3235 393 146 136 305 356 175 106 67 67 207 382 79 135 154 350 57 734 192 997 620 186 221 60 70 190 337 57 386 213 266 63 107 375 62 129 75 103 62 263 367 69 538 381 118 171 55 216 220 544 166 278 393 54 749 2361
leaf_count=225 857 255 111 64 129 443 3235 393 146 136 305 356 175 106 67 67 207 382 79 135 154 350 57 734 192 997 620 186 221 60 70 190 337 57 386 213 266 63 107 375 62 129 75 103 62 263 367 69 538 381 118 171 55 216 220 544 166 278 393 54 749 2361
internal_value=0.000290202 0.00931629 -0.0177723 -0.00868984 0.0178805 0.0200845 0.0221094 0.0179407 0.0142065 -0.023574 -0.00187097 0.00751286 -0.00593148 0.00242303 -8.72939e-05 -0.00312639 0.00543058 -0.0258414 -0.0113287 -0.015207 0.0105229 0.0194457 0.0170099 0.0243409 0.00501859 -0.019773 -0.00943878 -0.0044 -0.00111111 -0.0141463 0.0110309 -0.016224 0.00767773 -0.00769231 0.025485 0.0192821 -0.0177477 -0.00670588 -0.0190618 -0.0166043 -0.00825503 -0.000471204 -0.0221333 -0.000879479 0.0105597 -0.00917808 0.000539419 -0.00524096 -0.0178361 -0.00728272 -0.00882353 0.015583 0.00589286 0.0223675 -0.0184114 -0.0209313 0.0265775 -0.0197059 -0.0279145 -0.0020339 0.0123921 -0.0287313
internal_weight=20882 13924 6958 4488 9436 8405 7239 3239 2382 5098 1860 1166 1401 2241 1031 902 569 4011 286 1087 459 1768 1418 880 538 2247 1176 975 729 246 291 1250 1266 312 4000 599 333 255 938 748 298 191 450 614 929 438 723 332 952 1001 221 283 112 283 875 655 3401 816 3136 118 811 2743
internal_count=20882 13924 6958 4488 9436 8405 7239 3239 2382 5098 1860 1166 1401 2241 1031 902 569 4011 286 1087 459 1768 1418 880 538 2247 1176 975 729 246 291 1250 1266 312 4000 599 333 255 938 748 298 191 450 614 929 438 723 332 952 1001 221 283 112 283 875 655 3401 816 3136 118 811 2743
cat_boundaries=0 1 2
cat_threshold=2 2
is_linear=0
shrinkage=0.03


Tree=12
num_leaves=63
num_cat=4
split_feature=0 0 5 0 4 5 4 5 0 5 3 0 0 5 5 5 5 0 5 5 6 0 1 6 1 5 5 3 0 3 0 5 5 5 1 6 0 5 5 0 5 1 1 0 1 5 5 0 1 1 5 1 0 1 5 5 0 1 5 5 0 6
split_gain=8366.94 737.841 537.455 506.021 209.685 147.43 211.226 144.508 143.433 124.583 80.3166 72.95 71.9605 64.6129 59.733 58.6673 57.43 53.5373 52.1108 51.884 47.8582 39.9454 37.765 35.4796 34.9974 33.0869 53.0101 34.9175 30.1671 25.3184 23.284 21.7639 19.9321 19.5653 19.2176 19.154 19.1349 23.2527 19.1348 18.1264 17.5906 17.1233 17.0299 17.0451 16.9364 16.7759 16.5713 16.4777 16.437 16.1482 15.1305 14.9606 14.8655 17.4012 14.2195 13.864 13.7363 13.636 13.1976 12.3729 12.138 14.4823
threshold=65533.400000000009 57915.100000000006 158.50000000000003 70220.050000000003 2.5000000000000004 170.50000000000003 2.5000000000000004 251.50000000000003 62274.80000000001 265.50000000000006 4.5000000000000009 63388.650000000009 74323.400000000009 178.50000000000003 190.50000000000003 330.50000000000006 128.50000000000003 52934.05000000001 331.50000000000006 142.50000000000003 0 67398.35000000002 1198.2963000000002 1 492.0483000000001 190.50000000000003 248.50000000000003 4.5000000000000009 67177.85000000002 4.5000000000000009 61150.650000000009 96.500000000000014 40.500000000000007 346.50000000000006 536.78050000000019 2 62909.600000000013 46.500000000000007 212.50000000000003 67711.000000000015 268.50000000000006 380.72460000000007 1728.3520000000001 63388.650000000009 997.81550000000004 48.500000000000007 332.50000000000006 68390.60000000002 274.92270000000002 2053.7850000000003 38.500000000000007 2727.4338500000008 68722.650000000009 884.80345000000011 148.50000000000003 22.500000000000004 60185.400000000009 547.80050000000017 18.500000000000004 134.50000000000003 54873.500000000007 3
decision_type=2 2 2 2 2 2 2 2 2 2 2 2 2 2 2 2 2 2 2 2 1 2 2 1 2 2 2 2 2 2 2 2 2 2 2 1 2 2 2 2 2 2 2 2 2 2 2 2 2 2 2 2 2 2 2 2 2 2 2 2 2 1
left_child=1 16 4 5 35 6 21 14 10 13 24 18 25 29 39 28 17 -1 51 44 -19 55 32 -16 59 -5 27 38 40 49 -31 41 -22 -13 -34 36 -3 -38 -27 -7 -9 -12 -15 -44 -10 48 -28 -25 -37 -4 -50 -11 53 -17 -21 -2 -26 -40 -23 -6 -18 -62
right_child=3 2 9 12 8 7 -8 15 19 11 31 33 -14 42 23 52 60 20 -20 54 22 58 -24 47 56 26 46 -29 -30 30 -32 -33 34 -35 -36 45 37 -39 57 -41 -42 -43 43 -45 -46 -47 -48 -49 50 -51 -52 -53 -54 -55 -56 -57 -58 -59 -60 -61 61 -63
leaf_value=-0.0031009684602424457 -0.00043084610931821141 -0.0023285637740950798 -0.001268101104091191 0.0019212015682105218 0.00018787720876657808 -7.4240558250103229e-05 0.0020870066466072445 -0.00027319878862581276 0.0013943815658163561 -0.00074493152525905543 0.0015474658352299389 3.0061556244956321e-06 0.0043230504972991959 -0.0028352661818113849 -0.00099405512101878308 0.00032251488582536514 -0.0030984719280386596 -0.0013769774676772723 -0.0018713394652257506 -0.00043055567028655147 -0.0015557716311407671 0.00026352624995165414 -0.0014447258109872129 -0.00035290360244728423 -0.00065247731725764869 0.00045545037480544198 0.0021030579861886674 0.00081079920191634591 0.0014046299996121486 -0.00096418643626224206 0.00075633559752419691 0.00011288474029575917 2.8020866931198205e-05 -0.00076108818969436833 -0.0011108982069977969 -0.0014527996790746954 -0.0010047384952762972 0.00013963282912440422 -0.00035030020520178227 0.00077546281051123602 0.00058734246096377066 0.00097327719567507124 -0.0012928469548020259 -0.00027124026405977606 0.00062607730875824277 -0.0011839412451990416 0.0012277601493771858 0.0003262859297041026 -0.00038466921997393433 -9.3930514545394469e-05 0.00075578789796803625 -0.00081035107735911494 0.00067019196353321707 -0.00037026746103196117 0.00019200400882038614 4.7368092068597041e-05 -0.00018957579468047435 0.00016227881090513541 0.0007009759930127629 -0.00090023797286612026 -0.0006479126490793152 -0.0022483187761845554
leaf_weight=681 97 149 151 966 312 80 1051 54 475 697 82 410 3747 1085 234 149 1941 477 392 51 72 124 166 122 275 82 358 130 481 74 58 130 255 87 120 95 115 51 66 95 219 99 140 66 201 121 266 93 272 51 50 291 119 128 83 161 257 93 268 61 92 1472
leaf_count=681 97 149 151 966 312 80 1051 54 475 697 82 410 3747 1085 234 149 1941 477 392 51 72 124 166 122 275 82 358 130 481 74 58 130 255 87 120 95 115 51 66 95 219 99 140 66 201 121 266 93 272 51 50 291 119 128 83 161 257 93 268 61 92 1472
internal_value=0.00018714 -0.0166844 -0.00982134 0.0216041 -0.000218826 0.0125784 0.0188889 0.00652762 0.00503455 -0.0177156 -0.00148026 -0.0124507 0.0270988 -0.0237969 -0.00509615 0.0128348 -0.0249848 -0.0205816 -0.016 0.0148148 -0.0164587 0.00544615 -0.0109135 -0.0108909 -0.006 0.0224426 0.018603 0.00962264 0.0177454 -0.0120359 -0.00181818 0.011672 -0.00637584 -0.00259557 -0.0036 -0.0126964 -0.0185714 -0.0115663 0.00286307 0.00977143 0.00978022 0.0183978 -0.0268397 -0.018932 0.0181953 -0.00925651 0.0239423 -0.00209302 -0.00640288 -0.0187129 -0.0031677 -0.0123279 0.00348485 -0.00032491 -0.00223881 -0.00372093 -0.0109398 -0.00320755 0.0114796 0.00104558 -0.0272097 -0.025243
internal_weight=20840 11657 6381 9183 2879 3475 1701 1774 2026 3502 1216 1877 5708 1625 624 1150 5276 1771 1380 810 1090 650 613 449 905 1961 995 371 754 334 132 311 447 497 375 853 315 166 241 175 273 181 1291 206 676 538 624 215 417 202 322 988 396 277 134 258 532 159 392 373 3505 1564
internal_count=20840 11657 6381 9183 2879 3475 1701 1774 2026 3502 1216 1877 5708 1625 624 1150 5276 1771 1380 810 1090 650 613 449 905 1961 995 371 754 334 132 311 447 497 375 853 315 166 241 175 273 181 1291 206 676 538 624 215 417 202 322 988 396 277 134 258 532 159 392 373 3505 1564
cat_boundaries=0 1 2 3 4
cat_threshold=2 2 2 1
is_linear=0
shrinkage=0.03


Tree=13
num_leaves=63
num_cat=4
split_feature=0 0 0 5 2 2 4 5 5 0 5 4 5 0 2 4 6 0 2 0 5 2 5 5 5 5 0 0 6 2 2 6 0 5 5 0 1 1 5 0 5 5 2 5 5 2 2 4 0 1 6 5 0 1 5 2 1 2 5 5 2 0
split_gain=8201.39 801.221 488.302 379.318 289.481 222.254 203.792 148.41 132.953 100.659 95.5191 90.913 73.3331 72.5746 71.6809 53.7133 58.3103 52.7966 47.9232 46.365 42.5358 41.794 35.7595 42.778 42.5463 30.297 29.1178 27.9583 27.5119 27.1108 25.7041 33.1211 23.553 22.4437 22.2108 22.0687 21.8196 21.0204 20.7366 20.6541 35.1239 25.1507 19.2749 17.4788 18.9444 17.1117 17.1043 17.027 16.6306 15.7948 15.2008 15.0225 14.2547 14.2209 14.1789 15.1779 13.2912 12.8238 12.4959 21.1387 16.5772 12.3782
threshold=65742.85000000002 60953.200000000004 70220.050000000003 170.50000000000003 16.500000000000004 7.5000000000000009 2.5000000000000004 118.50000000000001 258.50000000000006 56654.55000000001 164.50000000000003 2.5000000000000004 142.50000000000003 74504.550000000017 21.500000000000004 2.5000000000000004 0 68722.650000000009 10.500000000000002 67485.650000000009 331.50000000000006 20.500000000000004 186.50000000000003 28.500000000000004 253.50000000000003 100.50000000000001 63494.400000000009 64286.100000000006 1 8.5000000000000018 9.5000000000000018 2 63292.350000000006 184.50000000000003 303.50000000000006 58110.05000000001 1024.9250000000004 742.15000000000009 267.50000000000006 56750.600000000013 142.50000000000003 130.50000000000003 11.500000000000002 251.50000000000003 330.50000000000006 5.5000000000000009 1.5000000000000002 7.5000000000000009 52592.200000000004 1521.5230000000004 3 288.50000000000006 63806.200000000004 492.0483000000001 194.50000000000003 13.500000000000002 1198.2963000000002 20.500000000000004 190.50000000000003 250.50000000000003 11.500000000000002 67177.85000000002
decision_type=2 2 2 2 2 2 2 2 2 2 2 2 2 2 2 2 1 2 2 2 2 2 2 2 2 2 2 2 1 2 2 1 2 2 2 2 2 2 2 2 2 2 2 2 2 2 2 2 2 2 1 2 2 2 2 2 2 2 2 2 2 2
left_child=1 4 5 6 7 17 49 9 18 30 11 61 26 21 19 -11 -17 22 -5 38 27 46 23 -2 -24 37 36 34 52 35 31 -1 -22 -23 -10 -18 50 -6 54 -9 41 -41 -38 47 -45 -42 -4 -21 -33 -3 -8 56 -14 -37 -12 -56 57 -27 -48 60 -60 -7
right_child=2 3 13 8 25 10 12 39 20 15 14 -13 28 -15 -16 16 29 -19 -20 43 32 33 24 -25 -26 51 -28 -29 -30 -31 -32 48 -34 -35 -36 53 42 -39 -40 40 45 -43 -44 44 -46 -47 58 -49 -50 -51 -52 -53 -54 -55 55 -57 -58 -59 59 -61 -62 -63
leaf_value=-0.0021580523872802241 -0.00032860407678074076 -0.0008405578305152305 0.00068818516944818379 -0.0022738621804268672 0.00044011998649717273 1.6658188755826753e-05 0.0024787271737565539 -0.0027650904970103322 -0.00055605292322016245 -0.0018090509861009617 0.00036898910076024359 0.0022108420683725071 -0.00056500473636741846 0.0042036642579304055 -0.00015864232318671593 0.00083313151761093326 -0.00052926512557371181 0.00050476347663916063 -0.00044129030113885582 0.0006745976154609284 -0.0014871300161741696 0.0012599420195946009 -0.0011850845365350864 0.00068826411242090934 -0.00010332570035963273 0.00013045894922498802 0.0012086160607389371 0.00031730432175744894 0.0007508660290447835 -0.000896977573110782 -0.0029758996004506425 -0.0012835307644029252 -0.00052089357496335582 0.00036282237697402405 -5.9741435295962425e-06 0.00031919197617185258 -0.00040902792084438974 -0.00028249838615145402 0.00065437934936667878 -0.00082478454920931915 -0.0028979390497389955 -4.213517904803565e-05 0.00041623657413896619 0.0015557760561491758 0.0003977312984449058 -0.0015460617059217859 0.0022489673592987268 1.9337555544569062e-05 -0.00062698306188092856 8.1382436861970604e-05 0.00056906266159213314 -0.0010966689677044947 0.00010858557244760758 -0.00029507944191499045 -0.00056748897536350621 9.7506880175396988e-05 -0.00092804381934676375 -0.00059667425367276622 0.0002012874650291435 0.0018972192592939185 0.00078308119975206919 0.00066392978832456313
leaf_weight=255 119 549 113 603 107 104 72 3030 368 321 61 882 140 3757 220 140 121 179 187 173 171 200 146 133 116 161 462 214 72 178 430 140 213 247 237 121 67 72 277 121 966 105 100 408 92 842 733 75 187 52 316 184 115 93 60 55 86 256 106 519 143 211
leaf_count=255 119 549 113 603 107 104 72 3030 368 321 61 882 140 3757 220 140 121 179 187 173 171 200 146 133 116 161 462 214 72 178 430 140 213 247 237 121 67 72 277 121 966 105 100 408 92 842 733 75 187 52 316 184 115 93 60 55 86 256 106 519 143 211
internal_value=0.000464662 -0.0159946 0.021837 -0.00493652 -0.0214957 0.0126397 0.00448843 -0.0235064 -0.0141345 -0.0165559 0.0166387 0.0228822 0.0109821 0.0270712 0.0113793 -0.00967146 -0.00473201 -0.00246753 -0.0236962 0.0142631 -0.00785536 0.0225473 -0.00735409 0.000714286 -0.0151145 -0.00512702 0.0149558 -0.00399267 -0.00137615 -0.0094152 -0.0231818 -0.0190722 -0.0160938 0.0144295 -0.00728926 -0.00438806 0.0103243 0.00586592 0.00668874 -0.0262322 -0.0238938 -0.0127434 0.00125749 0.0188503 0.02208 -0.0252876 0.0247955 0.0123387 -0.0127523 -0.0100333 0.0142268 -0.00799127 -0.006 0.00140187 -0.00136364 -0.00756522 -0.00530815 -0.00309353 0.0256429 0.0229687 0.0157831 0.00904762
internal_weight=20983 11854 9129 3938 7916 3311 1945 7050 1993 1986 2618 1197 1344 5818 1421 974 653 693 790 1201 1203 2061 514 252 262 866 1017 819 327 513 1012 582 384 447 605 335 555 179 453 5064 2034 226 167 748 500 1808 1614 248 327 601 388 687 255 214 176 115 503 417 1501 768 249 315
internal_count=20983 11854 9129 3938 7916 3311 1945 7050 1993 1986 2618 1197 1344 5818 1421 974 653 693 790 1201 1203 2061 514 252 262 866 1017 819 327 513 1012 582 384 447 605 335 555 179 453 5064 2034 226 167 748 500 1808 1614 248 327 601 388 687 255 214 176 115 503 417 1501 768 249 315
cat_boundaries=0 1 2 3 4
cat_threshold=4 2 2 4
is_linear=0
shrinkage=0.03


Tree=14
num_leaves=63
num_cat=0
split_feature=0 0 0 5 2 4 2 5 5 5 4 0 5 5 0 5 5 2 5 3 3 0 5 5 4 0 3 2 3 0 5 2 3 0 2 0 0 2 0 0 3 2 4 2 5 1 0 2 3 2 1 2 1 2 2 2 0 1 1 2 1 2
split_gain=7959.67 786.635 472.749 359.909 273.537 213.516 198.984 155.959 151.604 122.129 101.571 95.0958 77.6053 73.0461 60.5419 57.1095 52.0152 50.9924 48.4939 48.0819 46.8875 41.4969 36.5042 45.0908 34.462 29.4572 27.1387 26.1051 28.1456 24.7563 39.7409 28.8115 24.6073 24.4925 24.2239 23.8206 23.0115 21.1802 20.4681 20.173 19.5477 19.7614 21.8195 19.3513 18.2083 17.5342 17.1893 17.1654 18.967 17.0158 16.9583 16.5005 16.4804 16.6504 16.3333 16.3176 15.1967 14.9357 14.4652 14.2133 13.0218 12.9811
threshold=65858.750000000015 60953.200000000004 70621.750000000015 170.50000000000003 16.500000000000004 2.5000000000000004 4.5000000000000009 118.50000000000001 265.50000000000006 166.50000000000003 2.5000000000000004 56320.350000000006 142.50000000000003 258.50000000000006 75531.650000000009 330.50000000000006 56.500000000000007 9.5000000000000018 331.50000000000006 5.5000000000000009 4.5000000000000009 63904.100000000013 190.50000000000003 248.50000000000003 7.5000000000000009 68722.650000000009 4.5000000000000009 8.5000000000000018 3.5000000000000004 54873.500000000007 142.50000000000003 14.500000000000002 4.5000000000000009 58110.05000000001 11.500000000000002 63292.350000000006 68169.450000000026 8.5000000000000018 69079.900000000009 64113.30000000001 1.0000000180025095e-35 13.500000000000002 5.5000000000000009 9.5000000000000018 104.50000000000001 492.0483000000001 67177.85000000002 6.5000000000000009 5.5000000000000009 19.500000000000004 481.01865000000004 11.500000000000002 873.13670000000013 21.500000000000004 20.500000000000004 5.5000000000000009 58008.400000000001 498.18900000000002 1686.1270000000002 21.500000000000004 934.00350000000014 21.500000000000004
decision_type=2 2 2 2 2 2 2 2 2 2 2 2 2 2 2 2 2 2 2 2 2 2 2 2 2 2 2 2 2 2 2 2 2 2 2 2 2 2 2 2 2 2 2 2 2 2 2 2 2 2 2 2 2 2 2 2 2 2 2 2 2 2
left_child=1 4 6 5 7 47 25 11 17 10 46 27 21 24 22 36 -13 -5 39 33 37 32 -4 26 38 -2 58 28 -1 -9 43 55 45 -6 -26 -20 -15 56 -11 52 -14 -42 -43 -31 -21 -7 -8 48 -3 -25 -22 60 53 -10 -17 -32 -18 -49 -24 -36 -47 -46
right_child=2 3 14 8 19 12 9 29 18 13 -12 16 40 15 -16 54 20 -19 35 44 50 -23 23 49 34 -27 -28 -29 -30 30 31 -33 -34 -35 59 -37 -38 -39 -40 -41 41 42 -44 -45 61 51 -48 57 -50 -51 -52 -53 -54 -55 -56 -57 -58 -59 -60 -61 -62 -63
leaf_value=-0.0019394001917200654 -0.00062014822721416616 -0.0011268263404783996 0.0018517528711325974 -0.0022214910177347034 -0.00045972204529030392 0.00085780638954971672 2.3025066310838616e-05 -0.0029418249718301814 0.00050744266116556694 5.6881123548582768e-05 0.0021047412652844886 -0.0018048873873196477 0.00059611248922759202 0.00072044748268610293 0.0044527552090176227 0.00057499751630860573 -0.00068225889879791168 -0.00049405631365750935 -0.0014260393057104592 -1.2583762743456628e-05 0.0013366893912262329 0.0013190246288121309 0.00012219067574690322 0.0018496676862123718 -0.00068591655029768433 0.00037796077596277677 0.00094951157070998795 -0.0027832286555432143 -0.00092681544847011293 -0.0004568277666148973 -0.0028808334146384991 -0.00062786732210789119 0.0022956284176781955 0.00042530013857452944 0.00036702781056970833 -0.00049999244861302335 0.0017592755034190318 -0.00087053824097395641 0.00058819479892576354 0.00031818171007179759 -0.00054662886347184964 -0.00031612378523334202 0.0005305538453850389 -0.00098181840693032209 -0.00070998329526405384 0.00037836411530868254 0.0006849379097674615 -0.00098969604844251018 0.00021598629636764566 0.00088977785786757127 4.3856388618160325e-05 0.00040229087014677421 -0.00041620568985486518 -0.00046073108825337046 -0.00017155593180806533 -0.0016531131504351991 -4.4928786771608327e-05 3.2220843071974483e-05 0.00053651667561188969 -0.0007909419456235483 -0.00043192264689100257 -0.0015445728176690118
leaf_weight=255 299 311 1098 633 203 248 122 2187 123 231 1001 304 50 371 3273 196 139 274 164 88 69 395 211 545 103 129 148 453 279 217 1444 109 86 268 98 226 334 177 120 243 120 67 98 131 223 53 324 92 52 147 90 177 276 123 98 1040 244 181 92 59 75 104
leaf_count=255 299 311 1098 633 203 248 122 2187 123 231 1001 304 50 371 3273 196 139 274 164 88 69 395 211 545 103 129 148 453 279 217 1444 109 86 268 98 226 334 177 120 243 120 67 98 131 223 53 324 92 52 147 90 177 276 123 98 1040 244 181 92 59 75 104
internal_value=0.00027596 -0.015624 0.0216391 -0.00487583 -0.0210718 0.00417456 0.01299 -0.0230233 -0.013676 0.0156722 0.0219972 -0.0159403 0.0108473 0.00998758 0.0271055 0.014985 -0.00953079 -0.0228556 -0.00646753 -0.00534989 -0.00513213 0.014913 0.0233066 0.0195538 0.00181669 -0.00616822 0.0121729 -0.0225836 -0.0180899 -0.0257995 -0.024002 -0.0252796 0.0101878 0.00121019 -0.00646154 -0.0150769 0.019617 -0.00921429 0.00794872 -0.00207843 -0.00170149 -0.00473684 0.002 -0.0144828 -0.0127952 0.00786618 0.0100897 -0.0101887 -0.0144628 0.0243642 0.00924528 0.00304918 -0.0054023 0.000243902 0.00387755 -0.025942 -0.00524804 -0.00450549 0.0070297 0.000955414 -0.00515625 -0.016055
internal_weight=21090 12091 8999 4067 8024 2005 3485 7138 2062 3057 1447 2010 1369 1610 5514 999 1023 907 1155 886 719 1034 2241 1143 611 428 451 987 534 5128 2941 2593 639 471 260 390 705 560 351 765 335 285 165 348 415 553 446 636 363 692 159 305 522 246 294 2484 383 273 303 157 128 327
internal_count=21090 12091 8999 4067 8024 2005 3485 7138 2062 3057 1447 2010 1369 1610 5514 999 1023 907 1155 886 719 1034 2241 1143 611 428 451 987 534 5128 2941 2593 639 471 260 390 705 560 351 765 335 285 165 348 415 553 446 636 363 692 159 305 522 246 294 2484 383 273 303 157 128 327
is_linear=0
shrinkage=0.03


Tree=15
num_leaves=63
num_cat=5
split_feature=0 0 0 5 4 5 5 5 0 5 0 0 6 5 0 5 3 5 5 1 5 5 5 5 3 1 5 3 1 5 6 5 6 5 5 0 1 6 1 0 1 5 1 0 5 5 5 0 1 1 3 0 1 5 5 0 0 6 3 0 3 0
split_gain=7905.11 710.766 532.045 503.034 199.298 156.874 145.633 188.198 108.214 102.773 93.6646 82.7218 77.6974 74.5533 81.5163 52.1388 49.4588 49.3916 43.5976 40.791 37.3772 37.0065 36.3345 42.1775 36.1128 29.1699 27.2964 26.8832 25.3357 22.6758 22.6618 22.449 21.9301 24.9989 21.3627 20.4543 20.1481 22.9404 19.5448 19.2842 17.258 15.1891 14.6665 14.6151 14.6095 14.4967 14.4457 14.1967 14.1201 14.0606 14.4227 21.0732 18.2952 14.5528 13.716 13.4251 13.3638 32.2657 14.6596 13.2047 12.9078 12.4884
threshold=65533.400000000009 58418.600000000006 69837.400000000009 170.50000000000003 2.5000000000000004 265.50000000000006 170.50000000000003 50.500000000000007 62818.850000000006 250.50000000000003 75347.450000000026 63292.350000000006 0 140.50000000000003 55252.450000000004 330.50000000000006 4.5000000000000009 331.50000000000006 96.500000000000014 1728.3520000000001 142.50000000000003 142.50000000000003 184.50000000000003 248.50000000000003 4.5000000000000009 840.45000000000016 56.500000000000007 3.5000000000000004 433.98750000000007 267.50000000000006 1 336.50000000000006 2 190.50000000000003 194.50000000000003 67398.35000000002 726.86350000000016 3 2308.8527500000005 49186.150000000009 2308.8527500000005 116.50000000000001 327.18800000000005 61259.250000000007 329.50000000000006 218.50000000000003 14.500000000000002 68487.750000000015 710.52350000000013 1198.2963000000002 5.5000000000000009 62274.80000000001 311.48050000000006 24.500000000000004 210.50000000000003 64401.400000000009 54754.850000000006 4 4.5000000000000009 66961.450000000026 3.5000000000000004 67077.300000000017
decision_type=2 2 2 2 2 2 2 2 2 2 2 2 1 2 2 2 2 2 2 2 2 2 2 2 2 2 2 2 2 2 1 2 1 2 2 2 2 1 2 2 2 2 2 2 2 2 2 2 2 2 2 2 2 2 2 2 2 1 2 2 2 2
left_child=1 13 6 4 30 32 7 35 12 16 22 17 20 14 36 29 19 -7 48 54 25 55 46 27 -16 43 -26 38 -28 -11 -3 -25 -5 -34 -18 -2 37 -1 45 -39 -9 -27 -41 -6 -13 -24 -4 -36 -14 50 51 -32 -52 -53 -8 -10 -15 -58 -59 -42 -55 -31
right_child=2 3 10 5 8 11 9 40 21 15 -12 44 18 56 24 -17 34 -19 -20 -21 -22 -23 23 31 26 41 28 -29 -30 61 49 -33 33 -35 47 -37 -38 39 -40 42 59 -43 -44 -45 -46 -47 -48 -49 -50 -51 52 53 -54 60 -56 -57 57 58 -60 -61 -62 -63
leaf_value=-0.0021387122880530806 -0.00019410570504210133 0.00011030350023332802 0.00069826734377335887 -0.0024945018335270344 -5.5817803632081939e-05 -0.00064213381777609188 -0.00045578176398996053 0.0021027900176694898 0.00087287092490501649 0.00017354297616326231 0.004250064543408716 0.00012450078687157418 0.0014435775913751441 -0.0029034881520516942 -0.00084442209374473826 9.6378854084349364e-05 0.0010544911688613193 -0.0017078675544056298 8.0518170912149414e-05 0.00010954368879841192 -0.00074972597939959031 0.0001508265207979481 0.00024489435742348795 0.0019367572331667738 -0.0014651000115388447 -0.00046441835201350447 0.00031001232623998037 0.00067845269468767616 -0.00052400235213755694 0.00058833848226444213 -0.0023301849673669967 0.001057826578392215 -0.00059246985303497196 -0.0018104957234657819 -0.00033225192515089625 0.00029268438198481458 -0.002807745410764144 -0.0036116499488624103 0.00053654763792149835 -0.0011006031529807957 0.0002930089180791537 0.00010882825120639428 -0.00049309708086435564 0.00041466933621590705 -0.00039949832346423243 -0.00016810177905434763 0.0020268730687795803 0.00024357995963051658 0.00076330437514094318 -3.4815908128279503e-05 -0.0015921313809555127 -0.001317947713925408 -0.00061083988668044821 -0.00012267806585088332 -0.0012185642561480465 0.001356420874985022 -0.00072397262224574064 -0.0025214529474744361 -0.0019365467343463144 0.0012570887263302244 -0.00091854255764283019 0.0012840690513716774
leaf_weight=307 238 81 132 816 306 852 120 901 308 134 3379 335 144 1710 545 362 76 343 216 50 197 190 106 511 100 182 138 285 177 211 148 330 129 464 108 280 637 76 74 165 98 81 184 188 180 114 1109 62 62 80 55 85 173 92 133 214 102 881 715 125 104 335
leaf_count=307 238 81 132 816 306 852 120 901 308 134 3379 335 144 1710 545 362 76 343 216 50 197 190 106 511 100 182 138 285 177 211 148 330 129 464 108 280 637 76 74 165 98 81 184 188 180 114 1109 62 62 80 55 85 173 92 133 214 102 881 715 125 104 335
internal_value=0.000235322 -0.0160942 0.0209479 -0.00889793 8.25877e-05 -0.0172651 0.0111259 0.0173934 0.005 0.00465745 0.0262053 -0.0111579 8.72093e-05 -0.0236517 -0.0195148 0.0101919 -0.00584699 -0.0154895 0.0108057 -0.0139604 -0.00465409 0.0144944 0.0219955 0.0187183 -0.0128125 -0.00162483 -0.00614458 0.012487 -0.00180952 0.0150882 -0.0124694 0.0230083 -0.0246771 -0.0202867 0.00414634 0.00243243 -0.0242148 -0.0208197 0.00612245 -0.0163059 0.0242883 -0.00969582 -0.0133238 0.00267206 -0.0011068 0.00163636 0.0257454 -0.00176471 0.0206796 -0.0141248 -0.0155708 -0.0188112 -0.00947368 -0.0139858 -0.0188538 0.0186207 -0.0264789 -0.0245936 -0.0256391 0.0168161 -0.0094898 0.0178022
internal_weight=21035 11762 9273 6025 2906 3119 3233 1642 2088 1591 6040 1710 1376 5737 2329 1042 549 1195 422 303 954 712 2661 1420 960 757 415 579 315 680 818 841 1409 593 246 518 1369 732 294 425 1124 263 349 494 515 220 1241 170 206 737 657 429 228 281 253 522 3408 1698 1596 223 196 546
internal_count=21035 11762 9273 6025 2906 3119 3233 1642 2088 1591 6040 1710 1376 5737 2329 1042 549 1195 422 303 954 712 2661 1420 960 757 415 579 315 680 818 841 1409 593 246 518 1369 732 294 425 1124 263 349 494 515 220 1241 170 206 737 657 429 228 281 253 522 3408 1698 1596 223 196 546
cat_boundaries=0 1 2 3 4 5
cat_threshold=2 1 2 2 1
is_linear=0
shrinkage=0.03


Tree=16
num_leaves=63
num_cat=4
split_feature=0 0 5 0 2 2 4 0 5 4 0 2 6 2 5 5 2 5 2 5 5 5 2 5 5 0 5 6 0 0 5 5 0 0 0 2 2 0 0 1 1 5 2 2 5 2 5 5 1 0 1 5 1 0 6 1 1 2 5 5 6 1
split_gain=7655.27 746.154 509.345 505.844 227.687 211.744 180.403 119.488 110.597 93.4937 89.048 84.1285 67.193 66.2662 60.2049 53.2778 49.0846 48.4442 49.8153 44.126 42.4098 50.707 42.0606 36.9282 36.4656 34.1731 30.5927 29.4386 36.0363 28.4981 25.1203 25.0052 24.2579 23.8993 23.8812 23.588 19.866 19.1458 17.4175 16.7058 16.3608 20.223 18.6819 17.5619 16.0133 15.1645 14.2141 14.1671 14.1185 12.9448 12.3626 12.1359 11.5441 11.516 15.6233 13.473 11.7298 11.4121 21.6129 11.3027 11.2305 19.1918
threshold=65742.85000000002 57915.100000000006 164.50000000000003 70220.050000000003 7.5000000000000009 5.5000000000000009 2.5000000000000004 62274.80000000001 164.50000000000003 2.5000000000000004 76025.300000000003 16.500000000000004 0 21.500000000000004 280.50000000000006 267.50000000000006 11.500000000000002 142.50000000000003 9.5000000000000018 142.50000000000003 188.50000000000003 249.50000000000003 14.500000000000002 96.500000000000014 188.50000000000003 61353.150000000009 326.50000000000006 1 52934.05000000001 62818.850000000006 218.50000000000003 330.50000000000006 61466.700000000004 67398.35000000002 55761.950000000004 1.5000000000000002 20.500000000000004 68044.150000000009 67177.85000000002 652.45100000000014 486.39840000000004 142.50000000000003 8.5000000000000018 17.500000000000004 275.50000000000006 16.500000000000004 267.50000000000006 337.50000000000006 726.86350000000016 55637.750000000007 380.72460000000007 352.50000000000006 280.06250000000006 62526.950000000004 2 229.57900000000004 523.66500000000008 22.500000000000004 297.50000000000006 190.50000000000003 3 547.80050000000017
decision_type=2 2 2 2 2 2 2 2 2 2 2 2 1 2 2 2 2 2 2 2 2 2 2 2 2 2 2 1 2 2 2 2 2 2 2 2 2 2 2 2 2 2 2 2 2 2 2 2 2 2 2 2 2 2 1 2 2 2 2 2 1 2
left_child=1 11 6 5 14 33 45 12 9 37 20 17 23 15 -4 16 24 18 27 39 -5 30 25 50 -10 -6 32 34 -29 -28 -22 38 52 -2 -1 -30 51 -7 -17 -9 41 42 -14 -44 49 53 59 57 -33 -13 -8 -23 -16 54 -3 -56 -57 -24 -59 -27 -32 -62
right_child=3 2 4 10 22 8 7 19 13 -11 -12 44 40 -15 26 31 -18 -19 -20 -21 21 36 47 -25 -26 46 29 28 35 -31 60 48 -34 -35 -36 -37 -38 -39 -40 -41 -42 -43 43 -45 -46 -47 -48 -49 -50 -51 -52 -53 -54 -55 55 56 -58 58 -60 -61 61 -63
leaf_value=-0.0020403200709028699 -0.00064838399511455086 -0.002204570120156769 -0.0025541086629028756 0.0017768843733985823 -0.0012892935010321309 0.0001227067648966848 0.00136471225099308 0.0014262049352025082 0.00030094909300645454 0.0020158805114182179 0.0042839223117651674 -0.00079651292344068479 0.00031263861459880637 -0.00020631623212018389 -0.0005014242646999051 0.00058932387703961421 0.00051967691237021524 -0.0026199641798236727 -0.0023003503056550781 9.4061048019064561e-06 0.00062881164453849111 0.0018703960574829386 -7.9211088594208776e-05 -1.1753603564320646e-05 -0.0004679296114381942 -0.00017262407221103448 -0.0019169594168756293 -0.0016228289114655606 0.00025954995853773142 -0.00075737000604200191 0.00066672653320672625 0.00085003311016541405 0.0004771209949670271 -3.9568626415744103e-05 -0.00070407247206762775 -0.00079070978244089984 0.00082378599726786741 0.00069582744390251749 0.001565178190736347 0.0005712600868249773 -0.0003365031828788717 -0.0010299827653201283 -0.00075449749000589179 0.00036187268000230198 -0.0012877760007611371 -0.00014662369516570906 -0.00026760572106187706 -0.00064218607857652733 0.00016881772390206273 -0.00011822157368953978 0.00078328666513572613 0.00070798232484176743 -0.0011210127404259057 -0.00051298198200113549 -0.0019879493371630225 0.00038872899406101891 -0.0010021423495562821 -0.00094200951511971495 0.00012216764655615552 -0.00091544664194813136 -0.00027879233532822898 0.00038224734041829132
leaf_weight=398 215 128 1149 1299 311 196 82 388 67 918 3167 128 205 238 63 199 308 2898 739 192 279 576 625 159 151 62 277 286 69 145 85 52 54 257 258 271 112 187 384 328 550 51 82 56 79 152 346 88 137 178 109 116 95 340 50 50 153 112 63 136 79 140
leaf_count=398 215 128 1149 1299 311 196 82 388 67 918 3167 128 205 238 63 199 308 2898 739 192 279 576 625 159 151 62 277 286 69 145 85 52 54 257 258 271 112 187 384 328 550 51 82 56 79 152 346 88 137 178 109 116 95 340 50 50 153 112 63 136 79 140
internal_value=0.000374519 -0.0154901 -0.00875776 0.0209889 -0.01654 0.0116138 0.000165854 0.00474114 0.0147092 0.0211453 0.0262891 -0.0238688 -0.00111283 0.00925781 -0.0240774 0.011926 0.00456274 -0.0249258 -0.0213607 0.0130837 0.022271 0.0186229 -0.0088296 0.0101143 -0.00633028 -0.0135789 -0.0166562 -0.0177847 -0.013131 -0.021327 0.0118868 0.016943 -0.00735849 -0.00699153 -0.0222256 -0.00652941 0.0235075 0.00869452 0.0200172 0.0165084 -0.00527542 -0.000609137 0.00201166 -0.00652174 -0.0103636 -0.0113746 -0.00904412 -0.00425676 0.00746032 -0.0072549 0.0190052 0.0254046 -0.0132911 -0.01319 -0.0167717 -0.0124506 -0.00901478 -0.003 -0.00977143 -0.0154545 0.00592105 0.00232877
internal_weight=21067 11905 6601 9162 3526 3309 3075 2202 2837 1301 5853 5304 1294 1536 1783 1298 526 4919 2021 908 2686 1387 1743 350 218 855 634 1282 626 422 583 772 212 472 656 340 804 383 583 716 944 394 343 138 385 873 544 888 189 306 191 692 158 721 381 253 203 800 175 198 304 219
internal_count=21067 11905 6601 9162 3526 3309 3075 2202 2837 1301 5853 5304 1294 1536 1783 1298 526 4919 2021 908 2686 1387 1743 350 218 855 634 1282 626 422 583 772 212 472 656 340 804 383 583 716 944 394 343 138 385 873 544 888 189 306 191 692 158 721 381 253 203 800 175 198 304 219
cat_boundaries=0 1 2 3 4
cat_threshold=4 2 2 4
is_linear=0
shrinkage=0.03


Tree=17
num_leaves=63
num_cat=4
split_feature=0 0 5 0 2 2 4 0 0 5 2 4 2 3 2 0 5 5 0 5 5 5 2 5 6 2 5 6 2 3 5 5 0 6 0 2 0 0 3 0 5 5 5 2 5 5 5 5 5 3 2 5 2 0 0 0 0 5 2 2 5 6
split_gain=7288.32 723.965 542.167 536.485 221.516 214.873 194.58 110.133 107.239 104.116 92.3526 77.6306 71.4304 71.0442 53.5671 48.0255 41.7834 52.9834 40.3951 54.676 38.7198 37.353 35.0895 34.6739 32.009 38.1717 29.7455 26.3476 29.1994 23.3544 22.3911 24.9297 22.093 21.8444 25.4593 21.2693 21.0208 20.8056 19.7403 18.9898 18.5925 17.5361 24.7891 22.631 17.9732 17.3508 16.9879 28.7369 27.4589 16.7938 16.3841 21.7943 17.517 15.9311 15.5776 15.5161 15.3664 19.2962 13.0909 13.0888 13.0159 12.0696
threshold=65533.400000000009 57915.100000000006 160.50000000000003 69837.400000000009 6.5000000000000009 7.5000000000000009 2.5000000000000004 76025.300000000003 61353.150000000009 162.50000000000003 16.500000000000004 2.5000000000000004 20.500000000000004 4.5000000000000009 21.500000000000004 61466.700000000004 184.50000000000003 253.50000000000003 52934.05000000001 142.50000000000003 28.500000000000004 142.50000000000003 14.500000000000002 293.50000000000006 0 12.500000000000002 172.50000000000003 1 8.5000000000000018 5.5000000000000009 267.50000000000006 184.50000000000003 58989.05000000001 2 62526.950000000004 4.5000000000000009 64286.100000000006 67822.950000000026 5.5000000000000009 66848.500000000015 275.50000000000006 192.50000000000003 255.50000000000003 11.500000000000002 218.50000000000003 154.50000000000003 267.50000000000006 190.50000000000003 337.50000000000006 4.5000000000000009 8.5000000000000018 142.50000000000003 15.500000000000002 55977.650000000009 55761.950000000004 68266.400000000009 64025.400000000001 324.50000000000006 7.5000000000000009 19.500000000000004 232.50000000000003 3
decision_type=2 2 2 2 2 2 2 2 2 2 2 2 2 2 2 2 2 2 2 2 2 2 2 2 1 2 2 1 2 2 2 2 2 1 2 2 2 2 2 2 2 2 2 2 2 2 2 2 2 2 2 2 2 2 2 2 2 2 2 2 2 1
left_child=1 10 6 5 23 16 33 12 13 11 18 55 35 50 24 22 20 -18 -1 27 37 36 -6 -4 30 -26 -14 54 -29 -24 31 -11 -15 -3 38 -5 49 -2 -35 -27 53 -37 43 44 -43 -23 47 -17 -48 -10 51 -8 -52 -12 -20 -7 57 -25 -40 -44 -49 -28
right_child=3 2 4 7 15 9 8 -9 21 14 40 -13 26 32 -16 46 17 -19 19 -21 -22 45 29 56 25 39 61 28 -30 -31 -32 -33 -34 34 -36 41 -38 -39 58 -41 -42 42 59 -45 -46 -47 48 60 -50 -51 52 -53 -54 -55 -56 -57 -58 -59 -60 -61 -62 -63
