tree
version=v4
num_class=1
num_tree_per_iteration=1
label_index=0
max_feature_idx=9
objective=regression_l1
feature_names=wind_spd_west wind_spd_east wind_zone_west wind_zone_east wd_sin_west wd_cos_west hour_sin hour_cos year_sin year_cos
feature_infos=[0:20] [0:16.800000000000001] [0:1] none [-1:1] [-1:1] [-1:1] [-1:1] [-0.99999073973619013:0.99999073973619013] [-0.99996295911626554:1]
tree_sizes=5413 5812 5789 5802 5757 5719 5716 5885 5769 5795 5793 5794 5767 5802 5797 5734 5707 5802 5867 5805 5814 5749 5795 5755 5760 5858 5740 5804 5771 5799 5809 5834 5815 5828 5875 5794 5845 5829 5812 5755 5806 5826 5841 5868 5784 5828 5811 5804 5845 5813 5848 5805 5827 5792 5789 5866 5855 5885 5791 5815 5890 5874 5845 5839 5899 5873 5867 5843 5863 5898 5900 5861 5865 5871 5850 5868 5878 5875 5857 5890 5833 5868 5886 5866 5871 5934 5846 5879 5874 5911 5879 5855 5901 5868 5840 5859 5928 5860 5865 5917 5851 5868 5895 5883 5893 5882 5881 5892 5921 5911 5930 5873 5855 5852 5872 5895 5894 5881 5920 5821 5901 5898 5900 5854 5897 5884 5868 5858 5907 5863 5888 5865 5846 5916 5855 5907 5904 5868 5864 5900 5844 5865 5871 5903 5926 5892 5853 5872 5881 5862 5865 5869 5897 5915 5924 5857 5852 5869 5888 5871 5894 5904 5869 5870 5907 5858 5869 5930 5910 5823 5890 5840 5906 5873 5852 5874 5806 5883 5844 5846 5887 5824 5820 5934 5793 5888 5869 5870 5884 5811 5854 5816 5889 5893 5856 5844 5888 5893 5894 5919 5845 5778 5830 5863 5847 5813 5882 5760 5891 5910

Tree=0
num_leaves=63
num_cat=0
split_feature=0 1 0 0 4 7 1 7 1 4 4 0 1 7 1 7 1 8 7 7 0 0 9 0 8 5 8 4 1 0 1 5 0 1 4 1 1 5 9 9 5 5 4 1 0 1 7 1 5 0 9 4 1 9 8 8 0 9 5 1 0 8
split_gain=12902.2 2286.56 830.876 726.518 330.927 221.771 209.533 209.311 206.646 144.114 125.699 125.206 99.1346 97.3719 89.9485 76.1343 74.7849 65.591 63.2748 62.7256 58.4882 52.8316 45.9282 41.2889 37.716 36.2225 33.9654 33.5612 33.1165 31.2564 30.9208 29.9163 29.0565 28.4434 27.9557 27.3246 25.9759 24.9466 24.3232 23.8412 22.975 22.0774 21.1839 20.9546 20.668 20.4269 20.3209 20.2184 19.8508 19.0251 16.769 16.1512 15.8861 15.696 15.2993 14.6259 18.6959 14.4543 14.2899 14.2361 14.0842 15.8325
threshold=6.0500000000000007 3.6250000000000004 4.7500000000000009 7.3500000000000005 -1.0000000180025095e-35 -0.5 4.5500000000000007 -0.5 3.0500000000000003 -1.0000000180025095e-35 -0.76602222155948896 10.050000000000002 4.0500000000000007 -0.70710678118654757 1.5250000000000001 -0.5 3.4500000000000006 0.86095304316285726 -0.5 -0.70710678118654757 3.8166666666666669 5.5166666666666666 -0.51235243343851777 6.4500000000000011 -0.90880922144842613 -0.39607976603915696 0.7086201161944764 0.68508682078652439 3.7500000000000004 9.1500000000000004 2.5500000000000003 -0.24471745792248012 5.0166666666666675 1.8500000000000003 0.68508682078652439 5.3500000000000005 3.0500000000000003 0.61997310069466305 -0.65187484896379921 0.76663042157996963 0.64279380484326976 0.64279380484326976 -1.0000000180025095e-35 3.0500000000000003 9.5500000000000025 2.9500000000000006 -0.9159756150367534 4.8500000000000005 -0.76602222155948885 6.7500000000000009 0.88201535311751322 0.89212075533235657 2.6500000000000008 -0.73829900574246976 0.5772862706790628 0.50495637864894027 5.2500000000000009 -0.93533330245768853 -0.31440161635554514 2.9500000000000006 4.4500000000000011 -0.85206963063867713
decision_type=2 2 2 2 2 2 2 2 2 2 2 2 2 2 2 2 2 2 2 2 2 2 2 2 2 2 2 2 2 2 2 2 2 2 2 2 2 2 2 2 2 2 2 2 2 2 2 2 2 2 2 2 2 2 2 2 2 2 2 2 2 2
left_child=1 2 8 4 12 27 15 16 20 45 11 28 25 17 32 22 39 24 34 35 52 43 57 36 41 -2 47 -4 -5 -19 44 55 -11 -15 -10 38 -9 -22 -8 46 -23 -12 -39 48 -26 -7 -6 -18 -16 -27 -34 -29 -1 -21 -24 56 -17 -3 -20 -51 61 -33
right_child=3 6 5 10 7 9 19 23 18 14 13 -13 -14 33 21 31 26 29 58 53 37 40 54 -25 30 49 -28 51 -30 -31 -32 60 50 -35 -36 -37 -38 42 -40 -41 -42 -43 -44 -45 -46 -47 -48 -49 -50 59 -52 -53 -54 -55 -56 -57 -58 -59 -60 -61 -62 -63
leaf_value=0.15701142404228449 0.16233276456594467 0.1604534775018692 0.158233611471951 0.16152677103877067 0.15981096606701611 0.15855370596051216 0.16023368701338769 0.16260791093111038 0.15781613480299711 0.15890069887042046 0.16812383264303207 0.17021820649504663 0.16395538479089736 0.16650828585028649 0.15947616782039403 0.15994333475828171 0.16301227629184722 0.16164992019534111 0.15931593164801597 0.16340870097279547 0.158062560018152 0.16158017292618751 0.16170736752450465 0.16563541144132615 0.16228986240923404 0.15933422565460206 0.16146862991154193 0.16064028464257718 0.1650220474600792 0.1698954012989998 0.17147416919469832 0.16304177746176721 0.16000099331140519 0.17301660567522048 0.15932094145566225 0.16624568909406662 0.16527561143040656 0.1573045700415969 0.16302408158779144 0.16291910819709302 0.16325090661644936 0.16414157480001448 0.15889291845262052 0.16185045488178729 0.16959313377738 0.15982369102537633 0.16104998536407947 0.16754622787237167 0.16080867841839791 0.15999514542520046 0.16179297849535942 0.15945359334349632 0.15781407777220011 0.16685894846916199 0.1598689443618059 0.16234241157770157 0.1620277026295662 0.15845611590892075 0.16005102813243866 0.16180503860116005 0.16362207785248756 0.16145560622215271
leaf_weight=6325 107 89 986 487 180 443 87 382 609 239 105 878 213 866 106 215 287 221 350 167 1818 345 456 1297 134 484 178 106 179 252 1635 129 333 6015 182 189 314 309 223 136 251 187 859 260 86 90 300 171 821 289 89 219 917 601 264 144 99 256 601 104 253 226
leaf_count=6325 107 89 986 487 180 443 87 382 609 239 105 878 213 866 106 215 287 221 350 167 1818 345 456 1297 134 484 178 106 179 252 1635 129 333 6015 182 189 314 309 223 136 251 187 859 260 86 90 300 171 821 289 89 219 917 601 264 144 99 256 601 104 253 226
internal_value=0.161119 0.144984 0.140306 0.181596 0.171347 0.15164 0.167364 0.176319 0.136247 0.156171 0.185717 0.177757 0.157867 0.187009 0.159257 0.161618 0.1667 0.182066 0.145813 0.17702 0.13462 0.162762 0.155947 0.182356 0.184296 0.153848 0.173907 0.141364 0.167934 0.17192 0.185876 0.167283 0.149813 0.188887 0.139544 0.168717 0.17642 0.138178 0.163219 0.15925 0.170042 0.174203 0.141645 0.159102 0.175215 0.142052 0.156108 0.178221 0.156992 0.151838 0.154572 0.149778 0.133156 0.182398 0.160265 0.161489 0.157859 0.146964 0.151045 0.156757 0.171639 0.167755
internal_weight=35143 19656 16258 15487 4442 4288 3398 3245 11970 2977 11045 1544 1197 9501 2444 2131 1252 2620 1742 1267 10228 1783 1065 1993 2147 984 636 1311 666 473 1855 1066 661 6881 791 499 696 2986 310 616 596 292 1168 1187 220 533 480 458 927 877 422 325 7242 768 720 458 314 345 951 393 608 355
internal_count=35143 19656 16258 15487 4442 4288 3398 3245 11970 2977 11045 1544 1197 9501 2444 2131 1252 2620 1742 1267 10228 1783 1065 1993 2147 984 636 1311 666 473 1855 1066 661 6881 791 499 696 2986 310 616 596 292 1168 1187 220 533 480 458 927 877 422 325 7242 768 720 458 314 345 951 393 608 355
is_linear=0
shrinkage=1


Tree=1
num_leaves=63
num_cat=0
split_feature=0 0 0 7 9 7 0 7 0 0 6 8 5 6 5 5 9 9 8 9 9 5 0 5 5 0 8 8 9 8 8 7 9 5 8 5 9 5 5 9 5 0 9 0 0 5 8 5 5 5 9 9 5 9 9 9 0 8 6 5 8 8
split_gain=12593 1044.27 752.652 289.663 184.19 133.215 115.992 84.3822 71.3823 70.932 64.903 53.2671 46.3438 42.5788 41.5361 41.4434 38.5287 40.6263 64.0696 34.0968 40.5035 32.2799 32.0274 30.8601 34.734 25.8786 25.5625 53.3946 25.2238 25.1386 24.6856 24.4011 43.3356 25.6115 22.644 22.5339 22.5198 23.3106 21.9208 21.6275 21.4897 21.459 20.2259 19.3242 19.0037 18.9894 22.0707 18.0766 17.4868 24.1003 17.2228 15.5021 15.3367 15.0903 24.6629 14.5978 15.8168 14.0373 13.6001 13.5277 13.2927 17.9932
threshold=5.7500000000000009 7.2500000000000009 4.5500000000000016 -0.70710678118654757 -0.60505606964884906 1.0000000180025095e-35 9.3500000000000032 -0.5 6.5500000000000007 4.9166666666666679 0.37940952255126054 0.64534213713577271 -1.0000000180025095e-35 -0.91597561503675329 -0.24471745792248012 -0.39607976603915696 0.94968266440323645 0.82392300575755406 0.51973899919070166 0.65837719692149965 0.41326329957804331 -0.68624163786873382 6.6500000000000012 -0.68624163786873382 0.9698500000000001 7.5500000000000007 -0.99052327954040364 -0.99762106698677366 -0.8038981836306559 -0.34156760613242332 0.76665171983724034 -0.70710678118654757 0.57727023316007786 -1.0000000180025095e-35 0.41327478071396911 0.7466868207865246 0.96897393274411414 0.9028627018922194 0.64279380484326976 -0.41327860778290426 0.31440161635554525 3.8166666666666669 -0.41327860778290426 5.1333333333333337 5.4500000000000011 0.9028627018922194 -0.22611359161738934 -1.0000000180025095e-35 -0.68624163786873382 0.64279380484326976 0.44436171794418394 0.20088311396693925 0.31440161635554525 -0.14153505243942446 -0.073092422389869308 -0.317191288589106 5.3500000000000005 0.064507852084056461 -0.60355339059327362 -1.0000000180025095e-35 0.85654306401281499 0.7775899462189082
decision_type=2 2 2 2 2 2 2 2 2 2 2 2 2 2 2 2 2 2 2 2 2 2 2 2 2 2 2 2 2 2 2 2 2 2 2 2 2 2 2 2 2 2 2 2 2 2 2 2 2 2 2 2 2 2 2 2 2 2 2 2 2 2
left_child=2 3 4 11 41 10 7 12 13 40 35 22 30 28 53 -10 17 19 29 20 26 -15 -2 -9 36 -14 27 -16 -5 -19 -3 32 33 -8 55 38 -25 -38 43 -23 58 -1 -17 -4 52 46 -27 -13 -36 -50 -22 -47 -12 -6 -55 56 -11 -45 -7 -43 61 -52
right_child=1 6 5 8 14 9 31 23 15 34 44 47 25 21 16 42 -18 18 -20 -21 50 39 -24 24 -26 45 -28 -29 -30 -31 -32 -33 -34 -35 48 -37 37 -39 -40 -41 -42 59 -44 57 -46 51 -48 -49 49 -51 60 -53 -54 54 -56 -57 -58 -59 -60 -61 -62 -63
leaf_value=-0.0038509894341230387 -0.00038314981777220965 0.0065669882923364642 -0.0025248035090044141 -0.00099743639901280412 -0.0034779468133114277 -0.00082440217919647668 0.013990567311644555 0.0085171965390443798 0.0039444850534200663 -0.0013049083605408667 -0.0016665342648513612 -0.0007038182867690917 0.00024592629075050385 0.0025079701021313667 -0.0034648501966148613 0.0012026286140084266 -0.0032815761242061853 -0.0025150860892608762 0.0044095651499927047 -0.003530769608169794 0.0011504369493573904 0.00020055910348892175 0.0011006911039352417 0.0053458688177168371 0.0085871856316924091 0.0031892679758369923 -0.0031683276057243351 -0.00037110322527587447 0.00048643417060375226 -0.0015992271143943073 0.0044512675149366264 0.013097707691788673 0.012217107698321343 0.0053927601903676981 0.0012823902396485209 -0.0029194535482674833 -2.3417852818963248e-06 0.0049563038863241673 -0.00047577171809971326 0.0019209145680069925 -0.00074361237734556218 -0.0029730401979759335 0.0033336481254547831 -0.0010950033009052276 0.00050851000193506495 0.0011449099928140644 0.00032815221548080449 -0.0019946586582809682 -0.0011178226098418234 0.0010612546697258947 -0.0025838121693581343 0.0056590351313352584 -0.00063957698419690138 -0.0015823282957077027 -0.0030245967630296946 7.3069636523723501e-05 -1.3258213922381634e-05 -0.0020687692439183593 -0.0017557697251439097 -0.0030214721325784923 -0.0029425454746931793 0.00024405970573425305
leaf_weight=3686 698 635 533 118 1058 133 220 872 535 241 324 204 178 513 260 239 413 177 87 632 108 303 401 1436 512 201 2722 256 271 249 200 4739 895 478 192 582 100 138 146 913 503 699 808 311 194 151 210 275 137 294 391 318 384 91 1564 641 208 242 395 451 87 124
leaf_count=3686 698 635 533 118 1058 133 220 872 535 241 324 204 178 513 260 239 413 177 87 632 108 303 401 1436 512 201 2722 256 271 249 200 4739 895 478 192 582 100 138 146 913 503 699 808 311 194 151 210 275 137 294 391 318 384 91 1564 641 208 242 395 451 87 124
internal_value=-7.8684e-05 0.0189271 -0.0170787 0.00791059 -0.0209903 -0.00772386 0.0240792 0.020628 0.0124993 -0.00306011 -0.0124328 -0.00284991 0.0156336 0.00889099 -0.0182518 0.0173215 -0.016746 -0.0160247 -0.00799611 -0.0169221 -0.0158774 0.0109075 0.000790909 0.0237136 0.0217833 0.0114448 -0.0173016 -0.0111412 -7.69231e-05 -0.0127869 0.0209211 0.026774 0.0235069 0.0178541 0.000682614 -0.0157025 0.0196657 0.011046 -0.013382 0.00823336 -0.00927326 -0.0256399 0.0138263 -0.0148482 -0.00584718 0.0135528 0.00881068 -0.0111875 0.00524038 0.001875 -0.00936709 0.0176809 -0.00812412 -0.0213007 -0.0194746 -0.00192484 -0.00606667 -0.0108845 -0.0134972 -0.0219983 -0.0113433 -0.00947674
internal_weight=35076 16561 18515 5278 13055 5460 11283 4951 3700 2744 2716 1578 1893 2118 8219 1582 5506 5093 513 4580 3948 1729 1099 3058 2186 1058 3238 516 389 426 835 6332 1593 698 1713 1814 1674 238 1232 1216 1031 4836 1047 1086 902 880 411 479 623 431 710 469 708 2713 1655 1090 449 553 528 1150 602 515
internal_count=35076 16561 18515 5278 13055 5460 11283 4951 3700 2744 2716 1578 1893 2118 8219 1582 5506 5093 513 4580 3948 1729 1099 3058 2186 1058 3238 516 389 426 835 6332 1593 698 1713 1814 1674 238 1232 1216 1031 4836 1047 1086 902 880 411 479 623 431 710 469 708 2713 1655 1090 449 553 528 1150 602 515
is_linear=0
shrinkage=0.03


Tree=2
num_leaves=63
num_cat=0
split_feature=0 0 0 4 7 9 4 4 0 7 7 5 0 8 4 8 0 7 8 8 5 0 0 0 5 5 9 0 9 5 0 4 9 9 8 0 0 9 0 5 9 7 9 9 9 9 9 0 4 7 5 5 8 9 8 0 9 7 8 7 4 9
split_gain=12368.2 1016.45 723.734 310.839 225.741 221.468 151.297 137.263 119.158 112.26 92.3418 92.0773 73.9238 60.3822 52.4002 41.4815 41.311 39.0722 38.6586 90.0877 38.4984 32.3684 31.7928 29.6685 27.8304 27.1878 26.3029 25.6009 22.9226 22.8429 22.7962 56.9956 22.0259 45.1695 62.9105 23.0643 19.9246 19.8235 18.2737 17.9973 16.9201 16.8945 28.3708 16.3358 16.0759 41.3334 15.8123 15.5816 15.3464 15.0876 14.1045 13.7894 13.5994 13.4154 13.2863 13.1741 12.8747 13.012 12.1833 11.5607 14.1085 11.3816
threshold=5.7500000000000009 7.3500000000000005 4.7500000000000009 -1.0000000180025095e-35 -0.5 -0.60505606964884906 -1.0000000180025095e-35 -0.76602222155948896 9.5500000000000025 -0.70710678118654757 -0.5 -0.39607976603915696 6.5500000000000007 0.86095304316285726 0.68508682078652439 -0.85206963063867713 4.9166666666666679 -0.9159756150367534 -0.99052327954040364 -0.99762106698677366 0.10162432843644416 9.0500000000000025 4.2500000000000009 6.7500000000000009 -1.0000000180025095e-35 0.64279380484326976 -0.12447465306484827 4.1500000000000012 -0.10737736916418625 0.9698500000000001 8.8500000000000032 -1.0000000180025095e-35 0.94968266440323645 0.82392300575755406 -0.34156760613242332 0.20555555555555557 11.550000000000002 -0.04732138832243208 6.8500000000000005 0.7466868207865246 0.20088311396693925 0.25881904510252057 -0.83352489619613901 0.95748518835503915 0.67123509350548771 0.41326329957804331 0.45971571054515326 9.1500000000000004 0.31440161635554514 0.1294095225512602 0.7466868207865246 -0.39607976603915696 0.081675638985454754 0.8977101403255705 0.11593352601052392 5.4500000000000011 -0.14153505243942446 1.0000000180025095e-35 -0.84293373149377071 -0.12940952255126037 -0.36903988301957819 0.94415253529446119
decision_type=2 2 2 2 2 2 2 2 2 2 2 2 2 2 2 2 2 2 2 2 2 2 2 2 2 2 2 2 2 2 2 2 2 2 2 2 2 2 2 2 2 2 2 2 2 2 2 2 2 2 2 2 2 2 2 2 2 2 2 2 2 2
left_child=2 3 5 11 17 22 51 8 61 13 14 -2 41 15 -8 26 -12 29 19 -7 40 24 -1 49 -17 55 -9 32 -21 54 31 39 33 35 -35 -22 -10 -15 52 -11 -20 42 -6 -42 45 -37 -47 -39 -29 -13 -28 -4 -19 -27 -5 56 57 -18 -50 -25 -61 -3
right_child=1 7 6 4 12 18 10 9 36 30 16 23 -14 37 -16 21 25 38 20 28 27 -23 -24 59 -26 53 50 48 -30 -31 -32 -33 -34 34 -36 44 -38 47 -40 -41 43 -43 -44 -45 -46 46 -48 -49 58 -51 -52 -53 -54 -55 -56 -57 -58 -59 -60 60 -62 -63
leaf_value=-0.0036642160943001507 0.0019575682965321467 0.0012781144856885075 -0.0016136993507836015 0.00084817358422279387 -0.00050196410999447049 -0.0034274063444696369 -0.0020540963351586834 0.0096596555520594117 0.003996889850109815 0.0059180003803074362 -0.00089993835313618206 -0.0019456209601163863 0.0043409329622536887 0.0010088680942207577 -0.00023643115620128802 0.0064169482182562356 -0.0020848657369664865 0.0015941142911016944 -0.0032275111441849732 0.0027107742813527584 -0.0039584021915942428 0.01193767864152789 -0.002539155040914193 -0.0010952589483596384 0.0032721312877535824 0.0004967868468649686 0.0030616912408769135 -0.0028113581909425559 -0.0015348584468364717 -0.001819111055899411 0.012756953969210387 0.0075566134824827311 -0.0033455334782637658 -0.0026846155072096736 0.00096812316297925985 -0.0030659682075753806 0.010719630381077528 0.0018706270979549735 0.0026601615158244967 0.0022195556342080231 -0.0027408846036940816 0.0024638341431096195 0.0021606680969148868 -0.0035442223320007325 -0.0034186135567948225 0.00067895204699411989 -0.0021255168034248055 0.010574320529311895 -0.00055431495108827994 -0.00067498526774346836 2.721470788121294e-05 -0.0027321985189542172 1.0640903455205741e-05 0.0020638218997567886 -0.0006655866123922166 0.00047799355374276596 0.0001520057392772292 -0.00030675075007975113 -0.001741702915795148 -0.00016594857067242258 0.0011554117838758974 -0.00062865645058080531
leaf_weight=4389 228 443 184 289 115 428 656 109 367 103 583 497 1109 218 403 381 108 385 1578 100 235 1021 847 227 366 612 109 279 305 119 4643 1659 307 123 252 1916 582 105 242 472 1550 856 463 170 392 93 363 144 199 263 132 763 334 156 195 377 343 330 545 133 82 102
leaf_count=4389 228 443 184 289 115 428 656 109 367 103 583 497 1109 218 403 381 108 385 1578 100 235 1021 847 227 366 612 109 279 305 119 4643 1659 307 123 252 1916 582 105 242 472 1550 856 463 170 392 93 363 144 199 263 132 763 334 156 195 377 343 330 545 133 82 102
internal_value=-0.00020268 0.0187068 -0.0169828 0.0082286 0.0124221 -0.0203361 -0.00653012 0.0240011 0.0155318 0.0253366 -0.00369851 -0.00381551 0.0179363 0.0199884 -0.0111226 0.0221425 -0.000561753 0.00345048 -0.0174344 -0.011259 -0.0180757 0.0240136 -0.0252282 -0.00713217 0.0192112 0.00155682 0.0126496 -0.0163231 -0.00110837 -0.00253311 0.0273437 0.0248054 -0.0174932 -0.0167822 -0.00694149 -0.01801 0.0219474 0.0101923 0.00720374 0.0166146 -0.0205699 0.0134216 0.00943005 -0.0184776 -0.0172297 -0.0162832 -0.00814004 0.01596 -0.0120996 -0.0107227 0.00706612 -0.0171835 0.00479167 0.00592978 0.000371134 -0.00134599 -0.00356777 -0.00697039 -0.0098255 -0.000948081 0.00402778 0.00434066
internal_weight=35079 16493 18586 5537 4107 14071 4515 10956 1494 9462 3568 1430 2543 2585 1059 2118 2509 1564 8835 833 8002 1768 5236 1202 747 1926 350 4704 405 603 6877 2234 3681 3374 375 2999 949 467 961 575 3298 1434 578 1720 2764 2372 456 249 1023 760 241 947 719 768 484 1158 781 438 744 442 215 545
internal_count=35079 16493 18586 5537 4107 14071 4515 10956 1494 9462 3568 1430 2543 2585 1059 2118 2509 1564 8835 833 8002 1768 5236 1202 747 1926 350 4704 405 603 6877 2234 3681 3374 375 2999 949 467 961 575 3298 1434 578 1720 2764 2372 456 249 1023 760 241 947 719 768 484 1158 781 438 744 442 215 545
is_linear=0
shrinkage=0.03


Tree=3
num_leaves=63
num_cat=0
split_feature=1 9 1 1 1 7 7 4 9 7 4 7 8 7 2 9 8 4 4 9 4 9 1 9 6 1 7 2 1 1 1 8 9 4 8 1 4 4 4 7 8 4 9 7 7 6 1 8 8 1 9 1 1 9 9 1 1 9 4 8 4 1
split_gain=5420.52 1674.09 553.061 450.478 400.533 340.491 295.412 288.224 216.415 207.012 190.473 149.232 141.754 98.1716 97.6216 82.1455 72.4319 69.085 68.1684 74.3948 65.9534 62.9401 58.6659 55.0578 54.288 51.0263 49.072 48.1806 45.2821 41.5009 49.0284 42.5486 40.9516 40.0786 40.0775 38.8262 36.545 35.9931 34.6115 33.3595 32.8208 29.5735 27.7371 44.3146 25.6979 25.4263 24.0395 22.9258 22.7634 22.5122 21.2849 21.4405 20.3457 19.5702 22.2908 18.5859 18.1603 17.9149 17.9007 17.3628 19.3906 16.5331
threshold=3.3500000000000001 0.081673369964559248 1.8500000000000003 4.3500000000000005 2.5500000000000003 -0.70710678118654757 -0.5 0.14487054589608009 0.56312986467441573 1.0000000180025095e-35 -0.3144016163555447 -0.70710678118654757 0.53436760985011655 -0.5 1.0000000180025095e-35 0.78298010367706283 0.86095304316285726 0.89212075533235657 -0.74668682078652393 0.78298010367706283 0.31440161635554514 0.51972456038539816 1.5250000000000001 0.81898454963288581 0.60355339059327384 2.6500000000000008 1.0000000180025095e-35 1.0000000180025095e-35 5.3500000000000005 1.0000000180025095e-35 1.9166666666666667 -0.50495637864893983 0.65837719692149965 -0.74668682078652393 -0.42888796625999276 2.2500000000000004 0.64279380484326987 0.64279380484326987 0.68508682078652439 -0.9159756150367534 -0.32533907195844763 -1.0000000180025095e-35 -0.23449138957041016 1.0000000180025095e-35 1.0000000180025095e-35 0.78656609248549325 1.3500000000000003 0.84753307444029569 0.82876241254485883 3.7500000000000004 -0.92260537345622995 3.9500000000000006 3.9500000000000006 0.76110425866077458 0.65837719692149965 2.9500000000000006 2.3500000000000001 0.31717953954346351 0.64279380484326987 0.11593352601052392 0.31440161635554514 5.1500000000000012
decision_type=2 2 2 2 2 2 2 2 2 2 2 2 2 2 2 2 2 2 2 2 2 2 2 2 2 2 2 2 2 2 2 2 2 2 2 2 2 2 2 2 2 2 2 2 2 2 2 2 2 2 2 2 2 2 2 2 2 2 2 2 2 2
left_child=1 4 10 6 12 15 8 14 20 24 13 16 29 -3 18 56 28 27 48 44 39 -15 -14 46 37 -17 -24 42 32 31 -31 -1 59 -23 55 47 -25 -6 -28 52 -38 -10 43 -8 45 -20 -12 -9 -7 -19 -22 -52 -2 54 -37 -11 -4 -41 -27 60 -5 -13
right_child=3 2 5 11 9 7 17 35 41 34 23 61 22 21 -16 25 -18 49 19 -21 50 33 26 36 -26 58 38 -29 -30 30 -32 -33 -34 -35 -36 53 40 -39 -40 57 -42 -43 -44 -45 -46 -47 -48 -49 -50 -51 51 -53 -54 -55 -56 -57 -58 -59 -60 -61 -62 -63
leaf_value=0.0011674815348612516 -0.0026521913269407647 -0.002755320483884448 -0.0031514735710454736 0.0016514740612768803 -0.0031421517668604481 0.0017177615144355965 0.00092165594276860327 -0.00066612540725810468 0.0085779601463243354 -0.0015354373361460873 -0.0031627164323177934 0.0073341325431708149 -0.0030667287767355144 -0.0023291636404423606 0.013766735984813868 -0.0015932451051905749 0.0022326073511704527 0.00028514970484591379 -0.00084907549121618299 0.0065386013584500923 0.0028958612641265986 -0.00042154386747599606 -0.0027626116429673503 5.9546845137253138e-05 -0.00095690065199404426 0.003815545601503551 -0.00029592685358447736 0.015774925512861908 0.0088220940511681192 -0.0036206505358640849 -0.0028611971348945797 -0.0036140115366412049 0.0086520834394857287 0.0028113587722894545 0.00062560849664185431 0.00048060291248146452 -0.00030830556243449517 -0.0013753209496876226 -0.0022669220533800875 -0.00091113973996245269 -0.0026802998811789698 0.0033326788778990507 0.0057404603688982134 0.0033823811909312004 0.0046384330688818178 0.0052856711811697481 -0.0022365070336901405 -0.0025381457633258035 -0.0016045278778582066 0.0019965149782302976 -0.00021160353141878724 0.0016786932459568981 -0.00084140663046218414 0.0022423430424521858 -0.0010057219367480843 -3.9710815667174656e-05 -0.0019144733177591279 0.002327957718761489 -0.00057165705041881218 0.0009451277027154347 0.0044585354506547752 0.011104511246156395
leaf_weight=117 302 220 181 209 1290 532 329 632 416 285 839 1734 1155 199 324 341 482 288 249 1152 137 211 613 290 455 303 576 287 806 3775 1599 104 359 525 944 933 225 525 201 528 424 459 1455 822 584 84 715 112 99 339 513 307 155 690 205 241 650 85 106 209 275 1869
leaf_count=117 302 220 181 209 1290 532 329 632 416 285 839 1734 1155 199 324 341 482 288 249 1152 137 211 613 290 455 303 576 287 806 3775 1599 104 359 525 944 933 225 525 201 528 424 459 1455 822 584 84 715 112 99 339 513 307 155 690 205 241 650 85 106 209 275 1869
internal_value=-5.47461e-05 -0.00875848 -0.00022446 0.0159267 -0.016534 0.00460992 0.0104157 0.0080829 0.00332759 -0.00840417 -0.00973417 0.0218792 -0.0202678 0.00033737 0.0143603 -0.00768015 0.0159675 0.0162567 0.0124843 0.0151159 -0.00205621 0.00458333 -0.0143873 -0.0143986 -0.0140819 -0.000479361 -0.0102229 0.0182135 0.0186552 -0.0229396 -0.0234642 -0.0101351 0.0145299 0.00862958 0.000367097 0.000699572 -0.00864894 -0.0164042 -0.00520566 -0.00717087 -0.0126 0.0157877 0.016916 0.0134115 0.00872549 0.00206587 -0.017865 -0.00507383 0.00384494 0.00721338 0.00366388 0.00182704 -0.0132969 0.00305085 0.000632133 -0.00626186 -0.0141707 -0.00258958 0.00665854 0.010245 0.0133608 0.0257131
internal_weight=35070 22705 10825 12365 11880 7177 6422 5596 2902 3740 3648 5943 8140 1155 3024 1581 2340 3520 2700 2069 2027 935 2545 2493 2270 750 1390 2893 1858 5595 5374 221 1052 736 1470 2572 939 1815 777 1070 649 875 2606 1151 917 333 1554 744 631 627 957 820 457 1828 1138 526 831 613 409 693 484 3603
internal_count=35070 22705 10825 12365 11880 7177 6422 5596 2902 3740 3648 5943 8140 1155 3024 1581 2340 3520 2700 2069 2027 935 2545 2493 2270 750 1390 2893 1858 5595 5374 221 1052 736 1470 2572 939 1815 777 1070 649 875 2606 1151 917 333 1554 744 631 627 957 820 457 1828 1138 526 831 613 409 693 484 3603
is_linear=0
shrinkage=0.03


Tree=4
num_leaves=63
num_cat=0
split_feature=0 1 0 0 1 4 4 4 0 4 1 1 0 6 0 4 0 4 8 1 0 1 1 9 6 1 6 6 4 0 9 4 9 9 0 1 1 0 0 1 9 9 6 9 9 8 0 0 9 8 1 0 8 9 9 9 6 6 8 6 4 6
split_gain=11629.5 2135.28 740.999 694.544 361.46 315.422 175.849 151.426 109.501 104.337 95.9068 82.8897 78.1008 59.453 55.256 51.3394 50.2247 80.1298 45.7985 44.774 35.8777 34.4107 33.8416 32.1161 30.0276 28.9297 28.6802 26.5597 25.9572 25.4615 24.9597 24.6676 22.6994 22.605 22.2911 22.0078 21.8613 22.9111 21.7398 21.2858 21.0682 20.0606 19.1218 17.628 17.6102 17.8156 17.0491 16.8367 16.554 16.0222 16.0052 15.8527 15.7983 15.3716 15.1056 13.6439 13.3633 13.3356 20.6981 15.5678 11.703 11.6909
threshold=6.0500000000000007 3.2500000000000004 4.7500000000000009 7.5500000000000007 4.4500000000000011 -1.0000000180025095e-35 -1.0000000180025095e-35 -0.76602222155948896 10.250000000000002 0.31440161635554514 4.0500000000000007 2.5500000000000003 6.5500000000000007 0.78656609248549325 3.909859154929578 0.68508682078652439 10.550000000000002 -0.64279380484326964 -0.99052327954040364 3.7500000000000004 5.4500000000000011 5.6500000000000012 3.7500000000000004 -0.8038981836306559 0.78656609248549325 4.5500000000000007 0.37940952255126054 0.78656609248549325 0.68508682078652439 5.4500000000000011 0.7987497853924842 -1.0000000180025095e-35 0.91234096280339505 -0.51235243343851777 4.4500000000000011 3.9500000000000006 3.7500000000000004 5.2500000000000009 7.0166666666666675 1.5250000000000001 0.77756834408811348 0.76110425866077458 -0.25881904510252113 -0.94695267581281539 0.81898454963288581 0.098819223632317002 5.7500000000000009 2.6166666666666671 0.78298010367706283 0.89001933454452098 2.9500000000000006 11.550000000000002 -0.19244979981841004 0.49001051533419943 -0.94128245028753155 0.63207999751838673 -0.70710678118654735 0.37940952255126054 0.88606241628642846 -0.70710678118654735 -0.36903988301957819 -0.5
decision_type=2 2 2 2 2 2 2 2 2 2 2 2 2 2 2 2 2 2 2 2 2 2 2 2 2 2 2 2 2 2 2 2 2 2 2 2 2 2 2 2 2 2 2 2 2 2 2 2 2 2 2 2 2 2 2 2 2 2 2 2 2 2
left_child=1 2 11 5 9 10 -4 8 22 19 38 14 25 20 -1 21 17 32 -11 29 53 23 52 43 36 27 35 48 44 -3 39 -19 61 54 -26 41 37 56 60 -15 -22 42 -14 -6 -13 -46 -41 -35 -7 -37 -30 -10 -5 -8 -21 -17 -20 58 -33 -60 -2 -9
right_child=3 4 6 7 15 12 13 16 51 18 -12 28 26 30 -16 55 -18 31 24 33 40 -23 -24 -25 34 -27 -28 -29 50 -31 -32 57 -34 47 -36 49 -38 -39 -40 46 -42 -43 -44 -45 45 -47 -48 -49 -50 -51 -52 -53 -54 -55 -56 -57 -58 -59 59 -61 -62 -63
leaf_value=-0.0036834478964163711 -0.0015777920497690744 -0.0022765983865896734 -0.00272859673933642 0.0021065965054164067 0.0013592114141541074 0.00040014938436624541 -0.0016166149962651821 0.0045726509946903068 0.0039166033944052344 0.0020208136746704851 0.0024020916007680203 -0.002978497419382207 0.002340916794439301 -0.001264921099517683 -0.0026193477246775681 0.0057911667973485452 0.013011884928217336 0.0046882561228848508 -0.00045212666201661363 0.00020972956632835381 -0.00074828697511729499 0.0051733589971030324 0.0043165967770047676 0.0017621868230935939 -3.3414928657190672e-05 0.0052789312119930851 0.0042395002853016835 0.0023865913623044997 -0.0022961720233129579 -0.00055348045492705389 0.0013415712109975792 0.0084712896036955518 0.00021873973608619243 0.0019288789690151088 0.0020547678797153994 0.0049638286924342055 0.00025302507589760047 0.00038486285291786701 5.6082040139165955e-06 -0.00020366348448065563 0.00065165876888408048 0.0043363632321103147 0.00053674588113992528 -0.00094618953056754352 -0.0029859967169110183 -0.0013370551101235838 0.0015894941947509533 -0.00036579974566222 0.002093299561733927 0.0023990721210845399 -0.0016004803689704309 0.0098867243051921801 -0.00026425665401064998 -0.00094375284480824155 -0.0022532643260956687 0.0020687331999290782 -0.0014406027987594184 0.0089344348581677727 0.0088317832626802917 0.0053528590894401261 -0.00072914936656995842 0.0022290995982135325
leaf_weight=6256 423 695 845 153 80 709 891 141 245 146 240 1463 492 195 2051 503 3929 1053 203 80 692 196 173 468 194 222 741 226 486 113 165 1874 134 101 193 459 770 210 335 350 168 225 247 91 85 80 80 251 170 100 350 569 327 403 197 87 433 1211 106 225 316 283
leaf_count=6256 423 695 845 153 80 709 891 141 245 146 240 1463 492 195 2051 503 3929 1053 203 80 692 196 173 468 194 222 741 226 486 113 165 1874 134 101 193 459 770 210 335 350 168 225 247 91 85 80 80 251 170 100 350 569 327 403 197 87 433 1211 106 225 316 283
internal_value=-9.88539e-05 -0.0154246 -0.0212376 0.019469 0.00146648 0.010157 -0.00982322 0.0238498 0.0148978 -0.00361305 -0.00241825 -0.0252516 0.0147578 -0.00635654 -0.0266887 0.0142426 0.0253143 0.0233115 0.000572093 -0.00986787 -0.00893735 0.0094378 0.00573394 0.00604688 -0.000613772 0.00896837 0.0181457 0.00697107 -0.0203976 -0.0145365 0.00068268 0.024651 0.0125581 -0.00385714 0.00688144 0.0157677 -0.00241187 -0.0057379 -0.00625116 -0.0020607 -0.00418118 0.0129948 0.0105811 -0.00505814 -0.0226151 -0.0131928 0.00167053 0.0011898 0.00460227 0.0205179 -0.0160573 0.0222331 0.00162162 -0.0120927 -0.0102518 0.0210152 -0.00857143 0.0258999 0.0244651 0.0174398 -0.00912162 0.0159529
internal_weight=34899 19571 14560 15328 5011 4905 3789 10423 1467 3586 1314 10771 3591 2944 8307 1425 8956 5027 2149 1437 2154 835 653 639 2003 1327 2264 1105 2464 808 790 4469 558 629 387 1523 1616 846 1074 625 860 964 739 171 1628 165 430 352 879 559 836 814 480 1294 277 590 636 3416 2205 331 739 424
internal_count=34899 19571 14560 15328 5011 4905 3789 10423 1467 3586 1314 10771 3591 2944 8307 1425 8956 5027 2149 1437 2154 835 653 639 2003 1327 2264 1105 2464 808 790 4469 558 629 387 1523 1616 846 1074 625 860 964 739 171 1628 165 430 352 879 559 836 814 480 1294 277 590 636 3416 2205 331 739 424
is_linear=0
shrinkage=0.03


Tree=5
num_leaves=63
num_cat=0
split_feature=0 1 0 0 1 4 7 7 7 4 7 0 1 1 1 4 0 7 0 4 0 1 1 1 7 1 0 9 9 6 0 1 9 6 9 1 9 9 9 9 0 1 7 4 1 4 1 9 7 6 6 4 1 4 0 4 4 6 7 1 0 1
split_gain=11747.6 1996.1 1041.38 527.029 305.123 286.623 204.876 144.896 142.631 142.453 132.074 115.242 112.672 90.1918 89.0063 88.3942 75.2312 74.0539 58.6949 56.8938 53.4849 45.9978 40.5245 40.1755 37.5065 36.8885 36.7312 36.3279 34.629 34.1138 33.8466 32.1478 30.986 27.5064 27.1879 25.5902 25.1183 24.7597 24.0654 23.0343 22.8335 22.8096 22.7426 22.6849 21.9883 21.6635 21.571 34.7164 21.5677 20.371 20.333 19.3473 18.7621 18.2453 18.1926 18.1405 17.3986 17.2904 15.4166 15.413 15.0051 14.8198
threshold=5.7500000000000009 3.2500000000000004 7.2500000000000009 4.5500000000000016 4.3500000000000005 -1.0000000180025095e-35 -0.5 -0.5 -0.5 -0.76602222155948896 -0.70710678118654757 9.9500000000000011 3.7500000000000004 4.4500000000000011 2.5500000000000003 -1.0000000180025095e-35 6.4500000000000011 -0.70710678118654757 4.8500000000000005 0.68508682078652439 9.1500000000000004 3.3500000000000001 3.6250000000000004 3.4500000000000006 -0.5 1.8500000000000003 4.8500000000000005 0.46735921715800216 0.76663042157996963 -0.91597561503675329 3.8166666666666669 1.9166666666666667 -0.49002866642905923 -0.91597561503675329 -0.7721279831368929 1.9166666666666667 -0.51235243343851777 -0.63872576220844923 0.1500498401600889 0.064506059999340642 8.4500000000000011 1.5250000000000001 -0.70710678118654757 0.31440161635554514 3.7500000000000004 -1.0000000180025095e-35 2.5500000000000003 0.56312986467441573 -0.60355339059327384 -0.91597561503675329 0.60355339059327384 -0.36903988301957819 2.9500000000000006 0.68508682078652439 4.8500000000000005 0.64279380484326987 0.89212075533235657 0.25881904510252091 0.25881904510252057 2.0500000000000003 6.4500000000000011 3.8500000000000001
decision_type=2 2 2 2 2 2 2 2 2 2 2 2 2 2 2 2 2 2 2 2 2 2 2 2 2 2 2 2 2 2 2 2 2 2 2 2 2 2 2 2 2 2 2 2 2 2 2 2 2 2 2 2 2 2 2 2 2 2 2 2 2 2
left_child=1 3 5 14 8 12 13 53 19 11 20 23 42 28 30 -9 21 34 41 22 32 33 -3 59 -16 -12 36 43 50 -20 -1 -31 61 -8 -6 -35 -10 54 -24 -26 45 -17 -2 -22 58 -27 -34 56 -14 -23 55 -44 -13 -5 -19 -7 57 -48 -38 -4 -53 -11
right_child=2 4 9 7 17 6 16 15 26 10 25 52 48 -15 24 18 -18 37 29 -21 27 49 38 -25 39 40 -28 -29 -30 31 -32 -33 46 35 -36 -37 44 -39 -40 -41 -42 -43 51 -45 -46 -47 47 -49 -50 -51 -52 60 -54 -55 -56 -57 -58 -59 -60 -61 -62 -63
leaf_value=-0.0035766734849254395 -0.0020122868996199396 -0.0024623997249702684 -0.00057773687916166136 -0.0027972404384993964 -0.00079704626388860968 -0.0013713540776910977 -0.00045240235192711752 -0.002329690883020171 -0.0012204598954663889 0.002194223229443086 0.0043929975661440926 0.0035628151931016996 0.0004510310968427515 0.0037841899741639703 -0.0032552720904025965 -0.0022278705646899301 0.0039010436937920645 -0.00023440324953207775 -0.0015372442711010233 -0.00021996837139264008 0.00572702313341394 0.0011945982070009852 -0.0018361876109450627 0.0033206743931745637 -0.002263551000075509 0.0031565145340383422 0.0010923613926449825 0.010911399150646409 0.0017388262529919561 -0.00072626071814268828 -0.0026780050069816182 0.00034709043281966193 -0.00037890077410966644 0.00075792669931649059 0.0016066672825480683 0.0018812744851281176 0.00044992918623161374 0.0046973891551793196 -0.000150032319674048 -0.0015728013383120997 0.011988108621495696 -0.0011288516762786433 -0.0015091814330538511 0.012293082644854156 0.0010007243956025931 0.006649676675111486 -0.0001743950085078634 0.0045894311405848135 0.0023300288527449797 0.0043315859712707025 0.00089039041148526808 -0.0007895805827651969 0.0094915260233507069 -0.0018220117589229086 0.0028918551178277125 -0.00011001550760777078 0.0049655271498910431 0.0032248120172083993 -0.00082635071666052585 0.00085877484459775857 0.00048025671413630687 0.0066879977962835601
leaf_weight=6143 321 494 174 768 115 403 153 456 319 189 851 334 148 375 970 241 1154 87 234 385 357 90 406 223 829 341 457 871 200 623 1911 726 93 278 451 391 201 651 190 537 4563 434 425 227 362 1340 208 297 172 348 107 143 558 248 109 413 95 96 286 267 158 235
leaf_count=6143 321 494 174 768 115 403 153 456 319 189 851 334 148 375 970 241 1154 87 234 385 357 90 406 223 829 341 457 871 200 623 1911 726 93 278 451 391 201 651 190 537 4563 434 425 227 362 1340 208 297 172 348 107 143 558 248 109 413 95 96 286 267 158 235
internal_value=-0.000240974 -0.0165906 0.0181131 -0.0221415 0.000777581 0.00710795 0.0112395 -0.0124631 -0.00448887 0.0232447 0.0245893 0.0147977 -0.00471491 0.00252168 -0.0256145 -0.00883978 0.016646 0.0123267 -0.00640106 -0.0112398 0.0188835 0.0115623 -0.0147388 0.00532331 -0.0204365 0.026732 0.00164207 0.0227679 -0.00173488 -0.00323864 -0.0271136 -0.0014 0.0142092 0.0073633 0.00391534 0.00998507 -0.0011805 0.0179363 -0.00944724 -0.0172056 0.0275356 -0.0138018 -0.00947519 0.0169231 0.00151765 0.0244887 0.0106709 0.0124821 0.0108411 0.0194077 -0.00418831 -0.00651994 0.0218365 -0.0221239 0.00852792 -0.00580171 0.006675 0.00314754 -0.00264344 6.78733e-05 -0.000695364 0.0207529
internal_weight=35231 18633 16598 14120 4513 5279 3912 3730 3100 11319 9763 1556 1367 1498 10390 2714 2414 1413 2258 1475 2668 1260 1090 664 2336 7095 1625 1455 1123 1583 8054 1349 1213 822 566 669 1168 847 596 1366 6244 675 1047 584 849 1681 789 696 320 438 923 726 892 1016 196 816 399 304 487 441 301 424
internal_count=35231 18633 16598 14120 4513 5279 3912 3730 3100 11319 9763 1556 1367 1498 10390 2714 2414 1413 2258 1475 2668 1260 1090 664 2336 7095 1625 1455 1123 1583 8054 1349 1213 822 566 669 1168 847 596 1366 6244 675 1047 584 849 1681 789 696 320 438 923 726 892 1016 196 816 399 304 487 441 301 424
is_linear=0
shrinkage=0.03


Tree=6
num_leaves=63
num_cat=0
split_feature=0 1 0 0 1 1 7 7 7 7 0 0 5 1 7 7 1 8 1 0 1 6 1 1 6 1 5 1 1 8 1 5 8 7 7 6 5 5 5 0 7 0 6 1 0 8 8 5 1 8 6 1 0 0 7 8 0 8 8 5 5 7
split_gain=11349.3 2047.8 723.971 705.385 322.133 208.521 169.831 168.477 148.968 100.795 98.3111 97.2297 81.6319 72.2459 59.5802 59.3242 53.2078 53.1996 52.6106 51.5355 49.7738 38.5303 38.3353 36.8909 33.4765 40.3127 29.0418 28.121 26.6224 27.8331 26.5663 26.3268 26.2535 25.9893 25.1513 24.5361 24.4964 24.4567 23.6859 23.5239 23.2698 22.8096 21.0608 20.7231 21.8183 20.0646 28.2416 19.7191 24.931 19.6632 19.1658 18.6233 19.0664 18.4756 16.924 15.5715 15.5564 14.999 14.8009 14.5799 14.2518 14.0209
threshold=6.0500000000000007 3.2500000000000004 4.4500000000000011 7.5500000000000007 4.4500000000000011 3.4500000000000006 -0.5 -0.5 -0.5 -0.70710678118654757 5.2500000000000009 10.250000000000002 -0.39607976603915696 2.5500000000000003 -0.70710678118654757 -0.70710678118654757 1.4583333333333337 0.64534213713577271 2.1250000000000004 4.9166666666666679 3.7500000000000004 -0.91597561503675329 3.6250000000000004 1.3500000000000003 -0.91597561503675329 1.6500000000000001 -0.24471745792248012 4.9500000000000011 2.3500000000000001 0.86095304316285726 5.3500000000000005 0.9698500000000001 0.030120025924939415 -0.9159756150367534 -0.5 0.60355339059327384 0.31440161635554525 -0.76602222155948885 -0.24471745792248012 3.416666666666667 1.0000000180025095e-35 6.4500000000000011 -0.91597561503675329 2.4500000000000006 11.550000000000002 0.76665171983724034 -0.80392051724781066 0.9698500000000001 3.6250000000000004 -0.61188073503922691 0.37940952255126054 2.6500000000000008 6.5500000000000007 3.3166666666666669 0.1294095225512602 0.45972848220565493 6.9500000000000011 -0.9523687564627995 0.098819223632317002 0.61997310069466305 0.31440161635554525 -0.12940952255126037
decision_type=2 2 2 2 2 2 2 2 2 2 2 2 2 2 2 2 2 2 2 2 2 2 2 2 2 2 2 2 2 2 2 2 2 2 2 2 2 2 2 2 2 2 2 2 2 2 2 2 2 2 2 2 2 2 2 2 2 2 2 2 2 2
left_child=1 2 13 5 8 6 35 50 20 17 16 12 -5 39 30 28 -9 27 31 22 -3 -12 -10 -23 54 -26 -16 -7 -14 -30 49 61 -25 45 -15 51 55 -22 53 -1 -38 -27 -21 44 -35 46 -13 48 -20 -6 -4 60 58 -24 56 -18 -8 -39 -53 -41 -2 -17
right_child=3 4 7 11 14 9 24 10 19 -11 21 33 15 34 26 18 36 -19 47 42 37 23 38 32 25 41 -28 -29 29 -31 -32 -33 -34 43 -36 -37 40 57 -40 59 -42 -43 -44 -45 -46 -47 -48 -49 -50 -51 -52 52 -54 -55 -56 -57 -58 -59 -60 -61 -62 -63
leaf_value=-0.0035432381265502627 -0.00041425845225878221 -0.0020284550070965119 -0.0027041545154010888 0.0076710236330154785 0.0019559077741687853 0.0013053232419711178 -0.00081913089236454516 -0.002185543565461912 -0.000882345742196768 0.0041941558291252986 -0.0014834348015248747 0.0033881768070608987 -0.00028765073614169607 -0.0031312203374627627 0.0021007337641366628 0.0007167276016766574 -0.0015499929890120734 -0.0012800863314016955 0.0049971233428345004 -0.00028476535771922536 -0.0017822426686023409 -0.001110301284709958 0.0011135292582716877 -0.00016041043107920539 0.00062902197606610588 0.00137464724573293 0.0055359880558393717 0.0056636603659448986 0.0039116057503824275 0.00050290979280236212 0.00426078358720607 0.0055589453510346293 0.00093030823583966553 0.0038002860421169717 -0.0021481334851506397 0.00076779775898948852 -0.0018815281298971247 0.0024248710218688582 0.0011896538312621769 -0.0029477710659252714 -0.00020277211113317288 0.0032124322503130731 0.001591331505456185 0.012952197282623939 0.0082498610394698881 0.0050020639697406794 0.010213787409676434 0.0092977344327156153 0.0076465748636198134 -0.00038398084806805813 -0.0019157960897916244 -0.00020075277821396008 0.00010006160121497464 -0.0010909393399217205 0.0019429409641013623 -0.00081580141965725589 0.00079972710525243781 -0.00060481549140619316 -0.0018609956566054467 -0.0027034431431725457 -0.0016136111982094749 0.0027133683014396318
leaf_weight=4980 157 889 992 1546 146 326 189 640 564 1283 278 82 104 904 367 151 432 233 904 122 150 291 104 470 428 337 487 170 791 183 188 143 432 344 1258 106 210 103 442 1684 513 744 458 3619 555 136 378 448 571 237 345 85 333 164 108 238 98 535 109 1043 256 508
leaf_count=4980 157 889 992 1546 146 326 189 640 564 1283 278 82 104 904 367 151 432 233 904 122 150 291 104 470 428 337 487 170 791 183 188 143 432 344 1258 106 210 103 442 1684 513 744 458 3619 555 136 378 448 571 237 345 85 333 164 108 238 98 535 109 1043 256 508
internal_value=-0.00037017 -0.0154797 -0.0210985 0.0188934 0.00119831 0.00957485 0.00449339 -0.0115923 -0.00366082 0.0170194 -0.00813124 0.0233114 0.0204729 -0.0257599 0.0132328 0.0180994 -0.0124041 0.00809589 0.0204585 0.00219946 -0.0101371 -0.00222147 -0.00117647 0.000125628 0.00982677 0.0118609 0.0182456 0.0136419 0.0121223 0.0136615 0.00571678 0.0139726 0.00312292 0.0262757 -0.0208877 -0.0052149 -0.0091033 -0.00463878 0.00345992 -0.0271238 -0.00526243 0.0149445 0.00960413 0.0270591 0.0229 0.0203015 0.0232972 0.0231549 0.0214431 0.00117187 -0.0206502 -0.00675877 -0.00301136 -0.00356877 0.00204545 -0.013234 -0.00177083 -0.00206573 -0.0104615 -0.0248424 -0.0115217 0.0114091
internal_weight=35091 19666 14710 15425 4956 4962 2950 4841 3531 2012 3504 10463 5349 9869 1425 3803 2033 729 2725 1854 1677 1471 1274 1193 1904 1509 854 496 1078 974 571 802 902 5114 2162 1046 1393 788 710 7707 723 1081 580 4518 899 596 460 1923 1475 383 1337 940 527 268 395 670 287 638 194 2727 413 659
internal_count=35091 19666 14710 15425 4956 4962 2950 4841 3531 2012 3504 10463 5349 9869 1425 3803 2033 729 2725 1854 1677 1471 1274 1193 1904 1509 854 496 1078 974 571 802 902 5114 2162 1046 1393 788 710 7707 723 1081 580 4518 899 596 460 1923 1475 383 1337 940 527 268 395 670 287 638 194 2727 413 659
is_linear=0
shrinkage=0.03


Tree=7
num_leaves=63
num_cat=0
split_feature=2 9 5 5 9 9 7 8 8 8 8 9 8 7 8 4 9 7 8 8 8 7 4 4 5 5 4 8 8 4 8 4 5 7 8 7 8 8 8 8 9 5 8 8 9 8 8 4 9 9 4 4 5 8 8 8 8 5 8 8 8 8
split_gain=1562.28 1059.91 405.95 304.015 304.832 195.585 152.027 124.264 85.9004 157.7 153.666 73.8548 52.394 55.7942 49.2449 49.2178 45.6357 45.407 44.2533 77.907 72.9814 42.6585 52.8974 40.0006 35.3841 34.4175 60.7914 57.0921 32.4639 30.7641 30.5784 27.4649 26.0249 25.4703 24.5753 24.3937 23.2723 22.3075 34.1819 22.039 21.4604 21.3043 20.9283 50.7252 26.7356 31.8234 33.6323 26.5476 20.9105 26.3617 23.7327 20.908 20.869 19.6746 19.2501 37.4941 18.3765 18.2581 17.6212 17.5116 49.5408 17.198
threshold=1.0000000180025095e-35 0.047319635496388741 0.68508682078652461 -0.68624163786873382 -0.57729161655172734 0.78298010367706283 -0.70710678118654757 0.41327478071396911 0.11593352601052392 0.53436760985011655 -0.45972848220565504 0.98043284291745803 0.90880922144842613 -0.70710678118654757 0.87379901192678244 0.31440161635554514 1.0000000180025095e-35 -0.37940952255126015 -0.84293373149377071 -0.51973899919070132 -0.98211651112579568 -0.60355339059327384 0.68508682078652439 0.89212075533235657 -0.39607976603915696 -0.11609291412523069 0.89212075533235657 -0.67760851415498069 -0.9852109833579612 0.62419864841210326 -0.99628894895067444 0.64279380484326987 0.7466868207865246 -0.70710678118654757 0.36571913681022045 -0.70710678118654757 0.94130860066615818 -0.70252096857941215 -0.7610972106345526 0.98664879617890844 0.65837719692149965 -0.39607976603915696 -0.99628894895067444 -0.99052327954040364 -0.44437817810461328 -0.9523687564627995 -0.97109105924028405 0.89212075533235657 0.70860043010605911 0.51972456038539816 -1.0000000180025095e-35 0.31440161635554514 0.9698500000000001 0.20088869483109786 -0.63874350706337046 -0.2008886948310977 -0.54883787585413535 0.9028627018922194 1.0000000180025095e-35 0.75548631800528565 0.6583954877256819 0.89773508019357628
decision_type=2 2 2 2 2 2 2 2 2 2 2 2 2 2 2 2 2 2 2 2 2 2 2 2 2 2 2 2 2 2 2 2 2 2 2 2 2 2 2 2 2 2 2 2 2 2 2 2 2 2 2 2 2 2 2 2 2 2 2 2 2 2
left_child=1 3 11 8 7 6 -4 21 10 34 18 14 42 36 25 48 32 53 20 37 30 22 -5 -13 39 26 27 28 -3 33 -1 -12 -15 -11 -10 -9 -14 38 -20 -16 -17 -23 51 -44 52 46 57 -48 49 -8 -50 -6 -45 -7 -43 -56 -39 -46 -19 60 -27 -26
right_child=-2 2 5 4 12 17 15 35 9 29 31 23 13 16 24 40 -18 58 19 -21 -22 41 -24 -25 61 59 -28 -29 -30 -31 -32 -33 -34 -35 -36 -37 -38 56 -40 -41 -42 54 43 44 45 -47 47 -49 50 -51 -52 -53 -54 -55 55 -57 -58 -59 -60 -61 -62 -63
leaf_value=-0.0013989553095670848 0.013570174018846692 0.0022746423502163172 -0.0012729176013253996 -0.0024807183549105825 -0.0026270672705247227 0.0025670995256095318 0.0035746150087909499 -0.002305302203231884 -0.0020169723139701955 -0.0025007641950135755 0.0041700269686028059 -0.00078617838185954941 0.00042084675834684588 -0.0002515928056443026 -0.00050289196231417365 0.00052759341098206167 -0.0017245640778316214 0.0040531396313090006 0.0010039243954401542 -0.0014820329204499427 -0.0024701422947494426 -0.001975154419633111 -0.00038757221945584952 -0.0029567796422592463 -0.0022725338306740766 0.00082787431035496681 -0.0011339879451117806 0.0017810109394164001 -0.0017428514028830708 0.00093382254768657519 0.0047198668685571512 0.00070938421481435171 0.0021323077195368125 -6.498077584845802e-05 -0.0027359675226762323 -0.0011394019283652013 -0.0023019419239098016 0.0022955744690077566 -0.0025356375657319729 0.0022966965243767954 -0.0011485784313023861 -0.0032248362383443083 0.0016829473977484149 -0.00090251119863490902 -0.0022572875078916161 -0.0021343921178365328 -0.0013897298595189637 0.0071109901519040512 0.0022812776902623065 0.0061603678582668698 -0.0021828012047769157 -0.0013229320839605839 0.0017364632172185725 0.0048875339564989403 -0.0021526298776566688 -0.0029189390181109964 -0.00043901395604665578 0.00019216473075870348 0.0052873954659949998 0.0042527991439315271 -0.0018079571403350511 -0.0011860203476905216
leaf_weight=165 1551 117 929 849 223 780 1013 456 442 264 1068 563 98 617 415 424 201 808 311 265 457 150 314 216 136 3805 789 996 423 884 124 747 801 410 411 1445 411 476 167 183 98 619 250 1040 326 764 118 157 149 495 104 380 136 567 897 1324 116 106 1191 368 242 723
leaf_count=165 1551 117 929 849 223 780 1013 456 442 264 1068 563 98 617 415 424 201 808 311 265 457 150 314 216 136 3805 789 996 423 884 124 747 801 410 411 1445 411 476 167 183 98 619 250 1040 326 764 118 157 149 495 104 380 136 567 897 1324 116 106 1191 368 242 723
internal_value=-0.000372915 -0.00173517 0.00400515 -0.00669205 -0.00955748 0.0096783 0.00438842 -0.0142296 -0.00138396 -0.00583333 0.00137028 -0.000140359 -0.00453011 -0.000817285 0.000698951 0.00855079 0.00190741 0.0147535 -0.00419308 -0.000920659 -0.0100402 -0.0171377 -0.0122423 -0.00896154 -0.00430041 0.00178015 -0.00117369 0.00230319 -0.00554529 -0.000153945 0.00175862 0.0077478 0.0038055 -0.00497778 -0.0161944 -0.00787066 -0.00947059 0.00268908 -0.00212944 0.00130217 0.000458891 -0.0190371 -0.00678663 -0.00572464 -0.00694486 -0.00963995 -0.00504237 0.00315217 0.0109478 0.0122863 0.00295276 -0.0118709 -0.00356839 0.0104822 -0.0196199 -0.0182943 0.00657673 -0.010254 0.017625 0.0033356 0.00276433 -0.00819767
internal_weight=35074 33523 15534 17989 11682 6558 3212 6054 6307 2411 3896 8976 5628 2128 8197 2283 1619 3346 2081 1335 746 4153 1163 779 1457 6740 2325 1536 540 1558 289 1815 1418 674 853 1901 509 1070 478 598 522 2990 3500 2897 2647 1471 707 275 1761 1508 253 603 1176 1347 2840 2221 592 432 1999 4415 4047 859
internal_count=35074 33523 15534 17989 11682 6558 3212 6054 6307 2411 3896 8976 5628 2128 8197 2283 1619 3346 2081 1335 746 4153 1163 779 1457 6740 2325 1536 540 1558 289 1815 1418 674 853 1901 509 1070 478 598 522 2990 3500 2897 2647 1471 707 275 1761 1508 253 603 1176 1347 2840 2221 592 432 1999 4415 4047 859
is_linear=0
shrinkage=0.03


Tree=8
num_leaves=63
num_cat=0
split_feature=0 1 0 0 4 1 4 4 0 1 0 0 4 4 1 1 9 5 0 1 5 1 5 0 1 0 0 9 6 6 0 6 9 1 9 6 5 6 1 0 4 5 9 1 6 0 1 4 4 0 4 9 6 9 9 4 9 6 9 6 5 9
split_gain=10914.1 2026.07 792.158 656.44 306.24 287.535 164.773 142.431 104.025 96.9331 83.9174 82.1692 97.3003 82.0183 76.6279 69.6681 58.9268 56.7409 56.1026 42.6104 39.3979 38.5919 37.536 36.9482 30.2626 28.4944 26.9486 26.692 25.2827 23.9949 23.8373 23.563 22.9125 21.7936 20.9207 19.9698 18.6606 17.6289 18.7432 16.892 40.7535 16.2447 15.7952 15.5858 14.7817 14.7535 14.1173 15.1173 13.8042 15.3896 13.636 18.0401 13.2747 13.7469 13.1544 13.128 13.0655 12.8974 12.8506 13.9861 12.7684 12.7169
threshold=5.9500000000000011 3.2500000000000004 7.4500000000000011 4.4500000000000011 -1.0000000180025095e-35 4.3500000000000005 -1.0000000180025095e-35 -0.76602222155948896 11.350000000000003 4.1500000000000012 5.4500000000000011 9.0500000000000025 -1.0000000180025095e-35 0.31440161635554514 2.3500000000000001 4.0500000000000007 -0.65187484896379921 0.31440161635554525 6.6500000000000012 2.6500000000000008 0.7466868207865246 5.6500000000000012 -0.76602222155948885 4.8500000000000005 3.7500000000000004 4.5500000000000016 5.4500000000000011 0.064506059999340642 0.37940952255126054 0.37940952255126054 3.8166666666666669 0.78656609248549325 0.87377473702374975 4.8500000000000005 0.62541057298524605 0.60355339059327384 -0.39607976603915696 0.60355339059327384 1.8500000000000003 11.950000000000001 -0.64279380484326964 -0.39607976603915696 0.76110425866077458 1.5250000000000001 0.91597561503675362 4.8500000000000005 3.8500000000000001 -0.64279380484326964 -0.36903988301957819 7.0166666666666675 0.62419864841210326 -0.94128245028753155 -0.5 -0.49002866642905923 0.57727023316007786 -1.0000000180025095e-35 -0.51235243343851777 -0.25881904510252113 0.74407637760383738 -0.70710678118654735 -0.24471745792248012 0.57727023316007786
decision_type=2 2 2 2 2 2 2 2 2 2 2 2 2 2 2 2 2 2 2 2 2 2 2 2 2 2 2 2 2 2 2 2 2 2 2 2 2 2 2 2 2 2 2 2 2 2 2 2 2 2 2 2 2 2 2 2 2 2 2 2 2 2
left_child=1 3 4 14 9 13 -5 8 19 36 22 12 20 24 30 18 21 31 28 -4 -9 45 -8 43 26 58 -3 -16 34 52 -1 -15 44 -18 57 42 -2 -25 -39 40 -13 -11 -20 -24 -12 -7 47 -22 49 -38 51 -17 -14 -54 -55 -42 -26 -6 59 -19 -35 -41
right_child=2 5 7 6 15 16 10 11 -10 41 32 39 29 17 27 50 33 25 35 -21 46 -23 23 37 56 -27 -28 -29 -30 -31 -32 -33 -34 60 -36 -37 48 38 -40 61 55 -43 -44 -45 -46 -47 -48 -49 -50 -51 -52 -53 53 54 -56 -57 -58 -59 -60 -61 -62 -63
leaf_value=-0.0033569218766793356 0.00096299023762075461 -0.0020173528270820158 -3.9072833332166044e-05 -0.0027037884377827436 0.00038134653947268681 -0.00095478851196234224 -0.0022682744226882991 0.0053049537947190044 0.0083337428225975542 0.0033341419018702309 -0.0005018840775662662 0.0040730463422978735 0.0065311702886053629 -0.00091455750751105486 -0.0027057422040690426 0.0058546384440071285 0.0020627028642658802 0.0021066274907471589 0.0016725474571684482 0.0030612186111445886 -6.1795276048646764e-05 0.0041206092199768509 -0.0020717961065230077 -0.001075052148937229 -0.0011537793568112105 0.0018240559204503158 0.0003028916121165648 -0.0022886091200231993 0.0018200180103229169 0.0069596453625504423 -0.0026138290640917777 0.00067168485673493948 0.0011594539674106923 0.0025229395643564831 0.001398773642197615 0.0033775625809109805 -0.0018267935759105952 -0.0010439774294367374 0.0002794981433221502 0.013405082577484639 0.0064161166606925375 0.00084388610528560138 0.0038268186310857692 -0.0012493232820000805 0.00088924946403585808 0.00055355600644785177 0.0036093608259252798 0.0017792006029889323 -0.00069053133604118574 -0.00038503526159726044 0.0049349780493089211 0.0025260792475355703 0.0061946394397660639 0.0034251883559107124 0.004879119756571417 0.011419922333762949 -1.4761904036498241e-05 -0.00072531946913125878 -0.0011814020278192365 5.5093180216289336e-05 0.005870322686426406 0.012302562459945978
leaf_weight=5549 121 691 387 1017 438 155 327 157 617 90 660 528 780 824 1823 138 489 95 653 497 183 91 334 830 247 381 87 1095 536 866 1419 172 176 231 218 342 437 244 266 865 939 141 213 706 125 167 135 409 439 149 537 392 334 301 231 1633 313 228 101 382 433 1947
leaf_count=5549 121 691 387 1017 438 155 327 157 617 90 660 528 780 824 1823 138 489 95 653 497 183 91 334 830 247 381 87 1095 536 866 1419 172 176 231 218 342 437 244 266 865 939 141 213 706 125 167 135 409 439 149 537 392 334 301 231 1633 313 228 101 382 433 1947
internal_value=-0.000444325 -0.0155226 0.0180034 -0.0211165 0.00821999 0.00125309 -0.011863 0.022593 0.0140013 -0.00385341 -0.00889616 0.0239768 0.0202414 -0.0037796 -0.0255002 0.0127192 0.0118315 0.000138037 0.0100875 0.00738983 0.011661 0.00210145 -0.011599 -0.0102814 -0.00949963 0.00534375 -0.0133248 -0.0213977 0.006038 0.0232551 -0.0272148 -0.00487462 -0.00127859 0.015312 0.00291525 0.0148387 -0.00742807 -0.00697987 -0.00258317 0.0261187 0.0245534 0.0138362 0.0123875 -0.0145245 -0.00347328 -0.00278638 0.00869505 0.00667791 -0.00874269 -0.0117547 0.0191854 0.0157062 0.0210929 0.0184775 0.0154221 0.0261174 -0.00417112 0.000269865 0.0011399 0.00320084 0.0188571 0.0278351
internal_weight=35311 19430 15881 14571 5072 4859 4685 10809 1501 1377 3668 9308 3396 3293 9886 3695 1566 1955 2628 884 884 413 2707 2380 1338 959 778 2918 1420 2512 6968 996 961 1153 884 1208 1146 1340 510 5912 3100 231 866 1040 785 322 727 592 1025 586 1067 530 1646 866 532 2572 560 666 578 477 664 2812
internal_count=35311 19430 15881 14571 5072 4859 4685 10809 1501 1377 3668 9308 3396 3293 9886 3695 1566 1955 2628 884 884 413 2707 2380 1338 959 778 2918 1420 2512 6968 996 961 1153 884 1208 1146 1340 510 5912 3100 231 866 1040 785 322 727 592 1025 586 1067 530 1646 866 532 2572 560 666 578 477 664 2812
is_linear=0
shrinkage=0.03


Tree=9
num_leaves=63
num_cat=0
split_feature=0 1 0 0 1 4 4 4 0 1 0 1 9 1 0 4 4 1 9 5 1 0 0 5 5 9 0 0 5 5 0 1 8 5 9 8 1 9 8 4 4 1 8 5 8 5 5 5 8 0 0 5 4 0 1 8 8 4 1 0 9 8
split_gain=10570.5 1995.73 711.603 694.727 319.498 240.179 171.381 164.818 99.0057 87.0717 83.9232 80.2271 80.2229 78.5407 74.5869 87.678 62.6324 60.853 41.1781 38.6719 36.7974 36.0764 33.8134 32.6932 30.1339 28.7242 28.5924 26.929 25.15 23.4641 22.5688 22.3568 22.2563 27.1705 21.756 21.5747 20.4512 19.8428 19.6077 18.1605 18.9895 17.5512 17.3418 25.0154 17.1684 16.9135 16.871 14.8738 14.8514 14.6088 14.2833 14.1709 13.3344 13.2024 14.3558 12.6385 15.9923 18.0165 12.467 11.3859 11.3682 28.5632
threshold=6.0500000000000007 3.2500000000000004 4.4500000000000011 7.4500000000000011 3.9500000000000006 -1.0000000180025095e-35 -1.0000000180025095e-35 -0.76602222155948896 11.550000000000002 2.5500000000000003 4.9166666666666679 5.3500000000000005 -0.65187484896379921 3.9500000000000006 9.1500000000000004 -1.0000000180025095e-35 0.31440161635554514 4.5500000000000007 0.87377473702374975 0.7466868207865246 2.8500000000000001 6.5500000000000007 3.416666666666667 0.31440161635554525 0.31440161635554525 -0.15855351192338588 4.5500000000000016 4.2500000000000009 -0.76602222155948885 -0.39607976603915696 5.4500000000000011 1.5250000000000001 -0.99052327954040364 0.10162432843644416 0.78298010367706283 -0.82391537601316178 2.1250000000000004 0.20088311396693925 -0.19244979981841004 0.31440161635554514 0.89212075533235657 1.7250000000000003 0.18399664778440331 -0.78090314182490472 0.45972848220565493 -0.39607976603915696 -0.39607976603915696 -1.0000000180025095e-35 -0.86958133671945925 5.1333333333333337 7.0166666666666675 0.61997310069466305 -0.36903988301957819 3.416666666666667 4.5500000000000007 0.6583954877256819 0.36571913681022045 0.31440161635554514 2.6500000000000008 3.3166666666666669 0.80898702767051955 0.45972848220565493
decision_type=2 2 2 2 2 2 2 2 2 2 2 2 2 2 2 2 2 2 2 2 2 2 2 2 2 2 2 2 2 2 2 2 2 2 2 2 2 2 2 2 2 2 2 2 2 2 2 2 2 2 2 2 2 2 2 2 2 2 2 2 2 2
left_child=1 2 9 5 16 13 -4 8 20 22 24 12 26 29 15 19 30 21 28 -9 38 -7 60 49 -8 -11 47 48 -12 -2 37 -16 -14 53 -23 -33 -30 -3 -5 -38 44 -26 -19 -44 -41 -15 -13 -6 -25 59 52 -24 -31 -34 -55 56 57 -27 -52 -18 -1 -62
right_child=3 4 6 7 11 17 10 14 -10 25 18 46 32 45 31 -17 23 42 -20 -21 -22 34 51 27 41 55 -28 -29 36 50 -32 35 33 -35 -36 -37 39 -39 -40 40 -42 -43 43 -45 -46 -47 -48 -49 -50 -51 58 -53 -54 54 -56 -57 -58 -59 -60 -61 61 -63
leaf_value=-0.0032992672509750357 0.0012327321495561926 -0.002003401371890607 -0.0025246749437147138 0.0016038880139138648 -0.001605110082510481 0.00096576196757597495 -0.0016968605492487922 0.0052041415879014062 0.0082797491424878716 -0.0026108660200096522 -0.0017398214564858824 0.0031195249895021502 0.0034692134843018908 0.0029754923358447593 0.0034792296728529053 0.0062598731127525131 -0.00056041027709170105 0.0057444492593761304 0.00050156258550553695 0.0013918134957748003 0.0032321900520746647 0.0018601479693349822 -0.0027334741443814665 0.0005004313010953074 -0.0019454319086711859 -0.0028100802525415514 0.00027556568928309059 0.0010936027384446498 -0.0008052507351232576 -0.0016776157524455403 -2.9590823063149472e-05 0.01010617258063567 0.0015109365795832452 0.0023881780180404098 0.0036923337705127512 0.010946451739151895 -0.001419260387051022 -0.00074759088363811831 -0.0002613086859613825 -0.0001150143697064096 -0.00096721862768427147 -0.00096316092522918365 0.00074466926912898298 0.0059109198254137466 0.0015818090002499945 0.00088036940467001027 0.0061745551102533099 -0.00057703638661552536 -0.00099752106388623692 -1.0180039043116151e-05 -0.00065504343266211459 -0.0024468053748911618 -0.00074605431748650725 -0.00045717889489935881 0.001173650735730794 -0.0024162451345725536 -0.0004016041691489737 -0.0018293031282304508 0.0010488378381245617 -0.0014704399578975801 -0.003287952160719134 -0.0024521095439101167
leaf_weight=4543 97 675 1045 153 123 1118 739 172 585 1188 295 177 147 86 314 2558 173 401 417 758 443 1244 1677 136 250 205 294 330 771 387 131 717 142 764 362 4704 148 220 319 265 224 424 99 174 213 147 337 89 236 234 151 1067 290 238 170 295 82 427 94 354 323 87
leaf_count=4543 97 675 1045 153 123 1118 739 172 585 1188 295 177 147 86 314 2558 173 401 417 758 443 1244 1677 136 250 205 294 330 771 387 131 717 142 764 362 4704 148 220 319 265 224 424 99 174 213 147 337 89 236 234 151 1067 290 238 170 295 82 427 94 354 323 87
internal_value=-0.000445345 -0.0150198 -0.0205808 0.0181885 0.00141219 0.0085014 -0.0110872 0.0223881 0.0131512 -0.0251764 -0.00808647 0.00902901 0.00626524 -0.00272945 0.0238888 0.0204127 -0.00618072 0.012639 -0.00458869 0.0125027 0.00697598 0.0106349 -0.0266836 -0.00219262 -0.0138543 -0.0198863 -0.00402367 0.00247511 -0.00644757 -0.00632353 -0.0118598 0.025999 0.009829 0.00857795 0.0135159 0.0264533 -0.00497534 -0.0135603 0.00114165 -0.00176263 0.000256046 -0.00924444 0.0207111 0.014781 0.00363257 0.0129487 0.0195728 -0.0123944 -0.0030563 -0.00649606 -0.00780065 -0.0239781 -0.0100442 0.00348457 0.000733496 -0.0161287 -0.0139301 -0.015545 -0.00158537 -0.00926136 -0.0281772 -0.0232117
internal_weight=35028 19655 14685 15373 4970 4650 4791 10723 1500 9894 3746 2481 1967 1252 9223 3488 2489 3398 2333 930 915 2724 7697 1463 1413 2197 506 702 1916 1019 1026 5735 1461 1314 1606 5421 1621 895 472 850 702 674 674 273 478 233 514 212 372 761 922 2744 677 550 408 1009 714 632 245 527 4953 410
internal_count=35028 19655 14685 15373 4970 4650 4791 10723 1500 9894 3746 2481 1967 1252 9223 3488 2489 3398 2333 930 915 2724 7697 1463 1413 2197 506 702 1916 1019 1026 5735 1461 1314 1606 5421 1621 895 472 850 702 674 674 273 478 233 514 212 372 761 922 2744 677 550 408 1009 714 632 245 527 4953 410
is_linear=0
shrinkage=0.03


Tree=10
num_leaves=63
num_cat=0
split_feature=0 1 0 0 1 4 4 4 1 0 1 0 4 0 9 5 0 4 1 0 0 1 5 0 0 1 5 5 0 9 9 1 5 0 9 1 4 1 8 8 8 8 9 4 8 1 5 9 8 4 0 0 1 4 9 1 9 1 9 8 1 0
split_gain=10314.6 1950.98 715.581 649.258 333.483 280.494 151.796 133.589 105.205 90.9483 84.582 81.1268 80.0468 71.1648 55.6335 55.0489 50.8137 119.558 46.1667 35.2833 34.9456 33.8982 32.422 31.1229 31.0941 29.5702 29.4261 27.3597 29.6381 25.0119 23.993 23.9774 23.5952 23.3548 22.2012 21.3698 31.8239 20.8425 20.8122 19.6839 19.2711 21.5477 18.3792 18.2366 17.6991 16.7753 15.8957 15.4472 14.7995 14.5139 14.4052 16.4756 14.1822 14.1419 14.0342 13.7052 13.4876 13.4319 12.9052 33.5379 12.7588 12.5468
threshold=6.0500000000000007 3.2500000000000004 4.4500000000000011 7.8500000000000005 4.3500000000000005 -1.0000000180025095e-35 -1.0000000180025095e-35 -0.76602222155948896 3.4500000000000006 4.8500000000000005 2.5500000000000003 11.950000000000001 0.31440161635554514 6.9500000000000011 -0.72658061058372014 0.31440161635554525 10.850000000000003 -1.0000000180025095e-35 4.4500000000000011 3.5166666666666671 5.1333333333333337 1.7250000000000003 -0.39607976603915696 5.4500000000000011 4.4500000000000011 3.7500000000000004 -0.76602222155948885 0.7466868207865246 9.1500000000000004 -0.52705818521824699 -0.15855351192338588 5.4500000000000011 0.31440161635554525 7.1500000000000012 0.96457844552971317 1.5250000000000001 0.31440161635554514 4.0500000000000007 0.38168568572378603 -0.66484924122790601 -0.82391537601316178 -0.91585580712236336 0.59123954401714218 -0.3144016163555447 -0.96683886033945943 2.8500000000000001 0.64279380484326976 0.83824865459667641 0.6583954877256819 0.89212075533235657 5.1333333333333337 3.3166666666666669 3.7500000000000004 -0.64279380484326964 0.74407637760383738 4.3500000000000005 -0.84291031405530259 1.4583333333333337 0.80898702767051955 0.45972848220565493 2.7500000000000004 5.4500000000000011
decision_type=2 2 2 2 2 2 2 2 2 2 2 2 2 2 2 2 2 2 2 2 2 2 2 2 2 2 2 2 2 2 2 2 2 2 2 2 2 2 2 2 2 2 2 2 2 2 2 2 2 2 2 2 2 2 2 2 2 2 2 2 2 2
left_child=1 2 10 5 12 8 -4 11 33 32 19 21 23 18 20 44 17 27 42 58 -6 -5 -10 25 54 -3 45 -9 53 -27 -12 43 -8 -2 35 56 61 47 -38 -23 41 -18 60 -16 -14 -11 -21 -15 -32 -40 51 52 -46 -29 -17 -41 -28 -34 -1 -60 -7 -37
right_child=3 4 6 7 14 13 9 16 22 26 30 -13 15 37 31 24 40 -19 -20 46 -22 39 -24 -25 -26 29 34 28 -30 -31 48 -33 57 -35 -36 36 38 -39 49 55 -42 -43 -44 -45 50 -47 -48 -49 -50 -51 -52 -53 -54 -55 -56 -57 -58 -59 59 -61 -62 -63
leaf_value=-0.0031909080967703015 -0.0011523370250182089 -0.0019370629921281193 -0.0024688162229925892 -0.00058910720554916347 -0.00071839991966209712 0.00052335199046001806 -0.0017258879124673202 0.0068686202686134941 0.0028265838372818876 -0.001958109841205312 -0.0025046462919477838 0.0091103346182676535 0.0012098216659160556 0.0026015441432221805 0.0011272097973296397 0.0003183911345837806 0.011609080211225671 0.0081060343468300298 0.0044576125501299387 -0.0026231475363381889 0.0023394902235144683 0.0066877748966037666 0.00061006802686997398 0.0001804902401704385 0.0015048363941717624 -0.001995974040841461 -0.0017340795626677712 0.00029829810655026878 0.0039466716865464218 4.5782994241314878e-05 -0.0019772874466867027 0.0061222024803144863 -0.0020715627076776039 5.9450344602829385e-06 0.00065614195705949085 -0.001915093083128051 -0.00043989830665200065 0.0058088483486711901 0.0010484261535647875 0.0016648268070509529 0.011277599075874934 0.0071014505614962241 0.0020314155826220222 0.0029947414901905804 -0.0011569933302359289 -0.00025637625148146434 -0.0023897163028868433 0.0049654937749018472 -0.0024091040836853265 -0.00093309170610225256 -0.00011686368333521102 -0.0014110613630083258 0.0011771523713074775 0.0021031925152039206 -0.0012488357210518133 0.0038857610035624543 -0.00079888872421522369 -0.0010335286425198894 -0.0031550410084895857 -0.0020728555720005955 0.0013005758446158206 -0.001028359425744454
leaf_weight=4835 734 691 1053 146 193 522 587 202 153 251 1185 520 97 959 218 463 331 2992 472 1494 178 109 323 186 407 204 105 191 831 273 710 351 147 405 202 112 819 615 379 476 3188 109 525 686 123 88 941 246 286 99 323 423 83 409 97 130 436 395 352 89 840 139
leaf_count=4835 734 691 1053 146 193 522 587 202 153 251 1185 520 97 959 218 463 331 2992 472 1494 178 109 323 186 407 204 105 191 831 273 710 351 147 405 202 112 819 615 379 476 3188 109 525 686 123 88 941 246 286 99 323 423 83 409 97 130 436 395 352 89 840 139
internal_value=-0.000573885 -0.0149596 -0.0204624 0.0177951 0.00123674 0.00985677 -0.0109703 0.0225677 -0.000761139 -0.00814628 -0.0250783 0.0139146 -0.00414714 0.0139593 0.0123909 -0.000356966 0.0240138 0.0219131 0.0105127 -0.0265573 0.00217742 0.00824826 0.0110692 -0.00978598 0.00480372 -0.0115997 -0.00508552 0.0153672 0.0138897 -0.00583682 -0.0198396 0.0154061 -0.0152655 -0.00571053 -0.00386126 -0.0047799 -0.00298257 0.0184185 -0.00108629 0.0109358 0.026685 0.0206803 0.00840572 0.0127956 -0.00511429 -0.0133235 -0.0235345 0.0160945 -0.0163691 0.00388309 -0.00635887 -0.009 -0.00202899 0.00878536 0.000213904 0.00879736 -0.00990775 -0.0107182 -0.0279477 -0.0228733 0.00655906 -0.0127381
internal_weight=35128 19700 14704 15428 4996 5794 4812 9634 1615 3759 9892 1381 3370 4179 1626 2016 8253 4625 2359 7711 371 861 476 1354 967 1168 2630 1633 1431 477 2181 1255 1129 1139 2291 2089 1548 1820 1297 715 3628 440 1887 904 1049 339 2435 1205 996 478 952 629 206 600 560 606 541 542 5276 441 1362 251
internal_count=35128 19700 14704 15428 4996 5794 4812 9634 1615 3759 9892 1381 3370 4179 1626 2016 8253 4625 2359 7711 371 861 476 1354 967 1168 2630 1633 1431 477 2181 1255 1129 1139 2291 2089 1548 1820 1297 715 3628 440 1887 904 1049 339 2435 1205 996 478 952 629 206 600 560 606 541 542 5276 441 1362 251
is_linear=0
shrinkage=0.03


Tree=11
num_leaves=63
num_cat=0
split_feature=0 1 0 0 4 1 4 4 0 1 4 9 0 1 1 0 1 6 6 0 5 9 1 1 0 5 4 0 6 6 1 1 0 9 9 5 4 0 1 4 9 9 9 9 4 4 9 4 9 1 5 4 0 5 2 4 0 5 1 5 0 9
split_gain=10088.5 1756.34 937.791 603.361 234.266 221.935 166.787 116.137 113.838 101.11 99.0405 93.1762 91.4563 79.394 78.2425 64.7607 53.1318 52.4212 46.6878 43.2984 40.4104 40.25 37.4139 31.248 30.954 29.2952 28.7321 26.7998 25.9226 24.0156 23.9479 20.4194 20.8554 19.3373 19.2848 19.252 18.9743 18.639 17.4124 17.2933 17.2825 17.8808 16.5351 20.834 16.0479 17.1358 15.6465 16.453 15.3908 15.1382 15.1111 14.4673 18.1285 14.4435 14.3829 15.3597 23.207 14.2603 13.7307 13.6361 12.6759 12.6247
threshold=5.7500000000000009 3.3500000000000001 7.2500000000000009 4.4500000000000011 -1.0000000180025095e-35 4.5500000000000007 -0.76602222155948896 -1.0000000180025095e-35 9.0500000000000025 2.5500000000000003 -1.0000000180025095e-35 -0.51235243343851777 11.550000000000002 4.1500000000000012 4.4500000000000011 4.9166666666666679 2.8500000000000001 0.60355339059327384 0.60355339059327384 6.5500000000000007 0.7466868207865246 -0.72658061058372014 3.8500000000000001 1.5250000000000001 3.5166666666666671 -0.76602222155948885 0.68508682078652439 4.3500000000000005 0.60355339059327384 -0.70710678118654735 1.9166666666666667 3.9500000000000006 8.0500000000000025 0.76110425866077458 0.88201535311751322 -0.39607976603915696 0.89212075533235657 5.1333333333333337 2.1250000000000004 0.31440161635554514 0.80898702767051955 0.88999460902669758 0.75546532993267157 0.8977101403255705 0.31440161635554514 0.89212075533235657 -0.92910699518418138 0.64279380484326987 0.83824865459667641 3.0500000000000003 -0.24471745792248012 0.68508682078652439 3.2333333333333338 -0.39607976603915696 0.75000000000000011 -1.0000000180025095e-35 10.550000000000002 0.31440161635554525 2.9500000000000006 -0.76602222155948885 5.9500000000000011 -0.51235243343851777
decision_type=2 2 2 2 2 2 2 2 2 2 2 2 2 2 2 2 2 2 2 2 2 2 2 2 2 2 2 2 2 2 2 2 2 2 2 2 2 2 2 2 2 2 2 2 2 2 2 2 2 2 2 2 2 2 2 2 2 2 2 2 2 2
left_child=1 3 4 9 13 11 12 58 10 24 20 18 16 35 17 30 -4 19 46 33 -8 37 39 -10 40 -17 42 -20 31 -22 -9 32 48 -6 38 -2 -19 -7 -27 -13 -1 -42 -11 -44 -40 -46 -3 -48 61 -28 -23 52 -24 -15 55 56 -25 -41 -5 -32 -37 -12
right_child=2 5 6 7 14 21 8 15 23 26 28 22 -14 53 -16 25 -18 36 27 -21 29 50 51 54 -26 34 49 -29 -30 -31 59 -33 -34 -35 -36 60 -38 -39 44 57 41 -43 43 -45 45 -47 47 -49 -50 -51 -52 -53 -54 -55 -56 -57 -58 -59 -60 -61 -62 -63
leaf_value=-0.0030884001665032117 0.00031353177778565584 -0.00079137031111506829 -9.5180830841046495e-05 -0.0024261672832801479 2.1917467196552743e-06 -0.00043889294998943979 0.0048137003766094621 -0.0017837908881664401 0.0029347590931020659 -0.0025143411944945526 0.0031855194357531713 -0.0013321889019195182 0.0078363554909076788 0.0027277297552280215 0.0042393664179308293 -0.0018640222820434807 0.0033341311113739202 0.0025765371113543089 -0.0011337501736535874 0.001418900238403782 0.0029626698661441731 0.0019273296353392955 0.001425632197855044 0.0049023928950602293 -0.0024644662421370749 -0.00094368207065198605 -0.0018908387772071417 0.001622169606230408 0.0061218912653166046 0.00072042419447236215 -0.0021933300936256639 0.0066880418239635836 0.0056314228951644197 0.0011657802249665377 0.00034790773190525575 -0.0025727489367220213 0.00090545377638056896 0.0025544090428407207 -0.0014666982503122258 -0.00050445669573103032 -0.0026291303731911038 -0.0030809809582848739 -0.00042965765786690425 -0.0026516946369663824 0.00039850246244075026 -0.00094710230739822126 -0.0023959988387123863 -0.00099976873076247663 0.0051227744576929817 -0.0012908217161124438 0.004723160686877146 0.0014863497824548649 -0.00046442644574342409 0.000652889020668779 0.012233203901827845 0.01106031667069505 0.0091582683024515454 0.0003663573458123141 -0.0019034407158008927 -0.00097997495425092306 -0.0010682822172032424 0.0015947631282397404
leaf_weight=4847 133 265 482 750 1095 147 181 627 318 1431 221 378 567 86 750 252 471 689 120 934 201 307 191 711 2461 637 554 113 744 593 109 915 556 245 294 120 215 106 114 303 141 294 87 94 404 183 371 123 127 274 567 447 299 133 1073 1958 1794 402 155 727 899 337
leaf_count=4847 133 265 482 750 1095 147 181 627 318 1431 221 378 567 86 750 252 471 689 120 934 201 307 191 711 2461 637 554 113 744 593 109 915 556 245 294 120 215 106 114 303 141 294 87 94 404 183 371 123 127 274 567 447 299 133 1073 1958 1794 402 155 727 899 337
internal_value=-0.000609857 -0.0157857 0.016424 -0.0207253 0.00601698 0.00144203 0.0213253 -0.0112297 0.0227698 -0.0246887 0.0187693 -0.00280783 0.012071 -0.00465743 0.00974294 -0.00864695 0.00638365 0.00768166 -0.0103323 0.00524835 0.0104816 0.0127926 0.000890648 0.0254142 -0.0263701 -0.00496552 -0.0193445 0.00141026 0.0215512 0.00754717 -0.0133811 0.0198609 0.0173188 0.00178971 -0.00349051 -0.00780572 0.0137901 0.00224409 -0.00501867 -0.0029059 -0.0276775 -0.0218119 -0.0216863 -0.013022 -0.00175214 0.000255102 -0.0139342 -0.0170909 0.0137755 -0.0147648 0.01584 0.00527719 0.00171079 0.0118636 0.0259418 0.025168 0.0235714 -0.000127479 -0.0207616 -0.0100358 -0.00920588 0.0115921
internal_weight=35122 18574 16548 14435 5299 4139 11249 4252 9729 10183 3875 3012 1520 1371 3928 3347 953 3178 992 2274 975 1127 2020 5854 7743 1884 2440 233 2900 794 1463 2156 1241 1340 1632 1152 904 253 1338 1083 5282 435 1612 181 701 587 759 494 685 828 874 937 490 219 5536 4463 2505 705 905 836 1019 558
internal_count=35122 18574 16548 14435 5299 4139 11249 4252 9729 10183 3875 3012 1520 1371 3928 3347 953 3178 992 2274 975 1127 2020 5854 7743 1884 2440 233 2900 794 1463 2156 1241 1340 1632 1152 904 253 1338 1083 5282 435 1612 181 701 587 759 494 685 828 874 937 490 219 5536 4463 2505 705 905 836 1019 558
is_linear=0
shrinkage=0.03


Tree=12
num_leaves=63
num_cat=0
split_feature=0 0 0 7 9 7 6 0 5 0 0 5 5 5 6 7 0 0 5 8 5 5 5 6 9 9 9 8 0 0 9 9 9 5 9 9 8 8 9 9 9 9 9 6 5 9 0 8 7 9 0 9 7 6 8 0 5 8 9 0 8 7
split_gain=9777.72 971.654 651.284 257.847 230.24 165.095 112.174 93.9448 89.8165 79.8729 75.6187 54.5565 47.3682 45.2663 43.5813 39.5316 36.1631 35.6618 33.8994 33.8449 32.1339 31.7392 34.8572 28.6556 28.2034 27.9789 28.3954 50.5776 36.1736 25.1311 24.564 29.8464 22.964 22.267 21.3455 18.6222 18.5959 18.4121 18.723 31.0706 27.399 19.7279 29.3058 18.1989 22.5438 18.0672 17.9402 17.5596 18.3561 16.0737 16.849 15.8988 16.482 15.8483 15.2078 14.9946 14.8502 14.8436 14.8209 14.1707 13.9118 13.8932
threshold=6.0500000000000007 4.6500000000000012 7.9500000000000011 1.0000000180025095e-35 -0.57729161655172734 -0.5 0.60355339059327384 11.65 -0.39607976603915696 5.2500000000000009 7.0166666666666675 0.9698500000000001 -0.24471745792248012 -0.68624163786873382 -0.91597561503675329 -0.70710678118654757 3.6500000000000008 3.8166666666666669 -1.0000000180025095e-35 0.081675638985454754 0.31440161635554525 0.7466868207865246 0.64279380484326976 -0.5 0.78298010367706283 0.94968266440323645 0.82392300575755406 -0.34156760613242332 0.75000000000000011 5.1333333333333337 -0.17552498857989965 -0.098820138732871751 0.5488226286565131 0.9698500000000001 0.88999460902669758 -0.24284072672761489 -0.79356426026969629 0.93228057993045244 0.65837719692149965 -0.17552498857989965 -0.073092422389869308 0.41326329957804331 0.45207220393230413 -0.91597561503675329 0.64279380484326976 -0.41327860778290426 6.4500000000000011 -0.63874350706337046 -0.70710678118654757 0.96897393274411414 6.4500000000000011 0.96897393274411414 -0.9159756150367534 -0.91597561503675329 0.67125374152323958 14.750000000000002 0.9028627018922194 0.20088869483109786 -0.38961601727460732 5.4500000000000011 0.74409704927257569 -0.70710678118654757
decision_type=2 2 2 2 2 2 2 2 2 2 2 2 2 2 2 2 2 2 2 2 2 2 2 2 2 2 2 2 2 2 2 2 2 2 2 2 2 2 2 2 2 2 2 2 2 2 2 2 2 2 2 2 2 2 2 2 2 2 2 2 2 2
left_child=1 4 3 6 16 21 10 8 -4 43 19 23 30 46 32 24 -1 25 -12 20 -2 22 29 -10 -13 26 28 -28 -14 -3 -6 -32 -11 45 53 47 -19 38 39 -30 -41 -42 -43 58 -45 57 -5 -9 -49 50 -47 52 54 -20 -25 61 -51 -15 -7 -16 -18 -37
right_child=2 5 7 13 12 9 -8 35 11 14 18 15 17 33 59 -17 60 36 34 -21 -22 -23 -24 51 -26 -27 27 -29 37 -31 31 -33 -34 -35 -36 55 -38 -39 -40 40 41 42 -44 44 -46 49 -48 48 -50 56 -52 -53 -54 -55 -56 -57 -58 -59 -60 -61 -62 -63
leaf_value=-0.0028737906001340282 0.00103893941444032 -0.0020313295468673575 0.0081013105216501541 0.0023885368855370102 -0.0026228877065386474 -0.0022940696092542939 0.0025424422581380394 0.005029527299508561 0.0052719612683163565 -0.0010825845178189875 0.0025731621875753848 0.0019622767641757975 -0.003155241845712321 0.00016338816080378626 0.00010594445100476968 0.0090962941968180649 -0.0022032861049725463 -0.00094807664609165192 0.0012840693255492806 -0.00085171349233850301 -0.00055320286798408308 -0.0020413022126129707 0.00078500460521588788 0.0037577770223207818 0.007510208184974082 -0.0029258529405880611 -0.002452666138122925 -1.5892374083377735e-05 -0.0025070136388245078 -0.0010752333639764402 -0.0009650284924001603 -0.0022114944634576742 0.00053843089587205905 0.0044878723129119493 0.0033835994582018338 0.0081770403118086345 -0.0017813158516882185 -0.0026725553195154988 -0.002699086756030462 0.00031964493525968318 -0.0024519436349336563 0.0015085573376768101 -0.001879654450482784 -0.00083201060360960609 7.8842297424806797e-06 0.0016154829282891152 0.0042919825142043455 0.0062016670122481922 0.0098941306620585999 -0.00036117399911280573 0.0035791090617597909 0.0018200850306355691 0.004466031874829632 -0.00040487253319035962 0.00019843383042054741 0.0119569049591734 0.0025850624260383127 0.0019059869145661974 -0.00086081478294632702 0.00087757145962344266 -0.0013268007298850137 0.010505437179247339
leaf_weight=3457 464 459 1427 204 949 134 654 82 1215 320 518 123 305 191 481 685 1591 604 97 768 363 661 191 266 101 271 103 268 773 808 121 1625 93 317 140 413 1030 639 388 157 565 90 366 975 646 242 630 83 199 95 713 336 1526 358 129 1560 85 143 192 1183 112 1276
leaf_count=3457 464 459 1427 204 949 134 654 82 1215 320 518 123 305 191 481 685 1591 604 97 768 363 661 191 266 101 271 103 268 773 808 121 1625 93 317 140 413 1030 639 388 157 565 90 366 975 646 242 630 83 199 95 713 336 1526 358 129 1560 85 143 192 1183 112 1276
internal_value=-0.000475387 -0.0145552 0.0174013 0.00965736 -0.0190801 -0.00467285 0.004157 0.0223169 0.0199449 -0.00110311 0.00146179 0.0178069 -0.0159685 0.0167112 0.00298845 0.0243626 -0.0240535 -0.0143795 0.00745961 -0.00272556 0.00148551 -0.0114481 -0.00896504 0.0160841 0.0133333 -0.0159322 -0.0152339 -0.00733871 -0.0161236 -0.010765 -0.0192396 -0.0171036 -0.00572464 0.0140011 0.00256711 0.0261234 -0.0106422 -0.0151057 -0.013859 -0.0126486 -0.00956743 -0.0113601 -0.00669584 -0.00546715 -0.00416153 0.0124286 0.022491 0.0195616 0.0231095 0.0142342 0.0157845 0.01407 0.0151249 -0.000592105 0.00962121 0.0268523 0.00596685 0.00626866 -0.0119266 0.00515315 -0.0204401 0.0248343
internal_weight=34960 19557 15403 5982 13414 6143 3362 9421 5808 4024 2708 4381 8254 2620 2077 909 5160 5559 1113 1595 827 2119 1458 3472 224 3925 3654 371 3283 1267 2695 1746 413 1786 595 3613 1634 2978 2339 1951 1178 1021 456 1947 1621 1469 834 364 282 1135 955 2257 1921 455 395 3249 180 334 326 1664 1703 1689
internal_count=34960 19557 15403 5982 13414 6143 3362 9421 5808 4024 2708 4381 8254 2620 2077 909 5160 5559 1113 1595 827 2119 1458 3472 224 3925 3654 371 3283 1267 2695 1746 413 1786 595 3613 1634 2978 2339 1951 1178 1021 456 1947 1621 1469 834 364 282 1135 955 2257 1921 455 395 3249 180 334 326 1664 1703 1689
is_linear=0
shrinkage=0.03


Tree=13
num_leaves=63
num_cat=0
split_feature=0 0 0 4 7 4 7 4 5 0 0 7 8 8 8 8 0 4 6 0 4 8 0 0 6 0 5 0 5 8 8 0 8 6 8 6 4 5 4 6 8 8 4 8 8 8 8 0 5 0 4 8 4 8 0 0 4 0 6 7 0 0
split_gain=9503.78 1048.9 549.005 284.346 237.777 165.192 133.03 127.044 94.4021 84.5528 82.1908 80.513 79.7728 87.7271 61.3809 69.8439 54.6761 45.2802 40.0202 39.5173 112.258 36.8383 34.6922 32.9525 32.6121 29.8708 43.5742 29.7133 35.6878 28.0976 30.1042 28.023 27.2334 26.4083 25.8058 25.3663 23.5317 23.1944 22.6857 22.4018 21.9628 21.5522 21.9829 20.8756 44.0844 42.716 35.9039 24.1661 23.2795 18.4413 17.5043 17.2329 17.1428 16.7287 16.3405 15.6343 14.5617 14.2759 14.0358 13.6924 13.3081 12.9088
threshold=5.5166666666666666 7.5500000000000007 4.4500000000000011 -1.0000000180025095e-35 -0.5 -0.76602222155948896 -0.70710678118654757 -0.25870955172676452 -0.39607976603915696 11.65 6.4500000000000011 1.0000000180025095e-35 -0.85206963063867713 0.39753913293121995 0.7775899462189082 -0.8779519545588893 4.9166666666666679 0.68508682078652439 -0.91597561503675329 11.550000000000002 -1.0000000180025095e-35 0.90149333598846393 6.5500000000000007 3.7500000000000004 0.60355339059327384 10.250000000000002 -1.0000000180025095e-35 0.75000000000000011 -1.0000000180025095e-35 -0.99052327954040364 -0.99762106698677366 6.4500000000000011 -0.72660079619119988 0.25881904510252091 -0.90880922144842613 0.60355339059327384 0.31440161635554514 0.31440161635554525 -0.64279380484326964 -0.91597561503675329 -0.86095304316285715 0.33346569090932193 -0.36903988301957819 0.59125596962661842 0.53436760985011655 0.74409704927257569 0.85206963063867758 2.6166666666666671 -0.31440161635554514 9.6500000000000004 0.89212075533235657 -0.34156760613242332 0.89212075533235657 -0.40542197401079733 8.4500000000000011 9.4500000000000011 0.31440161635554514 6.1500000000000012 -0.25881904510252113 0.60355339059327384 4.8500000000000005 4.9166666666666679
decision_type=2 2 2 2 2 2 2 2 2 2 2 2 2 2 2 2 2 2 2 2 2 2 2 2 2 2 2 2 2 2 2 2 2 2 2 2 2 2 2 2 2 2 2 2 2 2 2 2 2 2 2 2 2 2 2 2 2 2 2 2 2 2
left_child=2 3 12 8 21 9 14 -4 57 32 18 17 27 23 15 36 37 24 -6 20 41 22 -5 -14 -9 26 -17 -1 29 30 -29 -10 -3 55 56 40 -7 -13 -28 -12 -24 42 49 44 48 -45 -47 -46 -15 -8 -20 -52 53 -18 -22 -16 -30 -2 -34 -58 -26 -19
right_child=1 5 7 4 10 6 19 11 31 -11 39 16 13 43 33 25 52 61 50 -21 54 -23 35 -25 60 -27 38 28 34 -31 -32 -33 58 -35 -36 -37 -38 -39 -40 -41 -42 -43 -44 45 47 46 -48 -49 -50 -51 51 -53 -54 -55 -56 -57 59 -59 -60 -61 -62 -63
leaf_value=-0.0030819376988660942 0.00022675072352875108 0.0060938921469289326 -0.0021275388507769211 -0.00015476404880594317 2.6988856517079772e-05 -0.00035122065542422533 -0.00015653731218381623 -0.0020434413347949899 -0.0015599138764682719 0.0075881858188270408 0.002119086939835793 -0.00094608720382477354 -0.0027776454824788607 -0.0027131398305072921 -0.00065876600456742042 0.0061001073803161662 -1.3170860391203131e-05 -0.0010742169792070145 0.0016891573859755642 0.011023138214746516 0.0055359921332226031 -0.001011785344885855 -0.00046773117459889338 -0.0021174313111750652 -0.0016349275367197001 0.0097207881326292437 -0.00019704757148925194 -0.0027389512450729193 -0.0024351948487717971 -0.0023609770157300542 0.00026754053487714657 -0.00044611083670026945 0.0018099225995681246 0.0070689238106120137 -0.0008459285104870564 0.0034967343924825257 0.0046444466798146273 -0.00021968431209109143 0.0037459518418484078 0.0037388631728901378 0.0013667900779375376 0.0045651861036683965 0.0037554901036699539 -0.0027487182638692336 0.0014290338802248239 -0.0016158084689300415 -0.0023811645030450937 -0.0020664551234590481 -0.0020640322702592685 0.0028213713037133262 0.0021148709633378969 -0.00021916953987008881 -0.00044392026762118383 0.00092870180057189468 0.0093186994930151822 0.0037814454840730321 -0.0013557226943134021 0.0024700359338201347 0.00017699214556259334 -0.0022861985719175612 8.9165945140745606e-06 -0.00012622958223750119
leaf_weight=160 100 117 1059 871 308 159 137 771 684 568 328 555 3873 306 170 396 281 400 1011 2282 1067 307 136 1449 97 708 82 145 420 678 114 801 346 186 369 80 136 524 437 1209 516 662 577 811 106 648 2028 153 414 173 178 149 318 531 1622 194 609 167 447 321 165 409
leaf_count=160 100 117 1059 871 308 159 137 771 684 568 328 555 3873 306 170 396 281 400 1011 2282 1067 307 136 1449 97 708 82 145 420 678 114 801 346 186 369 80 136 524 437 1209 516 662 577 811 106 648 2028 153 414 173 178 149 318 531 1622 194 609 167 447 321 165 409
internal_value=-0.000667219 0.0151404 -0.0161152 0.00600789 0.00959364 0.0211121 0.022641 -0.00781843 -0.00441529 0.0118053 0.0146137 -0.00539733 -0.019478 -0.02076 0.016695 0.0192288 -0.00153394 -0.0100271 0.00994536 0.0248888 0.0231564 0.00122449 0.00304863 -0.0233665 -0.0141876 0.0216687 0.0180459 -0.015016 -0.0142492 -0.0189659 -0.0105 -0.00736878 0.00612514 0.00784029 -0.0116686 0.00785812 0.00577703 -0.00636111 0.0122885 0.0196034 0.00588055 0.0167032 0.0136149 -0.0176494 -0.0137449 -0.0187414 -0.0168995 -0.00311538 -0.0175589 0.00713826 0.0121882 0.00612805 0.00307692 0.00538745 0.0268662 0.00312329 -0.0135899 0.0119776 0.00411839 -0.0114715 -0.00501901 -0.0047037
internal_weight=35025 17311 17714 6845 5093 10466 8988 5110 1752 1478 3183 4051 12604 9788 2468 1918 2209 1842 1646 6520 4238 1910 1603 5322 1033 1623 915 2816 2656 937 259 1485 910 550 1719 732 295 1079 519 1537 652 1549 887 4466 979 3487 2676 259 720 310 1338 327 1130 812 2689 364 1350 267 793 930 262 809
internal_count=35025 17311 17714 6845 5093 10466 8988 5110 1752 1478 3183 4051 12604 9788 2468 1918 2209 1842 1646 6520 4238 1910 1603 5322 1033 1623 915 2816 2656 937 259 1485 910 550 1719 732 295 1079 519 1537 652 1549 887 4466 979 3487 2676 259 720 310 1338 327 1130 812 2689 364 1350 267 793 930 262 809
is_linear=0
shrinkage=0.03


Tree=14
num_leaves=63
num_cat=0
split_feature=0 0 0 4 9 7 0 4 4 7 4 5 5 6 7 5 9 7 5 0 0 5 9 0 0 0 4 6 9 4 7 0 9 9 4 7 4 5 9 6 0 9 4 0 6 0 4 9 9 5 9 9 9 0 4 5 9 4 6 0 9 9
split_gain=9255.7 1029.3 520.238 222.049 203.165 190.104 180.837 207.511 134.043 93.1776 92.187 62.6869 58.6314 57.8678 55.7801 54.9114 46.7752 45.4578 43.2381 41.4921 36.1314 33.7179 32.097 31.8829 31.3741 29.0134 28.595 26.9194 26.427 24.3621 35.3435 31.1159 23.3408 39.8769 21.9692 21.6731 21.2715 20.0641 18.9528 18.4699 18.2001 18.3374 17.66 56.0808 17.6095 17.2378 16.4089 16.275 16.0699 15.6259 15.5231 59.3069 21.6391 20.4398 13.0608 19.2928 20.1771 12.8035 15.3515 11.9521 11.8067 16.8189
threshold=5.5166666666666666 7.1500000000000012 4.4500000000000011 -1.0000000180025095e-35 -0.60505606964884906 -0.5 9.0500000000000025 -1.0000000180025095e-35 -1.0000000180025095e-35 -0.70710678118654757 -0.76602222155948896 -1.0000000180025095e-35 -0.39607976603915696 -0.91597561503675329 -0.78656609248549325 -0.39607976603915696 0.63207999751838673 1.0000000180025095e-35 -1.0000000180025095e-35 12.350000000000003 4.9166666666666679 0.10162432843644416 -0.70250145193066593 6.2500000000000009 3.3166666666666669 6.5500000000000007 0.31440161635554514 0.60355339059327384 0.83824865459667641 0.31440161635554514 -0.5 5.2500000000000009 -0.17552498857989965 -0.098820138732871751 0.89212075533235657 -0.12940952255126037 -0.64279380484326964 0.9698500000000001 -0.8140159405215136 0.25881904510252091 3.8166666666666669 0.65837719692149965 -1.0000000180025095e-35 11.65 -0.37940952255126059 10.65 0.89212075533235657 -0.8520459593969173 0.96897393274411414 -1.0000000180025095e-35 0.94968266440323645 0.82392300575755406 0.87377473702374975 0.53333333333333344 0.31440161635554514 -0.76602222155948885 -0.92910699518418138 -0.64279380484326964 -0.60355339059327362 5.1333333333333337 0.41326329957804331 0.64532420896511999
decision_type=2 2 2 2 2 2 2 2 2 2 2 2 2 2 2 2 2 2 2 2 2 2 2 2 2 2 2 2 2 2 2 2 2 2 2 2 2 2 2 2 2 2 2 2 2 2 2 2 2 2 2 2 2 2 2 2 2 2 2 2 2 2
left_child=2 3 4 12 24 27 7 15 -4 22 19 17 -2 25 16 -3 18 59 -12 44 -19 32 -9 34 -1 38 50 37 -24 30 -13 -31 -6 -34 -15 47 48 54 -7 -20 41 -28 43 57 -8 -18 -22 -14 -17 -26 51 53 -53 -23 -5 56 -56 58 -16 -10 -55 -62
right_child=1 6 8 5 21 13 10 9 11 -11 14 29 35 23 42 36 45 20 39 -21 46 26 28 -25 49 -27 40 -29 -30 31 -32 -33 33 -35 -36 -37 -38 -39 -40 -41 -42 -43 -44 -45 -46 -47 -48 -49 -50 -51 -52 52 -54 60 55 -57 -58 -59 -60 -61 61 -63
leaf_value=-0.0027616345503034337 0.0010163053320861525 0.0039912233073912838 -0.0019944726952710696 0.0031152815784586479 -0.0025111757700485558 -0.0013408581167431138 0.0036100502775654681 0.0050185362257425771 -0.0018035415281455419 0.0054553049347881985 0.010124301478542371 -0.0018878824568888712 -4.8311924033670461e-05 0.0016384826643962977 0.0045596604818275025 0.00049043293887515271 0.0050087719669578545 -0.00090769502151341239 0.00032131498887555149 0.0085341846529340248 0.00037966187795549709 -0.002986365536555592 0.0011367654063147818 0.002941546272869753 -0.0021973556522900803 0.0022058305713483759 -0.0019948170188978016 0.0019703181478744982 0.004616593611004644 -0.00041830012058845841 -8.0493877954599256e-05 0.00096722034698093311 -0.00050808951204295847 -0.002235875963797014 0.00066585438823957559 -0.00041715439661700799 0.001313348264465772 -0.0011347372519932839 0.00051535073405749028 0.0068434928559822795 -0.0010687275209381752 -0.002306940909596334 0.010616881850262378 0.010096997741319816 0.0016234449243601357 0.0095978188379073209 -0.0009080329102678932 -0.0019070606067684416 -0.0017211518398362554 -0.0021616070775508094 -0.0029457397323133802 0.0034261532359008994 -0.0013215781904016002 -0.0024273703663695747 0.0018876509238653966 0.00027275980973268441 -0.0016675950863815413 0.0054474602954978886 0.0018459236480633018 -0.0013022983531469669 -0.00075987192558893174 -0.0026378319647097975
leaf_weight=2907 232 196 1088 85 1149 102 249 288 537 2122 189 160 96 799 156 627 174 519 227 443 356 265 573 1096 1067 163 1394 196 122 1343 242 413 151 2004 255 509 611 279 263 144 819 537 1653 1941 356 480 148 570 105 769 115 86 95 964 88 774 233 669 219 337 149 123
leaf_count=2907 232 196 1088 85 1149 102 249 288 537 2122 189 160 96 799 156 627 174 519 227 443 356 265 573 1096 1067 163 1394 196 122 1343 242 413 151 2004 255 509 611 279 263 144 819 537 1653 1941 356 480 148 570 105 769 115 86 95 964 88 774 233 669 219 337 149 123
internal_value=-0.000662155 0.0149609 -0.0158862 0.0045776 -0.0191695 0.00793955 0.020123 0.0155393 -0.00784409 0.0200032 0.0232053 -0.00533284 -0.00577415 0.0128779 0.0246745 0.00652597 0.0189136 -0.0093098 0.0125134 0.0149857 -0.00500977 -0.0162035 0.0123476 0.0150628 -0.0240746 0.00396975 -0.0145185 -5.43478e-05 0.00883621 -0.00183418 -0.00848635 -0.000307342 -0.0185174 -0.0166558 0.0113175 -0.0084949 0.00435268 -0.0014589 -0.000737705 0.00653226 -0.0125845 -0.014177 0.0261781 0.0247656 0.00985149 0.0243664 0.000712871 -0.012054 0.000900409 -0.020969 -0.0174694 -0.0167201 -0.000494505 -0.0186751 0.000254022 -0.000629562 -0.00680124 0.0191196 0.0146011 -0.0143314 -0.0170251 -0.0114286
internal_weight=35021 17284 17737 5740 12594 4333 11544 4644 5143 3105 6900 4055 1407 2678 5852 1539 1214 1897 560 1048 1023 7851 983 2150 4743 528 4547 1655 695 2158 402 1756 3304 2155 1054 1175 1343 1459 365 371 2750 1931 4638 2985 605 654 504 666 732 1836 1797 1682 181 1501 1180 1095 321 1044 375 874 1236 272
internal_count=35021 17284 17737 5740 12594 4333 11544 4644 5143 3105 6900 4055 1407 2678 5852 1539 1214 1897 560 1048 1023 7851 983 2150 4743 528 4547 1655 695 2158 402 1756 3304 2155 1054 1175 1343 1459 365 371 2750 1931 4638 2985 605 654 504 666 732 1836 1797 1682 181 1501 1180 1095 321 1044 375 874 1236 272
is_linear=0
shrinkage=0.03


Tree=15
num_leaves=63
num_cat=0
split_feature=0 1 0 0 1 4 7 4 7 7 7 1 1 1 0 1 4 0 0 8 7 7 1 8 0 5 1 8 1 8 1 1 5 4 0 1 0 4 1 0 1 5 1 5 4 5 1 5 0 4 4 7 0 0 0 7 0 8 8 1 0 0
split_gain=9072.69 1756.93 845.89 499.675 258.003 214.385 197.333 159.473 129.279 123.78 118.395 102.854 100.64 85.1488 77.2145 75.9088 68.8218 72.9409 66.421 55.5036 52.2175 45.183 42.5471 40.9042 47.7593 44.5114 36.395 35.4607 34.9408 33.8874 33.7681 32.3925 31.1472 30.4882 29.2641 27.2599 27.1321 29.5918 26.8887 26.0889 25.0891 24.9647 24.2058 23.9796 22.9164 22.6418 22.162 21.4785 21.6184 20.6019 20.3252 18.7113 18.6215 18.0512 17.6826 17.5862 16.2432 15.4136 14.7797 14.7373 14.5583 14.5092
threshold=5.7500000000000009 3.2500000000000004 7.5500000000000007 4.3500000000000005 4.3500000000000005 -1.0000000180025095e-35 -0.5 -0.76602222155948896 -0.70710678118654757 -0.5 -0.5 2.3500000000000001 1.8500000000000003 3.9500000000000006 11.250000000000002 4.5500000000000007 -1.0000000180025095e-35 4.8500000000000005 6.2500000000000009 0.86958133671945947 -0.70710678118654757 -0.5 3.7500000000000004 -0.81403855522663837 10.250000000000002 0.31440161635554525 2.8500000000000001 -0.99052327954040364 3.2500000000000004 0.33346569090932193 1.9166666666666667 2.5500000000000003 0.10162432843644416 -1.0000000180025095e-35 3.3166666666666669 4.3500000000000005 8.9500000000000011 -1.0000000180025095e-35 2.5500000000000003 10.950000000000001 2.8500000000000001 0.64279380484326976 3.0500000000000003 0.7466868207865246 0.68508682078652439 -0.24471745792248012 2.1250000000000004 -0.39607976603915696 7.0166666666666675 0.64279380484326987 0.68508682078652439 -0.78656609248549325 4.9166666666666679 2.7500000000000004 5.1333333333333337 1.0000000180025095e-35 9.4500000000000011 -0.86958133671945925 0.51973899919070166 3.8500000000000001 3.6500000000000008 13.950000000000001
decision_type=2 2 2 2 2 2 2 2 2 2 2 2 2 2 2 2 2 2 2 2 2 2 2 2 2 2 2 2 2 2 2 2 2 2 2 2 2 2 2 2 2 2 2 2 2 2 2 2 2 2 2 2 2 2 2 2 2 2 2 2 2 2
left_child=1 3 5 11 10 13 15 14 19 44 22 34 33 47 26 40 -11 30 38 23 50 -13 49 43 25 -25 -4 -12 36 -17 41 -27 54 39 -1 55 37 -14 -8 -10 -7 -18 60 -9 -5 -22 -19 -2 -49 -3 53 -15 59 -6 58 -20 -21 -24 -29 -34 -23 -16
right_child=2 4 7 9 20 6 18 8 12 16 27 21 28 51 61 29 17 46 35 56 45 42 57 24 -26 31 -28 32 -30 -31 -32 -33 52 -35 -36 -37 -38 -39 -40 -41 -42 -43 -44 -45 -46 -47 -48 48 -50 -51 -52 -53 -54 -55 -56 -57 -58 -59 -60 -61 -62 -63
leaf_value=-0.002813349950490247 0.00053196212391049067 -0.0019357119773821515 -0.00013351387005737332 -0.0023949632646099385 0.0030560372169566464 -0.00070696043298841614 0.00038216601459015658 0.0045000901077461445 0.0010110888551499888 -0.0018867943710701167 0.0015613923518646396 -0.0025784848437543145 0.0016691426607347447 0.0002770612061442823 0.004148099180380521 0.0048712567972234635 -0.0018184943004347764 -0.00060849956604072978 0.001516738725815505 4.5138408127403381e-05 0.0019029698307003991 -0.0020344738811037179 0.00068310202991386402 0.0054874059333515088 0.0091017953273704825 -0.00058392439948939555 0.0027217756626683352 -0.0010955478088196591 0.0093320890160206865 0.00051598769340862292 -0.00084603609867581946 0.0035356710400591827 -0.00016646124162030595 0.0045159527661278722 -0.0023028742529316404 0.0055350608656927576 0.0076654652797485878 0.0047193488041270774 0.0020313213306863563 0.0044841520661860574 0.0002342229425154038 -0.0013649205362720068 -0.00098305511106810571 0.00069274880609740516 -0.0015073546342559468 0.0046935195741105414 0.00013036634454479057 -0.0012266850882117347 -8.7873123700398791e-05 -0.0010402077125814635 0.0030149093392212349 0.0020783533701090782 0.0017185407150283342 -0.00024127979275330487 0.00067635746721345861 0.0027657593981486252 0.0052913208837536904 -0.00083978753907269527 7.8603025051718613e-05 0.001373808437158039 -0.0011704978525900864 0.0094407834646747894
leaf_weight=4254 141 595 408 904 81 490 400 199 335 551 115 1088 213 119 333 256 361 864 393 205 370 890 179 422 752 95 395 381 3405 152 550 430 391 257 2522 391 1606 532 522 219 814 233 315 189 276 486 715 854 307 269 164 197 180 324 161 1089 202 469 197 204 425 274
leaf_count=4254 141 595 408 904 81 490 400 199 335 551 115 1088 213 119 333 256 361 864 393 205 370 890 179 422 752 95 395 381 3405 152 550 430 391 257 2522 391 1606 532 522 219 814 233 315 189 276 486 715 854 307 269 164 197 180 324 161 1089 202 469 197 204 425 274
internal_value=-0.00066304 -0.0151013 0.0154438 -0.0203886 0.00105102 0.00658668 0.00994898 0.0206236 0.0220845 -0.0120943 -0.00375239 -0.024278 0.0242951 -0.00277949 0.0112261 0.00192644 -0.00908702 -0.00712555 0.0148605 0.0162565 0.0116339 -0.0193306 -0.00979511 0.0182328 0.0202412 0.0157278 0.00511194 0.0018589 0.0256905 0.0132029 -0.0128908 0.00986692 0.000633663 0.0143719 -0.0262594 0.0181057 0.0228444 0.0180563 0.00825569 0.0103784 -0.0016092 -0.0178487 -0.0161496 0.00940874 -0.0204234 0.0163127 -0.00294304 -0.00617038 -0.00751291 -0.0141503 0.00457895 0.0111672 0.00483247 0.000960591 -0.00377027 0.0162239 0.00610294 -0.00397535 -0.00621762 0.0022651 -0.0179407 0.0192928
internal_weight=35110 18514 16596 13948 4566 6125 4507 10471 9061 4454 3141 9494 6567 1618 1410 1712 3274 2723 2795 2494 1425 2718 1512 2087 1699 947 803 1629 5756 408 1144 525 1514 811 6776 1873 2351 745 922 554 1304 594 1630 388 1180 856 1579 1302 1161 864 569 316 775 405 739 1482 407 648 578 595 1315 607
internal_count=35110 18514 16596 13948 4566 6125 4507 10471 9061 4454 3141 9494 6567 1618 1410 1712 3274 2723 2795 2494 1425 2718 1512 2087 1699 947 803 1629 5756 408 1144 525 1514 811 6776 1873 2351 745 922 554 1304 594 1630 388 1180 856 1579 1302 1161 864 569 316 775 405 739 1482 407 648 578 595 1315 607
is_linear=0
shrinkage=0.03


Tree=16
num_leaves=63
num_cat=0
split_feature=0 1 0 0 4 7 1 4 7 1 1 7 1 1 7 7 0 1 4 9 1 1 0 9 1 0 9 4 7 1 0 8 1 0 4 0 0 0 1 8 9 8 0 9 7 1 4 4 0 1 9 8 7 4 8 4 8 7 9 7 0 1
split_gain=8774.41 1688.01 841.535 545.419 254.303 222.467 215.745 159.371 116.798 109.09 108.79 103.274 98.4074 97.7335 83.0714 81.3444 80.3059 79.2294 62.467 52.9655 51.4333 49.6969 48.4658 47.1017 45.6863 40.5697 39.6477 36.8218 35.8302 35.211 33.425 32.4943 27.9985 25.211 24.4828 31.5611 23.9522 23.594 22.5226 22.3812 21.6463 21.105 20.0354 19.4068 19.3338 18.7132 18.6259 18.2982 34.522 18.236 17.4245 30.6011 17.1967 17.1178 16.481 16.4203 15.6925 18.3753 15.6761 14.9639 14.5719 14.3018
threshold=5.7500000000000009 3.2500000000000004 7.9500000000000011 4.4500000000000011 -1.0000000180025095e-35 -0.5 3.9500000000000006 -0.76602222155948896 -0.5 2.5500000000000003 4.1500000000000012 -0.70710678118654757 1.8500000000000003 3.7500000000000004 -0.5 -0.5 6.5500000000000007 2.8500000000000001 -1.0000000180025095e-35 0.63207999751838673 1.5250000000000001 2.8500000000000001 3.6500000000000008 -0.51235243343851777 4.1500000000000012 6.6500000000000012 -0.67758968959607091 0.68508682078652439 1.0000000180025095e-35 4.8500000000000005 5.2500000000000009 0.93535928755917841 5.5500000000000007 13.050000000000002 -1.0000000180025095e-35 13.550000000000002 9.5500000000000025 5.4500000000000011 3.3500000000000001 -0.99052327954040364 0.34157076916785584 -0.19244979981841004 4.9166666666666679 0.88999460902669758 -0.78656609248549325 1.2250000000000003 0.68508682078652439 -0.36903988301957819 13.350000000000003 4.8500000000000005 0.80898702767051955 0.45972848220565493 -0.9159756150367534 0.68508682078652439 0.15005400879207817 -0.36903988301957819 0.53436760985011655 -0.37940952255126015 -0.45205545877835862 1.0000000180025095e-35 9.9500000000000011 5.1500000000000012
decision_type=2 2 2 2 2 2 2 2 2 2 2 2 2 2 2 2 2 2 2 2 2 2 2 2 2 2 2 2 2 2 2 2 2 2 2 2 2 2 2 2 2 2 2 2 2 2 2 2 2 2 2 2 2 2 2 2 2 2 2 2 2 2
left_child=1 3 4 9 10 13 14 17 53 22 25 19 34 43 27 26 24 33 -10 23 30 60 50 54 -7 -2 61 40 46 -17 -20 32 -15 41 35 55 -19 -22 47 -16 -3 -4 -41 -6 -12 -27 -11 48 -14 -28 -1 -52 -25 -5 -9 -13 -38 -58 -31 -18 -21 -8
right_child=2 6 7 8 5 16 15 11 18 28 44 12 38 31 39 29 59 36 20 21 37 -23 -24 52 -26 45 49 -29 -30 58 -32 -33 -34 -35 -36 -37 56 -39 -40 42 -42 -43 -44 -45 -46 -47 -48 -49 -50 -51 51 -53 -54 -55 -56 -57 57 -59 -60 -61 -62 -63
leaf_value=-0.0026847415833734642 -0.0013130317192889007 -0.0018572605732155108 0.0016616391423076859 -0.0022375554776699279 -0.00047975334497794424 0.0010847741086322709 -0.00095603937208837671 0.0075099806241010663 -0.0018099886960523787 -0.0024952850300419905 0.0011774968216566241 0.00022106887908320439 0.0021738047099713401 0.001698063587300547 0.0010802206086735428 0.001546069924288247 0.0024944037893605904 0.0020373775081625202 -0.0015985528577636165 -0.00012636775617307609 -0.00046463452076907441 0.0080785945229614239 -0.0020668640212990305 0.0016853319065550793 0.0045654220147874954 -0.001677929686730322 0.00054029268489451355 -0.00031919006901928379 -0.0013338445904883271 0.0024174770124824013 -6.9604011540698037e-05 -0.00068162820711619831 0.0053425073628594784 0.0047190869904211955 0.0047718910463754828 0.0059445624624100673 0.0081623716712758126 0.00041490085725921847 0.0095264174030183675 -0.00043361489593812916 -0.0010033878119927045 -0.00054657692718499014 0.00053427462717115176 0.0013405412938598195 0.0027870445045945708 9.4525407143500331e-05 -0.0015762113347205767 0.0070753534977197026 0.007867718553995217 0.0026227653870973646 -0.00263532585386531 -0.0013384264184764013 0.0049383432718213245 -0.0014934641829052748 0.0035151045525110805 0.0019994983142820294 0.0010662432563398321 0.0088156980786956978 0.0055295300893580691 0.0040529422398435967 0.0048939843382855355 0.00053872897100712815
leaf_weight=5036 699 631 173 825 953 1141 225 303 494 981 124 181 279 585 82 688 451 180 578 90 1374 789 2166 383 258 110 524 282 891 121 222 122 187 88 188 94 390 334 2982 836 186 301 282 171 194 799 323 1810 182 269 390 96 391 264 132 252 105 112 303 1339 86 80
leaf_count=5036 699 631 173 825 953 1141 225 303 494 981 124 181 279 585 82 688 451 180 578 90 1374 789 2166 383 258 110 524 282 891 121 222 122 187 88 188 94 390 334 2982 836 186 301 282 171 194 799 323 1810 182 269 390 96 391 264 132 252 105 112 303 1339 86 80
internal_value=-0.000612681 -0.0148361 0.0152012 -0.0199857 0.00741379 0.0108583 0.00112417 0.0210525 -0.0107698 -0.0237991 -0.00189933 0.0226354 0.0246775 0.00306092 -0.0053087 0.00781547 0.01579 0.0114889 -0.00771229 0.0170207 -0.00578717 0.0222671 -0.0254858 0.0128182 0.0103929 -0.00507147 0.00202002 -0.0112636 -0.0178825 0.013531 -0.0120599 0.0104581 0.0127296 0.00287744 0.0142039 0.0108523 0.0176269 -0.00284377 0.0261001 0.000149875 -0.0144866 0.000126316 -0.000965147 -0.00282667 0.0141066 -0.00089011 -0.0210575 0.0238072 0.0183766 0.00555416 -0.0269853 -0.0214374 0.00836129 -0.0191835 0.020711 0.00739631 0.020477 0.0138991 0.0203294 0.02 0.00779661 -0.00715686
internal_weight=35107 18483 16624 13974 7133 5207 4509 9491 4091 9883 1926 8142 5968 2018 2299 2210 3189 1349 3002 2174 2508 965 7688 1209 1399 1608 1098 1099 2195 1112 800 894 772 562 715 527 787 1708 5253 1200 817 474 1118 1124 318 909 1304 2271 461 793 5522 486 774 1089 435 433 607 217 424 1790 176 305
internal_count=35107 18483 16624 13974 7133 5207 4509 9491 4091 9883 1926 8142 5968 2018 2299 2210 3189 1349 3002 2174 2508 965 7688 1209 1399 1608 1098 1099 2195 1112 800 894 772 562 715 527 787 1708 5253 1200 817 474 1118 1124 318 909 1304 2271 461 793 5522 486 774 1089 435 433 607 217 424 1790 176 305
is_linear=0
shrinkage=0.03


Tree=17
num_leaves=63
num_cat=0
split_feature=1 1 1 7 7 5 7 5 2 2 1 8 1 4 5 1 8 8 5 6 2 6 6 1 1 5 1 6 7 2 5 8 8 7 1 6 5 8 5 4 1 1 8 1 7 5 6 4 4 4 8 6 6 8 7 8 5 4 5 1 4 7
split_gain=4598.62 809.587 615.325 400.146 304.335 292.685 228.907 138.509 119.441 102.658 76.844 68.3016 76.5628 64.2222 59.1225 56.619 53.5475 72.539 51.8225 51.2481 47.3433 46.245 45.3332 43.8487 41.3799 36.5691 36.3776 35.613 35.4056 35 31.9057 31.6228 31.5209 30.5839 29.3607 28.4962 28.2226 27.9846 27.1263 25.1143 24.4326 24.1999 36.7042 22.7088 21.8543 23.472 21.3306 21.1719 22.408 21.0453 20.6329 19.8349 19.5532 18.2931 17.7255 17.6997 17.2366 16.8871 16.6897 16.6117 16.4862 16.2807
